################################################################################
# Neural network connection values (weights and biases).
################################################################################
# Col  Name       Description
################################################################################
# 1    connection Neural network connection value.
# 2    t          Connection type (a = weight, b = bias).
# 3    index      Index enumerating weights.
# 4    l_s        Starting point layer (end point layer for biases).
# 5    n_s        Starting point neuron in starting layer (end point neuron for biases).
# 6    l_e        End point layer.
# 7    n_e        End point neuron in end layer.
################################################################################
#                      1 2         3     4     5     6     7
#             connection t     index   l_s   n_s   l_e   n_e
############################################################
 -3.9315919427798335E-01 a         1     0     1     1     1
 -5.1564192365845885E-01 a         2     0     1     1     2
 -3.1951587608720716E-01 a         3     0     1     1     3
  1.8532676204923565E-01 a         4     0     1     1     4
 -5.8390323563123525E-01 a         5     0     1     1     5
 -7.0591958856295045E-02 a         6     0     1     1     6
  2.7912098928694151E-01 a         7     0     1     1     7
 -1.5507519866290786E-01 a         8     0     1     1     8
 -5.1828961342998126E-01 a         9     0     1     1     9
 -6.0029591216190248E-01 a        10     0     1     1    10
 -2.5038429486610725E-01 a        11     0     1     1    11
  1.8699798494480888E-01 a        12     0     1     1    12
 -1.4756671590871240E+00 a        13     0     1     1    13
 -6.5986362882515537E-01 a        14     0     1     1    14
 -4.7546050043479526E-01 a        15     0     1     1    15
  1.0692318427341294E-01 a        16     0     1     1    16
 -3.0275210909557337E-01 a        17     0     1     1    17
  9.6861932512366555E-01 a        18     0     1     1    18
 -2.2097011933324591E-02 a        19     0     1     1    19
 -3.9510458554221507E-02 a        20     0     1     1    20
 -2.0868351123596618E-01 a        21     0     1     1    21
 -7.9371229356150685E-01 a        22     0     1     1    22
 -4.2011317276736571E-01 a        23     0     1     1    23
  6.7048174805977079E-01 a        24     0     1     1    24
  7.3851268427306327E-01 a        25     0     2     1     1
  2.7896050063467021E-01 a        26     0     2     1     2
 -3.2513801604924591E-01 a        27     0     2     1     3
  1.6972328235441064E-01 a        28     0     2     1     4
 -5.0050602085025864E-01 a        29     0     2     1     5
 -9.1269524330144836E-01 a        30     0     2     1     6
  1.2735501118150132E+00 a        31     0     2     1     7
 -1.1437201933543506E+00 a        32     0     2     1     8
 -3.0222144028950448E-01 a        33     0     2     1     9
  2.2611354206924953E-02 a        34     0     2     1    10
  6.2215635689725468E-01 a        35     0     2     1    11
 -2.8952584283609523E-01 a        36     0     2     1    12
 -4.6529898314518453E-01 a        37     0     2     1    13
  2.2371295693799828E-01 a        38     0     2     1    14
 -6.5603441112025496E-01 a        39     0     2     1    15
 -1.2948294869579288E-01 a        40     0     2     1    16
  4.3431927821795691E-01 a        41     0     2     1    17
  2.3968197439029510E+00 a        42     0     2     1    18
  9.7354807537311350E-01 a        43     0     2     1    19
  1.8897015739949792E-02 a        44     0     2     1    20
  6.2132199738475592E-02 a        45     0     2     1    21
 -1.3581439956633989E+00 a        46     0     2     1    22
 -3.4359309723437070E-01 a        47     0     2     1    23
  7.5489161326735096E-02 a        48     0     2     1    24
  2.0445853611440715E-01 a        49     0     3     1     1
 -2.3347945869911756E-02 a        50     0     3     1     2
 -1.7508745343242541E-01 a        51     0     3     1     3
 -3.1022430236180465E-01 a        52     0     3     1     4
  2.0968104049965275E-01 a        53     0     3     1     5
  2.2123349493374914E-01 a        54     0     3     1     6
  7.0077772401618763E-02 a        55     0     3     1     7
  2.6546002507371708E-01 a        56     0     3     1     8
 -1.0506606202650723E-01 a        57     0     3     1     9
 -5.4257340745995947E-02 a        58     0     3     1    10
  1.0898008209247552E-01 a        59     0     3     1    11
 -9.0440477717402601E-02 a        60     0     3     1    12
 -7.8953467353973336E-02 a        61     0     3     1    13
  2.8285008100777587E-01 a        62     0     3     1    14
 -1.1306859092759901E-01 a        63     0     3     1    15
  3.1279707391459943E-01 a        64     0     3     1    16
 -3.5019760427218288E-01 a        65     0     3     1    17
  4.4089315704139342E-01 a        66     0     3     1    18
  2.5942490477767449E-01 a        67     0     3     1    19
  1.9460298496787212E-01 a        68     0     3     1    20
  1.6545945724482866E-01 a        69     0     3     1    21
 -7.3679671984393028E-02 a        70     0     3     1    22
 -1.0478341642883354E-01 a        71     0     3     1    23
  2.2227662192866485E-01 a        72     0     3     1    24
  4.8982595212353165E-03 a        73     0     4     1     1
 -2.7937480197024439E-01 a        74     0     4     1     2
  2.3437671725822420E-01 a        75     0     4     1     3
  9.2352986378829305E-01 a        76     0     4     1     4
 -3.8502003921608652E-01 a        77     0     4     1     5
 -4.8333904943096317E-01 a        78     0     4     1     6
 -4.7980201829111682E-02 a        79     0     4     1     7
  5.3829977536775098E-01 a        80     0     4     1     8
  7.2691934127884517E-01 a        81     0     4     1     9
  7.9950979229830343E-01 a        82     0     4     1    10
  8.1526553416483863E-02 a        83     0     4     1    11
  1.0063166030526263E+00 a        84     0     4     1    12
  5.7329922185221938E-01 a        85     0     4     1    13
  1.3738216549131968E-01 a        86     0     4     1    14
  1.8535703317663746E-01 a        87     0     4     1    15
 -3.4655820758318617E-01 a        88     0     4     1    16
  1.4051544918696982E-01 a        89     0     4     1    17
 -1.0800791625694485E-01 a        90     0     4     1    18
  2.6456641221582766E-01 a        91     0     4     1    19
 -6.3399210077992774E-01 a        92     0     4     1    20
  5.8203086976517764E-02 a        93     0     4     1    21
  4.3417717588074228E-01 a        94     0     4     1    22
 -2.4977897091913401E-01 a        95     0     4     1    23
 -3.0199546094395241E-01 a        96     0     4     1    24
 -5.1143758900325287E-01 a        97     0     5     1     1
  7.2529977219656525E-02 a        98     0     5     1     2
 -1.0223791008811581E-01 a        99     0     5     1     3
  7.8398205860225917E-02 a       100     0     5     1     4
  1.9838407062112473E-01 a       101     0     5     1     5
 -5.3495823889913696E-01 a       102     0     5     1     6
  4.1991845778702702E-01 a       103     0     5     1     7
  5.2087396330899725E-02 a       104     0     5     1     8
  1.0148697672005141E-01 a       105     0     5     1     9
 -1.1898998484846550E-01 a       106     0     5     1    10
 -4.8913009119925593E-01 a       107     0     5     1    11
 -1.7316792003033724E-01 a       108     0     5     1    12
  4.3717093334740975E-01 a       109     0     5     1    13
  4.5852236807744216E-02 a       110     0     5     1    14
  1.8133125106027817E-01 a       111     0     5     1    15
  2.6082294368206541E-02 a       112     0     5     1    16
 -2.0124034600269713E-01 a       113     0     5     1    17
  1.6502830452316858E-01 a       114     0     5     1    18
 -1.5926577668068059E-01 a       115     0     5     1    19
  1.7094441376765959E-01 a       116     0     5     1    20
  4.6557980874674465E-01 a       117     0     5     1    21
  2.9763599556287923E-01 a       118     0     5     1    22
 -1.2065660363033485E-01 a       119     0     5     1    23
 -3.4752273689854556E-02 a       120     0     5     1    24
 -2.6985705604012011E-01 a       121     0     6     1     1
 -3.5785576431871713E-01 a       122     0     6     1     2
 -2.0268604716883909E-01 a       123     0     6     1     3
  2.4571973491110180E-01 a       124     0     6     1     4
 -2.7080259462792300E-01 a       125     0     6     1     5
  1.4820688499823436E-02 a       126     0     6     1     6
  3.2759613585950165E-01 a       127     0     6     1     7
 -5.0995109485585044E-01 a       128     0     6     1     8
 -3.2943743335814979E-01 a       129     0     6     1     9
  1.8692060872420380E-01 a       130     0     6     1    10
 -3.4078167926333236E-01 a       131     0     6     1    11
  2.0500344517206750E-02 a       132     0     6     1    12
 -2.5854745849219990E-01 a       133     0     6     1    13
 -7.0563480276804580E-01 a       134     0     6     1    14
  7.7692058941724720E-02 a       135     0     6     1    15
 -6.1936342019876779E-02 a       136     0     6     1    16
 -4.8904191540060765E-01 a       137     0     6     1    17
  2.4379060434336730E-01 a       138     0     6     1    18
 -6.2669177251371988E-01 a       139     0     6     1    19
  2.0082336577937773E-01 a       140     0     6     1    20
 -5.9428129532141161E-01 a       141     0     6     1    21
  4.9733589699176933E-01 a       142     0     6     1    22
  4.8459371849120692E-01 a       143     0     6     1    23
 -1.9551292979436441E-01 a       144     0     6     1    24
  2.1222961118556899E-01 a       145     0     7     1     1
  6.9170709032786748E-01 a       146     0     7     1     2
 -5.2769540033818141E-01 a       147     0     7     1     3
 -7.5216827626628902E-01 a       148     0     7     1     4
  1.5447939193138346E-01 a       149     0     7     1     5
  6.3001792769864629E-01 a       150     0     7     1     6
  3.5422754904182857E-01 a       151     0     7     1     7
 -6.4565784575368512E-01 a       152     0     7     1     8
 -7.6346430648681107E-01 a       153     0     7     1     9
 -1.0275021504474415E+00 a       154     0     7     1    10
  3.8878542084884998E-01 a       155     0     7     1    11
 -5.2334956844602631E-01 a       156     0     7     1    12
 -5.3517972763691957E-01 a       157     0     7     1    13
  3.6146267444304969E-01 a       158     0     7     1    14
 -6.4532930659271304E-01 a       159     0     7     1    15
  4.2013436833325069E-01 a       160     0     7     1    16
 -4.6487791711856838E-02 a       161     0     7     1    17
  2.8911518414168247E-01 a       162     0     7     1    18
  1.5722157389292610E-01 a       163     0     7     1    19
  5.7824266703306415E-01 a       164     0     7     1    20
 -9.3544305362645652E-01 a       165     0     7     1    21
 -6.8019132577590280E-01 a       166     0     7     1    22
  5.7101296021209436E-01 a       167     0     7     1    23
 -2.1577616343706521E-01 a       168     0     7     1    24
 -6.7614838662934873E-01 a       169     0     8     1     1
 -3.4878254225695043E-01 a       170     0     8     1     2
  7.5000428261150009E-01 a       171     0     8     1     3
 -3.5997563675031430E-01 a       172     0     8     1     4
 -1.7421830070250517E+00 a       173     0     8     1     5
  8.6571432014410843E-01 a       174     0     8     1     6
  4.3444115316782023E-02 a       175     0     8     1     7
  5.0126105907287477E-01 a       176     0     8     1     8
  2.6266078310216479E-01 a       177     0     8     1     9
 -2.0725895986178058E-01 a       178     0     8     1    10
  3.5347325838878646E-01 a       179     0     8     1    11
  2.4990197350134344E-01 a       180     0     8     1    12
 -6.9509101650596028E-01 a       181     0     8     1    13
 -1.7844343096200252E-01 a       182     0     8     1    14
 -7.7571676462604011E-01 a       183     0     8     1    15
  1.3718620798013266E+00 a       184     0     8     1    16
  1.0196796728177742E+00 a       185     0     8     1    17
 -4.9936329167716187E-01 a       186     0     8     1    18
  9.7846901226032035E-01 a       187     0     8     1    19
 -1.5311954822408638E-01 a       188     0     8     1    20
  3.0915631510360786E-01 a       189     0     8     1    21
 -1.5377622446459288E-02 a       190     0     8     1    22
  2.4349316878652394E-01 a       191     0     8     1    23
  4.8674504226278309E-01 a       192     0     8     1    24
 -7.9459663013594606E-01 a       193     0     9     1     1
  1.4175317529513284E-01 a       194     0     9     1     2
  5.3484471575856318E-01 a       195     0     9     1     3
 -7.0175086711829066E-02 a       196     0     9     1     4
  2.8526098776398456E-02 a       197     0     9     1     5
  3.5697030416168435E-01 a       198     0     9     1     6
 -4.8551218551849512E-01 a       199     0     9     1     7
  4.6948281511518153E-01 a       200     0     9     1     8
  3.0794556749593827E-01 a       201     0     9     1     9
  3.5272059750659490E-01 a       202     0     9     1    10
 -2.7993708733966788E-01 a       203     0     9     1    11
  3.4187013379948400E-01 a       204     0     9     1    12
  5.9778013682271543E-02 a       205     0     9     1    13
  1.3462689855746821E-01 a       206     0     9     1    14
  6.7710754507939597E-01 a       207     0     9     1    15
  4.1123470614804941E-01 a       208     0     9     1    16
 -2.2618851323869732E-01 a       209     0     9     1    17
 -6.7682044603273328E-01 a       210     0     9     1    18
 -3.8201555525071118E-01 a       211     0     9     1    19
  4.3330827861993038E-01 a       212     0     9     1    20
  2.3580809263179597E-01 a       213     0     9     1    21
  6.1837928459880391E-02 a       214     0     9     1    22
  2.2611980942373672E-01 a       215     0     9     1    23
  3.5993790626124583E-01 a       216     0     9     1    24
 -7.7358264363992735E-02 a       217     0    10     1     1
 -6.0009501366971536E-02 a       218     0    10     1     2
 -1.5787355875874648E-01 a       219     0    10     1     3
  1.6326214848465867E-01 a       220     0    10     1     4
 -1.6573140272936460E-01 a       221     0    10     1     5
 -4.7884677762527789E-01 a       222     0    10     1     6
  4.2935229181237805E-01 a       223     0    10     1     7
 -1.8813923320425363E-01 a       224     0    10     1     8
 -1.2713929494324927E-01 a       225     0    10     1     9
 -4.8905792877907597E-02 a       226     0    10     1    10
 -3.7358664781689713E-02 a       227     0    10     1    11
 -1.9096081594466544E-01 a       228     0    10     1    12
 -3.3195991394620657E-02 a       229     0    10     1    13
 -3.2127917743564227E-01 a       230     0    10     1    14
 -2.4377161791070429E-01 a       231     0    10     1    15
 -2.7591658768798538E-01 a       232     0    10     1    16
 -4.6722281070156035E-01 a       233     0    10     1    17
 -1.1144951663716608E-01 a       234     0    10     1    18
  1.4467804538495457E-01 a       235     0    10     1    19
  2.9720026689980600E-01 a       236     0    10     1    20
  1.9892518322669542E-01 a       237     0    10     1    21
 -2.4486622449226592E-01 a       238     0    10     1    22
  2.5830325207233495E-01 a       239     0    10     1    23
  6.7468301819405507E-01 a       240     0    10     1    24
 -5.0418666986857374E-01 a       241     0    11     1     1
  1.4679793934587015E-01 a       242     0    11     1     2
  1.6815680875375504E-02 a       243     0    11     1     3
  9.1883618854645771E-02 a       244     0    11     1     4
 -1.3820540900083328E-01 a       245     0    11     1     5
 -5.4887128745070191E-01 a       246     0    11     1     6
  2.2014008604564375E-01 a       247     0    11     1     7
  1.1650582059428639E-01 a       248     0    11     1     8
 -6.7165910091531195E-02 a       249     0    11     1     9
 -6.4255990283191566E-02 a       250     0    11     1    10
 -8.3276561252299861E-02 a       251     0    11     1    11
  6.6275061049749298E-02 a       252     0    11     1    12
  9.1312829628497197E-02 a       253     0    11     1    13
  6.6362002487729360E-02 a       254     0    11     1    14
 -4.1814225603510113E-02 a       255     0    11     1    15
  1.7647277060933098E-02 a       256     0    11     1    16
 -9.5613970575432975E-03 a       257     0    11     1    17
  1.6501540435893303E-01 a       258     0    11     1    18
 -2.0193867862159640E-01 a       259     0    11     1    19
 -7.0770480347832856E-02 a       260     0    11     1    20
  1.5631765287870850E-01 a       261     0    11     1    21
  1.7684208123453386E-02 a       262     0    11     1    22
  2.0110668806404653E-02 a       263     0    11     1    23
 -9.4556022907444373E-02 a       264     0    11     1    24
  1.1506732360046101E-01 a       265     0    12     1     1
  7.4929597734546050E-02 a       266     0    12     1     2
 -5.5482558383056726E-02 a       267     0    12     1     3
 -3.5920898255842071E-01 a       268     0    12     1     4
  2.4478437240975598E-01 a       269     0    12     1     5
  3.9016836597249938E-01 a       270     0    12     1     6
  8.1919593074119765E-02 a       271     0    12     1     7
 -2.7821415429606050E-01 a       272     0    12     1     8
 -2.7138568355287612E-01 a       273     0    12     1     9
 -4.8590006840345680E-02 a       274     0    12     1    10
  1.6604134369175097E-01 a       275     0    12     1    11
 -1.4255581905898632E-01 a       276     0    12     1    12
 -1.2540563352551720E-01 a       277     0    12     1    13
 -5.6894498824501026E-03 a       278     0    12     1    14
 -1.8734408777816408E-01 a       279     0    12     1    15
  1.3834763480145434E-01 a       280     0    12     1    16
 -4.9819915689163337E-02 a       281     0    12     1    17
  2.1986617262769922E-01 a       282     0    12     1    18
 -9.5701219408242416E-02 a       283     0    12     1    19
  2.3299893408974370E-01 a       284     0    12     1    20
 -2.6818489569925064E-01 a       285     0    12     1    21
 -1.9083426348125451E-01 a       286     0    12     1    22
  1.1797758468421332E-01 a       287     0    12     1    23
 -1.5506189498863676E-01 a       288     0    12     1    24
  1.1620567173762566E+00 a       289     0    13     1     1
  1.7373195272634583E-02 a       290     0    13     1     2
 -4.6778114165157209E-01 a       291     0    13     1     3
 -1.4643259891201546E-01 a       292     0    13     1     4
  8.3525476700439361E-01 a       293     0    13     1     5
  7.3335855018850304E-01 a       294     0    13     1     6
 -2.7923716500543044E-01 a       295     0    13     1     7
 -1.6657881896015450E-01 a       296     0    13     1     8
  2.3898137444951593E-02 a       297     0    13     1     9
 -2.3229896561010063E-01 a       298     0    13     1    10
 -1.4745210680051640E-01 a       299     0    13     1    11
 -5.7189284187485356E-01 a       300     0    13     1    12
  2.3635485448832069E-01 a       301     0    13     1    13
 -5.2545779496005396E-01 a       302     0    13     1    14
  2.8138748028157989E-01 a       303     0    13     1    15
  2.6146327858121200E-02 a       304     0    13     1    16
 -6.8529308637905489E-02 a       305     0    13     1    17
 -2.9869388407240438E-01 a       306     0    13     1    18
  2.1432654545804899E-01 a       307     0    13     1    19
 -3.6131813549535853E-02 a       308     0    13     1    20
 -4.8208619932644015E-01 a       309     0    13     1    21
 -2.4050537750121626E-01 a       310     0    13     1    22
 -1.7019189076168097E-02 a       311     0    13     1    23
  4.0002719957161464E-01 a       312     0    13     1    24
  3.0999212956096328E-01 a       313     0    14     1     1
 -7.5521259891787218E-01 a       314     0    14     1     2
  2.1578134398616022E-01 a       315     0    14     1     3
  3.3169431240911518E-01 a       316     0    14     1     4
  6.5720927400049789E-01 a       317     0    14     1     5
  3.5368524019342940E-01 a       318     0    14     1     6
 -8.1611926561484571E-01 a       319     0    14     1     7
  1.2407727992313650E-01 a       320     0    14     1     8
  1.0983619637732643E-01 a       321     0    14     1     9
 -5.3332054322887755E-02 a       322     0    14     1    10
 -2.6281399682113615E-01 a       323     0    14     1    11
  5.8678619270642873E-01 a       324     0    14     1    12
  2.8812939780171748E-01 a       325     0    14     1    13
  1.0151386441015313E+00 a       326     0    14     1    14
  7.6355230089112747E-01 a       327     0    14     1    15
  1.8147796514875153E-01 a       328     0    14     1    16
  6.3754327937686595E-01 a       329     0    14     1    17
 -6.4142811824809076E-02 a       330     0    14     1    18
 -7.5278956781485690E-02 a       331     0    14     1    19
  1.2022179319466373E-02 a       332     0    14     1    20
  5.0867947646078682E-01 a       333     0    14     1    21
  5.5014166743769699E-01 a       334     0    14     1    22
 -6.8178646430800138E-01 a       335     0    14     1    23
  3.3783094173629979E-01 a       336     0    14     1    24
 -2.1236285802305202E-01 a       337     0    15     1     1
 -5.3800112522193189E-01 a       338     0    15     1     2
 -3.7603884305523738E-01 a       339     0    15     1     3
  1.2032277283127957E-01 a       340     0    15     1     4
  1.2487105560158694E-01 a       341     0    15     1     5
  1.1264912264353363E-01 a       342     0    15     1     6
  3.6402574943648208E-01 a       343     0    15     1     7
 -2.1967859001398790E-02 a       344     0    15     1     8
  1.3777188691235071E-01 a       345     0    15     1     9
 -1.8674769369880245E-01 a       346     0    15     1    10
 -7.9282374272996048E-01 a       347     0    15     1    11
  1.7802957514643297E-01 a       348     0    15     1    12
 -4.2870606690602733E-02 a       349     0    15     1    13
 -6.5873820483327530E-02 a       350     0    15     1    14
  3.0053068048069320E-01 a       351     0    15     1    15
  1.6529367871344966E-01 a       352     0    15     1    16
 -5.7408618483027474E-02 a       353     0    15     1    17
 -3.1681321444432631E-01 a       354     0    15     1    18
  1.5171392278927520E-01 a       355     0    15     1    19
  6.0390274255469223E-01 a       356     0    15     1    20
 -3.0772163758419713E-01 a       357     0    15     1    21
 -2.9922509508084827E-01 a       358     0    15     1    22
 -1.5947121063695435E-01 a       359     0    15     1    23
  3.8059454441551677E-01 a       360     0    15     1    24
  7.8371336390669441E-02 a       361     0    16     1     1
 -3.3428573050739943E-02 a       362     0    16     1     2
  1.3852173778566082E-01 a       363     0    16     1     3
 -6.5122588010814525E-02 a       364     0    16     1     4
 -1.6680427045494342E-01 a       365     0    16     1     5
  1.3533680044240569E-02 a       366     0    16     1     6
  1.3943284285669280E-01 a       367     0    16     1     7
  2.8399361718953903E-01 a       368     0    16     1     8
  3.7622295035645084E-02 a       369     0    16     1     9
  1.7853142367128141E-01 a       370     0    16     1    10
  5.4164160093916308E-02 a       371     0    16     1    11
  2.9224871595046437E-01 a       372     0    16     1    12
  7.0408623233024110E-03 a       373     0    16     1    13
  7.2580261901909554E-02 a       374     0    16     1    14
 -1.2989754173999113E-01 a       375     0    16     1    15
 -2.8810471709746294E-01 a       376     0    16     1    16
 -6.6599721805106676E-02 a       377     0    16     1    17
  7.1855861116902633E-02 a       378     0    16     1    18
 -1.2142587766654893E-01 a       379     0    16     1    19
  1.4282425545826152E-01 a       380     0    16     1    20
  3.4832494811969472E-01 a       381     0    16     1    21
  2.5083745517481915E-01 a       382     0    16     1    22
  1.4326495739503015E-01 a       383     0    16     1    23
 -1.1377720970116682E-01 a       384     0    16     1    24
 -1.1140135823627602E-01 a       385     0    17     1     1
  4.4368155098358780E-01 a       386     0    17     1     2
 -9.5690726888243691E-02 a       387     0    17     1     3
 -2.4649513435753118E-01 a       388     0    17     1     4
 -6.7830934139282636E-02 a       389     0    17     1     5
 -1.9361000704527748E-02 a       390     0    17     1     6
 -3.7838495941021943E-01 a       391     0    17     1     7
 -3.2417373843741176E-01 a       392     0    17     1     8
  7.6911026925025172E-01 a       393     0    17     1     9
 -4.1461907829964306E-01 a       394     0    17     1    10
  1.2064277507120276E-01 a       395     0    17     1    11
  5.9231175272933956E-01 a       396     0    17     1    12
  1.1220613188092667E-01 a       397     0    17     1    13
 -1.6587427653701059E-01 a       398     0    17     1    14
  4.0904666196136197E-02 a       399     0    17     1    15
 -2.7774659417663581E-02 a       400     0    17     1    16
 -1.9840237414256198E-01 a       401     0    17     1    17
  1.8756700091579878E-01 a       402     0    17     1    18
  1.0630607974288729E-01 a       403     0    17     1    19
 -5.3508379996368971E-01 a       404     0    17     1    20
  1.7730905029807453E-01 a       405     0    17     1    21
  3.4640768639993713E-01 a       406     0    17     1    22
  9.4830120038280646E-02 a       407     0    17     1    23
  3.4281565444502539E-02 a       408     0    17     1    24
  1.7812856388580176E-01 a       409     0    18     1     1
  8.3927130966079649E-02 a       410     0    18     1     2
 -2.2197529910525585E-01 a       411     0    18     1     3
 -3.9050755966149808E-01 a       412     0    18     1     4
  1.3173987333679679E-01 a       413     0    18     1     5
 -2.9608385689449145E-02 a       414     0    18     1     6
 -1.6922921822799045E-01 a       415     0    18     1     7
 -4.0796003918357353E-02 a       416     0    18     1     8
  8.0065327290599203E-02 a       417     0    18     1     9
 -2.0159378359754976E-01 a       418     0    18     1    10
 -1.4109699560538122E-01 a       419     0    18     1    11
 -2.3549840059066915E-01 a       420     0    18     1    12
 -1.6095963904604241E-01 a       421     0    18     1    13
 -4.9226918294666154E-02 a       422     0    18     1    14
 -6.2475330617978317E-02 a       423     0    18     1    15
  4.1297278436609075E-01 a       424     0    18     1    16
 -3.8323005742616190E-01 a       425     0    18     1    17
 -3.8988516025556835E-02 a       426     0    18     1    18
  4.7255256298852832E-01 a       427     0    18     1    19
  2.5324190437319211E-01 a       428     0    18     1    20
 -1.2164244307275862E-01 a       429     0    18     1    21
 -2.5256300975624885E-01 a       430     0    18     1    22
 -9.3970813126695821E-02 a       431     0    18     1    23
  1.4050710087002691E-01 a       432     0    18     1    24
  1.5361675612503931E-01 a       433     0    19     1     1
 -1.1194515555992893E-01 a       434     0    19     1     2
  1.3272633344131646E-01 a       435     0    19     1     3
  6.5176919345393575E-02 a       436     0    19     1     4
 -3.1339717537305231E-02 a       437     0    19     1     5
  2.4158821752919260E-01 a       438     0    19     1     6
 -1.5812012648732604E-01 a       439     0    19     1     7
 -1.0805129120149917E-01 a       440     0    19     1     8
  4.5278952573183573E-01 a       441     0    19     1     9
 -1.8556283333807805E-01 a       442     0    19     1    10
  7.1254530295775151E-02 a       443     0    19     1    11
  3.0971931244139161E-01 a       444     0    19     1    12
 -5.7408235263946492E-02 a       445     0    19     1    13
 -3.0163037052346017E-02 a       446     0    19     1    14
  6.3267989098389774E-03 a       447     0    19     1    15
 -1.4479236458704159E-01 a       448     0    19     1    16
 -8.0757359554642465E-03 a       449     0    19     1    17
 -5.4861526010557771E-02 a       450     0    19     1    18
  2.3050255798702488E-01 a       451     0    19     1    19
 -6.5040729268053918E-02 a       452     0    19     1    20
  3.6941899371028863E-01 a       453     0    19     1    21
  2.3195316847816749E-01 a       454     0    19     1    22
 -7.8242171539702393E-02 a       455     0    19     1    23
 -1.0667278194777575E-01 a       456     0    19     1    24
  7.8741110631949052E-02 a       457     0    20     1     1
  7.0234205800170410E-02 a       458     0    20     1     2
 -6.1508743753988605E-02 a       459     0    20     1     3
 -4.1122122247028152E-02 a       460     0    20     1     4
 -1.8253159855760398E-01 a       461     0    20     1     5
 -1.4841808658176411E-01 a       462     0    20     1     6
  2.4290449033338410E-01 a       463     0    20     1     7
 -4.6499504162192284E-02 a       464     0    20     1     8
  3.6885016963519951E-02 a       465     0    20     1     9
  2.7062828625335038E-02 a       466     0    20     1    10
 -1.3532435659997871E-01 a       467     0    20     1    11
 -2.3923700643538448E-01 a       468     0    20     1    12
  2.2441208837026036E-02 a       469     0    20     1    13
 -2.2581230925459359E-01 a       470     0    20     1    14
 -9.9988453751983244E-02 a       471     0    20     1    15
 -8.7124816652805095E-02 a       472     0    20     1    16
 -4.1587787835894667E-02 a       473     0    20     1    17
 -5.8917468430196279E-04 a       474     0    20     1    18
 -1.8587674152897182E-01 a       475     0    20     1    19
  2.3299641881371505E-01 a       476     0    20     1    20
 -6.1254473043894217E-03 a       477     0    20     1    21
  1.9144917644856835E-01 a       478     0    20     1    22
  5.2948468428376694E-02 a       479     0    20     1    23
  1.3845363327104035E-01 a       480     0    20     1    24
 -2.6221987811593417E-01 a       481     0    21     1     1
 -8.3915242014216615E-03 a       482     0    21     1     2
  1.0279013419628585E-02 a       483     0    21     1     3
  2.5850492847190609E-01 a       484     0    21     1     4
 -1.9177704082284946E-01 a       485     0    21     1     5
 -1.9097829079726117E-01 a       486     0    21     1     6
 -2.4612884770766591E-01 a       487     0    21     1     7
  1.6591743565280110E-02 a       488     0    21     1     8
 -6.9134586127820905E-02 a       489     0    21     1     9
  2.0344884474166143E-03 a       490     0    21     1    10
  8.1989475384305108E-02 a       491     0    21     1    11
  2.2234884866501270E-01 a       492     0    21     1    12
  5.2275121104377251E-02 a       493     0    21     1    13
 -1.2774415476108605E-01 a       494     0    21     1    14
  1.3699538449659965E-01 a       495     0    21     1    15
 -2.1646207523192079E-01 a       496     0    21     1    16
  1.6245693485626339E-01 a       497     0    21     1    17
  8.9064233738384395E-03 a       498     0    21     1    18
 -5.7792844919531149E-02 a       499     0    21     1    19
 -3.4036712328630081E-01 a       500     0    21     1    20
 -1.9432939732697091E-01 a       501     0    21     1    21
 -1.2017504085378073E-02 a       502     0    21     1    22
 -2.4235052348312594E-01 a       503     0    21     1    23
  6.0767222198015905E-02 a       504     0    21     1    24
 -3.0592519319961836E-01 a       505     0    22     1     1
 -1.3014222054808330E-01 a       506     0    22     1     2
  5.5212629072006314E-01 a       507     0    22     1     3
  8.8187281393628802E-02 a       508     0    22     1     4
 -5.3862097457751468E-01 a       509     0    22     1     5
  3.5165360203681784E-01 a       510     0    22     1     6
 -1.5707467451525045E-01 a       511     0    22     1     7
 -3.8617250107566908E-01 a       512     0    22     1     8
 -1.6688681512789164E-01 a       513     0    22     1     9
  2.2409649290913347E-01 a       514     0    22     1    10
  6.3690271851477498E-01 a       515     0    22     1    11
  2.8061401230233762E-01 a       516     0    22     1    12
 -4.2856566550789699E-01 a       517     0    22     1    13
 -2.5433934517980300E-01 a       518     0    22     1    14
 -4.1357995427066074E-01 a       519     0    22     1    15
  4.9663451952361776E-01 a       520     0    22     1    16
 -5.2369919348947955E-02 a       521     0    22     1    17
 -5.5892019341858468E-01 a       522     0    22     1    18
 -1.4242491146911718E-01 a       523     0    22     1    19
 -1.2802315089868657E-01 a       524     0    22     1    20
  2.9912098686838101E-01 a       525     0    22     1    21
 -6.8784679611984878E-01 a       526     0    22     1    22
  1.4381376396714987E-02 a       527     0    22     1    23
  4.6240849542188067E-01 a       528     0    22     1    24
 -3.5743577076285832E-01 a       529     0    23     1     1
  2.0482359986865220E-01 a       530     0    23     1     2
  9.5857850453994004E-02 a       531     0    23     1     3
  2.1148380815808124E-01 a       532     0    23     1     4
 -5.5288516750032679E-01 a       533     0    23     1     5
  1.3572875167559856E-03 a       534     0    23     1     6
  6.0761706987741190E-03 a       535     0    23     1     7
  4.5236647686615389E-01 a       536     0    23     1     8
  2.5449691702199517E-01 a       537     0    23     1     9
  3.5092952215640505E-01 a       538     0    23     1    10
 -5.2639255835512910E-01 a       539     0    23     1    11
 -4.1211525916865649E-01 a       540     0    23     1    12
  1.6451698537181800E-01 a       541     0    23     1    13
  9.6102080109790766E-01 a       542     0    23     1    14
  8.8594322578633034E-01 a       543     0    23     1    15
  1.8513930461174899E-01 a       544     0    23     1    16
  2.5159000776878748E-01 a       545     0    23     1    17
 -2.4966195665896396E-01 a       546     0    23     1    18
 -5.1330719786940607E-02 a       547     0    23     1    19
 -7.1806587787746823E-01 a       548     0    23     1    20
  6.1999186640737469E-01 a       549     0    23     1    21
  8.3071245952847694E-01 a       550     0    23     1    22
  2.8424403942749576E-01 a       551     0    23     1    23
 -3.4772710386837664E-02 a       552     0    23     1    24
  1.8053594718704425E-02 a       553     0    24     1     1
 -3.2190564215207068E-01 a       554     0    24     1     2
  2.6334943258650878E-01 a       555     0    24     1     3
 -3.2129233780402700E-01 a       556     0    24     1     4
  2.7454287493319562E-01 a       557     0    24     1     5
  7.1224047835824034E-01 a       558     0    24     1     6
  1.2552184434815811E-01 a       559     0    24     1     7
  2.3215352374031639E-01 a       560     0    24     1     8
 -6.8056192757761688E-02 a       561     0    24     1     9
  1.6251458195540486E-02 a       562     0    24     1    10
 -6.0634410868188784E-02 a       563     0    24     1    11
  2.3579944125661145E-01 a       564     0    24     1    12
 -1.1891153272870514E-01 a       565     0    24     1    13
  1.5929168211795370E-02 a       566     0    24     1    14
  1.0714768860354999E-01 a       567     0    24     1    15
 -9.4012546378598252E-02 a       568     0    24     1    16
 -2.0236916916258466E-01 a       569     0    24     1    17
  1.1735667157250876E-01 a       570     0    24     1    18
 -1.8853469103713566E-01 a       571     0    24     1    19
  3.8613841905493462E-01 a       572     0    24     1    20
  1.4073260372410457E-01 a       573     0    24     1    21
  2.7094776799753578E-01 a       574     0    24     1    22
 -1.2501311137154622E-01 a       575     0    24     1    23
  3.9450122172260405E-01 a       576     0    24     1    24
  5.8700704900788152E-02 a       577     0    25     1     1
 -7.0648701653007124E-03 a       578     0    25     1     2
 -7.2962992316853520E-02 a       579     0    25     1     3
 -7.1700043455911022E-02 a       580     0    25     1     4
 -4.9340607040134987E-02 a       581     0    25     1     5
 -3.1537686104529145E-01 a       582     0    25     1     6
  2.1613597451069749E-02 a       583     0    25     1     7
  2.0195164372963242E-02 a       584     0    25     1     8
  5.8108504045048297E-02 a       585     0    25     1     9
  9.6592767329850907E-02 a       586     0    25     1    10
  1.5520511614757973E-02 a       587     0    25     1    11
  1.1851235650015898E-01 a       588     0    25     1    12
 -1.0632095480002119E-02 a       589     0    25     1    13
  1.7588322241761069E-02 a       590     0    25     1    14
  2.4203050447674377E-02 a       591     0    25     1    15
  1.2760761647500479E-01 a       592     0    25     1    16
  1.1282120365094667E-01 a       593     0    25     1    17
  1.8747624835287930E-02 a       594     0    25     1    18
  2.2404807248659922E-01 a       595     0    25     1    19
 -2.5184953259247411E-01 a       596     0    25     1    20
  2.1786212508076416E-01 a       597     0    25     1    21
 -1.2046259005615874E-01 a       598     0    25     1    22
  4.4211657343148587E-02 a       599     0    25     1    23
 -1.9685929557905049E-01 a       600     0    25     1    24
 -9.3699906928968582E-02 a       601     0    26     1     1
  4.3681250182350107E-04 a       602     0    26     1     2
  1.0901118922896197E-01 a       603     0    26     1     3
  1.1846725209191886E-01 a       604     0    26     1     4
 -1.5620173610641477E-01 a       605     0    26     1     5
  6.6996252150348448E-02 a       606     0    26     1     6
  1.5052501677874398E-02 a       607     0    26     1     7
  1.6120325804343333E-01 a       608     0    26     1     8
  1.5480261187069891E-01 a       609     0    26     1     9
  1.3694383165106308E-01 a       610     0    26     1    10
  8.3967472209773505E-02 a       611     0    26     1    11
  1.0550911503801030E-01 a       612     0    26     1    12
  2.7047210167705266E-01 a       613     0    26     1    13
 -6.8721950110555735E-02 a       614     0    26     1    14
  7.8435108890249974E-02 a       615     0    26     1    15
 -3.2971476060058036E-01 a       616     0    26     1    16
 -1.0060848060889063E-01 a       617     0    26     1    17
 -6.8311501556297116E-02 a       618     0    26     1    18
  1.7636792260313261E-01 a       619     0    26     1    19
 -1.1995865973953240E-01 a       620     0    26     1    20
 -9.3326619485176107E-02 a       621     0    26     1    21
 -3.9008300860894581E-03 a       622     0    26     1    22
 -1.4309619822180539E-01 a       623     0    26     1    23
 -4.2630789261529571E-02 a       624     0    26     1    24
 -3.1459540265422976E-02 a       625     0    27     1     1
  2.9290736525197469E-01 a       626     0    27     1     2
 -2.7100347342479697E-01 a       627     0    27     1     3
  1.8707557912694450E-01 a       628     0    27     1     4
  1.0929239213470382E-01 a       629     0    27     1     5
 -4.5179573584444255E-01 a       630     0    27     1     6
 -2.2337565181961866E-02 a       631     0    27     1     7
 -2.3454979287637734E-01 a       632     0    27     1     8
  1.6486333049715929E-01 a       633     0    27     1     9
 -1.4774588255586424E-01 a       634     0    27     1    10
 -1.8625728820702175E-01 a       635     0    27     1    11
  3.6978192731123016E-02 a       636     0    27     1    12
  2.8637076690475943E-01 a       637     0    27     1    13
  3.1471584343046227E-02 a       638     0    27     1    14
 -2.3097979256354975E-04 a       639     0    27     1    15
  4.7850263615049037E-02 a       640     0    27     1    16
  1.6445555292660943E-01 a       641     0    27     1    17
  2.4452900077903232E-02 a       642     0    27     1    18
 -2.7336993668537879E-01 a       643     0    27     1    19
 -2.9173055386034191E-01 a       644     0    27     1    20
 -1.0569688925868828E-01 a       645     0    27     1    21
  3.8874435614611250E-03 a       646     0    27     1    22
  7.8741105817141374E-02 a       647     0    27     1    23
 -1.2194082447370885E-02 a       648     0    27     1    24
  3.9674892598482864E-02 a       649     0    28     1     1
  1.6595578619239934E-01 a       650     0    28     1     2
  2.6576881772332271E-02 a       651     0    28     1     3
 -3.3617008897737516E-01 a       652     0    28     1     4
  3.1335321454588061E-01 a       653     0    28     1     5
 -1.5805669211714360E-01 a       654     0    28     1     6
 -1.4899956754501875E-01 a       655     0    28     1     7
 -1.3212132986601571E-01 a       656     0    28     1     8
  1.0884194779036006E-01 a       657     0    28     1     9
  5.2714218940721411E-03 a       658     0    28     1    10
  1.0461973695654019E-01 a       659     0    28     1    11
 -2.8797257266202980E-01 a       660     0    28     1    12
 -5.8875775511087872E-02 a       661     0    28     1    13
 -2.7000851706856044E-01 a       662     0    28     1    14
 -8.2247647273434921E-02 a       663     0    28     1    15
  2.0996502217308755E-01 a       664     0    28     1    16
 -7.1404781504889603E-02 a       665     0    28     1    17
  7.7714394563976871E-02 a       666     0    28     1    18
  1.7192406827187064E-03 a       667     0    28     1    19
  1.3722537559985054E-01 a       668     0    28     1    20
 -1.7079288598077114E-01 a       669     0    28     1    21
  1.8827503586852010E-01 a       670     0    28     1    22
 -3.0146126301101205E-02 a       671     0    28     1    23
  3.2741310320985179E-01 a       672     0    28     1    24
  2.6912750301686633E-01 a       673     0    29     1     1
 -8.9455960724102487E-02 a       674     0    29     1     2
 -1.7090503310634966E-01 a       675     0    29     1     3
  1.2982986577159580E-01 a       676     0    29     1     4
 -3.4265535899270642E-04 a       677     0    29     1     5
  1.9475024556779874E-01 a       678     0    29     1     6
  4.2144184814239810E-01 a       679     0    29     1     7
 -6.8627624453178757E-02 a       680     0    29     1     8
 -2.3336211616971780E-01 a       681     0    29     1     9
  1.7966920414318141E-01 a       682     0    29     1    10
 -8.7604534967243422E-02 a       683     0    29     1    11
  7.6134311591748820E-03 a       684     0    29     1    12
 -1.7988602795040196E-01 a       685     0    29     1    13
  3.7873848262435134E-01 a       686     0    29     1    14
 -4.4329962898355496E-01 a       687     0    29     1    15
  5.9537826847732341E-03 a       688     0    29     1    16
  2.4034364931760646E-01 a       689     0    29     1    17
  6.0115044371990743E-02 a       690     0    29     1    18
  9.0028047411359585E-02 a       691     0    29     1    19
  3.8543914018783149E-01 a       692     0    29     1    20
 -9.3068296868085390E-02 a       693     0    29     1    21
 -1.0471222761227582E-01 a       694     0    29     1    22
  1.5999580384083736E-01 a       695     0    29     1    23
 -3.4427732431655922E-01 a       696     0    29     1    24
  3.9338145292699833E-01 a       697     0    30     1     1
  2.7788671244063251E-01 a       698     0    30     1     2
  3.0530854212215164E-01 a       699     0    30     1     3
  2.2780534873795669E-01 a       700     0    30     1     4
 -2.1970538931464528E-02 a       701     0    30     1     5
  1.0720683803660645E-01 a       702     0    30     1     6
 -3.9822731333332262E-01 a       703     0    30     1     7
  2.3839265895045875E-01 a       704     0    30     1     8
 -4.4880870930165362E-01 a       705     0    30     1     9
 -6.7582951857390286E-02 a       706     0    30     1    10
  5.6804170680912958E-01 a       707     0    30     1    11
 -2.9434048291362952E-01 a       708     0    30     1    12
  2.9892648518729144E-02 a       709     0    30     1    13
  1.0700416416992591E-01 a       710     0    30     1    14
 -1.1738012759439048E-01 a       711     0    30     1    15
 -3.8287577242419901E-01 a       712     0    30     1    16
 -4.6133439982428567E-02 a       713     0    30     1    17
  2.0520759220961907E-01 a       714     0    30     1    18
 -1.3909395402660665E-01 a       715     0    30     1    19
 -4.2116204167590215E-01 a       716     0    30     1    20
  3.7892592912913386E-01 a       717     0    30     1    21
  1.1352787961382921E-01 a       718     0    30     1    22
  4.1365042003828567E-02 a       719     0    30     1    23
 -4.7986382663131444E-01 a       720     0    30     1    24
 -2.3043270107169447E-01 a       721     0    31     1     1
 -2.3876040357148711E-02 a       722     0    31     1     2
  1.0212478114741229E-01 a       723     0    31     1     3
  9.1274721566984893E-02 a       724     0    31     1     4
 -3.7069397220349028E-02 a       725     0    31     1     5
 -4.4107030660657520E-01 a       726     0    31     1     6
 -2.6295121950200140E-01 a       727     0    31     1     7
 -1.8687602103509732E-01 a       728     0    31     1     8
 -2.9009197651212241E-02 a       729     0    31     1     9
 -6.9690032494678381E-02 a       730     0    31     1    10
  2.0155968383419889E-01 a       731     0    31     1    11
 -2.1765541727831305E-02 a       732     0    31     1    12
  2.5391378514262035E-02 a       733     0    31     1    13
 -4.9437130473670587E-01 a       734     0    31     1    14
  4.1408362471888033E-02 a       735     0    31     1    15
 -2.0223470823953729E-01 a       736     0    31     1    16
  2.4451105465072329E-01 a       737     0    31     1    17
  3.7590662658101716E-02 a       738     0    31     1    18
  8.9472142829215992E-02 a       739     0    31     1    19
 -2.9680776064295206E-01 a       740     0    31     1    20
 -2.9124962013022182E-01 a       741     0    31     1    21
 -1.4935618923569433E-01 a       742     0    31     1    22
 -2.4672222369777000E-01 a       743     0    31     1    23
  5.1353516715422945E-02 a       744     0    31     1    24
  1.7281638534554420E+00 a       745     0    32     1     1
  7.3435873942164398E-01 a       746     0    32     1     2
 -5.7706321633559510E-01 a       747     0    32     1     3
  4.1464689094550600E-01 a       748     0    32     1     4
  2.6340552858907706E+00 a       749     0    32     1     5
 -1.7656527619857716E+00 a       750     0    32     1     6
  4.6825253027683800E-01 a       751     0    32     1     7
 -8.6343356104445290E-01 a       752     0    32     1     8
 -1.5563769419568149E-01 a       753     0    32     1     9
  5.2721117484069868E-01 a       754     0    32     1    10
 -6.9919733986405186E-01 a       755     0    32     1    11
 -8.8175020128776582E-01 a       756     0    32     1    12
  1.8350891442421691E+00 a       757     0    32     1    13
  5.7615074541365119E-01 a       758     0    32     1    14
  7.7141908839191065E-01 a       759     0    32     1    15
 -1.8985531101347561E+00 a       760     0    32     1    16
 -1.6908096409134348E+00 a       761     0    32     1    17
  7.5268338757205044E-01 a       762     0    32     1    18
 -1.1005488981888742E+00 a       763     0    32     1    19
  3.3591758219071916E-01 a       764     0    32     1    20
 -6.8477907657402675E-03 a       765     0    32     1    21
  2.3881286322226272E-01 a       766     0    32     1    22
 -8.5155606791086122E-02 a       767     0    32     1    23
 -1.2373828585794922E+00 a       768     0    32     1    24
 -5.8410747350791581E-01 a       769     0    33     1     1
 -2.5951219691844635E-01 a       770     0    33     1     2
  2.4631409980755176E-03 a       771     0    33     1     3
  3.8731552464099173E-01 a       772     0    33     1     4
  4.6565652757549432E-02 a       773     0    33     1     5
 -6.6611615532519508E-01 a       774     0    33     1     6
  6.8216239020661995E-01 a       775     0    33     1     7
  2.3663155599100663E-01 a       776     0    33     1     8
 -7.8151548443382057E-01 a       777     0    33     1     9
  3.5205379703482148E-01 a       778     0    33     1    10
 -2.7949484238516864E-01 a       779     0    33     1    11
 -4.2813606314085390E-01 a       780     0    33     1    12
  1.8728098113005218E-02 a       781     0    33     1    13
  1.9122847639726451E-01 a       782     0    33     1    14
 -2.3855057614196828E-02 a       783     0    33     1    15
  1.0301082656295674E-01 a       784     0    33     1    16
  3.2444560016767521E-01 a       785     0    33     1    17
  1.3318723279038480E-01 a       786     0    33     1    18
 -4.4923354263316850E-01 a       787     0    33     1    19
  2.8730279131120046E-01 a       788     0    33     1    20
 -2.0430068671791377E-01 a       789     0    33     1    21
 -2.9141465635899461E-01 a       790     0    33     1    22
  8.6501685937465083E-03 a       791     0    33     1    23
 -1.4238600180634994E-01 a       792     0    33     1    24
  3.1720940719689356E-01 a       793     0    34     1     1
  5.9695191624392616E-02 a       794     0    34     1     2
 -1.2847129400240681E-01 a       795     0    34     1     3
 -7.0461363614401390E-02 a       796     0    34     1     4
  3.8242005672848363E-02 a       797     0    34     1     5
  2.3970280134487842E-01 a       798     0    34     1     6
  3.1473880585959763E-01 a       799     0    34     1     7
 -5.4825359958142160E-02 a       800     0    34     1     8
  6.1890241247952053E-02 a       801     0    34     1     9
  1.2238017140763653E-01 a       802     0    34     1    10
  3.5928855474543379E-02 a       803     0    34     1    11
  1.0492817852195098E-01 a       804     0    34     1    12
  5.8855914067162604E-02 a       805     0    34     1    13
  6.9348273725273149E-02 a       806     0    34     1    14
 -4.3255832490838036E-01 a       807     0    34     1    15
  8.7132661413060770E-03 a       808     0    34     1    16
 -1.9391841117846090E-01 a       809     0    34     1    17
  1.2658106157427165E-01 a       810     0    34     1    18
  7.4118023684692669E-02 a       811     0    34     1    19
  4.6971057412368095E-01 a       812     0    34     1    20
 -1.8345049678575095E-01 a       813     0    34     1    21
 -2.6504947813186297E-01 a       814     0    34     1    22
  1.6230968587102540E-01 a       815     0    34     1    23
 -3.6835317158103381E-01 a       816     0    34     1    24
  6.2415535493376073E-01 a       817     0    35     1     1
  5.6227644527424170E-01 a       818     0    35     1     2
 -1.4832159362753367E-01 a       819     0    35     1     3
 -5.3069115637367703E-01 a       820     0    35     1     4
 -7.1271442256018391E-02 a       821     0    35     1     5
 -1.4567821544943146E-02 a       822     0    35     1     6
 -7.5444044419884226E-01 a       823     0    35     1     7
  1.3449650579570230E-01 a       824     0    35     1     8
 -1.4342181730875370E-01 a       825     0    35     1     9
  8.2874573919208172E-01 a       826     0    35     1    10
 -4.4678734824058952E-01 a       827     0    35     1    11
 -2.4935967471770309E-01 a       828     0    35     1    12
 -8.2759350452753200E-01 a       829     0    35     1    13
  1.1657817964562174E-01 a       830     0    35     1    14
  7.3866747750562278E-01 a       831     0    35     1    15
  1.3118928293614132E-01 a       832     0    35     1    16
 -4.8686120065972077E-01 a       833     0    35     1    17
  6.9452978969914758E-01 a       834     0    35     1    18
  4.0768879740804932E-02 a       835     0    35     1    19
 -1.3395501723468040E+00 a       836     0    35     1    20
  1.8374063270304959E+00 a       837     0    35     1    21
  2.9885174490134975E-01 a       838     0    35     1    22
  1.9724893508322008E-01 a       839     0    35     1    23
 -2.1767052678191734E-01 a       840     0    35     1    24
 -2.1801946220610652E-01 a       841     0    36     1     1
 -5.5568943884102251E-01 a       842     0    36     1     2
 -2.0677772730930086E-01 a       843     0    36     1     3
  4.2135979114774891E-01 a       844     0    36     1     4
 -4.5585038219075241E-01 a       845     0    36     1     5
 -2.8791755166749988E-01 a       846     0    36     1     6
 -7.0420487882497607E-01 a       847     0    36     1     7
  7.1121925165802202E-01 a       848     0    36     1     8
 -6.9494443087290714E-01 a       849     0    36     1     9
  2.4318792984305684E-01 a       850     0    36     1    10
  5.8708729622175759E-01 a       851     0    36     1    11
  1.0899484872042844E+00 a       852     0    36     1    12
 -8.7170026999971939E-01 a       853     0    36     1    13
  1.4217403602717806E+00 a       854     0    36     1    14
 -8.1048809250306025E-02 a       855     0    36     1    15
 -5.1662414437500759E-01 a       856     0    36     1    16
 -1.6495970367072065E-03 a       857     0    36     1    17
 -4.3853525227316748E-01 a       858     0    36     1    18
 -4.6698247045398961E-01 a       859     0    36     1    19
 -1.4667760646173322E+00 a       860     0    36     1    20
 -6.3027361874796706E-01 a       861     0    36     1    21
  6.7997322035733587E-01 a       862     0    36     1    22
 -6.3679891273471556E-01 a       863     0    36     1    23
 -1.6031762967715664E+00 a       864     0    36     1    24
  1.9781539191602146E-01 a       865     0    37     1     1
  2.6000260440118422E-01 a       866     0    37     1     2
  7.9073150258173441E-01 a       867     0    37     1     3
  1.3207169968970316E+00 a       868     0    37     1     4
 -3.3699684144598063E-01 a       869     0    37     1     5
 -4.7215560298468871E-02 a       870     0    37     1     6
  3.0054567464233362E-01 a       871     0    37     1     7
  8.4972462688117412E-01 a       872     0    37     1     8
  2.2327845255021286E-01 a       873     0    37     1     9
  5.4158810240632305E-01 a       874     0    37     1    10
  1.8227428952156352E-01 a       875     0    37     1    11
 -1.0070311992688754E+00 a       876     0    37     1    12
  7.4187181214381737E-01 a       877     0    37     1    13
 -1.0775876816781325E+00 a       878     0    37     1    14
 -2.1924213587587407E-01 a       879     0    37     1    15
 -5.6867042204548413E-01 a       880     0    37     1    16
 -8.5802712654408086E-01 a       881     0    37     1    17
 -1.5927441604646558E-01 a       882     0    37     1    18
 -6.1708530944807727E-01 a       883     0    37     1    19
  6.0854431914399654E-01 a       884     0    37     1    20
 -1.7987516011376672E+00 a       885     0    37     1    21
  9.5627064841262199E-01 a       886     0    37     1    22
 -4.1423437401897195E-01 a       887     0    37     1    23
  4.2130023378526288E-01 a       888     0    37     1    24
 -3.4850126761065206E-02 a       889     0    38     1     1
  8.7597620225022199E-01 a       890     0    38     1     2
 -4.2600424365336276E-01 a       891     0    38     1     3
 -7.3704717242194878E-02 a       892     0    38     1     4
  2.7115338838527896E-02 a       893     0    38     1     5
  5.3518516486567004E-02 a       894     0    38     1     6
 -8.7826458232760451E-01 a       895     0    38     1     7
  1.5365424940048835E+00 a       896     0    38     1     8
 -7.6706016753827155E-01 a       897     0    38     1     9
  1.2921597162013578E+00 a       898     0    38     1    10
 -1.5445900414639571E-01 a       899     0    38     1    11
  1.8830988225569947E+00 a       900     0    38     1    12
 -5.7161527655638222E-01 a       901     0    38     1    13
  1.3123593653217809E+00 a       902     0    38     1    14
 -4.1686505519434475E-01 a       903     0    38     1    15
 -1.3210080387554461E+00 a       904     0    38     1    16
 -8.8832423718756681E-01 a       905     0    38     1    17
 -3.6833236770467226E-01 a       906     0    38     1    18
 -5.5426790645826327E-02 a       907     0    38     1    19
  1.9623897306960983E-01 a       908     0    38     1    20
  2.8313610741587425E-01 a       909     0    38     1    21
 -5.5075499096170566E-01 a       910     0    38     1    22
 -7.1323215996920686E-01 a       911     0    38     1    23
 -1.4303370995349456E+00 a       912     0    38     1    24
  8.6501595797577091E-01 a       913     0    39     1     1
  8.0407406572998152E-01 a       914     0    39     1     2
 -1.0530373182082877E+00 a       915     0    39     1     3
 -6.2130526876278469E-01 a       916     0    39     1     4
  6.0496158224083207E-01 a       917     0    39     1     5
  3.9185484932687692E-01 a       918     0    39     1     6
  1.1981141576797647E+00 a       919     0    39     1     7
  2.2748442899576485E-01 a       920     0    39     1     8
 -1.0630141789007461E+00 a       921     0    39     1     9
 -4.8133230694274937E-01 a       922     0    39     1    10
  5.6741642397647452E-01 a       923     0    39     1    11
  1.7986205081315473E-01 a       924     0    39     1    12
  2.2714701989590033E-01 a       925     0    39     1    13
 -2.0159544914318589E-01 a       926     0    39     1    14
  3.8347178258276099E-01 a       927     0    39     1    15
 -5.8186510471685793E-01 a       928     0    39     1    16
  5.4137741176611609E-01 a       929     0    39     1    17
  4.1293573070051293E-01 a       930     0    39     1    18
  2.7083789433236377E-01 a       931     0    39     1    19
  5.4993730830454535E-01 a       932     0    39     1    20
  1.1000493348364135E+00 a       933     0    39     1    21
 -6.0949874716256458E-01 a       934     0    39     1    22
  7.8877778161132239E-01 a       935     0    39     1    23
  6.8380442668749020E-01 a       936     0    39     1    24
 -2.2367630802469676E-01 a       937     0    40     1     1
  1.1345986469217362E-01 a       938     0    40     1     2
  1.9181176830301838E-01 a       939     0    40     1     3
  2.5064961093560206E-01 a       940     0    40     1     4
  1.4968336229552548E-01 a       941     0    40     1     5
  4.2184997802610996E-01 a       942     0    40     1     6
  2.7831617094500111E-01 a       943     0    40     1     7
  3.3457358717912417E-01 a       944     0    40     1     8
  5.9434503275488937E-01 a       945     0    40     1     9
 -3.5569453710967772E-02 a       946     0    40     1    10
  1.9706544511338694E-01 a       947     0    40     1    11
  9.6218549346291549E-01 a       948     0    40     1    12
 -2.8933040949153466E-01 a       949     0    40     1    13
 -1.8653135830130901E-01 a       950     0    40     1    14
 -2.1870378104047777E-01 a       951     0    40     1    15
  4.3341445176862378E-02 a       952     0    40     1    16
 -5.9753680890393172E-02 a       953     0    40     1    17
 -6.5924293565586412E-01 a       954     0    40     1    18
  8.9787702016278825E-01 a       955     0    40     1    19
 -1.3185292296174134E-01 a       956     0    40     1    20
 -3.2450306014294439E-01 a       957     0    40     1    21
 -2.6063445413457476E-01 a       958     0    40     1    22
  8.0681335822247713E-01 a       959     0    40     1    23
 -3.3249624142902084E-01 a       960     0    40     1    24
 -9.9162083505688092E-01 a       961     0    41     1     1
 -1.9846789561254039E+00 a       962     0    41     1     2
  1.5979300855449838E+00 a       963     0    41     1     3
 -8.4952696815162521E-01 a       964     0    41     1     4
  4.1847070544574289E-02 a       965     0    41     1     5
  1.8928552192761633E-01 a       966     0    41     1     6
  1.9966834078987992E+00 a       967     0    41     1     7
 -1.2938175467726032E+00 a       968     0    41     1     8
  5.7460234747421579E-01 a       969     0    41     1     9
 -2.0080126251863923E+00 a       970     0    41     1    10
  1.4268364545806569E-01 a       971     0    41     1    11
  2.3193518323789233E+00 a       972     0    41     1    12
  2.1328036315690646E+00 a       973     0    41     1    13
 -1.0734728535408680E+00 a       974     0    41     1    14
 -1.9760673699369249E+00 a       975     0    41     1    15
  1.5115180889372215E+00 a       976     0    41     1    16
  2.3650972574798140E-01 a       977     0    41     1    17
 -3.3012002550021036E+00 a       978     0    41     1    18
  2.2010136677287108E-02 a       979     0    41     1    19
  8.1390051066941294E-01 a       980     0    41     1    20
 -2.0686684490967320E+00 a       981     0    41     1    21
 -2.7834922134128698E-01 a       982     0    41     1    22
  3.8234623946151070E-01 a       983     0    41     1    23
  5.7337419022968339E-01 a       984     0    41     1    24
  7.0947537039862707E-01 a       985     0    42     1     1
 -3.9765417881927508E-02 a       986     0    42     1     2
 -5.0856179930423528E-01 a       987     0    42     1     3
 -5.1172787494051553E-01 a       988     0    42     1     4
 -3.8702313291810103E-01 a       989     0    42     1     5
  4.6866329979924670E-01 a       990     0    42     1     6
 -4.6643047539279542E-01 a       991     0    42     1     7
  6.2323000435459541E-01 a       992     0    42     1     8
 -1.2955307736752706E+00 a       993     0    42     1     9
  2.1754011156748265E-01 a       994     0    42     1    10
 -7.6336611326884274E-01 a       995     0    42     1    11
 -4.3589618520569445E-01 a       996     0    42     1    12
 -4.2323588538680068E-01 a       997     0    42     1    13
  2.4301399251088937E-01 a       998     0    42     1    14
  7.4932492142875828E-01 a       999     0    42     1    15
  1.4050373068655468E+00 a      1000     0    42     1    16
  3.8159028665767458E-01 a      1001     0    42     1    17
 -9.7563507363087454E-01 a      1002     0    42     1    18
 -2.0270610567261743E-01 a      1003     0    42     1    19
 -8.7907829418701777E-01 a      1004     0    42     1    20
  7.8555892007761829E-01 a      1005     0    42     1    21
  4.1185472053890060E-01 a      1006     0    42     1    22
 -6.5467838506880593E-01 a      1007     0    42     1    23
  5.8916826160544833E-01 a      1008     0    42     1    24
 -1.5993753310954004E-01 a      1009     0    43     1     1
 -3.6431250774955815E-01 a      1010     0    43     1     2
  2.8993605835832773E-02 a      1011     0    43     1     3
 -6.3185350850098010E-01 a      1012     0    43     1     4
 -4.8140820635876569E-01 a      1013     0    43     1     5
  1.0727451659554366E+00 a      1014     0    43     1     6
  1.1723444406068659E+00 a      1015     0    43     1     7
 -3.6477177666752525E-01 a      1016     0    43     1     8
  1.9415824333544127E-01 a      1017     0    43     1     9
  6.6636060306638301E-01 a      1018     0    43     1    10
  5.2377333057634012E-01 a      1019     0    43     1    11
  1.1936025920849733E+00 a      1020     0    43     1    12
  9.7585054339135835E-01 a      1021     0    43     1    13
 -2.9566653602885014E+00 a      1022     0    43     1    14
 -7.9080492789631063E-01 a      1023     0    43     1    15
  1.4413557258476623E-01 a      1024     0    43     1    16
 -4.6601490999067452E-01 a      1025     0    43     1    17
  6.0279890097493083E-01 a      1026     0    43     1    18
  1.5185610339512612E+00 a      1027     0    43     1    19
  2.7227356224901431E+00 a      1028     0    43     1    20
 -1.2147120400131075E+00 a      1029     0    43     1    21
 -2.9776985691165836E-01 a      1030     0    43     1    22
  5.4932781194249569E-01 a      1031     0    43     1    23
 -1.0117420836686219E+00 a      1032     0    43     1    24
  4.6314371611186550E-01 a      1033     0    44     1     1
 -2.8255332702444075E-01 a      1034     0    44     1     2
 -5.5453440018536204E-01 a      1035     0    44     1     3
 -5.1571526698485270E-01 a      1036     0    44     1     4
  2.9224404899320672E-01 a      1037     0    44     1     5
  2.6121952563068362E-01 a      1038     0    44     1     6
 -5.5780139170997833E-01 a      1039     0    44     1     7
 -1.4706210767897059E+00 a      1040     0    44     1     8
  5.1684335218939947E-01 a      1041     0    44     1     9
  4.0520634615070050E-02 a      1042     0    44     1    10
 -9.4829425557825975E-01 a      1043     0    44     1    11
 -1.0288112541547103E+00 a      1044     0    44     1    12
 -2.9418316565209515E+00 a      1045     0    44     1    13
 -2.5130727601105135E-01 a      1046     0    44     1    14
  1.4052154265809036E-01 a      1047     0    44     1    15
 -8.3085532875594115E-02 a      1048     0    44     1    16
 -3.3496468787653594E-01 a      1049     0    44     1    17
  1.6229726148148200E+00 a      1050     0    44     1    18
  2.8404940016620506E-01 a      1051     0    44     1    19
 -1.0305465946457693E+00 a      1052     0    44     1    20
  1.6450007661828356E+00 a      1053     0    44     1    21
 -8.1194978152250519E-01 a      1054     0    44     1    22
  1.3150757167688909E+00 a      1055     0    44     1    23
  2.6698277540414433E-01 a      1056     0    44     1    24
 -1.9992617441814381E-01 a      1057     0    45     1     1
 -3.6289880512673078E-01 a      1058     0    45     1     2
 -2.8086521112680651E-01 a      1059     0    45     1     3
  7.0731735653104566E-01 a      1060     0    45     1     4
  5.8592837852661972E-01 a      1061     0    45     1     5
 -1.4671714805726209E-02 a      1062     0    45     1     6
 -1.9863470544056136E-01 a      1063     0    45     1     7
  7.9043898641271726E-01 a      1064     0    45     1     8
  3.9692171539295618E-01 a      1065     0    45     1     9
 -8.3844801458021001E-01 a      1066     0    45     1    10
  7.7541526200311472E-01 a      1067     0    45     1    11
  4.5344682387522939E-01 a      1068     0    45     1    12
  4.2227729729394514E-01 a      1069     0    45     1    13
  9.9475762766159423E-02 a      1070     0    45     1    14
 -4.7859018858994623E-01 a      1071     0    45     1    15
 -9.5039081839528672E-01 a      1072     0    45     1    16
 -1.2777205740549988E+00 a      1073     0    45     1    17
 -5.0202549080528203E-01 a      1074     0    45     1    18
  1.9581891606973791E-02 a      1075     0    45     1    19
  1.0201275909195684E+00 a      1076     0    45     1    20
 -5.0716609100108767E-01 a      1077     0    45     1    21
  1.8246132058530269E-02 a      1078     0    45     1    22
  6.2792452100023499E-01 a      1079     0    45     1    23
  6.3785345660785997E-01 a      1080     0    45     1    24
 -1.2941247038356832E-01 a      1081     0    46     1     1
 -8.5296363101202088E-01 a      1082     0    46     1     2
 -3.6479634350248946E-01 a      1083     0    46     1     3
  5.2214869592500990E-01 a      1084     0    46     1     4
  5.9562549006750121E-01 a      1085     0    46     1     5
 -2.2889034396507327E-01 a      1086     0    46     1     6
 -5.1525207969975749E-02 a      1087     0    46     1     7
 -6.6874995333334755E-02 a      1088     0    46     1     8
 -7.8953983136539313E-02 a      1089     0    46     1     9
 -1.5901690944647012E-01 a      1090     0    46     1    10
  1.5405772757448710E-01 a      1091     0    46     1    11
 -1.1798033255941871E-03 a      1092     0    46     1    12
  6.5418440913756504E-01 a      1093     0    46     1    13
 -7.5694053480459100E-02 a      1094     0    46     1    14
 -1.3841707253374202E-01 a      1095     0    46     1    15
 -1.7608733679243507E-01 a      1096     0    46     1    16
  5.7777495708905802E-01 a      1097     0    46     1    17
 -9.3613912115194417E-02 a      1098     0    46     1    18
  1.8290872127037031E-01 a      1099     0    46     1    19
  5.6566630640333648E-01 a      1100     0    46     1    20
 -5.8695507763975885E-01 a      1101     0    46     1    21
 -6.8436221883746484E-02 a      1102     0    46     1    22
 -4.9840085859994117E-02 a      1103     0    46     1    23
  1.4387566558569010E-02 a      1104     0    46     1    24
  5.6278772804403732E-01 a      1105     0    47     1     1
 -8.5023274227471035E-01 a      1106     0    47     1     2
 -6.6954251417974198E-01 a      1107     0    47     1     3
 -3.6218066335207411E-01 a      1108     0    47     1     4
  9.9000650910291599E-01 a      1109     0    47     1     5
 -3.5248751563132230E-01 a      1110     0    47     1     6
 -4.7355230953707034E-01 a      1111     0    47     1     7
 -1.0623322110977590E-01 a      1112     0    47     1     8
 -8.7243968235286240E-01 a      1113     0    47     1     9
  2.9182756961207190E-01 a      1114     0    47     1    10
 -9.9704586738700396E-01 a      1115     0    47     1    11
  1.3967528516784575E-02 a      1116     0    47     1    12
  1.8175282361415204E-01 a      1117     0    47     1    13
  1.3799519054001321E+00 a      1118     0    47     1    14
 -2.4694087744202520E-01 a      1119     0    47     1    15
  5.7593533217038895E-01 a      1120     0    47     1    16
 -2.6551724843915137E-01 a      1121     0    47     1    17
 -1.4165445723507502E+00 a      1122     0    47     1    18
 -1.1035271097555182E+00 a      1123     0    47     1    19
 -1.9721665280910612E+00 a      1124     0    47     1    20
  1.3969699445229629E+00 a      1125     0    47     1    21
  2.8612440485562024E-01 a      1126     0    47     1    22
 -9.6662403533451258E-01 a      1127     0    47     1    23
  8.0495123342062436E-01 a      1128     0    47     1    24
 -4.6893892056425596E-01 a      1129     0    48     1     1
 -4.3173158252860298E-02 a      1130     0    48     1     2
 -3.3462471919667097E-01 a      1131     0    48     1     3
 -9.0294465090565834E-01 a      1132     0    48     1     4
  9.5761373314574252E-02 a      1133     0    48     1     5
  3.4287034203854433E-01 a      1134     0    48     1     6
 -1.4821076630935059E+00 a      1135     0    48     1     7
  5.1601458046736270E-01 a      1136     0    48     1     8
 -2.2524451576320534E-01 a      1137     0    48     1     9
  1.1117202865566977E-01 a      1138     0    48     1    10
 -2.9375922143600336E-01 a      1139     0    48     1    11
  9.8869006830797068E-01 a      1140     0    48     1    12
  8.4537863110296513E-02 a      1141     0    48     1    13
  4.5450126847921341E-01 a      1142     0    48     1    14
 -3.9084362545082775E-02 a      1143     0    48     1    15
 -3.3476612919605880E-01 a      1144     0    48     1    16
 -6.2870774863379730E-01 a      1145     0    48     1    17
 -1.3892106879569341E-01 a      1146     0    48     1    18
 -9.4156477951069528E-01 a      1147     0    48     1    19
 -2.9128123062826261E-01 a      1148     0    48     1    20
 -1.9253218083813115E-01 a      1149     0    48     1    21
  2.8357606162465349E-01 a      1150     0    48     1    22
 -7.0977597488666455E-01 a      1151     0    48     1    23
  2.5385925287877820E-01 a      1152     0    48     1    24
 -1.0584511784602110E-02 a      1153     0    49     1     1
  6.4132403904783128E-02 a      1154     0    49     1     2
  1.0397166297605767E-01 a      1155     0    49     1     3
 -4.4934105861876877E-01 a      1156     0    49     1     4
 -5.5951428145257309E-01 a      1157     0    49     1     5
 -2.9744153913336135E-01 a      1158     0    49     1     6
  6.2014896823065901E-01 a      1159     0    49     1     7
  1.0332050983555412E-01 a      1160     0    49     1     8
 -3.3578908697911758E-01 a      1161     0    49     1     9
 -1.5976116283213629E-01 a      1162     0    49     1    10
 -7.8044163872741823E-01 a      1163     0    49     1    11
 -3.4004376498091005E-01 a      1164     0    49     1    12
 -1.4307617633264666E-01 a      1165     0    49     1    13
 -6.7125885403748431E-01 a      1166     0    49     1    14
 -1.3856725740469841E-01 a      1167     0    49     1    15
  4.0997334352715659E-01 a      1168     0    49     1    16
 -2.3370590181499185E-01 a      1169     0    49     1    17
  7.7006003917626387E-01 a      1170     0    49     1    18
  9.0783284013587803E-02 a      1171     0    49     1    19
 -5.9168665245898720E-02 a      1172     0    49     1    20
  9.5454322922447687E-01 a      1173     0    49     1    21
 -1.7299554780681645E-01 a      1174     0    49     1    22
  1.7437512857336093E-01 a      1175     0    49     1    23
 -1.1314297625421244E+00 a      1176     0    49     1    24
  3.6205802192105724E-01 a      1177     0    50     1     1
  3.5891010628765374E-01 a      1178     0    50     1     2
  6.4461860111171643E-01 a      1179     0    50     1     3
 -9.9936315707717349E-01 a      1180     0    50     1     4
  7.0127486046590484E-02 a      1181     0    50     1     5
  1.4290158409091807E+00 a      1182     0    50     1     6
 -1.1326420460892161E-02 a      1183     0    50     1     7
 -4.0578138339890941E-02 a      1184     0    50     1     8
 -1.5516356330738726E-01 a      1185     0    50     1     9
  1.0430014296367306E-01 a      1186     0    50     1    10
 -2.6504374385508608E-02 a      1187     0    50     1    11
 -1.5464462356227934E-01 a      1188     0    50     1    12
  3.6247386641737789E-01 a      1189     0    50     1    13
  4.2295507590645355E-02 a      1190     0    50     1    14
 -6.2329804428524005E-01 a      1191     0    50     1    15
 -3.0668234815844375E-01 a      1192     0    50     1    16
 -4.4519765740392142E-01 a      1193     0    50     1    17
 -3.0520397840862490E-01 a      1194     0    50     1    18
 -4.0587485849229238E-01 a      1195     0    50     1    19
  5.2762624812503478E-01 a      1196     0    50     1    20
  1.8282370299167020E-02 a      1197     0    50     1    21
  1.3380921412131239E-01 a      1198     0    50     1    22
 -2.1069015117689030E-01 a      1199     0    50     1    23
 -3.1534341846503172E-01 a      1200     0    50     1    24
  1.1085724308148646E+00 a      1201     0    51     1     1
  3.4435790087485402E-01 a      1202     0    51     1     2
 -7.7955478230835973E-01 a      1203     0    51     1     3
  1.1751084422032629E+00 a      1204     0    51     1     4
 -5.1372254442090193E-01 a      1205     0    51     1     5
 -2.0453210564975957E-01 a      1206     0    51     1     6
  4.1073895073772232E-01 a      1207     0    51     1     7
  1.5394638453017617E-01 a      1208     0    51     1     8
 -1.3084565623726148E+00 a      1209     0    51     1     9
 -9.0901486918359009E-01 a      1210     0    51     1    10
 -4.4083546356179104E-01 a      1211     0    51     1    11
 -2.4649767755017309E+00 a      1212     0    51     1    12
 -1.0031663468642434E-01 a      1213     0    51     1    13
  7.1828130398735202E-01 a      1214     0    51     1    14
  4.8755809865007778E-03 a      1215     0    51     1    15
 -1.7636386755007860E-01 a      1216     0    51     1    16
  9.9091392462110295E-01 a      1217     0    51     1    17
  7.2014089769023917E-02 a      1218     0    51     1    18
  5.7213645643777478E-01 a      1219     0    51     1    19
  3.6319359381653110E-01 a      1220     0    51     1    20
  4.5779728446793855E-01 a      1221     0    51     1    21
 -9.7592821900477311E-01 a      1222     0    51     1    22
 -3.2048972997225984E-02 a      1223     0    51     1    23
  5.3366747704935047E-01 a      1224     0    51     1    24
 -5.4260877880110683E-03 a      1225     0    52     1     1
 -2.8250534512804060E-01 a      1226     0    52     1     2
  4.7751501934427382E-01 a      1227     0    52     1     3
 -3.3359196524694983E-02 a      1228     0    52     1     4
 -2.3775032834223473E-02 a      1229     0    52     1     5
  1.6132373605548048E-02 a      1230     0    52     1     6
  4.0443402743597184E-01 a      1231     0    52     1     7
  5.1500017377672229E-02 a      1232     0    52     1     8
 -3.7971595203870827E-02 a      1233     0    52     1     9
  9.2146833088111835E-02 a      1234     0    52     1    10
 -1.3394178811802343E-01 a      1235     0    52     1    11
 -1.8565134448205375E-01 a      1236     0    52     1    12
  1.9639793323132684E-01 a      1237     0    52     1    13
 -1.9259305964524037E-01 a      1238     0    52     1    14
 -4.0544994932540337E-02 a      1239     0    52     1    15
  3.7953079789751965E-01 a      1240     0    52     1    16
 -1.4544939849177363E-01 a      1241     0    52     1    17
 -9.6234137213191656E-02 a      1242     0    52     1    18
 -3.6595833736090994E-01 a      1243     0    52     1    19
  1.6033974520815192E-01 a      1244     0    52     1    20
 -1.1734174798826011E-03 a      1245     0    52     1    21
  6.0996464132931039E-01 a      1246     0    52     1    22
  2.3555127439511905E-01 a      1247     0    52     1    23
 -5.4041914920916800E-01 a      1248     0    52     1    24
  5.4166476348876363E-02 a      1249     0    53     1     1
 -2.2106920588114404E-01 a      1250     0    53     1     2
 -1.3865326343516487E-02 a      1251     0    53     1     3
  9.5924882587078542E-02 a      1252     0    53     1     4
 -2.2688812371071476E-01 a      1253     0    53     1     5
 -5.4382154087793155E-01 a      1254     0    53     1     6
 -6.6345526338567062E-01 a      1255     0    53     1     7
  6.1596511595364878E-01 a      1256     0    53     1     8
 -4.0919194762735450E-01 a      1257     0    53     1     9
  4.0918105757456080E-01 a      1258     0    53     1    10
 -1.3418793334375792E-01 a      1259     0    53     1    11
  8.1719591777133602E-02 a      1260     0    53     1    12
 -5.5953905032017484E-02 a      1261     0    53     1    13
  8.9956542651113758E-01 a      1262     0    53     1    14
  3.0985106177369920E-01 a      1263     0    53     1    15
 -3.5623039841832654E-01 a      1264     0    53     1    16
  1.1808605903969673E-01 a      1265     0    53     1    17
  2.6209459665823564E-02 a      1266     0    53     1    18
 -2.2315204408403408E-01 a      1267     0    53     1    19
 -8.6886052306127370E-01 a      1268     0    53     1    20
 -5.6278809305068056E-01 a      1269     0    53     1    21
 -1.1333191038152571E-01 a      1270     0    53     1    22
 -5.0535407996760338E-02 a      1271     0    53     1    23
 -6.6528380128330580E-02 a      1272     0    53     1    24
 -3.8748641184458915E-01 a      1273     0    54     1     1
  1.2598744629647216E-01 a      1274     0    54     1     2
  1.6247127701981376E+00 a      1275     0    54     1     3
  5.4822380729921283E-01 a      1276     0    54     1     4
 -1.0707592222898787E+00 a      1277     0    54     1     5
  1.1171164779330391E+00 a      1278     0    54     1     6
  3.7270501622118007E-01 a      1279     0    54     1     7
 -8.9323230469795645E-01 a      1280     0    54     1     8
  8.5542379985356154E-01 a      1281     0    54     1     9
  1.0753894503280005E-03 a      1282     0    54     1    10
 -1.7576246226386572E-01 a      1283     0    54     1    11
 -8.9394053634227766E-01 a      1284     0    54     1    12
  1.0576641978207575E+00 a      1285     0    54     1    13
  4.6903715339319524E-01 a      1286     0    54     1    14
 -9.9768246119009041E-01 a      1287     0    54     1    15
  5.1197644408504206E-01 a      1288     0    54     1    16
  4.9109479075483686E-02 a      1289     0    54     1    17
  5.3180410190127347E-01 a      1290     0    54     1    18
 -8.6414049970200846E-01 a      1291     0    54     1    19
  1.0946055363938488E-01 a      1292     0    54     1    20
  6.8647256776154353E-01 a      1293     0    54     1    21
 -5.1172490055271802E-01 a      1294     0    54     1    22
 -1.7404503759772305E+00 a      1295     0    54     1    23
 -6.3628449614768379E-01 a      1296     0    54     1    24
 -9.9321273067196431E-02 a      1297     0    55     1     1
  1.8401059534694486E+00 a      1298     0    55     1     2
 -3.3664324960504588E-01 a      1299     0    55     1     3
 -6.3599952583144082E-01 a      1300     0    55     1     4
  2.9761462483990797E-01 a      1301     0    55     1     5
  6.2896886060988411E-01 a      1302     0    55     1     6
 -1.7529699171957036E-01 a      1303     0    55     1     7
  8.7094281142766250E-01 a      1304     0    55     1     8
  1.4927183589338449E+00 a      1305     0    55     1     9
  9.5570663789946408E-01 a      1306     0    55     1    10
 -8.3318011972833628E-01 a      1307     0    55     1    11
 -1.8223924325229537E+00 a      1308     0    55     1    12
 -1.8801040455671607E+00 a      1309     0    55     1    13
 -7.3208624636616404E-01 a      1310     0    55     1    14
  1.6129064516604898E+00 a      1311     0    55     1    15
 -1.3857559861139264E+00 a      1312     0    55     1    16
 -6.9536944128286093E-01 a      1313     0    55     1    17
  1.2588740949903141E+00 a      1314     0    55     1    18
  7.7010489252868852E-02 a      1315     0    55     1    19
  9.0084438311694526E-01 a      1316     0    55     1    20
  1.1947490012392428E+00 a      1317     0    55     1    21
 -1.0830271906883679E+00 a      1318     0    55     1    22
  1.3992379457352326E+00 a      1319     0    55     1    23
  1.3884551023429720E-01 a      1320     0    55     1    24
 -2.3139398057363258E-01 a      1321     0    56     1     1
 -1.5868003096365735E+00 a      1322     0    56     1     2
  2.0906555340581678E-01 a      1323     0    56     1     3
  1.5048196323550075E-01 a      1324     0    56     1     4
  6.4963863412808753E-01 a      1325     0    56     1     5
 -1.4249344895288525E+00 a      1326     0    56     1     6
 -7.0604821889183966E-01 a      1327     0    56     1     7
  5.4055701095784958E-01 a      1328     0    56     1     8
  1.1043564657542909E-01 a      1329     0    56     1     9
  5.7962884622762501E-01 a      1330     0    56     1    10
 -3.5839398418202217E-01 a      1331     0    56     1    11
  1.6388735836215759E-01 a      1332     0    56     1    12
 -1.2645489165903478E+00 a      1333     0    56     1    13
 -1.0491888376917222E+00 a      1334     0    56     1    14
  1.0498436401053783E+00 a      1335     0    56     1    15
 -9.8987296621033657E-02 a      1336     0    56     1    16
 -1.4268582566146207E-01 a      1337     0    56     1    17
 -3.7297879321487465E-01 a      1338     0    56     1    18
  6.0400732633274401E-01 a      1339     0    56     1    19
 -7.6081510531045238E-01 a      1340     0    56     1    20
 -1.9610556927896823E+00 a      1341     0    56     1    21
  1.4228621655109177E+00 a      1342     0    56     1    22
  9.2111864099589047E-01 a      1343     0    56     1    23
  1.6152036508806850E-01 a      1344     0    56     1    24
  2.1748029885430571E-02 a      1345     0    57     1     1
  2.0439525281078708E+00 a      1346     0    57     1     2
 -2.9705607931080027E+00 a      1347     0    57     1     3
  1.7933636330923357E+00 a      1348     0    57     1     4
  1.6765603484167180E+00 a      1349     0    57     1     5
  1.3954380962736233E+00 a      1350     0    57     1     6
  1.7225212410073920E-01 a      1351     0    57     1     7
  4.4623452111191442E-01 a      1352     0    57     1     8
 -9.6455565309973623E-02 a      1353     0    57     1     9
  9.7370805178661224E-01 a      1354     0    57     1    10
 -1.8369546221645152E+00 a      1355     0    57     1    11
 -3.6588791187745793E+00 a      1356     0    57     1    12
 -1.9640428067463278E+00 a      1357     0    57     1    13
 -6.7826903131462035E-01 a      1358     0    57     1    14
  4.5366342056749804E+00 a      1359     0    57     1    15
 -2.2777384004294037E+00 a      1360     0    57     1    16
 -4.9473792489805324E-01 a      1361     0    57     1    17
  3.6203656658162315E+00 a      1362     0    57     1    18
 -5.3545256036178090E-01 a      1363     0    57     1    19
 -1.0097743372699570E+00 a      1364     0    57     1    20
  2.3416497911478302E+00 a      1365     0    57     1    21
 -1.5269910489837490E-01 a      1366     0    57     1    22
 -9.5525261036937453E-02 a      1367     0    57     1    23
 -4.1037864440994271E-01 a      1368     0    57     1    24
 -1.9338443184777504E-01 a      1369     0    58     1     1
 -1.7074543100183345E-01 a      1370     0    58     1     2
 -2.0034995507522280E-01 a      1371     0    58     1     3
  3.8137982778442792E-01 a      1372     0    58     1     4
  8.5053069682446136E-01 a      1373     0    58     1     5
 -5.5651305779431129E-02 a      1374     0    58     1     6
 -5.4087921864628197E-01 a      1375     0    58     1     7
  1.3769102018054036E-01 a      1376     0    58     1     8
 -1.0514553368851230E-02 a      1377     0    58     1     9
  6.4211131535217936E-01 a      1378     0    58     1    10
  1.0875874056364991E+00 a      1379     0    58     1    11
  2.4868471559311581E-01 a      1380     0    58     1    12
  3.2218194487792862E-01 a      1381     0    58     1    13
  1.4090577585666961E-01 a      1382     0    58     1    14
 -1.0090093964841466E-01 a      1383     0    58     1    15
 -3.0952198991552404E-01 a      1384     0    58     1    16
  6.4500002540560164E-01 a      1385     0    58     1    17
 -4.1940661619237596E-01 a      1386     0    58     1    18
 -7.4294295706337332E-01 a      1387     0    58     1    19
 -7.4016038057754530E-02 a      1388     0    58     1    20
 -9.5037702040076388E-01 a      1389     0    58     1    21
  2.1645318773524280E-02 a      1390     0    58     1    22
 -1.8034785343193699E-01 a      1391     0    58     1    23
  6.1562440571817301E-01 a      1392     0    58     1    24
  1.8607874900925934E+00 a      1393     0    59     1     1
  3.8415867056441227E-01 a      1394     0    59     1     2
  6.1896677728145055E-01 a      1395     0    59     1     3
  1.5283947329336517E-02 a      1396     0    59     1     4
 -1.6956212743430583E+00 a      1397     0    59     1     5
  3.6780289438304851E-02 a      1398     0    59     1     6
 -4.7682032458672097E-01 a      1399     0    59     1     7
  6.8891103305542867E-01 a      1400     0    59     1     8
  1.0498992463737251E+00 a      1401     0    59     1     9
  8.2603123665173239E-01 a      1402     0    59     1    10
  3.8795079952184802E-01 a      1403     0    59     1    11
 -1.2612524469305508E+00 a      1404     0    59     1    12
 -4.2616627179338051E-01 a      1405     0    59     1    13
  8.3200073918674164E-02 a      1406     0    59     1    14
 -1.5790566366903869E+00 a      1407     0    59     1    15
 -1.1074877234492793E-01 a      1408     0    59     1    16
  5.3145355931468818E-01 a      1409     0    59     1    17
 -8.9999883832134295E-02 a      1410     0    59     1    18
  3.8052399989645347E-01 a      1411     0    59     1    19
  1.0677947268411282E-01 a      1412     0    59     1    20
  1.0048374480617233E+00 a      1413     0    59     1    21
  8.1162606836741438E-02 a      1414     0    59     1    22
  6.5745882586218440E-01 a      1415     0    59     1    23
 -1.1198929874476111E+00 a      1416     0    59     1    24
  3.2809568832681923E-01 a      1417     0    60     1     1
 -5.8703510691137839E-01 a      1418     0    60     1     2
 -6.7884121708254086E-01 a      1419     0    60     1     3
  5.3753750338348649E-01 a      1420     0    60     1     4
  8.3482226091023282E-01 a      1421     0    60     1     5
 -7.3488051353453165E-01 a      1422     0    60     1     6
 -5.9921980773582662E-01 a      1423     0    60     1     7
 -9.8271493222661943E-01 a      1424     0    60     1     8
  2.8691796833586630E-01 a      1425     0    60     1     9
 -4.4892381564617378E-01 a      1426     0    60     1    10
  3.3731092674087644E-02 a      1427     0    60     1    11
 -2.7702102531744666E-01 a      1428     0    60     1    12
  7.1416355258220787E-01 a      1429     0    60     1    13
 -3.3407501273426105E-01 a      1430     0    60     1    14
 -5.8458945806005169E-01 a      1431     0    60     1    15
 -3.5584332675952468E-01 a      1432     0    60     1    16
  7.4307105004491794E-02 a      1433     0    60     1    17
  1.7374003509917901E+00 a      1434     0    60     1    18
 -7.5351113208371001E-01 a      1435     0    60     1    19
  9.7435637982995948E-01 a      1436     0    60     1    20
 -1.8728496027861019E-01 a      1437     0    60     1    21
 -1.6081136313951042E-01 a      1438     0    60     1    22
 -7.0074277687354414E-01 a      1439     0    60     1    23
 -5.5826261290585277E-01 a      1440     0    60     1    24
 -3.3982106633571257E-01 a      1441     0    61     1     1
 -7.4373616337634996E-01 a      1442     0    61     1     2
 -2.7224159398050563E-02 a      1443     0    61     1     3
 -8.0863369861769716E-02 a      1444     0    61     1     4
 -3.3390421029505601E-01 a      1445     0    61     1     5
 -2.0201049003088687E+00 a      1446     0    61     1     6
 -9.0976879786819331E-01 a      1447     0    61     1     7
  4.7661084531426373E-01 a      1448     0    61     1     8
 -6.0687153740718436E-01 a      1449     0    61     1     9
  1.8455859374433511E-01 a      1450     0    61     1    10
  1.4397716679369741E+00 a      1451     0    61     1    11
  1.0512628123447245E+00 a      1452     0    61     1    12
  1.1734812801547272E+00 a      1453     0    61     1    13
  1.4482734327030768E+00 a      1454     0    61     1    14
 -1.1902139060739645E+00 a      1455     0    61     1    15
  2.6184228318129626E-01 a      1456     0    61     1    16
  1.4255651446527533E+00 a      1457     0    61     1    17
 -1.1114516883649692E+00 a      1458     0    61     1    18
  1.2800168569403647E+00 a      1459     0    61     1    19
  1.0026693906308850E+00 a      1460     0    61     1    20
 -2.2261879222985042E+00 a      1461     0    61     1    21
 -3.5906095974161101E-01 a      1462     0    61     1    22
  1.8632435196534630E-01 a      1463     0    61     1    23
  9.6641255201009679E-01 a      1464     0    61     1    24
  8.0177310595465706E-02 a      1465     0    62     1     1
 -5.4439200932864373E-01 a      1466     0    62     1     2
  1.8099220515590646E+00 a      1467     0    62     1     3
  2.5109237299966086E-01 a      1468     0    62     1     4
 -1.3925942028321621E+00 a      1469     0    62     1     5
 -1.3907655082169186E+00 a      1470     0    62     1     6
  6.9524263519309815E-01 a      1471     0    62     1     7
  2.4551097515129913E-01 a      1472     0    62     1     8
  1.0585975194887045E+00 a      1473     0    62     1     9
 -2.3505559402487473E+00 a      1474     0    62     1    10
  1.4603950907550156E-01 a      1475     0    62     1    11
 -6.7213284064658652E-01 a      1476     0    62     1    12
  1.8494115643628783E+00 a      1477     0    62     1    13
  1.9497481232538543E+00 a      1478     0    62     1    14
 -1.6898238720263865E+00 a      1479     0    62     1    15
  9.8290517163229174E-01 a      1480     0    62     1    16
  8.2931099375287212E-02 a      1481     0    62     1    17
 -5.6117284090937414E-01 a      1482     0    62     1    18
 -9.5592806217906512E-01 a      1483     0    62     1    19
 -3.1391892642473423E-01 a      1484     0    62     1    20
 -8.9373841587832320E-02 a      1485     0    62     1    21
  1.3508821706237617E+00 a      1486     0    62     1    22
 -9.4110001796299358E-01 a      1487     0    62     1    23
  8.5131858110933378E-02 a      1488     0    62     1    24
 -8.2318756364358592E-02 a      1489     0    63     1     1
 -9.6724866871174944E-02 a      1490     0    63     1     2
  9.4183249900350360E-02 a      1491     0    63     1     3
  4.4985523484798884E-01 a      1492     0    63     1     4
  4.1281495873678481E-01 a      1493     0    63     1     5
 -1.0453118610484082E+00 a      1494     0    63     1     6
  1.2733088857541759E+00 a      1495     0    63     1     7
 -1.9553772886413412E+00 a      1496     0    63     1     8
  9.0786934607806624E-01 a      1497     0    63     1     9
  1.4860939856435632E-01 a      1498     0    63     1    10
  3.6871325255665610E-01 a      1499     0    63     1    11
 -1.7135936893313153E+00 a      1500     0    63     1    12
  5.6124715789249957E-01 a      1501     0    63     1    13
 -1.3057340350105462E+00 a      1502     0    63     1    14
  9.9062568430363013E-02 a      1503     0    63     1    15
  5.2864275450977316E-01 a      1504     0    63     1    16
  1.1722932302142874E+00 a      1505     0    63     1    17
  7.0608539748518140E-01 a      1506     0    63     1    18
 -4.0637239738144920E-01 a      1507     0    63     1    19
 -1.3839444576140000E-02 a      1508     0    63     1    20
 -4.9358152690051610E-01 a      1509     0    63     1    21
  1.0206766431881928E+00 a      1510     0    63     1    22
  9.7401723021946784E-01 a      1511     0    63     1    23
  1.7382554781859236E-01 a      1512     0    63     1    24
  8.8596187549877492E-01 a      1513     0    64     1     1
  3.7375178687508212E-02 a      1514     0    64     1     2
  1.9920572609455819E-01 a      1515     0    64     1     3
 -1.3551619977500859E-01 a      1516     0    64     1     4
  3.7207066666854471E-02 a      1517     0    64     1     5
  3.9548716152911717E-01 a      1518     0    64     1     6
 -1.1045927856454042E-01 a      1519     0    64     1     7
 -9.4231615969977756E-01 a      1520     0    64     1     8
  3.0210320531200408E-01 a      1521     0    64     1     9
 -5.6679019109759787E-01 a      1522     0    64     1    10
 -6.5301892043624743E-01 a      1523     0    64     1    11
 -4.4144650913931061E-01 a      1524     0    64     1    12
 -2.3380783604586206E-01 a      1525     0    64     1    13
  6.1069047599187576E-01 a      1526     0    64     1    14
  2.5024690374716613E-01 a      1527     0    64     1    15
  2.0200381122011512E-02 a      1528     0    64     1    16
 -2.2830839435230654E-01 a      1529     0    64     1    17
  2.8107411793356235E-01 a      1530     0    64     1    18
 -3.0328748435559838E-01 a      1531     0    64     1    19
 -6.0946570750006722E-03 a      1532     0    64     1    20
  6.7507105426022253E-03 a      1533     0    64     1    21
  7.4352876941013513E-01 a      1534     0    64     1    22
 -2.5257205411258660E-01 a      1535     0    64     1    23
  8.1548497534619202E-01 a      1536     0    64     1    24
 -5.0690918359032699E-01 a      1537     0    65     1     1
 -4.7660137825245608E-01 a      1538     0    65     1     2
  7.9705227557876979E-01 a      1539     0    65     1     3
 -1.1389218895373736E+00 a      1540     0    65     1     4
  8.9365741657940767E-01 a      1541     0    65     1     5
  4.5512227210301232E-01 a      1542     0    65     1     6
 -3.3518763462460660E-01 a      1543     0    65     1     7
  2.4616799427460775E-01 a      1544     0    65     1     8
  8.2839602478389884E-01 a      1545     0    65     1     9
  7.3179445519470698E-01 a      1546     0    65     1    10
  4.5567676948203245E-01 a      1547     0    65     1    11
  2.4747859364727014E+00 a      1548     0    65     1    12
  9.2275296415374491E-02 a      1549     0    65     1    13
  2.4629386710062512E-01 a      1550     0    65     1    14
 -3.3638746560832947E-02 a      1551     0    65     1    15
  2.7360097367310465E-01 a      1552     0    65     1    16
 -1.2608806431513016E+00 a      1553     0    65     1    17
 -2.2791472656580214E-01 a      1554     0    65     1    18
 -3.8644179587135258E-01 a      1555     0    65     1    19
  2.2006087858581447E-01 a      1556     0    65     1    20
 -3.5191187226990917E-01 a      1557     0    65     1    21
  6.3504859677257919E-01 a      1558     0    65     1    22
 -1.5710883544312640E-01 a      1559     0    65     1    23
 -4.3055345391072747E-01 a      1560     0    65     1    24
 -2.6776975521109730E-01 a      1561     0    66     1     1
 -5.4869355823576473E-02 a      1562     0    66     1     2
 -7.3480002281500808E-03 a      1563     0    66     1     3
 -4.8362419410308455E-01 a      1564     0    66     1     4
 -6.7848108077483416E-01 a      1565     0    66     1     5
 -1.0226675698823773E-01 a      1566     0    66     1     6
  4.8196971945912603E-01 a      1567     0    66     1     7
 -8.5609403932251904E-01 a      1568     0    66     1     8
 -3.7619420880861287E-01 a      1569     0    66     1     9
  5.7435403963597687E-01 a      1570     0    66     1    10
 -7.4387048184154947E-01 a      1571     0    66     1    11
 -2.9912476934899545E-03 a      1572     0    66     1    12
 -1.5113065872165091E-01 a      1573     0    66     1    13
 -8.9090191983564138E-01 a      1574     0    66     1    14
  1.9390709160027547E-01 a      1575     0    66     1    15
  8.0015817582882809E-01 a      1576     0    66     1    16
  8.1481793446432838E-01 a      1577     0    66     1    17
 -1.1627819103721357E-01 a      1578     0    66     1    18
  1.7718012092055227E-01 a      1579     0    66     1    19
 -8.2027522272849773E-01 a      1580     0    66     1    20
  5.7777135763216791E-01 a      1581     0    66     1    21
 -3.9331047943700420E-01 a      1582     0    66     1    22
 -5.2006806512400161E-01 a      1583     0    66     1    23
  6.6612184079920667E-01 a      1584     0    66     1    24
 -5.2727572423912772E-01 a      1585     0    67     1     1
  9.0428510360241565E-01 a      1586     0    67     1     2
  5.9510705850657031E-01 a      1587     0    67     1     3
  8.8969949805899951E-01 a      1588     0    67     1     4
 -2.8216583646353555E-01 a      1589     0    67     1     5
 -5.3988256984715666E-01 a      1590     0    67     1     6
  5.6021541169248523E-01 a      1591     0    67     1     7
  1.3801743425683249E-01 a      1592     0    67     1     8
  5.1075880528424933E-01 a      1593     0    67     1     9
  2.7099714465623992E-01 a      1594     0    67     1    10
  1.0317885991728162E+00 a      1595     0    67     1    11
 -1.6557806251624246E-01 a      1596     0    67     1    12
  2.4403996348596110E-01 a      1597     0    67     1    13
 -1.5497620630719935E-01 a      1598     0    67     1    14
  7.7736631332854245E-01 a      1599     0    67     1    15
  2.2935373880519813E-01 a      1600     0    67     1    16
  2.0887304550696220E-01 a      1601     0    67     1    17
  4.8140092006686369E-01 a      1602     0    67     1    18
  6.5180236563549332E-01 a      1603     0    67     1    19
  4.7413143203530123E-01 a      1604     0    67     1    20
 -1.4643544952917702E+00 a      1605     0    67     1    21
 -2.4826990242120231E-01 a      1606     0    67     1    22
  8.1277126611632067E-01 a      1607     0    67     1    23
 -1.3916820055013021E-01 a      1608     0    67     1    24
  9.0703102923446188E-01 a      1609     0    68     1     1
 -5.8926599497652143E-01 a      1610     0    68     1     2
  1.0295251299035646E+00 a      1611     0    68     1     3
 -4.2786854078860642E-01 a      1612     0    68     1     4
  6.6036200722010951E-01 a      1613     0    68     1     5
 -7.4830231078971521E-01 a      1614     0    68     1     6
  7.6930181398774977E-01 a      1615     0    68     1     7
  7.4350484566776909E-01 a      1616     0    68     1     8
 -7.8327791327493546E-01 a      1617     0    68     1     9
 -6.0030893486788317E-01 a      1618     0    68     1    10
 -1.6019330759150772E-02 a      1619     0    68     1    11
  1.6080557271769598E+00 a      1620     0    68     1    12
  8.4346069409082491E-01 a      1621     0    68     1    13
  7.0071304354123298E-01 a      1622     0    68     1    14
 -1.9541927701819444E+00 a      1623     0    68     1    15
