################################################################################
# Neural network connection values (weights and biases).
################################################################################
# Col  Name       Description
################################################################################
# 1    connection Neural network connection value.
# 2    t          Connection type (a = weight, b = bias).
# 3    index      Index enumerating weights.
# 4    l_s        Starting point layer (end point layer for biases).
# 5    n_s        Starting point neuron in starting layer (end point neuron for biases).
# 6    l_e        End point layer.
# 7    n_e        End point neuron in end layer.
################################################################################
#                      1 2         3     4     5     6     7
#             connection t     index   l_s   n_s   l_e   n_e
############################################################
  1.4469664752634515E+00 a         1     0     1     1     1
 -1.0100160722640090E+00 a         2     0     1     1     2
  1.4791730219952754E+00 a         3     0     1     1     3
  1.3682486045560949E+00 a         4     0     1     1     4
  7.8425196683499260E-02 a         5     0     1     1     5
  5.6124284446225026E-01 a         6     0     1     1     6
 -1.2215923112996849E+00 a         7     0     1     1     7
  7.1542196104230282E-01 a         8     0     1     1     8
 -3.1643148252708758E-01 a         9     0     1     1     9
 -8.8365580402561594E-02 a        10     0     1     1    10
 -1.5985324565267347E+00 a        11     0     1     1    11
 -8.6012268923621948E-01 a        12     0     1     1    12
 -8.4529225112915818E-01 a        13     0     1     1    13
 -3.7269607265987748E-01 a        14     0     1     1    14
 -5.5808338864487894E-01 a        15     0     1     1    15
  1.7344028412607155E+00 a        16     0     1     1    16
 -2.2979974028554309E+00 a        17     0     1     1    17
  8.1165426069473001E-01 a        18     0     1     1    18
  8.8736432588719194E-01 a        19     0     1     1    19
 -4.2230049553105509E-01 a        20     0     1     1    20
 -1.1851590761825475E+00 a        21     0     1     1    21
 -1.0577303939082336E-01 a        22     0     1     1    22
  5.7656904832969968E-01 a        23     0     1     1    23
  8.9225885305050046E-01 a        24     0     1     1    24
  3.7497560532772541E-02 a        25     0     2     1     1
  5.7468383706802240E-01 a        26     0     2     1     2
 -2.5230200052289709E-01 a        27     0     2     1     3
  1.9551932783430419E+00 a        28     0     2     1     4
  7.5232511464104546E-01 a        29     0     2     1     5
 -6.3019413101239652E-02 a        30     0     2     1     6
  3.7487593930961111E-01 a        31     0     2     1     7
  9.0572274881556125E-01 a        32     0     2     1     8
 -3.0160614734274477E-01 a        33     0     2     1     9
  6.4968585522043909E-01 a        34     0     2     1    10
  6.7815443321994850E-01 a        35     0     2     1    11
  1.6328568890958264E-01 a        36     0     2     1    12
 -2.6223329230895076E-01 a        37     0     2     1    13
  1.3586237016596325E+00 a        38     0     2     1    14
 -9.1670395849064157E-01 a        39     0     2     1    15
  5.3344334953264939E-02 a        40     0     2     1    16
 -1.0588998601336634E-01 a        41     0     2     1    17
 -1.7806537174488635E-01 a        42     0     2     1    18
  8.4990468282615816E-01 a        43     0     2     1    19
 -6.9724191290994830E-01 a        44     0     2     1    20
  6.3745455590236796E-02 a        45     0     2     1    21
 -2.8563608064509738E-01 a        46     0     2     1    22
 -7.3651602078382061E-01 a        47     0     2     1    23
  3.7642978075177475E-01 a        48     0     2     1    24
 -1.9615965752199597E-02 a        49     0     3     1     1
  3.7716219222477460E-01 a        50     0     3     1     2
  3.4468693788350202E-01 a        51     0     3     1     3
  2.5413982734538149E-01 a        52     0     3     1     4
 -2.3018454006892322E-01 a        53     0     3     1     5
 -3.9674349436498935E-01 a        54     0     3     1     6
 -3.1086445556574654E-01 a        55     0     3     1     7
 -2.7746616910940672E-02 a        56     0     3     1     8
  2.8637455662686173E-01 a        57     0     3     1     9
  4.2603989991502450E-01 a        58     0     3     1    10
  4.3763087250568045E-01 a        59     0     3     1    11
  4.2824537976648569E-01 a        60     0     3     1    12
 -1.9512997966138640E-01 a        61     0     3     1    13
 -2.1526163256471745E-01 a        62     0     3     1    14
 -3.2426271127577283E-01 a        63     0     3     1    15
 -7.6838762643271594E-02 a        64     0     3     1    16
  4.2256614329608566E-01 a        65     0     3     1    17
 -1.0897819990695365E+00 a        66     0     3     1    18
  5.3699587637393875E-01 a        67     0     3     1    19
  6.9224703704322466E-01 a        68     0     3     1    20
  3.2022795532649467E-01 a        69     0     3     1    21
  5.1552955205579121E-01 a        70     0     3     1    22
 -7.2592599405099456E-01 a        71     0     3     1    23
  7.6652444140875309E-01 a        72     0     3     1    24
 -1.0526399039663241E+00 a        73     0     4     1     1
 -3.6299816723399897E-01 a        74     0     4     1     2
 -1.2401910971777816E+00 a        75     0     4     1     3
 -2.5580190186754681E+00 a        76     0     4     1     4
 -8.0820420926247838E-01 a        77     0     4     1     5
 -4.3834100962619227E-01 a        78     0     4     1     6
  2.8170382563929142E-01 a        79     0     4     1     7
 -1.1775708674069347E+00 a        80     0     4     1     8
  4.4513946763400836E-01 a        81     0     4     1     9
 -5.2678168860735208E-01 a        82     0     4     1    10
 -3.7381115273474663E-01 a        83     0     4     1    11
 -2.9278897777167395E-01 a        84     0     4     1    12
  6.7320929672266649E-01 a        85     0     4     1    13
 -1.0509051582833691E+00 a        86     0     4     1    14
  1.4034528190151401E+00 a        87     0     4     1    15
 -8.6047944606778962E-02 a        88     0     4     1    16
  1.2738432283245473E+00 a        89     0     4     1    17
 -1.3178093581124195E-01 a        90     0     4     1    18
 -1.1429480735810422E+00 a        91     0     4     1    19
  9.5474310828255349E-01 a        92     0     4     1    20
  3.3285020644223985E-02 a        93     0     4     1    21
  3.1436473438452717E-01 a        94     0     4     1    22
  5.9726739104583937E-01 a        95     0     4     1    23
 -1.1674879320680744E+00 a        96     0     4     1    24
  3.1433965056311752E-01 a        97     0     5     1     1
 -2.7286456819642851E-01 a        98     0     5     1     2
 -4.6678575410995349E-01 a        99     0     5     1     3
  2.1065337305573645E-01 a       100     0     5     1     4
 -1.9183419213176292E-01 a       101     0     5     1     5
  1.2538909669108828E-02 a       102     0     5     1     6
 -3.2053652883169514E-01 a       103     0     5     1     7
  8.5715851609139179E-02 a       104     0     5     1     8
 -4.8211505731109450E-01 a       105     0     5     1     9
  2.3827355266666658E-01 a       106     0     5     1    10
 -2.5646055743964785E-01 a       107     0     5     1    11
  5.8041062575525985E-02 a       108     0     5     1    12
 -6.1582280218962704E-01 a       109     0     5     1    13
  6.1323218964502990E-01 a       110     0     5     1    14
 -3.4246843852570047E-01 a       111     0     5     1    15
  1.0325347525761122E+00 a       112     0     5     1    16
  2.1661773455117401E-02 a       113     0     5     1    17
 -1.4461517181900096E-01 a       114     0     5     1    18
  8.3067795306522074E-01 a       115     0     5     1    19
  2.6423523965501033E-01 a       116     0     5     1    20
 -4.1988485829480754E-01 a       117     0     5     1    21
  7.5353773981200481E-02 a       118     0     5     1    22
 -1.5557645550192220E-01 a       119     0     5     1    23
 -4.3514856543914328E-02 a       120     0     5     1    24
  2.3116653276946977E-02 a       121     0     6     1     1
  3.7203962850730010E-01 a       122     0     6     1     2
  2.8027066055333921E-01 a       123     0     6     1     3
 -1.3675952471268180E-01 a       124     0     6     1     4
 -2.8168751018058136E-01 a       125     0     6     1     5
 -1.6928353381273756E-01 a       126     0     6     1     6
  4.8986067466726409E-02 a       127     0     6     1     7
 -1.3081290795427541E-01 a       128     0     6     1     8
  2.1948185675114670E-01 a       129     0     6     1     9
  3.1400876182166410E-01 a       130     0     6     1    10
  2.4677907094196319E-01 a       131     0     6     1    11
 -3.8764680679065537E-03 a       132     0     6     1    12
  5.8898455066416694E-02 a       133     0     6     1    13
 -5.0195580326544226E-02 a       134     0     6     1    14
 -3.1354852006005707E-01 a       135     0     6     1    15
  1.5017428209272507E-01 a       136     0     6     1    16
  4.9343868630133750E-02 a       137     0     6     1    17
  7.2180219859647107E-02 a       138     0     6     1    18
 -6.2490672444464782E-02 a       139     0     6     1    19
  2.8882278144213525E-01 a       140     0     6     1    20
 -1.0882350451439482E-01 a       141     0     6     1    21
 -1.5731506732275018E-02 a       142     0     6     1    22
  9.8653187719577248E-02 a       143     0     6     1    23
  2.1955185422585546E-01 a       144     0     6     1    24
 -1.7794974324089494E-01 a       145     0     7     1     1
  5.4451176149528824E-02 a       146     0     7     1     2
 -1.3281150560915359E-01 a       147     0     7     1     3
 -2.6805004766405405E-01 a       148     0     7     1     4
  6.2374612794717475E-02 a       149     0     7     1     5
  2.7978389759096004E-02 a       150     0     7     1     6
  4.1015276090873559E-01 a       151     0     7     1     7
 -1.1093589398951875E+00 a       152     0     7     1     8
 -3.9855395800502375E-02 a       153     0     7     1     9
 -2.7555257840647368E-01 a       154     0     7     1    10
  5.6537284407825548E-03 a       155     0     7     1    11
  5.7580067548221529E-02 a       156     0     7     1    12
  7.3411367259274529E-01 a       157     0     7     1    13
 -1.8461264055075605E-01 a       158     0     7     1    14
  3.9259798908739779E-01 a       159     0     7     1    15
 -2.1735933356913731E-01 a       160     0     7     1    16
 -6.1870461213842064E-02 a       161     0     7     1    17
 -1.0594812663642549E-01 a       162     0     7     1    18
 -4.7376958451890389E-01 a       163     0     7     1    19
 -2.8383118741183055E-01 a       164     0     7     1    20
  2.2089895239783889E-02 a       165     0     7     1    21
 -1.9821944469341360E-01 a       166     0     7     1    22
 -3.6151768428322695E-01 a       167     0     7     1    23
 -3.0063539864370964E-01 a       168     0     7     1    24
  6.7818991774247453E-02 a       169     0     8     1     1
 -1.5009666345514783E-01 a       170     0     8     1     2
  7.0572573518510465E-03 a       171     0     8     1     3
  8.0661298106672802E-02 a       172     0     8     1     4
  5.6409863572298692E-02 a       173     0     8     1     5
 -2.6344206291858470E-02 a       174     0     8     1     6
  3.8414121654904687E-01 a       175     0     8     1     7
 -2.2803341214909983E-01 a       176     0     8     1     8
  8.6400445202289303E-02 a       177     0     8     1     9
 -2.1390075905071193E-01 a       178     0     8     1    10
 -2.2199476236598426E-01 a       179     0     8     1    11
 -9.8439187248353696E-02 a       180     0     8     1    12
  4.5827130079582834E-02 a       181     0     8     1    13
  1.2599914438295401E-01 a       182     0     8     1    14
  2.2183803973669058E-01 a       183     0     8     1    15
 -3.2604233794970107E-02 a       184     0     8     1    16
 -1.5379342617237027E-01 a       185     0     8     1    17
  2.1444926713375830E-02 a       186     0     8     1    18
 -9.5108603388849994E-02 a       187     0     8     1    19
 -2.3577113397175248E-01 a       188     0     8     1    20
 -1.5704665305268931E-01 a       189     0     8     1    21
 -2.2877601799942765E-01 a       190     0     8     1    22
  2.9443139491155601E-03 a       191     0     8     1    23
 -3.5574724213082498E-02 a       192     0     8     1    24
 -1.2723005910885236E-02 a       193     0     9     1     1
 -1.5543491840306198E-01 a       194     0     9     1     2
  1.1815441565671878E-01 a       195     0     9     1     3
  1.6826980780315720E-01 a       196     0     9     1     4
 -7.8554286104337248E-02 a       197     0     9     1     5
 -8.7088644331509937E-02 a       198     0     9     1     6
 -2.3680248315056612E-01 a       199     0     9     1     7
 -2.7918383824350029E-01 a       200     0     9     1     8
  6.3340193408787122E-03 a       201     0     9     1     9
  2.9453681116150349E-02 a       202     0     9     1    10
  2.0057333484933920E-01 a       203     0     9     1    11
  5.6350000828691704E-01 a       204     0     9     1    12
  7.9245802738721519E-02 a       205     0     9     1    13
 -3.2628364620157940E-01 a       206     0     9     1    14
  2.0680391095923029E-01 a       207     0     9     1    15
  9.5783329930063721E-02 a       208     0     9     1    16
  2.3988549326037353E-01 a       209     0     9     1    17
 -5.2494194640153857E-01 a       210     0     9     1    18
  2.3738615034073859E-02 a       211     0     9     1    19
 -7.0545786207560565E-02 a       212     0     9     1    20
  2.9196933763643829E-01 a       213     0     9     1    21
  1.5775464692421742E-01 a       214     0     9     1    22
 -5.8349697174425445E-02 a       215     0     9     1    23
  1.1901999777514875E-01 a       216     0     9     1    24
  2.0564131452003361E-02 a       217     0    10     1     1
 -2.5733106591131505E-01 a       218     0    10     1     2
 -7.9825473511459452E-02 a       219     0    10     1     3
 -8.6074441427568105E-01 a       220     0    10     1     4
 -3.4404058032005180E-01 a       221     0    10     1     5
 -1.2278208783534898E-01 a       222     0    10     1     6
 -4.3393333762495517E-02 a       223     0    10     1     7
 -2.0576453674150985E-01 a       224     0    10     1     8
  3.1651841317264429E-01 a       225     0    10     1     9
 -1.2471604450208817E-01 a       226     0    10     1    10
 -1.0914379709239613E-01 a       227     0    10     1    11
 -1.4228685446477349E-01 a       228     0    10     1    12
  2.1157479771925625E-01 a       229     0    10     1    13
 -4.6182626939867721E-01 a       230     0    10     1    14
  2.8097587297548049E-01 a       231     0    10     1    15
 -1.9745339042499108E-01 a       232     0    10     1    16
  5.2709880585656461E-02 a       233     0    10     1    17
  6.4545370221404845E-03 a       234     0    10     1    18
 -3.0532756078073192E-01 a       235     0    10     1    19
  2.7041084934674608E-01 a       236     0    10     1    20
 -3.3647797204113306E-01 a       237     0    10     1    21
  2.4529582869648078E-01 a       238     0    10     1    22
  3.2233360179792342E-01 a       239     0    10     1    23
 -2.9746067990240982E-01 a       240     0    10     1    24
 -6.3364086376186901E-02 a       241     0    11     1     1
  4.6093998393526493E-02 a       242     0    11     1     2
 -2.0198290203116737E-03 a       243     0    11     1     3
 -2.2938629807453553E-01 a       244     0    11     1     4
 -4.5055464162402956E-02 a       245     0    11     1     5
 -7.8596965688653916E-03 a       246     0    11     1     6
 -7.5078728808146570E-03 a       247     0    11     1     7
  2.7693361821173168E-01 a       248     0    11     1     8
 -5.5006230273118894E-03 a       249     0    11     1     9
 -1.0935771423694557E-01 a       250     0    11     1    10
  1.2912567686475125E-02 a       251     0    11     1    11
 -1.0154006327571226E-01 a       252     0    11     1    12
  7.2398020519283471E-02 a       253     0    11     1    13
  1.6456516098631765E-01 a       254     0    11     1    14
  5.5405171982013890E-02 a       255     0    11     1    15
  1.2415308330001401E-01 a       256     0    11     1    16
 -1.7421461983272815E-01 a       257     0    11     1    17
  1.1015580729755327E-01 a       258     0    11     1    18
 -5.2776854748905873E-02 a       259     0    11     1    19
  2.7066990451445411E-01 a       260     0    11     1    20
 -2.2611667130767554E-01 a       261     0    11     1    21
  6.7148666222330511E-02 a       262     0    11     1    22
  8.9949216448296079E-02 a       263     0    11     1    23
 -3.8122573894448120E-02 a       264     0    11     1    24
 -4.0338833182118422E-01 a       265     0    12     1     1
 -1.0942890220041293E+00 a       266     0    12     1     2
 -3.1225014956843389E-01 a       267     0    12     1     3
 -1.4201592897142827E+00 a       268     0    12     1     4
  1.2348605952465155E+00 a       269     0    12     1     5
  6.6962730256645175E-01 a       270     0    12     1     6
 -2.4175385996225396E-01 a       271     0    12     1     7
  3.7126724388443905E-01 a       272     0    12     1     8
 -7.0822728861333173E-01 a       273     0    12     1     9
 -2.6691115043742270E-01 a       274     0    12     1    10
 -5.4335168440219228E-01 a       275     0    12     1    11
 -3.7228092899994611E-02 a       276     0    12     1    12
  2.2481608861177557E-01 a       277     0    12     1    13
  3.9187716182522042E-01 a       278     0    12     1    14
 -2.4611995469109102E-01 a       279     0    12     1    15
  1.1644839565913607E+00 a       280     0    12     1    16
  2.5042137807706685E-02 a       281     0    12     1    17
  1.7685071828751509E+00 a       282     0    12     1    18
 -2.6351479503259645E-01 a       283     0    12     1    19
 -5.1873433999413898E-01 a       284     0    12     1    20
 -1.6183458208334778E-01 a       285     0    12     1    21
  6.6051660785585897E-01 a       286     0    12     1    22
  2.5173460466557871E+00 a       287     0    12     1    23
 -7.2688321446507239E-03 a       288     0    12     1    24
  2.6979515928898146E-01 a       289     0    13     1     1
  2.4879882587965869E+00 a       290     0    13     1     2
  2.8029984088875309E-01 a       291     0    13     1     3
  1.1832490357491521E+00 a       292     0    13     1     4
 -6.3516034411006506E-01 a       293     0    13     1     5
  4.2033243128125164E-01 a       294     0    13     1     6
  9.0449273020190002E-01 a       295     0    13     1     7
  1.3376824157257969E+00 a       296     0    13     1     8
  3.2574903214851514E-01 a       297     0    13     1     9
  3.5286152653197282E-02 a       298     0    13     1    10
  6.5721177209475068E-01 a       299     0    13     1    11
 -1.7024526872255215E+00 a       300     0    13     1    12
 -1.2797409089104477E+00 a       301     0    13     1    13
  1.9177216465404394E+00 a       302     0    13     1    14
 -8.3255151939888006E-01 a       303     0    13     1    15
 -1.2246833809589679E+00 a       304     0    13     1    16
 -1.2713846574102383E+00 a       305     0    13     1    17
  1.0934803832593536E+00 a       306     0    13     1    18
  3.0263428615119803E-01 a       307     0    13     1    19
  6.7138892619675561E-01 a       308     0    13     1    20
  7.7437486336979922E-01 a       309     0    13     1    21
 -1.6803536699149875E+00 a       310     0    13     1    22
 -3.1258434915548787E+00 a       311     0    13     1    23
  9.6554825756384888E-01 a       312     0    13     1    24
  1.5223807066139013E-02 a       313     0    14     1     1
 -1.3070868597858823E-02 a       314     0    14     1     2
 -1.3266283944438770E-01 a       315     0    14     1     3
  5.3838239809937294E-02 a       316     0    14     1     4
 -8.2522635947622075E-02 a       317     0    14     1     5
  1.7695197487567565E-01 a       318     0    14     1     6
  1.9114323553564994E-01 a       319     0    14     1     7
 -1.1743409996043361E-01 a       320     0    14     1     8
 -3.9499120715558673E-02 a       321     0    14     1     9
  5.8345432814378713E-02 a       322     0    14     1    10
 -1.6334092357730798E-01 a       323     0    14     1    11
 -1.2686821874142917E-01 a       324     0    14     1    12
 -1.6404160550591551E-01 a       325     0    14     1    13
  2.0313482468139452E-02 a       326     0    14     1    14
 -2.7333913371518907E-02 a       327     0    14     1    15
 -1.5877782938758078E-01 a       328     0    14     1    16
  2.0755376346281765E-01 a       329     0    14     1    17
 -5.9333340660236294E-02 a       330     0    14     1    18
 -4.1739627449075271E-02 a       331     0    14     1    19
  8.8562405053569174E-02 a       332     0    14     1    20
  9.2371794792398015E-02 a       333     0    14     1    21
 -1.9419921050047273E-01 a       334     0    14     1    22
 -9.8746901918700211E-02 a       335     0    14     1    23
  2.4235031220527065E-01 a       336     0    14     1    24
 -1.0308451705659623E-01 a       337     0    15     1     1
  1.4022351259647898E-03 a       338     0    15     1     2
 -1.8784927274272965E-02 a       339     0    15     1     3
 -4.4582211419532211E-02 a       340     0    15     1     4
 -2.1375690823450727E-02 a       341     0    15     1     5
  5.6849870973631773E-03 a       342     0    15     1     6
  7.2633783467783652E-02 a       343     0    15     1     7
 -1.3432915796116432E-01 a       344     0    15     1     8
  1.0313363373181361E-01 a       345     0    15     1     9
  1.1835189357748331E-01 a       346     0    15     1    10
 -1.2092016413646416E-01 a       347     0    15     1    11
 -2.6201798970080098E-01 a       348     0    15     1    12
 -1.3168183429152935E-01 a       349     0    15     1    13
 -1.0638397794986587E-01 a       350     0    15     1    14
 -1.3788083776549939E-02 a       351     0    15     1    15
 -5.5762171559356422E-02 a       352     0    15     1    16
  2.0658946691737379E-01 a       353     0    15     1    17
 -1.1114123662403225E-01 a       354     0    15     1    18
 -3.7971659014107081E-02 a       355     0    15     1    19
  1.2454231321674848E-01 a       356     0    15     1    20
 -1.7680627437261934E-01 a       357     0    15     1    21
  4.2384116026176977E-02 a       358     0    15     1    22
  1.3635702605331182E-01 a       359     0    15     1    23
 -1.0592058285460862E-01 a       360     0    15     1    24
  3.1338408253988939E-02 a       361     0    16     1     1
  1.0022333527979950E-01 a       362     0    16     1     2
  8.3115965438932737E-02 a       363     0    16     1     3
 -6.1409544117767312E-01 a       364     0    16     1     4
 -1.9902976352555291E-01 a       365     0    16     1     5
  3.3813283788682241E-01 a       366     0    16     1     6
 -3.3794188319683449E-02 a       367     0    16     1     7
  3.2825151609879466E-01 a       368     0    16     1     8
  1.3210880949834827E-01 a       369     0    16     1     9
 -2.9743133916762304E-01 a       370     0    16     1    10
 -5.1431577823390573E-01 a       371     0    16     1    11
  5.2311445219625954E-02 a       372     0    16     1    12
 -5.7065255485125910E-01 a       373     0    16     1    13
  2.4224967085748703E-02 a       374     0    16     1    14
 -7.8616803062331958E-02 a       375     0    16     1    15
 -7.9324279566996933E-02 a       376     0    16     1    16
  3.8587153379829611E-02 a       377     0    16     1    17
  1.8305945885541708E-01 a       378     0    16     1    18
 -5.5391208929349933E-01 a       379     0    16     1    19
  3.5411973326447876E-01 a       380     0    16     1    20
  1.8914085508188200E-01 a       381     0    16     1    21
 -4.7572511269591128E-01 a       382     0    16     1    22
 -7.3896324360172877E-02 a       383     0    16     1    23
  3.4292104298185505E-01 a       384     0    16     1    24
 -6.7729471675154959E-02 a       385     0    17     1     1
  1.7934856537227591E-02 a       386     0    17     1     2
 -6.1428329032302838E-02 a       387     0    17     1     3
 -2.0628748349460818E-01 a       388     0    17     1     4
 -3.4677246265304086E-02 a       389     0    17     1     5
  1.8581821415181037E-02 a       390     0    17     1     6
  4.5688598526668085E-03 a       391     0    17     1     7
  2.3490510682412846E-01 a       392     0    17     1     8
  2.2151544879677691E-02 a       393     0    17     1     9
 -6.9288294571232548E-02 a       394     0    17     1    10
 -9.6451320743767884E-03 a       395     0    17     1    11
 -1.1290556681670047E-01 a       396     0    17     1    12
  2.5004727721726395E-02 a       397     0    17     1    13
  6.6533223789113319E-02 a       398     0    17     1    14
  3.7981059312226055E-02 a       399     0    17     1    15
  3.5888930929962433E-02 a       400     0    17     1    16
 -9.5969378194415325E-02 a       401     0    17     1    17
  2.9162036891181044E-02 a       402     0    17     1    18
 -8.5051418276434171E-02 a       403     0    17     1    19
  1.7767930710558011E-01 a       404     0    17     1    20
 -1.9093420596925245E-01 a       405     0    17     1    21
  7.6161290675811344E-02 a       406     0    17     1    22
  1.0380394223100844E-01 a       407     0    17     1    23
 -7.0611398544600551E-02 a       408     0    17     1    24
 -1.4000862248078524E-01 a       409     0    18     1     1
  6.4272355925522648E-02 a       410     0    18     1     2
 -3.4528298388000735E-02 a       411     0    18     1     3
 -1.1387649710384817E-01 a       412     0    18     1     4
  6.6052469292560388E-03 a       413     0    18     1     5
  7.9568194721614721E-02 a       414     0    18     1     6
 -4.7543037637073945E-02 a       415     0    18     1     7
 -8.6104372422133285E-02 a       416     0    18     1     8
  1.4556543384241812E-02 a       417     0    18     1     9
 -2.5208998924968383E-02 a       418     0    18     1    10
 -3.1663524285214184E-01 a       419     0    18     1    11
 -1.3824818103788600E-01 a       420     0    18     1    12
 -5.1421443883457305E-02 a       421     0    18     1    13
 -8.5993074832736618E-02 a       422     0    18     1    14
 -4.3332500861006228E-02 a       423     0    18     1    15
  8.0600897250536901E-02 a       424     0    18     1    16
  1.3267910799222166E-01 a       425     0    18     1    17
 -2.2261943760504166E-01 a       426     0    18     1    18
 -6.5063679035949090E-02 a       427     0    18     1    19
  2.2332603572442969E-01 a       428     0    18     1    20
  5.6646422611700354E-03 a       429     0    18     1    21
  4.1325381275031790E-02 a       430     0    18     1    22
  3.2498905301259545E-01 a       431     0    18     1    23
 -2.2875744864025482E-01 a       432     0    18     1    24
  2.4143420235051780E-01 a       433     0    19     1     1
 -1.7764557056301383E-01 a       434     0    19     1     2
 -3.0171572524233153E-01 a       435     0    19     1     3
  3.4019659910948817E-02 a       436     0    19     1     4
 -3.3352975746316021E-01 a       437     0    19     1     5
  2.4102659382479041E-01 a       438     0    19     1     6
 -1.1254187945634149E-01 a       439     0    19     1     7
 -7.0758120917712464E-01 a       440     0    19     1     8
  3.3054972371497504E-01 a       441     0    19     1     9
  1.2528066230880086E-01 a       442     0    19     1    10
  3.5630547776980798E-01 a       443     0    19     1    11
  3.0421601791804948E-01 a       444     0    19     1    12
 -2.9632131886859470E-01 a       445     0    19     1    13
 -7.0049398554535069E-01 a       446     0    19     1    14
  1.8251730288875104E-01 a       447     0    19     1    15
 -7.9826879888575153E-01 a       448     0    19     1    16
  1.3995012758678566E-02 a       449     0    19     1    17
 -3.3628119343732155E-01 a       450     0    19     1    18
  1.2344763163097515E-01 a       451     0    19     1    19
 -1.0165439327233514E-01 a       452     0    19     1    20
 -1.1955303639176977E-01 a       453     0    19     1    21
 -3.3303044714553415E-01 a       454     0    19     1    22
 -9.3255262318781107E-01 a       455     0    19     1    23
 -2.0089127150825298E-02 a       456     0    19     1    24
  1.3847466980205246E-02 a       457     0    20     1     1
  4.5986912376872163E-02 a       458     0    20     1     2
  5.4367749361261042E-02 a       459     0    20     1     3
  1.0982092521910118E-01 a       460     0    20     1     4
  2.5052359043629374E-01 a       461     0    20     1     5
 -8.8703992429585724E-02 a       462     0    20     1     6
 -2.4067912379297954E-01 a       463     0    20     1     7
  6.7007835670933338E-02 a       464     0    20     1     8
 -1.7966320520485246E-01 a       465     0    20     1     9
 -9.1416108408407082E-02 a       466     0    20     1    10
  2.1359944495914135E-01 a       467     0    20     1    11
  3.2448636350377069E-01 a       468     0    20     1    12
  1.8874150497322859E-02 a       469     0    20     1    13
  1.0233951372470391E-01 a       470     0    20     1    14
 -9.2349007690640625E-02 a       471     0    20     1    15
  3.9734974261434330E-01 a       472     0    20     1    16
 -1.6336310359468001E-01 a       473     0    20     1    17
  1.4244064985209101E-01 a       474     0    20     1    18
  2.2624622246867473E-01 a       475     0    20     1    19
 -4.8208260500933803E-01 a       476     0    20     1    20
  5.2018833089790428E-01 a       477     0    20     1    21
  5.7636681896892791E-02 a       478     0    20     1    22
  9.1240532590649050E-03 a       479     0    20     1    23
 -2.6670864404940383E-03 a       480     0    20     1    24
  1.0786369555104609E-01 a       481     0    21     1     1
 -4.8051517223795172E-02 a       482     0    21     1     2
 -1.1527815926376864E-01 a       483     0    21     1     3
  1.0402306014777521E-01 a       484     0    21     1     4
 -1.0904965924417833E-02 a       485     0    21     1     5
  2.5945701460476045E-01 a       486     0    21     1     6
  1.5438293564916367E-01 a       487     0    21     1     7
 -3.5218460525883177E-01 a       488     0    21     1     8
 -5.3632322415068448E-02 a       489     0    21     1     9
  5.8792705512189486E-02 a       490     0    21     1    10
 -4.1389596112622579E-02 a       491     0    21     1    11
 -1.1200753885683248E-01 a       492     0    21     1    12
 -2.6619877235019512E-01 a       493     0    21     1    13
 -9.2660271562887905E-02 a       494     0    21     1    14
  8.7924514811176246E-02 a       495     0    21     1    15
 -1.5417946966484472E-01 a       496     0    21     1    16
  3.4310301853306840E-01 a       497     0    21     1    17
 -9.8413987446406476E-02 a       498     0    21     1    18
 -1.4763940787726343E-01 a       499     0    21     1    19
  2.6812667339245880E-02 a       500     0    21     1    20
  2.2860311912641545E-01 a       501     0    21     1    21
 -3.3502835390439389E-01 a       502     0    21     1    22
 -2.4519423990314823E-01 a       503     0    21     1    23
  3.0180690930218085E-01 a       504     0    21     1    24
 -1.7681277430067172E-01 a       505     0    22     1     1
  5.3714379416117120E-02 a       506     0    22     1     2
  7.4295211005114886E-03 a       507     0    22     1     3
 -4.9156615594582634E-02 a       508     0    22     1     4
  3.0884157227995496E-02 a       509     0    22     1     5
  9.8377733181288923E-02 a       510     0    22     1     6
  5.3906813349019568E-02 a       511     0    22     1     7
 -1.1535974583719638E-01 a       512     0    22     1     8
  1.0080110471527658E-01 a       513     0    22     1     9
 -1.7925219211701853E-02 a       514     0    22     1    10
 -1.6078855115698959E-01 a       515     0    22     1    11
 -2.2527757056815642E-01 a       516     0    22     1    12
 -9.7717276080788701E-02 a       517     0    22     1    13
 -5.4817525073853089E-02 a       518     0    22     1    14
 -7.5043316253739348E-02 a       519     0    22     1    15
  6.9436336718147557E-02 a       520     0    22     1    16
  9.8228868504766503E-02 a       521     0    22     1    17
  4.1703669100515227E-02 a       522     0    22     1    18
 -2.1189636832998755E-02 a       523     0    22     1    19
  7.6889549356894099E-02 a       524     0    22     1    20
 -5.7741289488962455E-02 a       525     0    22     1    21
  5.7170085021701525E-04 a       526     0    22     1    22
  1.1417762534280115E-01 a       527     0    22     1    23
 -1.3040513192141484E-01 a       528     0    22     1    24
 -1.2858780084653360E-01 a       529     0    23     1     1
  1.4811044923303243E-01 a       530     0    23     1     2
  2.0208170155265143E-01 a       531     0    23     1     3
 -3.0839584485241767E-01 a       532     0    23     1     4
  2.2484135400503275E-02 a       533     0    23     1     5
 -1.3202315983174839E-01 a       534     0    23     1     6
  2.2343791817676928E-01 a       535     0    23     1     7
  5.1757447422616909E-01 a       536     0    23     1     8
  5.4422026468635337E-02 a       537     0    23     1     9
 -2.2091211956253246E-01 a       538     0    23     1    10
 -1.6783397419505650E-01 a       539     0    23     1    11
 -3.5764453712863775E-01 a       540     0    23     1    12
  2.0833720881798529E-01 a       541     0    23     1    13
  2.4850661725633907E-01 a       542     0    23     1    14
 -1.8474889429405922E-01 a       543     0    23     1    15
  2.1076728917955301E-02 a       544     0    23     1    16
 -2.3501060441883284E-01 a       545     0    23     1    17
  3.2340407183345654E-01 a       546     0    23     1    18
 -3.4147838633116390E-01 a       547     0    23     1    19
  5.8026257931798708E-01 a       548     0    23     1    20
 -4.2840577346674608E-01 a       549     0    23     1    21
 -7.6175732556118841E-02 a       550     0    23     1    22
  4.9283263880886476E-02 a       551     0    23     1    23
  1.3305825738594339E-02 a       552     0    23     1    24
  1.5937387302134323E-01 a       553     0    24     1     1
  4.7143425115510722E-02 a       554     0    24     1     2
  5.2687841289850879E-02 a       555     0    24     1     3
  2.3133729045358181E-02 a       556     0    24     1     4
 -2.9606314810082534E-02 a       557     0    24     1     5
  2.7724213158970726E-02 a       558     0    24     1     6
 -5.5985601650661750E-02 a       559     0    24     1     7
 -2.4599517939264909E-01 a       560     0    24     1     8
  5.0977733638408192E-02 a       561     0    24     1     9
  1.1911349948497074E-01 a       562     0    24     1    10
  1.0028284011699717E-01 a       563     0    24     1    11
  2.1129837788563730E-01 a       564     0    24     1    12
  1.2119057187346996E-01 a       565     0    24     1    13
  1.7005933061101017E-02 a       566     0    24     1    14
  1.0804898574785839E-01 a       567     0    24     1    15
 -3.5180749021849600E-01 a       568     0    24     1    16
 -1.6062447982982175E-01 a       569     0    24     1    17
  2.6772427071104485E-02 a       570     0    24     1    18
  6.6524971416542112E-03 a       571     0    24     1    19
 -1.5722953899952583E-01 a       572     0    24     1    20
 -4.4372661586240342E-02 a       573     0    24     1    21
  1.2824141523235044E-01 a       574     0    24     1    22
  4.2126215427735883E-02 a       575     0    24     1    23
 -1.2229756570159133E-02 a       576     0    24     1    24
  3.3866042303914261E-02 a       577     0    25     1     1
 -6.3341570225742216E-02 a       578     0    25     1     2
  4.2602027229674086E-02 a       579     0    25     1     3
 -1.5699099347368564E-01 a       580     0    25     1     4
 -1.1053548861674820E-01 a       581     0    25     1     5
 -1.2781888108213665E-01 a       582     0    25     1     6
 -3.1145946904590657E-02 a       583     0    25     1     7
  4.2966535016840929E-01 a       584     0    25     1     8
 -2.8200433165089890E-02 a       585     0    25     1     9
 -1.2401578369359201E-01 a       586     0    25     1    10
 -6.7457572164559276E-02 a       587     0    25     1    11
  1.1377564268909400E-01 a       588     0    25     1    12
  1.1583500657329984E-01 a       589     0    25     1    13
  7.5555394893162181E-02 a       590     0    25     1    14
 -3.8611238069604197E-02 a       591     0    25     1    15
  2.2772159316322341E-01 a       592     0    25     1    16
 -3.8186259516969669E-02 a       593     0    25     1    17
 -9.8015686586492290E-02 a       594     0    25     1    18
 -6.4608970027984505E-02 a       595     0    25     1    19
  2.2701916221429547E-01 a       596     0    25     1    20
  3.2847133991676512E-02 a       597     0    25     1    21
  7.4497485580292913E-02 a       598     0    25     1    22
  2.9057779603788014E-01 a       599     0    25     1    23
  8.5957520870217005E-03 a       600     0    25     1    24
 -3.7511042793649314E-02 a       601     0    26     1     1
 -7.2613250742033764E-01 a       602     0    26     1     2
 -7.4456106462948549E-02 a       603     0    26     1     3
  7.8314652851932093E-02 a       604     0    26     1     4
  4.3100371770811396E-01 a       605     0    26     1     5
 -3.0692886191076102E-01 a       606     0    26     1     6
 -4.2904360373691292E-01 a       607     0    26     1     7
 -4.2630293438960420E-01 a       608     0    26     1     8
 -3.4609483994081314E-01 a       609     0    26     1     9
  1.2023625456544329E-01 a       610     0    26     1    10
  2.6854170819979023E-01 a       611     0    26     1    11
  6.3127956591539847E-01 a       612     0    26     1    12
  4.9662309343067124E-01 a       613     0    26     1    13
 -5.8898113541800712E-01 a       614     0    26     1    14
  3.2756064552753911E-01 a       615     0    26     1    15
  5.6217368853964633E-01 a       616     0    26     1    16
  2.2948097752889682E-01 a       617     0    26     1    17
 -4.3001447642892876E-01 a       618     0    26     1    18
  4.1595273558024520E-01 a       619     0    26     1    19
 -8.0921407416249946E-01 a       620     0    26     1    20
 -6.9162724121434482E-02 a       621     0    26     1    21
  6.8175810324469077E-01 a       622     0    26     1    22
  6.8516712213255770E-01 a       623     0    26     1    23
 -4.3270626480080632E-01 a       624     0    26     1    24
 -1.6972630731178223E-01 a       625     0    27     1     1
 -1.0818118972380555E+00 a       626     0    27     1     2
  3.2429255068796958E-02 a       627     0    27     1     3
  2.2156856112474321E-01 a       628     0    27     1     4
  3.7197411419729837E-01 a       629     0    27     1     5
 -7.0701356787536651E-01 a       630     0    27     1     6
 -4.1858832864066764E-01 a       631     0    27     1     7
 -9.6575138207551747E-01 a       632     0    27     1     8
 -2.4086637057192428E-01 a       633     0    27     1     9
  2.8689493844371367E-01 a       634     0    27     1    10
  3.9046290483992252E-01 a       635     0    27     1    11
  8.4915061198031194E-01 a       636     0    27     1    12
  1.1153621841266494E+00 a       637     0    27     1    13
 -9.8036152430194046E-01 a       638     0    27     1    14
  4.9094199655256682E-01 a       639     0    27     1    15
  8.2131834196312470E-01 a       640     0    27     1    16
  5.2447543098155314E-01 a       641     0    27     1    17
 -9.7783795208722246E-01 a       642     0    27     1    18
  3.6360861476544609E-01 a       643     0    27     1    19
 -5.6733702292241195E-01 a       644     0    27     1    20
 -2.3236594104186600E-01 a       645     0    27     1    21
  1.0069371978375268E+00 a       646     0    27     1    22
  1.1466181450239592E+00 a       647     0    27     1    23
 -6.6370838673751065E-01 a       648     0    27     1    24
  1.0356755419505152E-01 a       649     0    28     1     1
 -4.0857390497447027E-01 a       650     0    28     1     2
  5.6658964314306823E-02 a       651     0    28     1     3
  8.3610725305802069E-01 a       652     0    28     1     4
 -1.4365032765117762E+00 a       653     0    28     1     5
 -1.2209765162117574E+00 a       654     0    28     1     6
  6.4579391948971199E-01 a       655     0    28     1     7
 -1.8619102551705948E+00 a       656     0    28     1     8
 -1.1800067050769061E+00 a       657     0    28     1     9
 -3.0442324671288151E-01 a       658     0    28     1    10
 -4.6056924504406177E-01 a       659     0    28     1    11
  5.3828224001757519E-01 a       660     0    28     1    12
 -2.9616065824536292E-01 a       661     0    28     1    13
  9.8932512798217982E-03 a       662     0    28     1    14
  1.3457562683292235E-01 a       663     0    28     1    15
 -1.3580541681970698E-01 a       664     0    28     1    16
  3.1336768349620597E-01 a       665     0    28     1    17
  1.4972587527693665E-01 a       666     0    28     1    18
 -3.7551923048649916E-01 a       667     0    28     1    19
  8.7610552814772924E-01 a       668     0    28     1    20
 -1.0799389187745270E+00 a       669     0    28     1    21
  3.0963998894157613E-01 a       670     0    28     1    22
 -6.4207121417063939E-01 a       671     0    28     1    23
  9.8510112868245814E-01 a       672     0    28     1    24
 -1.4181332648839311E+00 a       673     0    29     1     1
  2.7561605494191386E+00 a       674     0    29     1     2
  5.7310979402073392E-01 a       675     0    29     1     3
 -8.9772062573976741E-02 a       676     0    29     1     4
 -8.8410016674094438E-01 a       677     0    29     1     5
 -3.9301274457970636E-01 a       678     0    29     1     6
 -6.5187522639465723E-01 a       679     0    29     1     7
  1.0475971374597088E+00 a       680     0    29     1     8
  2.3897678201872359E-03 a       681     0    29     1     9
 -3.8012784080954032E+00 a       682     0    29     1    10
 -6.9923546161080374E-01 a       683     0    29     1    11
 -1.7907964228600769E-02 a       684     0    29     1    12
 -1.6635043112654058E+00 a       685     0    29     1    13
  2.1592763875479855E+00 a       686     0    29     1    14
  9.0687103066359032E-01 a       687     0    29     1    15
 -2.3170942799584977E+00 a       688     0    29     1    16
 -1.6403209711070130E-01 a       689     0    29     1    17
 -1.9646262872532334E+00 a       690     0    29     1    18
 -4.6984087225597887E-01 a       691     0    29     1    19
  1.5969401179159588E+00 a       692     0    29     1    20
 -3.0319869999837428E+00 a       693     0    29     1    21
 -2.7768468987001094E-01 a       694     0    29     1    22
 -1.1020450656833061E+00 a       695     0    29     1    23
  4.4942300391686629E-01 a       696     0    29     1    24
 -9.0179518961006244E-01 a       697     0    30     1     1
  2.6721504268476054E-01 a       698     0    30     1     2
 -4.3493839157780323E-01 a       699     0    30     1     3
  3.4744316347555260E-02 a       700     0    30     1     4
  1.0975140289711922E+00 a       701     0    30     1     5
  1.0422270439459149E+00 a       702     0    30     1     6
  6.0829892266047692E-01 a       703     0    30     1     7
  1.1037319403911718E+00 a       704     0    30     1     8
  1.6412640484236513E-01 a       705     0    30     1     9
 -1.6514767857683565E+00 a       706     0    30     1    10
  2.0982025786738270E-01 a       707     0    30     1    11
  5.6965402609288862E-01 a       708     0    30     1    12
  6.1846518649659465E-01 a       709     0    30     1    13
 -6.0812151619170196E-01 a       710     0    30     1    14
 -3.3680084523497467E-01 a       711     0    30     1    15
 -2.6033424489492663E-01 a       712     0    30     1    16
  5.5716207443245602E-01 a       713     0    30     1    17
  7.1542775231178732E-02 a       714     0    30     1    18
  3.2939793175700227E-01 a       715     0    30     1    19
 -5.0849236905427841E-01 a       716     0    30     1    20
  6.7334474613776771E-02 a       717     0    30     1    21
 -6.3839422418183223E-01 a       718     0    30     1    22
 -8.8885802183710383E-01 a       719     0    30     1    23
 -2.9238448226232527E-01 a       720     0    30     1    24
  1.7349907315988172E-01 a       721     0    31     1     1
  4.4584400538362334E-01 a       722     0    31     1     2
  2.0407528407166255E+00 a       723     0    31     1     3
  2.7803924851838586E-02 a       724     0    31     1     4
 -1.1024391643605254E+00 a       725     0    31     1     5
  2.3058018432404342E-01 a       726     0    31     1     6
  3.0135997164664552E-01 a       727     0    31     1     7
 -2.0953238882215133E+00 a       728     0    31     1     8
  2.3807629910887669E+00 a       729     0    31     1     9
 -6.4328219990046842E-02 a       730     0    31     1    10
  1.6242378515998344E+00 a       731     0    31     1    11
  6.1503631375277912E-01 a       732     0    31     1    12
  6.7393594257714906E-01 a       733     0    31     1    13
  4.9421524704218689E-01 a       734     0    31     1    14
 -6.2860677557666056E-01 a       735     0    31     1    15
  7.1986652165693943E-01 a       736     0    31     1    16
 -3.0591849832437673E-01 a       737     0    31     1    17
 -1.8321187760014246E+00 a       738     0    31     1    18
 -2.4919056884962600E+00 a       739     0    31     1    19
  1.9939114333809884E+00 a       740     0    31     1    20
  2.3769568940500210E+00 a       741     0    31     1    21
  1.2275088095165338E+00 a       742     0    31     1    22
  6.4828871276140088E-01 a       743     0    31     1    23
  8.0789237619945198E-01 a       744     0    31     1    24
 -2.0849217464469660E-01 a       745     0    32     1     1
  3.3561838671500327E-01 a       746     0    32     1     2
 -9.7146591625660794E-01 a       747     0    32     1     3
  6.4684559202076863E-01 a       748     0    32     1     4
  2.9639416108753125E-01 a       749     0    32     1     5
  1.1171951247305425E+00 a       750     0    32     1     6
  5.7543125072698453E-01 a       751     0    32     1     7
  8.5785532352289051E-01 a       752     0    32     1     8
  9.1976254459360429E-01 a       753     0    32     1     9
 -1.4726036092622534E+00 a       754     0    32     1    10
  4.0400739923561035E-01 a       755     0    32     1    11
  1.3273378298867815E+00 a       756     0    32     1    12
  8.2406225610703612E-02 a       757     0    32     1    13
 -6.9225476130269770E-01 a       758     0    32     1    14
 -1.5364369633357494E-01 a       759     0    32     1    15
 -1.0822755077324997E+00 a       760     0    32     1    16
  7.3884476048991088E-01 a       761     0    32     1    17
 -5.6359519901360955E-01 a       762     0    32     1    18
 -4.5472740309087145E-01 a       763     0    32     1    19
 -4.1124603736102255E-01 a       764     0    32     1    20
  9.3900883888409581E-01 a       765     0    32     1    21
 -8.2613058337598133E-01 a       766     0    32     1    22
  4.9616046690899168E-01 a       767     0    32     1    23
 -1.6816999058991893E+00 a       768     0    32     1    24
 -6.4882914969281036E-01 a       769     0    33     1     1
 -4.0859268556938391E+00 a       770     0    33     1     2
 -2.2617252651941464E+00 a       771     0    33     1     3
 -2.9343271856824138E-01 a       772     0    33     1     4
  1.3740438598019074E+00 a       773     0    33     1     5
 -9.0771186131971715E-01 a       774     0    33     1     6
  3.4093589812154718E-01 a       775     0    33     1     7
 -8.5750836602380795E-02 a       776     0    33     1     8
 -5.0265534233312766E-02 a       777     0    33     1     9
  3.5894848110405384E+00 a       778     0    33     1    10
  6.4495177985310959E-01 a       779     0    33     1    11
  3.4382696227716891E-01 a       780     0    33     1    12
  4.7231516828626469E-01 a       781     0    33     1    13
 -3.2599567803130216E+00 a       782     0    33     1    14
  2.9352764852320314E+00 a       783     0    33     1    15
  2.0608275114865608E+00 a       784     0    33     1    16
  8.0436379586164425E-02 a       785     0    33     1    17
  9.4936594946103969E-01 a       786     0    33     1    18
 -4.6671895221729326E-01 a       787     0    33     1    19
 -2.1232609653095555E+00 a       788     0    33     1    20
  3.6297764246852879E+00 a       789     0    33     1    21
  2.0573785612115873E-02 a       790     0    33     1    22
 -7.7141092471453643E-01 a       791     0    33     1    23
 -2.4656388280056088E-01 a       792     0    33     1    24
  3.2044951944090677E-01 a       793     0    34     1     1
  1.4438199582896565E-02 a       794     0    34     1     2
 -5.8208784858824592E-01 a       795     0    34     1     3
 -5.0214965127330879E-01 a       796     0    34     1     4
 -1.3214024491775993E+00 a       797     0    34     1     5
  7.0808362193849250E-01 a       798     0    34     1     6
  9.2546996195850484E-01 a       799     0    34     1     7
 -3.6292236414232748E-01 a       800     0    34     1     8
  2.4656577584564116E-01 a       801     0    34     1     9
  3.8686353805018964E-01 a       802     0    34     1    10
 -5.3631239571509104E-01 a       803     0    34     1    11
 -1.3929031360132160E-01 a       804     0    34     1    12
 -8.6142230462182334E-01 a       805     0    34     1    13
  4.4645676974679353E-02 a       806     0    34     1    14
 -5.8227534370298051E-01 a       807     0    34     1    15
  8.0485636589444853E-01 a       808     0    34     1    16
  3.4996058520863516E-01 a       809     0    34     1    17
  9.1950315405249505E-01 a       810     0    34     1    18
  5.6701568379247069E-01 a       811     0    34     1    19
  5.1416401977563742E-01 a       812     0    34     1    20
 -4.2495231140674666E-01 a       813     0    34     1    21
  8.4262298418716952E-01 a       814     0    34     1    22
 -5.6978927290848203E-01 a       815     0    34     1    23
  4.6436844526571824E-01 a       816     0    34     1    24
 -1.6144449553066262E+00 a       817     0    35     1     1
  6.8529516794115475E-01 a       818     0    35     1     2
 -3.8747640522522481E-01 a       819     0    35     1     3
 -8.2395001553653568E-01 a       820     0    35     1     4
 -4.3765612790643144E-02 a       821     0    35     1     5
  3.2482791683696399E-01 a       822     0    35     1     6
  1.1027358619605583E+00 a       823     0    35     1     7
 -3.5614911404566979E-01 a       824     0    35     1     8
  4.6025406105847916E-01 a       825     0    35     1     9
 -7.4778471515487821E-01 a       826     0    35     1    10
  9.9537996738371481E-01 a       827     0    35     1    11
  1.9444817124195428E+00 a       828     0    35     1    12
 -6.6208960872265821E-01 a       829     0    35     1    13
 -6.0275158217853220E-01 a       830     0    35     1    14
  3.3252433559661254E-01 a       831     0    35     1    15
  2.2908453508628965E-01 a       832     0    35     1    16
  1.5386783273272571E+00 a       833     0    35     1    17
 -6.5310800858466389E-01 a       834     0    35     1    18
 -1.7668910595400453E+00 a       835     0    35     1    19
  3.3791976340613497E-02 a       836     0    35     1    20
 -1.4413241607504734E+00 a       837     0    35     1    21
  1.7666028524712962E+00 a       838     0    35     1    22
 -1.6611636306286457E+00 a       839     0    35     1    23
 -7.9436235772635611E-01 a       840     0    35     1    24
 -1.3022841940028793E+00 a       841     0    36     1     1
  3.4188577073788323E-01 a       842     0    36     1     2
  7.6183578354830572E-01 a       843     0    36     1     3
 -3.2936987997782829E-01 a       844     0    36     1     4
  1.9906304852424589E-01 a       845     0    36     1     5
 -4.2787993170098504E-01 a       846     0    36     1     6
  2.7255233056746087E-01 a       847     0    36     1     7
  7.3248620373294393E-01 a       848     0    36     1     8
 -6.5237434770071745E-01 a       849     0    36     1     9
 -3.2182570919868009E-01 a       850     0    36     1    10
 -2.4934143718582372E-01 a       851     0    36     1    11
 -6.4344113987398044E-01 a       852     0    36     1    12
  9.8250875925508324E-02 a       853     0    36     1    13
  7.3139577824799806E-01 a       854     0    36     1    14
  1.0442521348219180E+00 a       855     0    36     1    15
  6.2759942851236372E-01 a       856     0    36     1    16
 -7.6193423344359668E-01 a       857     0    36     1    17
  1.2943446600291650E-01 a       858     0    36     1    18
 -2.4115407086554876E+00 a       859     0    36     1    19
 -6.9846065710741215E-02 a       860     0    36     1    20
 -2.1184396927044474E-02 a       861     0    36     1    21
  4.5153142436115729E-01 a       862     0    36     1    22
  5.7296215635995851E-01 a       863     0    36     1    23
  5.2821097811693779E-02 a       864     0    36     1    24
 -3.9967015572065112E-01 a       865     0    37     1     1
  2.5781517623322558E-01 a       866     0    37     1     2
  3.1611284498120085E-01 a       867     0    37     1     3
  3.7859821444966224E-01 a       868     0    37     1     4
  2.1152655687457039E-01 a       869     0    37     1     5
  2.0535771420879056E+00 a       870     0    37     1     6
  1.5778885444367166E-01 a       871     0    37     1     7
  4.7349948127705754E-01 a       872     0    37     1     8
 -2.8613414062367526E-01 a       873     0    37     1     9
  1.1378900693601461E-01 a       874     0    37     1    10
 -5.3937059004972931E-01 a       875     0    37     1    11
  1.8262677719379955E-01 a       876     0    37     1    12
  6.0099676214006942E-02 a       877     0    37     1    13
 -2.2689568343494879E-02 a       878     0    37     1    14
  1.3724249156160986E+00 a       879     0    37     1    15
 -1.6499552703067255E-01 a       880     0    37     1    16
 -1.7361167082198303E-01 a       881     0    37     1    17
 -1.8682573774574224E-01 a       882     0    37     1    18
  4.6945546265586585E-01 a       883     0    37     1    19
  5.1450985935828075E-01 a       884     0    37     1    20
  3.1148016709465182E-01 a       885     0    37     1    21
  3.8358485781534429E-01 a       886     0    37     1    22
  8.1233992786600329E-01 a       887     0    37     1    23
 -6.1742833075977388E-01 a       888     0    37     1    24
 -2.4181840547873885E+00 a       889     0    38     1     1
 -1.9218657875969059E-01 a       890     0    38     1     2
 -1.2644179284344842E-01 a       891     0    38     1     3
 -1.6144854926917833E+00 a       892     0    38     1     4
  3.2066356549430125E-01 a       893     0    38     1     5
  9.4017291042010753E-01 a       894     0    38     1     6
  2.4989822227555231E-01 a       895     0    38     1     7
  1.3078809743363133E+00 a       896     0    38     1     8
 -1.2519219963415085E+00 a       897     0    38     1     9
  5.3912830130461298E-01 a       898     0    38     1    10
  1.0197119265044194E+00 a       899     0    38     1    11
  1.5626974975680399E+00 a       900     0    38     1    12
  2.8232682498528443E+00 a       901     0    38     1    13
  9.7004478764446081E-02 a       902     0    38     1    14
  9.5746833611949311E-01 a       903     0    38     1    15
  3.3498458270706855E-01 a       904     0    38     1    16
  5.2564786511971251E-01 a       905     0    38     1    17
 -3.7470067502943954E-01 a       906     0    38     1    18
  2.7083367893569892E+00 a       907     0    38     1    19
  1.4774659774843138E-01 a       908     0    38     1    20
  5.0282179525257575E-01 a       909     0    38     1    21
  7.2354011266695495E-01 a       910     0    38     1    22
  5.3036738695870445E-01 a       911     0    38     1    23
  3.5082426833524116E-01 a       912     0    38     1    24
  4.0295542989057193E-01 a       913     0    39     1     1
 -1.2931873395539137E-01 a       914     0    39     1     2
  9.3051321476662718E-01 a       915     0    39     1     3
  1.0851296210768078E+00 a       916     0    39     1     4
 -2.8132064374843129E+00 a       917     0    39     1     5
 -3.0144718767200351E-01 a       918     0    39     1     6
 -9.7436807665791381E-01 a       919     0    39     1     7
  9.6930910934089687E-01 a       920     0    39     1     8
  2.0496134029759290E+00 a       921     0    39     1     9
 -6.9621881061351387E-01 a       922     0    39     1    10
 -1.3785922753342890E+00 a       923     0    39     1    11
 -4.6532091143477305E-01 a       924     0    39     1    12
  4.0822937348759147E-01 a       925     0    39     1    13
  1.2298838545731920E-01 a       926     0    39     1    14
 -1.0624177060633457E+00 a       927     0    39     1    15
 -5.3679883751048936E-02 a       928     0    39     1    16
 -1.2224002168489612E+00 a       929     0    39     1    17
 -3.4754261301666667E-01 a       930     0    39     1    18
  6.6818357334664280E-01 a       931     0    39     1    19
  1.7123438063466792E+00 a       932     0    39     1    20
 -1.7722212834507239E-03 a       933     0    39     1    21
  6.6453838606957083E-01 a       934     0    39     1    22
 -8.1764837737738572E-01 a       935     0    39     1    23
  5.2726678223880186E-01 a       936     0    39     1    24
  7.8477391804683805E-01 a       937     0    40     1     1
 -5.8655086980479754E-01 a       938     0    40     1     2
  1.1767410498036932E+00 a       939     0    40     1     3
  2.1689782316026002E-01 a       940     0    40     1     4
 -1.1166955434143151E+00 a       941     0    40     1     5
  3.9358953388063933E-01 a       942     0    40     1     6
  1.4753998091886620E+00 a       943     0    40     1     7
 -2.0797620740270448E-01 a       944     0    40     1     8
  3.2919916457748355E-01 a       945     0    40     1     9
  1.0882682588772106E+00 a       946     0    40     1    10
  1.8386982595616647E-01 a       947     0    40     1    11
 -2.5947734684621943E-01 a       948     0    40     1    12
  4.5087444687684258E-01 a       949     0    40     1    13
  4.9270668205542607E-02 a       950     0    40     1    14
 -1.0835910964856379E+00 a       951     0    40     1    15
  1.1039464242002843E+00 a       952     0    40     1    16
 -3.6965812999475156E-01 a       953     0    40     1    17
  8.3410478421495765E-02 a       954     0    40     1    18
 -1.0910687044787868E+00 a       955     0    40     1    19
  1.0960348028057276E+00 a       956     0    40     1    20
  1.6410184215177551E-02 a       957     0    40     1    21
  1.0872989172024408E+00 a       958     0    40     1    22
  9.5929117903823136E-01 a       959     0    40     1    23
 -3.8681235411192538E-01 a       960     0    40     1    24
  5.9607402824019229E-01 a       961     0    41     1     1
 -5.8891934180958283E-01 a       962     0    41     1     2
  4.9868370363873399E-01 a       963     0    41     1     3
 -9.6025472984919680E-01 a       964     0    41     1     4
 -9.2884774608325571E-01 a       965     0    41     1     5
 -1.4372608140050687E-02 a       966     0    41     1     6
 -6.1225760769841575E-01 a       967     0    41     1     7
  6.0450932813782032E-01 a       968     0    41     1     8
  5.9243414937624117E-01 a       969     0    41     1     9
 -3.6321823449568774E-01 a       970     0    41     1    10
  2.5894073489447106E-01 a       971     0    41     1    11
  1.4979717246334384E-01 a       972     0    41     1    12
 -3.4073377948047982E-02 a       973     0    41     1    13
 -5.1196964122865052E-01 a       974     0    41     1    14
  4.0973984235665101E-01 a       975     0    41     1    15
  3.8855889731834031E-01 a       976     0    41     1    16
  7.7492013409534966E-01 a       977     0    41     1    17
  2.5315049719584326E-01 a       978     0    41     1    18
  3.7769121242513348E-01 a       979     0    41     1    19
  5.3606773573448152E-01 a       980     0    41     1    20
  8.0353507568613092E-01 a       981     0    41     1    21
  1.2219706242974135E+00 a       982     0    41     1    22
 -4.1313011887554540E-01 a       983     0    41     1    23
  1.3306322370001927E-01 a       984     0    41     1    24
  1.9274035895864727E+00 a       985     0    42     1     1
 -4.4696962433809778E-01 a       986     0    42     1     2
 -3.2001674847481221E-01 a       987     0    42     1     3
 -1.5662238389066072E-01 a       988     0    42     1     4
  3.9142584050769480E-01 a       989     0    42     1     5
  4.8101238285797543E-01 a       990     0    42     1     6
  4.7993351766368729E-02 a       991     0    42     1     7
 -4.0264025628951997E-02 a       992     0    42     1     8
  1.8036707814988120E-01 a       993     0    42     1     9
  5.6066315742782902E-01 a       994     0    42     1    10
  1.6246754528927890E-01 a       995     0    42     1    11
  2.6634986200433447E-01 a       996     0    42     1    12
 -7.1046575857890926E-01 a       997     0    42     1    13
 -3.6306821879944093E-02 a       998     0    42     1    14
  1.5767800581811445E-01 a       999     0    42     1    15
 -9.7575613194825814E-02 a      1000     0    42     1    16
 -1.1851985676159180E-01 a      1001     0    42     1    17
 -2.7143996088558925E-01 a      1002     0    42     1    18
  1.0115024300128572E+00 a      1003     0    42     1    19
 -3.8182776681330766E-01 a      1004     0    42     1    20
  3.6025781091547848E-01 a      1005     0    42     1    21
 -7.5817788307149780E-01 a      1006     0    42     1    22
 -1.3666294315912049E+00 a      1007     0    42     1    23
 -7.2039671791097470E-01 a      1008     0    42     1    24
  2.4665783736851514E+00 a      1009     0    43     1     1
 -4.7795411809953919E-01 a      1010     0    43     1     2
  8.6893315722065745E-01 a      1011     0    43     1     3
  1.2462228669595625E-01 a      1012     0    43     1     4
 -1.7877862983382518E+00 a      1013     0    43     1     5
 -1.5996854246353918E+00 a      1014     0    43     1     6
 -3.9450162811237965E-01 a      1015     0    43     1     7
  1.3202864446823261E+00 a      1016     0    43     1     8
 -8.5468131533396297E-01 a      1017     0    43     1     9
  2.8175868847019987E+00 a      1018     0    43     1    10
 -2.0673163386407820E-01 a      1019     0    43     1    11
 -2.3682125042447688E+00 a      1020     0    43     1    12
  1.3967261656499461E+00 a      1021     0    43     1    13
  1.4665287262090740E+00 a      1022     0    43     1    14
  1.4284439600905535E-01 a      1023     0    43     1    15
 -4.9744216579202433E-01 a      1024     0    43     1    16
 -1.7292291002258093E+00 a      1025     0    43     1    17
  3.9151706252771978E-01 a      1026     0    43     1    18
  1.2130004228037414E+00 a      1027     0    43     1    19
  1.1389279122717728E+00 a      1028     0    43     1    20
  1.5387091594086240E+00 a      1029     0    43     1    21
  4.1787811408233827E-01 a      1030     0    43     1    22
 -2.5787773424438791E+00 a      1031     0    43     1    23
  5.1556786557776202E-01 a      1032     0    43     1    24
 -2.1532771304944513E-02 a      1033     0    44     1     1
 -1.9399570422696144E-01 a      1034     0    44     1     2
  4.0751735407251238E-01 a      1035     0    44     1     3
 -2.8860616847062459E-01 a      1036     0    44     1     4
  6.3711655412267876E-01 a      1037     0    44     1     5
 -1.8104783326494506E-01 a      1038     0    44     1     6
  6.5674196776289473E-01 a      1039     0    44     1     7
 -3.9990333844960452E-01 a      1040     0    44     1     8
 -6.6182733965586837E-01 a      1041     0    44     1     9
  3.2676849847974115E-01 a      1042     0    44     1    10
 -4.2233286617951787E-01 a      1043     0    44     1    11
 -1.2974698593518186E-01 a      1044     0    44     1    12
 -1.3282369208227693E-02 a      1045     0    44     1    13
  2.8023959258935438E-01 a      1046     0    44     1    14
  3.8692938359175377E-01 a      1047     0    44     1    15
  1.9182138289033965E-01 a      1048     0    44     1    16
 -4.0803444082657642E-01 a      1049     0    44     1    17
 -5.5074684432102249E-02 a      1050     0    44     1    18
  4.5991698496712224E-01 a      1051     0    44     1    19
 -5.1904330122404985E-01 a      1052     0    44     1    20
 -1.4823351223387957E+00 a      1053     0    44     1    21
 -5.5208768595628477E-01 a      1054     0    44     1    22
  3.9480397694180236E-01 a      1055     0    44     1    23
 -6.6368853641163594E-01 a      1056     0    44     1    24
 -8.0702669676303374E-01 a      1057     0    45     1     1
 -8.7457671409621374E-01 a      1058     0    45     1     2
 -3.6370615703197690E-01 a      1059     0    45     1     3
  4.1236253878975238E-01 a      1060     0    45     1     4
  3.3372924353192279E-01 a      1061     0    45     1     5
  1.0901184590213795E+00 a      1062     0    45     1     6
 -6.8791613840239407E-01 a      1063     0    45     1     7
 -4.6768430872066841E-01 a      1064     0    45     1     8
 -1.2669672291301219E+00 a      1065     0    45     1     9
  4.2979112563848526E-01 a      1066     0    45     1    10
  6.5609021631112618E-01 a      1067     0    45     1    11
  5.4370274471748814E-01 a      1068     0    45     1    12
  3.1193478001751473E-01 a      1069     0    45     1    13
  4.4505020803981521E-01 a      1070     0    45     1    14
  1.3018275707480236E+00 a      1071     0    45     1    15
 -1.6515571800921425E-01 a      1072     0    45     1    16
 -7.5672353696686290E-01 a      1073     0    45     1    17
 -8.4570335484818915E-01 a      1074     0    45     1    18
  3.5042920598208913E+00 a      1075     0    45     1    19
 -1.7593092942448807E+00 a      1076     0    45     1    20
 -9.0444736307012630E-01 a      1077     0    45     1    21
  4.0520482276367026E-01 a      1078     0    45     1    22
 -5.6948141470644316E-02 a      1079     0    45     1    23
 -1.0957683662806961E-02 a      1080     0    45     1    24
  1.9383129650672393E+00 a      1081     0    46     1     1
  3.8038904722363648E-01 a      1082     0    46     1     2
  1.0131812741120332E+00 a      1083     0    46     1     3
  1.3176405233660824E+00 a      1084     0    46     1     4
 -1.0182116668160817E+00 a      1085     0    46     1     5
 -1.4725031354206426E+00 a      1086     0    46     1     6
 -5.1710069453972685E-01 a      1087     0    46     1     7
 -1.3181101071177157E+00 a      1088     0    46     1     8
  7.9706428016783026E-01 a      1089     0    46     1     9
  6.4671007943496872E-01 a      1090     0    46     1    10
 -1.1782063117177177E-01 a      1091     0    46     1    11
 -1.7931960113778127E+00 a      1092     0    46     1    12
 -3.2066228625267428E+00 a      1093     0    46     1    13
 -7.2045848460497428E-02 a      1094     0    46     1    14
 -9.9921632766598267E-01 a      1095     0    46     1    15
 -2.2527360899130061E-01 a      1096     0    46     1    16
 -4.4022337057119315E-01 a      1097     0    46     1    17
  5.2323611040933871E-01 a      1098     0    46     1    18
 -2.7657451271057822E+00 a      1099     0    46     1    19
  4.8115666090953796E-01 a      1100     0    46     1    20
 -3.7132356276767003E-01 a      1101     0    46     1    21
 -4.9412910728430437E-01 a      1102     0    46     1    22
 -3.5538899508169325E-01 a      1103     0    46     1    23
  2.5283353105975787E-01 a      1104     0    46     1    24
 -9.9517262109538163E-01 a      1105     0    47     1     1
  1.2735589088061799E-01 a      1106     0    47     1     2
 -1.2479664984088532E+00 a      1107     0    47     1     3
 -5.7128021517827712E-02 a      1108     0    47     1     4
  1.0672196216152838E+00 a      1109     0    47     1     5
 -8.0978643693308183E-01 a      1110     0    47     1     6
 -1.0953229653849375E+00 a      1111     0    47     1     7
  5.0547614203903435E-01 a      1112     0    47     1     8
 -3.9838767172472117E-01 a      1113     0    47     1     9
 -1.4206446698149793E+00 a      1114     0    47     1    10
 -4.1115205240070278E-02 a      1115     0    47     1    11
  1.2410076949916626E+00 a      1116     0    47     1    12
 -4.1443689254954957E-01 a      1117     0    47     1    13
  7.9777006980725318E-01 a      1118     0    47     1    14
  1.2840671224579521E+00 a      1119     0    47     1    15
 -8.8307287663591383E-01 a      1120     0    47     1    16
  2.7165000268019801E-01 a      1121     0    47     1    17
  5.7497870556293418E-01 a      1122     0    47     1    18
  3.7164590480514897E-01 a      1123     0    47     1    19
 -1.6724174145998913E+00 a      1124     0    47     1    20
 -5.0712887219537317E-01 a      1125     0    47     1    21
 -3.1393763716744688E-01 a      1126     0    47     1    22
 -9.8731302556709122E-01 a      1127     0    47     1    23
  3.8271466124675724E-01 a      1128     0    47     1    24
  1.1460772635454275E+00 a      1129     0    48     1     1
 -1.4731714989829774E+00 a      1130     0    48     1     2
 -1.9118816491401487E+00 a      1131     0    48     1     3
  1.3655765857629745E+00 a      1132     0    48     1     4
  8.4380321530298741E-01 a      1133     0    48     1     5
  1.3096770038797245E-01 a      1134     0    48     1     6
 -1.4267479416015876E+00 a      1135     0    48     1     7
 -2.1010153790467019E+00 a      1136     0    48     1     8
  1.0239238795571137E+00 a      1137     0    48     1     9
 -2.2184530390289687E+00 a      1138     0    48     1    10
 -6.3328003974302949E-01 a      1139     0    48     1    11
 -5.3744854064136061E-01 a      1140     0    48     1    12
  1.3029162709492375E+00 a      1141     0    48     1    13
 -1.3629056233588115E+00 a      1142     0    48     1    14
 -1.3611541013802143E-02 a      1143     0    48     1    15
 -3.6368622202708301E-01 a      1144     0    48     1    16
 -3.4549753468682110E-01 a      1145     0    48     1    17
  1.9094979393517173E+00 a      1146     0    48     1    18
  9.5065808038599464E-01 a      1147     0    48     1    19
 -1.1761940953504877E+00 a      1148     0    48     1    20
  1.2261705538031713E-01 a      1149     0    48     1    21
 -1.9386883078999375E+00 a      1150     0    48     1    22
  2.6984137523367537E+00 a      1151     0    48     1    23
  1.4320864181959907E+00 a      1152     0    48     1    24
  7.2149587992808573E-01 a      1153     0    49     1     1
  5.5449201109272350E-01 a      1154     0    49     1     2
  4.0319271820042267E-02 a      1155     0    49     1     3
 -6.1927180640081160E-02 a      1156     0    49     1     4
  4.0235621901847075E-02 a      1157     0    49     1     5
 -6.9566720236358282E-01 a      1158     0    49     1     6
  4.4292769987685339E-02 a      1159     0    49     1     7
 -4.3157091802038550E-01 a      1160     0    49     1     8
 -3.7206630382272794E-02 a      1161     0    49     1     9
  3.3629120093498099E-01 a      1162     0    49     1    10
 -3.1982822612370665E-01 a      1163     0    49     1    11
  6.5145745354330409E-01 a      1164     0    49     1    12
  8.9636462340124767E-01 a      1165     0    49     1    13
  9.9783015011203613E-01 a      1166     0    49     1    14
  1.9068016005613117E-01 a      1167     0    49     1    15
 -9.5022086996701366E-02 a      1168     0    49     1    16
 -9.0330093206004092E-01 a      1169     0    49     1    17
  5.7624883628278090E-01 a      1170     0    49     1    18
 -1.2516970816351778E+00 a      1171     0    49     1    19
  6.3787185133600532E-01 a      1172     0    49     1    20
  6.6181074004288354E-01 a      1173     0    49     1    21
  1.1951364863479103E-02 a      1174     0    49     1    22
 -8.1750456738076197E-02 a      1175     0    49     1    23
  1.7562308534517326E+00 a      1176     0    49     1    24
  4.8827896671382454E-01 a      1177     0    50     1     1
  1.0780619851839529E-01 a      1178     0    50     1     2
 -2.4615477774092484E-01 a      1179     0    50     1     3
  2.4711302916196828E-01 a      1180     0    50     1     4
 -4.9998470630193037E-01 a      1181     0    50     1     5
  7.3751337932258454E-01 a      1182     0    50     1     6
 -1.7982384177746896E-01 a      1183     0    50     1     7
  9.9026111337240441E-01 a      1184     0    50     1     8
 -1.4475480498652225E+00 a      1185     0    50     1     9
  9.0442738054399174E-01 a      1186     0    50     1    10
  3.5112646204866033E-01 a      1187     0    50     1    11
  6.6362300583219166E-02 a      1188     0    50     1    12
 -6.9154731078544140E-01 a      1189     0    50     1    13
 -1.0396743903822296E-01 a      1190     0    50     1    14
 -5.9233387554124095E-01 a      1191     0    50     1    15
 -9.6241318002678022E-01 a      1192     0    50     1    16
 -1.6910197448042209E-02 a      1193     0    50     1    17
 -1.1393845991970845E-01 a      1194     0    50     1    18
  1.4433722786161500E+00 a      1195     0    50     1    19
 -7.1872220297893896E-01 a      1196     0    50     1    20
 -1.3757645017034974E+00 a      1197     0    50     1    21
 -3.1751748112873412E-01 a      1198     0    50     1    22
 -2.5141135731383385E-01 a      1199     0    50     1    23
  6.3361573821011860E-02 a      1200     0    50     1    24
  1.5528807034039804E+00 a      1201     0    51     1     1
  1.2437397359520777E+00 a      1202     0    51     1     2
 -3.5508489005994714E-01 a      1203     0    51     1     3
 -3.9563550993786517E-01 a      1204     0    51     1     4
 -6.5482711452800435E-01 a      1205     0    51     1     5
  1.5760637143342913E+00 a      1206     0    51     1     6
 -1.3301810163627661E+00 a      1207     0    51     1     7
 -7.8919275250484269E-02 a      1208     0    51     1     8
 -9.7035928695290236E-02 a      1209     0    51     1     9
 -5.1726073283313256E-01 a      1210     0    51     1    10
  1.1318225046163404E+00 a      1211     0    51     1    11
 -7.3771667710695943E-01 a      1212     0    51     1    12
  6.2069448754249124E-01 a      1213     0    51     1    13
  1.2105456623256894E+00 a      1214     0    51     1    14
 -2.4674746155446909E+00 a      1215     0    51     1    15
 -6.4085407316161858E-01 a      1216     0    51     1    16
  1.3147586294085880E+00 a      1217     0    51     1    17
  1.8133551009161422E+00 a      1218     0    51     1    18
 -2.9287948634994393E-01 a      1219     0    51     1    19
 -4.0521877884552981E-01 a      1220     0    51     1    20
  7.4063730586942322E-01 a      1221     0    51     1    21
  7.6612399107137052E-01 a      1222     0    51     1    22
  1.5172522991731874E+00 a      1223     0    51     1    23
 -2.1668671847029064E-01 a      1224     0    51     1    24
 -1.0216029584417802E-01 a      1225     0    52     1     1
  1.2368767589997098E+00 a      1226     0    52     1     2
  7.5482579934584315E-01 a      1227     0    52     1     3
  1.4303902897659519E+00 a      1228     0    52     1     4
  1.7192846350128979E+00 a      1229     0    52     1     5
  1.3829297911106309E+00 a      1230     0    52     1     6
  1.0148545283519774E+00 a      1231     0    52     1     7
  2.9450861650644883E-01 a      1232     0    52     1     8
  1.2710752446173101E-01 a      1233     0    52     1     9
  9.8579776230107607E-01 a      1234     0    52     1    10
  1.7523905346543660E+00 a      1235     0    52     1    11
  1.2995108250716096E+00 a      1236     0    52     1    12
  7.9622298163144978E-01 a      1237     0    52     1    13
 -3.5814492507199348E-02 a      1238     0    52     1    14
 -1.2511688129352720E+00 a      1239     0    52     1    15
 -9.8534394851373597E-01 a      1240     0    52     1    16
 -1.2978930342389807E+00 a      1241     0    52     1    17
 -7.7121545294798621E-01 a      1242     0    52     1    18
  5.6566785961765964E-01 a      1243     0    52     1    19
 -3.1538720076778148E-01 a      1244     0    52     1    20
 -1.4784336669718023E+00 a      1245     0    52     1    21
 -1.9384096488818954E+00 a      1246     0    52     1    22
  2.0023681361501797E+00 a      1247     0    52     1    23
 -1.4228722001418241E+00 a      1248     0    52     1    24
  4.7953153947620014E-01 a      1249     0    53     1     1
 -3.3423478097721337E-01 a      1250     0    53     1     2
  1.6138682467419865E+00 a      1251     0    53     1     3
 -7.9068233038828906E-01 a      1252     0    53     1     4
 -2.2907914468041332E-01 a      1253     0    53     1     5
 -7.9661049347252399E-01 a      1254     0    53     1     6
 -1.7144083830678220E-01 a      1255     0    53     1     7
 -5.8353890581261370E-01 a      1256     0    53     1     8
  6.5948340165563735E-01 a      1257     0    53     1     9
  2.4357423887434111E+00 a      1258     0    53     1    10
 -1.1580283503420100E-01 a      1259     0    53     1    11
  2.2408839554578497E-01 a      1260     0    53     1    12
  1.4061656780572809E+00 a      1261     0    53     1    13
 -6.7540606954431048E-01 a      1262     0    53     1    14
  1.8498640487203000E+00 a      1263     0    53     1    15
  1.4994467519906398E-02 a      1264     0    53     1    16
 -2.3342367164359628E+00 a      1265     0    53     1    17
 -1.6988700858576455E-01 a      1266     0    53     1    18
 -8.4284017931188260E-01 a      1267     0    53     1    19
 -1.2825614920548947E+00 a      1268     0    53     1    20
 -1.3739672562347194E+00 a      1269     0    53     1    21
 -1.9232104855932852E+00 a      1270     0    53     1    22
  2.1190078537042700E-01 a      1271     0    53     1    23
 -1.4861326886309686E-01 a      1272     0    53     1    24
 -1.3524451494909959E-01 a      1273     0    54     1     1
  1.0394051484166238E+00 a      1274     0    54     1     2
 -3.6960668040104794E-01 a      1275     0    54     1     3
 -4.7246577695073422E-01 a      1276     0    54     1     4
 -7.3331031762884014E-01 a      1277     0    54     1     5
  8.7854645019695254E-01 a      1278     0    54     1     6
  3.6055469113234470E-02 a      1279     0    54     1     7
  5.0066460101620425E-01 a      1280     0    54     1     8
  4.1903065917210142E-01 a      1281     0    54     1     9
  1.6839896946301944E+00 a      1282     0    54     1    10
  2.1438666302369913E-01 a      1283     0    54     1    11
 -1.6914716858152248E-01 a      1284     0    54     1    12
 -6.1595415790629361E-02 a      1285     0    54     1    13
  4.3514723913794323E-01 a      1286     0    54     1    14
 -1.4293535473407430E+00 a      1287     0    54     1    15
  7.9497488817816042E-01 a      1288     0    54     1    16
 -2.6198415719413520E-01 a      1289     0    54     1    17
  3.0126933555109429E-02 a      1290     0    54     1    18
  1.4740370772091935E-01 a      1291     0    54     1    19
  2.7901605329256601E-01 a      1292     0    54     1    20
  1.7514822585331300E-02 a      1293     0    54     1    21
  8.3080748491078804E-01 a      1294     0    54     1    22
 -3.5641197478197167E-01 a      1295     0    54     1    23
  2.6949211103849274E-01 a      1296     0    54     1    24
  1.4706925559400739E+00 a      1297     0    55     1     1
 -1.6103248413266726E+00 a      1298     0    55     1     2
 -1.0979394906706592E+00 a      1299     0    55     1     3
 -7.7641822394998894E-01 a      1300     0    55     1     4
  5.3231526225067805E-01 a      1301     0    55     1     5
 -2.8990924332053192E+00 a      1302     0    55     1     6
 -7.5337192600217995E-01 a      1303     0    55     1     7
 -1.1917538726528529E+00 a      1304     0    55     1     8
  8.4843739220259340E-01 a      1305     0    55     1     9
 -7.3191017984560836E-01 a      1306     0    55     1    10
 -1.1249562493054869E-02 a      1307     0    55     1    11
 -1.9624641808027687E-01 a      1308     0    55     1    12
  4.7456211892712002E-01 a      1309     0    55     1    13
 -3.0250540636661910E-01 a      1310     0    55     1    14
 -3.0273669472623577E-01 a      1311     0    55     1    15
 -2.6894368418633946E-01 a      1312     0    55     1    16
 -6.9342151431817112E-01 a      1313     0    55     1    17
 -3.5827208164401984E-02 a      1314     0    55     1    18
  3.3503561672684379E-01 a      1315     0    55     1    19
 -1.1211737097282983E+00 a      1316     0    55     1    20
 -6.5932210123706103E-01 a      1317     0    55     1    21
 -1.2420482854271140E+00 a      1318     0    55     1    22
 -1.4353312280586774E+00 a      1319     0    55     1    23
  4.0929658725763529E-01 a      1320     0    55     1    24
 -2.4026584576675197E-01 a      1321     0    56     1     1
  3.5971511567864101E-01 a      1322     0    56     1     2
  1.1508082896722109E+00 a      1323     0    56     1     3
  8.3006910977509696E-01 a      1324     0    56     1     4
 -5.7918429658397974E-01 a      1325     0    56     1     5
 -1.5038550707531693E+00 a      1326     0    56     1     6
 -9.4124237126922372E-01 a      1327     0    56     1     7
  1.0788285954927383E-01 a      1328     0    56     1     8
  3.7663674125831520E-01 a      1329     0    56     1     9
 -1.1668671882013829E-01 a      1330     0    56     1    10
 -1.2857460548594166E+00 a      1331     0    56     1    11
 -8.3813255794162089E-01 a      1332     0    56     1    12
  2.2020530431299132E-02 a      1333     0    56     1    13
 -1.6296427025263256E+00 a      1334     0    56     1    14
 -2.8078284877544775E+00 a      1335     0    56     1    15
  2.9370702124244541E-01 a      1336     0    56     1    16
 -8.8293789018148039E-01 a      1337     0    56     1    17
  1.4823503309974815E+00 a      1338     0    56     1    18
 -1.8064558130852586E+00 a      1339     0    56     1    19
  2.1730422396035700E+00 a      1340     0    56     1    20
  2.1953447479879142E+00 a      1341     0    56     1    21
 -3.4208197985042266E-01 a      1342     0    56     1    22
  5.6879064464353535E-01 a      1343     0    56     1    23
  1.7534658332439566E+00 a      1344     0    56     1    24
 -1.1684326464317270E+00 a      1345     0    57     1     1
  8.8714091754195756E-01 a      1346     0    57     1     2
 -6.9334348261463730E-02 a      1347     0    57     1     3
 -1.1390175232952557E+00 a      1348     0    57     1     4
  1.3917314913526238E+00 a      1349     0    57     1     5
  1.7010714001038632E-01 a      1350     0    57     1     6
  1.9747453802708137E+00 a      1351     0    57     1     7
  4.6777032611526478E-02 a      1352     0    57     1     8
 -1.3009068481903654E+00 a      1353     0    57     1     9
  6.6589886362119965E-01 a      1354     0    57     1    10
  1.8125089515210626E+00 a      1355     0    57     1    11
  5.6191480945841388E-01 a      1356     0    57     1    12
 -1.7447448129856213E+00 a      1357     0    57     1    13
  1.5967416457969632E+00 a      1358     0    57     1    14
 -5.0892683343146505E-01 a      1359     0    57     1    15
  2.4843896133090151E-01 a      1360     0    57     1    16
  3.0280827171291819E-01 a      1361     0    57     1    17
  1.0536138682684992E+00 a      1362     0    57     1    18
 -5.1595654820632908E-01 a      1363     0    57     1    19
 -7.2157004272747494E-01 a      1364     0    57     1    20
 -2.2282072372430157E+00 a      1365     0    57     1    21
 -4.8029603490738515E-01 a      1366     0    57     1    22
  3.2002710094341424E-01 a      1367     0    57     1    23
  1.2533240609752365E+00 a      1368     0    57     1    24
 -6.7089502586327165E-01 a      1369     0    58     1     1
 -2.2209008498435315E-01 a      1370     0    58     1     2
 -6.3852579049560126E-02 a      1371     0    58     1     3
  1.2086498274866084E+00 a      1372     0    58     1     4
  3.2172621639200238E-01 a      1373     0    58     1     5
 -4.2849648001089324E-01 a      1374     0    58     1     6
 -6.9451560969395409E-01 a      1375     0    58     1     7
  7.4018086806211625E-01 a      1376     0    58     1     8
 -2.8987131870095811E-01 a      1377     0    58     1     9
  1.1076136408286674E+00 a      1378     0    58     1    10
 -1.2998761541576426E-01 a      1379     0    58     1    11
 -1.7326478899396542E+00 a      1380     0    58     1    12
  3.4077370417318642E-01 a      1381     0    58     1    13
 -8.8408477317978670E-02 a      1382     0    58     1    14
 -9.9678028285022008E-02 a      1383     0    58     1    15
  8.0760416427108817E-01 a      1384     0    58     1    16
 -1.6776525321611632E-01 a      1385     0    58     1    17
 -1.4593919523328880E+00 a      1386     0    58     1    18
 -5.0297442152856878E-02 a      1387     0    58     1    19
 -4.1640404297132261E-01 a      1388     0    58     1    20
 -1.7568138051397157E+00 a      1389     0    58     1    21
 -6.8943842138177946E-02 a      1390     0    58     1    22
  5.4371881907696251E-01 a      1391     0    58     1    23
 -8.8916606894033734E-01 a      1392     0    58     1    24
  3.7520336033332125E-01 a      1393     0    59     1     1
 -2.8779001848885138E-01 a      1394     0    59     1     2
  3.8311259946033643E-01 a      1395     0    59     1     3
  6.0943930228743903E-01 a      1396     0    59     1     4
  1.6429871669988372E-01 a      1397     0    59     1     5
 -7.9666066792008494E-02 a      1398     0    59     1     6
  3.4945727407150851E-01 a      1399     0    59     1     7
 -3.4277271911489277E-01 a      1400     0    59     1     8
 -1.6447199920533114E-02 a      1401     0    59     1     9
 -6.0056295251365199E-01 a      1402     0    59     1    10
 -2.5571019494462083E-01 a      1403     0    59     1    11
 -1.0926274289811928E+00 a      1404     0    59     1    12
 -5.9673684150009988E-02 a      1405     0    59     1    13
 -8.9463770139078391E-01 a      1406     0    59     1    14
 -5.3451286359442671E-02 a      1407     0    59     1    15
 -8.1128672416162240E-01 a      1408     0    59     1    16
  9.4180293724081751E-02 a      1409     0    59     1    17
 -6.1359966572410796E-01 a      1410     0    59     1    18
  6.0994503599103389E-01 a      1411     0    59     1    19
  6.6505193877901747E-01 a      1412     0    59     1    20
  7.9507232064416056E-01 a      1413     0    59     1    21
 -1.0585746909258864E+00 a      1414     0    59     1    22
  3.5106862498282870E-01 a      1415     0    59     1    23
  1.5827755268831914E-01 a      1416     0    59     1    24
 -1.8668102844727832E+00 a      1417     0    60     1     1
  2.2406051727781429E+00 a      1418     0    60     1     2
  2.2290507849491785E+00 a      1419     0    60     1     3
 -8.3483016657535269E-01 a      1420     0    60     1     4
 -9.3961809504759142E-01 a      1421     0    60     1     5
  1.7332026600107944E-01 a      1422     0    60     1     6
  9.6580865191240906E-01 a      1423     0    60     1     7
  1.9270849762698088E+00 a      1424     0    60     1     8
 -1.5818935854192386E+00 a      1425     0    60     1     9
  1.5193176032236377E+00 a      1426     0    60     1    10
  4.8685496401822242E-01 a      1427     0    60     1    11
  1.2568722925707325E+00 a      1428     0    60     1    12
 -2.4872173277176559E+00 a      1429     0    60     1    13
  2.4582727974781315E+00 a      1430     0    60     1    14
 -2.5502363340526125E-02 a      1431     0    60     1    15
  9.0844819687146430E-02 a      1432     0    60     1    16
  7.7391440707856618E-01 a      1433     0    60     1    17
 -1.7380114336451629E+00 a      1434     0    60     1    18
  4.0523973857274631E-03 a      1435     0    60     1    19
  1.2565919890696551E+00 a      1436     0    60     1    20
  2.1271568344040645E-01 a      1437     0    60     1    21
  6.6483453795491021E-01 a      1438     0    60     1    22
 -1.0312444013514550E-01 a      1439     0    60     1    23
 -8.1874835932442913E-01 a      1440     0    60     1    24
  6.4919178500417252E-01 a      1441     0    61     1     1
 -2.0950525830528144E-01 a      1442     0    61     1     2
 -3.9966021119814246E-02 a      1443     0    61     1     3
 -1.1684287379815521E-01 a      1444     0    61     1     4
 -2.0388065687475884E-01 a      1445     0    61     1     5
 -1.3808878173168257E+00 a      1446     0    61     1     6
 -1.9120515918638309E-01 a      1447     0    61     1     7
 -6.8434215888142580E-02 a      1448     0    61     1     8
 -7.4445906590655364E-01 a      1449     0    61     1     9
 -2.1126565577492218E+00 a      1450     0    61     1    10
  3.2361401732966988E-01 a      1451     0    61     1    11
  2.0181210383872869E-02 a      1452     0    61     1    12
 -4.3380044222819181E-01 a      1453     0    61     1    13
  1.7370338219007855E+00 a      1454     0    61     1    14
  5.0969297639335276E-01 a      1455     0    61     1    15
 -5.3145815697887921E-01 a      1456     0    61     1    16
  5.3121741824711044E-01 a      1457     0    61     1    17
  3.2882276956319267E-01 a      1458     0    61     1    18
  1.6546091903009590E+00 a      1459     0    61     1    19
  1.3500044965399319E-01 a      1460     0    61     1    20
 -1.8435255869459841E-01 a      1461     0    61     1    21
  9.6630460230799042E-01 a      1462     0    61     1    22
  1.1490518699043104E+00 a      1463     0    61     1    23
 -2.9388451057313025E-01 a      1464     0    61     1    24
 -8.5988750260015157E-01 a      1465     0    62     1     1
  3.3656672002810234E-01 a      1466     0    62     1     2
  1.6803147737103358E-01 a      1467     0    62     1     3
  2.4783427341566163E-03 a      1468     0    62     1     4
 -7.1594270455930675E-01 a      1469     0    62     1     5
 -3.2473521436358643E-01 a      1470     0    62     1     6
  1.5293486066892695E-01 a      1471     0    62     1     7
 -5.2616998812207660E-01 a      1472     0    62     1     8
  5.4020252353814602E-01 a      1473     0    62     1     9
 -2.9473912913432043E-01 a      1474     0    62     1    10
  1.2054893515400851E-01 a      1475     0    62     1    11
 -1.1697377107645737E-01 a      1476     0    62     1    12
  1.2170519278167309E+00 a      1477     0    62     1    13
 -3.7017543913440198E-01 a      1478     0    62     1    14
 -1.2243898040842474E+00 a      1479     0    62     1    15
 -2.0773384677467829E-01 a      1480     0    62     1    16
 -8.5909113783704791E-02 a      1481     0    62     1    17
  2.7763313629097541E-01 a      1482     0    62     1    18
  2.1880667890823907E-01 a      1483     0    62     1    19
  5.3683883980548275E-01 a      1484     0    62     1    20
 -6.8385470925585168E-01 a      1485     0    62     1    21
  6.7114659376011920E-01 a      1486     0    62     1    22
  9.7813831646262139E-01 a      1487     0    62     1    23
  2.9335757779132005E-01 a      1488     0    62     1    24
  8.3741111077123787E-01 a      1489     0    63     1     1
 -3.6245611465120831E-01 a      1490     0    63     1     2
 -7.9543203932299666E-01 a      1491     0    63     1     3
 -7.5748749626365275E-01 a      1492     0    63     1     4
 -8.4142066095349943E-01 a      1493     0    63     1     5
 -1.5430264050745117E+00 a      1494     0    63     1     6
 -1.0149637686944144E+00 a      1495     0    63     1     7
 -1.3367845127324516E+00 a      1496     0    63     1     8
 -7.0657052207701843E-01 a      1497     0    63     1     9
  7.9112468133623870E-01 a      1498     0    63     1    10
 -9.1943060744568239E-01 a      1499     0    63     1    11
 -1.6702856161541559E+00 a      1500     0    63     1    12
 -1.6451011243032151E-02 a      1501     0    63     1    13
  3.0067385964040516E-01 a      1502     0    63     1    14
  9.4505230830339282E-01 a      1503     0    63     1    15
  3.4753185506924761E-01 a      1504     0    63     1    16
  4.4572757349471798E-01 a      1505     0    63     1    17
  7.1030864404022698E-01 a      1506     0    63     1    18
  3.1183536582654453E-01 a      1507     0    63     1    19
  3.1563463087269977E-01 a      1508     0    63     1    20
  5.1883443233784410E-01 a      1509     0    63     1    21
  5.5531796871997940E-01 a      1510     0    63     1    22
 -6.5841109905043960E-01 a      1511     0    63     1    23
  1.0931992535030146E+00 a      1512     0    63     1    24
 -1.0027101557857390E+00 a      1513     0    64     1     1
 -1.2965796813661976E+00 a      1514     0    64     1     2
 -1.1999469922901800E+00 a      1515     0    64     1     3
  7.3275073464024054E-01 a      1516     0    64     1     4
  2.0492477589256158E-01 a      1517     0    64     1     5
 -4.1278811963710144E-01 a      1518     0    64     1     6
  1.4643060855250536E+00 a      1519     0    64     1     7
 -5.6142855071880693E-01 a      1520     0    64     1     8
 -9.7943201819274572E-01 a      1521     0    64     1     9
  1.1826717231909578E-01 a      1522     0    64     1    10
 -1.8578196333438726E-01 a      1523     0    64     1    11
  1.2715340407764111E+00 a      1524     0    64     1    12
 -1.1875937654897522E+00 a      1525     0    64     1    13
 -7.3267621951808004E-01 a      1526     0    64     1    14
  2.4950785897434757E-01 a      1527     0    64     1    15
 -4.1600891053079825E-01 a      1528     0    64     1    16
  7.5694282243474809E-01 a      1529     0    64     1    17
  2.4512708272862352E-01 a      1530     0    64     1    18
  5.4796624104736041E-02 a      1531     0    64     1    19
  1.0763865492187856E+00 a      1532     0    64     1    20
  1.5243725334699476E+00 a      1533     0    64     1    21
  6.1295468868823255E-01 a      1534     0    64     1    22
  1.0992737347179475E+00 a      1535     0    64     1    23
  2.6148383458725089E-01 a      1536     0    64     1    24
  2.7761902219984508E-02 a      1537     0    65     1     1
 -6.3303123903521641E-01 a      1538     0    65     1     2
 -5.2878494595677095E-01 a      1539     0    65     1     3
 -2.7905747347004040E-01 a      1540     0    65     1     4
  7.3494935606950085E-01 a      1541     0    65     1     5
  6.6052328232877711E-01 a      1542     0    65     1     6
 -5.8951187355879109E-01 a      1543     0    65     1     7
  1.3742820084475480E+00 a      1544     0    65     1     8
  8.1167944311122242E-01 a      1545     0    65     1     9
 -6.1343346635838780E-01 a      1546     0    65     1    10
 -3.1127211793247334E-01 a      1547     0    65     1    11
 -8.8595660711002766E-01 a      1548     0    65     1    12
  2.5358141270374124E-01 a      1549     0    65     1    13
 -1.4988793144999502E-01 a      1550     0    65     1    14
 -1.4900445312565996E-01 a      1551     0    65     1    15
  3.0390419145993858E-01 a      1552     0    65     1    16
 -5.9644957110404773E-01 a      1553     0    65     1    17
 -4.3121323083668722E-01 a      1554     0    65     1    18
  1.6326272242867677E+00 a      1555     0    65     1    19
 -5.8706036156764141E-01 a      1556     0    65     1    20
  1.3308802451272024E+00 a      1557     0    65     1    21
 -2.1176476555872192E-01 a      1558     0    65     1    22
  6.0624964421499250E-01 a      1559     0    65     1    23
 -7.0249006777613954E-01 a      1560     0    65     1    24
 -1.1913339522334487E+00 a      1561     0    66     1     1
  2.7092051724017974E-01 a      1562     0    66     1     2
  1.4326891920243046E+00 a      1563     0    66     1     3
  1.3828809535347404E+00 a      1564     0    66     1     4
 -4.0244851056918646E-01 a      1565     0    66     1     5
 -5.8652169073847282E-01 a      1566     0    66     1     6
 -2.6178818609837579E-01 a      1567     0    66     1     7
  1.1771612389181474E+00 a      1568     0    66     1     8
  1.6783663549167532E-02 a      1569     0    66     1     9
 -9.5864465527781745E-02 a      1570     0    66     1    10
 -1.6694036498056219E+00 a      1571     0    66     1    11
  3.6649326064400378E-01 a      1572     0    66     1    12
  4.7441438998594931E-01 a      1573     0    66     1    13
 -8.3844258514252534E-01 a      1574     0    66     1    14
 -4.4329476487668434E-01 a      1575     0    66     1    15
  1.3548742758738470E+00 a      1576     0    66     1    16
 -5.4699592783417605E-01 a      1577     0    66     1    17
 -5.7394134085712689E-01 a      1578     0    66     1    18
  2.5251358797748651E+00 a      1579     0    66     1    19
  5.5257702446341572E-01 a      1580     0    66     1    20
 -8.4851958941319000E-02 a      1581     0    66     1    21
  1.1555660969130168E+00 a      1582     0    66     1    22
 -2.7551019255268006E-01 a      1583     0    66     1    23
  1.2305223181239661E-01 a      1584     0    66     1    24
 -1.1605343697327641E+00 a      1585     0    67     1     1
  1.9472337227341263E+00 a      1586     0    67     1     2
 -8.6177542560324116E-01 a      1587     0    67     1     3
  1.1524758842180991E+00 a      1588     0    67     1     4
  1.3841385361078506E+00 a      1589     0    67     1     5
  5.1456213917234206E-01 a      1590     0    67     1     6
  3.5319671823217885E-01 a      1591     0    67     1     7
 -8.8199792940151289E-01 a      1592     0    67     1     8
  2.7974103943551265E+00 a      1593     0    67     1     9
 -1.7046526479058399E+00 a      1594     0    67     1    10
  8.8972503846600354E-02 a      1595     0    67     1    11
  1.0489355354334664E+00 a      1596     0    67     1    12
  4.5885279790001138E-01 a      1597     0    67     1    13
 -1.4446001057230776E-01 a      1598     0    67     1    14
 -1.0690551706141815E+00 a      1599     0    67     1    15
  2.8954229329491016E-01 a      1600     0    67     1    16
  1.5196888464368203E+00 a      1601     0    67     1    17
  6.5903453394408740E-01 a      1602     0    67     1    18
 -5.3000313521225723E-02 a      1603     0    67     1    19
 -8.5037603396379524E-01 a      1604     0    67     1    20
 -5.9202155613212992E-01 a      1605     0    67     1    21
 -2.1315215850786198E-01 a      1606     0    67     1    22
  2.3692204939584238E+00 a      1607     0    67     1    23
 -3.5785927750516289E-01 a      1608     0    67     1    24
  7.5626625767807465E-01 a      1609     0    68     1     1
 -6.6967458110872102E-01 a      1610     0    68     1     2
  2.8198027206627202E-01 a      1611     0    68     1     3
  3.7983704137970176E-01 a      1612     0    68     1     4
  1.8795309538800992E-01 a      1613     0    68     1     5
  2.6786717523005564E-02 a      1614     0    68     1     6
 -3.3025715561320068E-01 a      1615     0    68     1     7
 -3.8726404191626340E-01 a      1616     0    68     1     8
 -4.5680597839692783E-01 a      1617     0    68     1     9
  1.3759657702075331E-01 a      1618     0    68     1    10
  4.5905596860850484E-01 a      1619     0    68     1    11
  4.9077078813022929E-01 a      1620     0    68     1    12
 -3.7698403823452697E-01 a      1621     0    68     1    13
 -2.8930757982266669E-01 a      1622     0    68     1    14
  2.1928579758343283E-01 a      1623     0    68     1    15
