################################################################################
# Neural network connection values (weights and biases).
################################################################################
# Col  Name       Description
################################################################################
# 1    connection Neural network connection value.
# 2    t          Connection type (a = weight, b = bias).
# 3    index      Index enumerating weights.
# 4    l_s        Starting point layer (end point layer for biases).
# 5    n_s        Starting point neuron in starting layer (end point neuron for biases).
# 6    l_e        End point layer.
# 7    n_e        End point neuron in end layer.
################################################################################
#                      1 2         3     4     5     6     7
#             connection t     index   l_s   n_s   l_e   n_e
############################################################
  7.7507428509003065E-02 a         1     0     1     1     1
  1.0099337399004373E-02 a         2     0     1     1     2
 -2.1399894601485700E-01 a         3     0     1     1     3
  1.4968166352405987E-01 a         4     0     1     1     4
  1.9567461949982844E-02 a         5     0     1     1     5
  7.0903776556619350E-02 a         6     0     1     1     6
 -7.2208998225565493E-02 a         7     0     1     1     7
 -1.4894648576733951E-01 a         8     0     1     1     8
  4.9039587283312605E-02 a         9     0     1     1     9
 -1.0389519443342675E-01 a        10     0     1     1    10
  2.2477178988995223E-02 a        11     0     1     1    11
  9.8950373145577947E-02 a        12     0     1     1    12
  1.1739460882338934E-01 a        13     0     1     1    13
 -7.6170939950725769E-02 a        14     0     1     1    14
  1.0313277394169085E-01 a        15     0     1     1    15
 -1.8063466958072257E-02 a        16     0     1     1    16
 -1.3349953736720147E-01 a        17     0     1     1    17
  4.0692312340210361E-02 a        18     0     1     1    18
 -9.4344785549252380E-02 a        19     0     1     1    19
 -1.3386249673226372E-01 a        20     0     1     1    20
 -8.6353317772102797E-02 a        21     0     1     1    21
 -9.7289710798211970E-02 a        22     0     1     1    22
  3.1137248014264183E-02 a        23     0     1     1    23
 -3.6242866755098101E-02 a        24     0     1     1    24
 -3.3367311221849071E-02 a        25     0     2     1     1
  2.7737438289792093E-02 a        26     0     2     1     2
 -6.4851191123784707E-02 a        27     0     2     1     3
  1.4387548318732138E-01 a        28     0     2     1     4
 -1.8780920020564454E-01 a        29     0     2     1     5
 -1.0941984764424309E-01 a        30     0     2     1     6
  3.0377767538488882E-02 a        31     0     2     1     7
  1.1881621546814176E-01 a        32     0     2     1     8
 -1.3258603128573115E-01 a        33     0     2     1     9
 -2.5657616637298464E-01 a        34     0     2     1    10
  5.7493784207142282E-02 a        35     0     2     1    11
  5.6079546818151624E-02 a        36     0     2     1    12
  1.9123884227905685E-01 a        37     0     2     1    13
  6.7361065983416901E-02 a        38     0     2     1    14
  9.3824072604573219E-02 a        39     0     2     1    15
 -5.6615657418143818E-02 a        40     0     2     1    16
  1.2496329772634773E-01 a        41     0     2     1    17
  6.7496273769644677E-02 a        42     0     2     1    18
  1.3860254198784902E-01 a        43     0     2     1    19
 -1.3189563781276742E-01 a        44     0     2     1    20
 -9.9897002144793287E-02 a        45     0     2     1    21
 -1.4922009888557755E-01 a        46     0     2     1    22
  9.8196726893929512E-02 a        47     0     2     1    23
  9.1914371878192816E-04 a        48     0     2     1    24
 -8.1712217337637533E-02 a        49     0     3     1     1
  1.4978752610766680E-02 a        50     0     3     1     2
 -1.0917141449178640E-01 a        51     0     3     1     3
  1.5334231179595018E-01 a        52     0     3     1     4
  7.9669980710493082E-03 a        53     0     3     1     5
  4.4936698225816085E-02 a        54     0     3     1     6
  1.1811295664314039E-01 a        55     0     3     1     7
 -1.0784813662160500E-01 a        56     0     3     1     8
  4.4773196927401185E-02 a        57     0     3     1     9
  9.0459962798840360E-02 a        58     0     3     1    10
  2.5558211777426485E-02 a        59     0     3     1    11
 -7.2720772048236529E-02 a        60     0     3     1    12
  4.0807529034668034E-02 a        61     0     3     1    13
 -6.1499774649616798E-02 a        62     0     3     1    14
 -8.2602739394058364E-02 a        63     0     3     1    15
 -1.2383207397393725E-01 a        64     0     3     1    16
  7.2962862619765645E-03 a        65     0     3     1    17
  4.9953344668512957E-02 a        66     0     3     1    18
  1.5748543873648649E-03 a        67     0     3     1    19
 -9.3510641373809156E-02 a        68     0     3     1    20
 -2.5058041822047900E-01 a        69     0     3     1    21
 -2.5292301523960420E-01 a        70     0     3     1    22
 -2.1231837108665974E-01 a        71     0     3     1    23
 -1.8971042813379463E-01 a        72     0     3     1    24
  7.5280503926231548E-02 a        73     0     4     1     1
 -4.4220130295015765E-02 a        74     0     4     1     2
 -1.6051536494860216E-01 a        75     0     4     1     3
 -5.6877197801141449E-02 a        76     0     4     1     4
 -9.7991201797729029E-03 a        77     0     4     1     5
  1.1596769631333162E-01 a        78     0     4     1     6
  1.1993353569688779E-02 a        79     0     4     1     7
 -4.8567784741657787E-02 a        80     0     4     1     8
  1.0496066079833632E-01 a        81     0     4     1     9
  1.4214462296655364E-02 a        82     0     4     1    10
  3.5574800006828019E-03 a        83     0     4     1    11
  4.8462242906822196E-02 a        84     0     4     1    12
  2.2728138907623477E-01 a        85     0     4     1    13
 -4.1787940072643519E-02 a        86     0     4     1    14
 -1.0729272054662812E-02 a        87     0     4     1    15
 -7.9740946750400554E-02 a        88     0     4     1    16
 -1.4749564986975316E-01 a        89     0     4     1    17
 -3.0038898700508635E-02 a        90     0     4     1    18
 -1.7802463968774199E-01 a        91     0     4     1    19
  8.4249479776850739E-02 a        92     0     4     1    20
  1.4881933628218871E-01 a        93     0     4     1    21
 -5.4485010423720739E-02 a        94     0     4     1    22
  8.0378562637026224E-02 a        95     0     4     1    23
  9.5833512210618449E-02 a        96     0     4     1    24
 -2.3685181062383914E-01 a        97     0     5     1     1
  5.5914335481219782E-02 a        98     0     5     1     2
 -5.0214074435020239E-02 a        99     0     5     1     3
  4.4823319154075741E-01 a       100     0     5     1     4
 -1.6503376183650359E-01 a       101     0     5     1     5
 -1.3261157064478959E-01 a       102     0     5     1     6
 -6.1590632103337692E-02 a       103     0     5     1     7
  1.8817494728487372E-01 a       104     0     5     1     8
 -1.6619021845167345E-01 a       105     0     5     1     9
  1.6716826733148193E-01 a       106     0     5     1    10
  1.7926235342055344E-01 a       107     0     5     1    11
  1.3622437578203754E-03 a       108     0     5     1    12
  8.0355427042060178E-03 a       109     0     5     1    13
  3.8857909411475169E-02 a       110     0     5     1    14
 -2.3218828665854654E-01 a       111     0     5     1    15
 -1.1781804754118430E-01 a       112     0     5     1    16
  1.4729879863929135E-01 a       113     0     5     1    17
 -1.5220419544153360E-01 a       114     0     5     1    18
  2.6615765630220251E-01 a       115     0     5     1    19
 -2.9186411283863462E-01 a       116     0     5     1    20
 -8.8691167916469152E-02 a       117     0     5     1    21
 -2.5192187604964977E-01 a       118     0     5     1    22
  2.5302416296428733E-02 a       119     0     5     1    23
 -1.0301650783500987E-01 a       120     0     5     1    24
 -1.4321553716140724E-02 a       121     0     6     1     1
  2.1104812484298571E-02 a       122     0     6     1     2
  7.1595667837475355E-02 a       123     0     6     1     3
  8.1854058462481449E-02 a       124     0     6     1     4
  8.9130121293645642E-02 a       125     0     6     1     5
  3.1183191515361017E-02 a       126     0     6     1     6
 -8.0012071762290124E-02 a       127     0     6     1     7
  1.1515000499568745E-01 a       128     0     6     1     8
 -4.3692803887271030E-02 a       129     0     6     1     9
 -7.7883055365423282E-02 a       130     0     6     1    10
  1.5336731609995038E-01 a       131     0     6     1    11
  5.5942357801621538E-02 a       132     0     6     1    12
  8.4652984910512277E-02 a       133     0     6     1    13
 -5.1613681796629049E-02 a       134     0     6     1    14
 -9.8076905531896283E-02 a       135     0     6     1    15
 -5.2358957908519556E-02 a       136     0     6     1    16
  1.7382405805113205E-01 a       137     0     6     1    17
  1.2852480550222908E-01 a       138     0     6     1    18
 -8.2296812450890822E-02 a       139     0     6     1    19
 -1.8309473491544312E-02 a       140     0     6     1    20
  5.6418728298234536E-02 a       141     0     6     1    21
 -1.1883464977941469E-01 a       142     0     6     1    22
  6.6024887329596937E-02 a       143     0     6     1    23
 -9.4263217615940725E-02 a       144     0     6     1    24
  1.3596250143589961E-01 a       145     0     7     1     1
  3.9728076382887839E-03 a       146     0     7     1     2
  1.2728317980373297E-01 a       147     0     7     1     3
 -1.1102413487461956E-02 a       148     0     7     1     4
  1.1808201501956786E-01 a       149     0     7     1     5
  1.9414326202606240E-02 a       150     0     7     1     6
  1.7434784897459857E-01 a       151     0     7     1     7
  1.3444317596924327E-01 a       152     0     7     1     8
 -3.4386641161005538E-02 a       153     0     7     1     9
  9.2511909477482820E-02 a       154     0     7     1    10
 -5.4825019533088444E-02 a       155     0     7     1    11
  9.3802190007550246E-02 a       156     0     7     1    12
 -3.0519668745569131E-02 a       157     0     7     1    13
 -1.0127968121274226E-02 a       158     0     7     1    14
 -2.0182456265886942E-01 a       159     0     7     1    15
  6.5055012813564059E-02 a       160     0     7     1    16
 -2.4263898761135622E-02 a       161     0     7     1    17
 -6.1234254488386777E-02 a       162     0     7     1    18
 -5.4919079773440904E-02 a       163     0     7     1    19
  1.4095054025655490E-01 a       164     0     7     1    20
 -4.8980825966823155E-02 a       165     0     7     1    21
  2.4197122617820679E-01 a       166     0     7     1    22
 -6.8784331141194893E-02 a       167     0     7     1    23
 -6.8922283268113393E-02 a       168     0     7     1    24
 -5.2751869408812130E-02 a       169     0     8     1     1
 -3.6838873147865707E-02 a       170     0     8     1     2
  4.7853393909607730E-02 a       171     0     8     1     3
  1.0569765373001291E-02 a       172     0     8     1     4
  2.2767466685535483E-02 a       173     0     8     1     5
  6.5644560974454799E-02 a       174     0     8     1     6
 -3.2991345331206262E-02 a       175     0     8     1     7
  1.6804200223773419E-01 a       176     0     8     1     8
 -1.7418309131873036E-01 a       177     0     8     1     9
  2.4809746951793066E-01 a       178     0     8     1    10
 -8.9132169112542542E-03 a       179     0     8     1    11
  4.1738444871023588E-03 a       180     0     8     1    12
  2.0512296549337262E-02 a       181     0     8     1    13
  1.9177133400387587E-02 a       182     0     8     1    14
 -9.2808070711320138E-03 a       183     0     8     1    15
 -5.4899898959988321E-02 a       184     0     8     1    16
 -1.1407916815773252E-01 a       185     0     8     1    17
 -1.6455185754761648E-01 a       186     0     8     1    18
  1.0559153067510010E-01 a       187     0     8     1    19
  1.9797728983838227E-02 a       188     0     8     1    20
  1.5414153247184514E-01 a       189     0     8     1    21
  2.5752405007594681E-02 a       190     0     8     1    22
  2.4881478243727100E-02 a       191     0     8     1    23
  1.2355648285156175E-01 a       192     0     8     1    24
  2.8468964467849016E-02 a       193     0     9     1     1
  1.0641686608355744E-01 a       194     0     9     1     2
  2.9361245403333815E-02 a       195     0     9     1     3
 -4.7678611833277228E-02 a       196     0     9     1     4
  9.0302194334577326E-02 a       197     0     9     1     5
 -4.1460789129223657E-02 a       198     0     9     1     6
  2.5685624150759479E-03 a       199     0     9     1     7
 -4.6727294528152788E-02 a       200     0     9     1     8
 -7.7318624195372807E-03 a       201     0     9     1     9
  2.4085100279246603E-02 a       202     0     9     1    10
  8.0582918106699236E-02 a       203     0     9     1    11
 -1.2715489940798957E-01 a       204     0     9     1    12
 -1.2018881642901988E-01 a       205     0     9     1    13
 -2.5107134427912490E-02 a       206     0     9     1    14
 -5.8644223164186085E-03 a       207     0     9     1    15
 -8.9522710447969653E-02 a       208     0     9     1    16
  9.5630068545269772E-02 a       209     0     9     1    17
 -9.6611137799040875E-02 a       210     0     9     1    18
 -1.3839961519743463E-02 a       211     0     9     1    19
 -1.0098895095301809E-01 a       212     0     9     1    20
  1.9515464404429857E-02 a       213     0     9     1    21
  7.6813445512258730E-02 a       214     0     9     1    22
 -9.6123816289953368E-02 a       215     0     9     1    23
 -2.3449188931649372E-02 a       216     0     9     1    24
 -2.0492094321812132E-01 a       217     0    10     1     1
  9.4945239372144691E-02 a       218     0    10     1     2
 -2.2895365992539451E-01 a       219     0    10     1     3
  3.9637246772055067E-02 a       220     0    10     1     4
  9.3539817086649615E-02 a       221     0    10     1     5
 -4.5327565902193945E-01 a       222     0    10     1     6
 -3.1052218239574542E-01 a       223     0    10     1     7
  1.9007828570326868E-01 a       224     0    10     1     8
  8.5941723876834346E-03 a       225     0    10     1     9
  9.3698081596908164E-02 a       226     0    10     1    10
  9.4791515483690150E-02 a       227     0    10     1    11
 -1.6804209054382477E-01 a       228     0    10     1    12
  3.8827704396656898E-01 a       229     0    10     1    13
 -8.5528341068851710E-02 a       230     0    10     1    14
 -3.2360384724409597E-01 a       231     0    10     1    15
  2.7955512742170181E-02 a       232     0    10     1    16
  2.4663354361913065E-01 a       233     0    10     1    17
  8.8736990142127892E-04 a       234     0    10     1    18
  3.7609033622689136E-01 a       235     0    10     1    19
  1.0283328103877436E-02 a       236     0    10     1    20
  1.6844958196396592E-01 a       237     0    10     1    21
 -1.7176092800143777E-01 a       238     0    10     1    22
  7.3402682488787493E-02 a       239     0    10     1    23
  7.8213798563600029E-02 a       240     0    10     1    24
  4.1127313763467857E-02 a       241     0    11     1     1
  9.4835317458495230E-02 a       242     0    11     1     2
  9.9024126023112263E-03 a       243     0    11     1     3
 -3.2851211106138742E-02 a       244     0    11     1     4
  6.6514046837577126E-02 a       245     0    11     1     5
 -1.4122293421718285E-01 a       246     0    11     1     6
 -1.1354310051235922E-01 a       247     0    11     1     7
 -1.5868255017820344E-02 a       248     0    11     1     8
 -2.2364128082701837E-01 a       249     0    11     1     9
  4.5711914647580554E-03 a       250     0    11     1    10
 -3.8532129950950240E-02 a       251     0    11     1    11
  7.9680699695372959E-04 a       252     0    11     1    12
 -9.4333583910668900E-02 a       253     0    11     1    13
 -5.9152105570204963E-02 a       254     0    11     1    14
 -5.0647642104564919E-02 a       255     0    11     1    15
  1.4502659064417867E-01 a       256     0    11     1    16
 -5.0098782609317369E-02 a       257     0    11     1    17
 -1.9709607269730925E-01 a       258     0    11     1    18
 -6.4224888887979337E-02 a       259     0    11     1    19
 -1.3940897263696569E-01 a       260     0    11     1    20
  1.4610902127486823E-02 a       261     0    11     1    21
 -5.1205572175829675E-02 a       262     0    11     1    22
 -1.1111740084056587E-02 a       263     0    11     1    23
 -1.0894386072511343E-01 a       264     0    11     1    24
 -5.6760743982449992E-02 a       265     0    12     1     1
 -1.1386584511799323E-01 a       266     0    12     1     2
  7.4055856166590578E-02 a       267     0    12     1     3
 -2.2413925538653512E-01 a       268     0    12     1     4
 -3.8933335550321552E-02 a       269     0    12     1     5
 -1.1603733469475708E-01 a       270     0    12     1     6
  3.1894100632919531E-02 a       271     0    12     1     7
 -4.2223122007079082E-02 a       272     0    12     1     8
  7.2439614466343533E-02 a       273     0    12     1     9
 -3.9430045052535785E-02 a       274     0    12     1    10
 -1.9270213828808452E-01 a       275     0    12     1    11
  1.3735053119906998E-01 a       276     0    12     1    12
 -2.4232491024814354E-02 a       277     0    12     1    13
 -2.4721904288956426E-01 a       278     0    12     1    14
  3.8483168233622517E-01 a       279     0    12     1    15
 -1.1841598255355895E-01 a       280     0    12     1    16
 -2.1736809126460618E-01 a       281     0    12     1    17
 -3.9257925639492389E-02 a       282     0    12     1    18
  3.1880159242166660E-02 a       283     0    12     1    19
  2.0758319584705751E-01 a       284     0    12     1    20
  9.2517203397171593E-02 a       285     0    12     1    21
  4.3359948795619413E-02 a       286     0    12     1    22
 -1.7552334848849627E-01 a       287     0    12     1    23
 -2.5358306340445574E-01 a       288     0    12     1    24
 -8.9759155010833147E-02 a       289     0    13     1     1
  9.1809094455109014E-02 a       290     0    13     1     2
  1.2418185636893928E-01 a       291     0    13     1     3
 -2.5063633720432005E-01 a       292     0    13     1     4
 -4.8717533008458047E-02 a       293     0    13     1     5
 -4.0840405183986378E-02 a       294     0    13     1     6
  1.2865893388279884E-01 a       295     0    13     1     7
 -9.2134631957158153E-02 a       296     0    13     1     8
  1.6115365986638677E-02 a       297     0    13     1     9
 -3.3831138503368102E-01 a       298     0    13     1    10
  1.1543356326775153E-01 a       299     0    13     1    11
  9.8952412853769670E-02 a       300     0    13     1    12
 -1.0479788621892994E-02 a       301     0    13     1    13
  4.1728577919727318E-02 a       302     0    13     1    14
 -3.8923406501003753E-02 a       303     0    13     1    15
  1.4041651979107253E-01 a       304     0    13     1    16
  1.5694594455015612E-01 a       305     0    13     1    17
  1.1077103954659714E-01 a       306     0    13     1    18
 -1.4756711607110887E-01 a       307     0    13     1    19
  1.0959851060247114E-01 a       308     0    13     1    20
  1.8461871513717526E-01 a       309     0    13     1    21
  2.0659556153082315E-01 a       310     0    13     1    22
  3.0826761057186330E-01 a       311     0    13     1    23
 -4.9395627794445889E-02 a       312     0    13     1    24
 -3.4156853248495843E-02 a       313     0    14     1     1
 -2.1439617256552020E-02 a       314     0    14     1     2
  3.8024664522576558E-03 a       315     0    14     1     3
 -2.0849991240121823E-02 a       316     0    14     1     4
  1.3472560579606663E-01 a       317     0    14     1     5
 -1.4048472090461303E-01 a       318     0    14     1     6
 -2.5353455091585564E-01 a       319     0    14     1     7
  1.6782483897402112E-01 a       320     0    14     1     8
  1.8297001345789279E-02 a       321     0    14     1     9
 -7.1528560837466629E-02 a       322     0    14     1    10
  7.1976439932878347E-02 a       323     0    14     1    11
  1.1370356149355045E-01 a       324     0    14     1    12
 -9.0235546173841483E-02 a       325     0    14     1    13
 -8.2467523186699598E-03 a       326     0    14     1    14
 -1.3905195139595422E-02 a       327     0    14     1    15
 -7.4979484036649044E-03 a       328     0    14     1    16
 -1.1766238941800729E-01 a       329     0    14     1    17
  7.2829839129493774E-03 a       330     0    14     1    18
 -8.0858969048165988E-02 a       331     0    14     1    19
  8.7008325179784157E-02 a       332     0    14     1    20
  6.7588416833305312E-02 a       333     0    14     1    21
 -4.2110506569469110E-02 a       334     0    14     1    22
 -6.4040791898587746E-02 a       335     0    14     1    23
 -4.4437307015799919E-02 a       336     0    14     1    24
  1.9401712025262122E-01 a       337     0    15     1     1
 -7.5713980134973574E-02 a       338     0    15     1     2
 -8.5432841271654278E-02 a       339     0    15     1     3
 -3.1332701276977565E-01 a       340     0    15     1     4
 -3.2419533384740552E-02 a       341     0    15     1     5
  1.6402420209196206E-01 a       342     0    15     1     6
  9.4979799021681199E-03 a       343     0    15     1     7
 -1.7917288397413889E-01 a       344     0    15     1     8
  1.0506073554432414E-01 a       345     0    15     1     9
 -1.8369894595245084E-01 a       346     0    15     1    10
 -6.8742226672639420E-02 a       347     0    15     1    11
  1.4597108904635103E-01 a       348     0    15     1    12
  1.1710906863324527E-01 a       349     0    15     1    13
 -6.0368743727851913E-02 a       350     0    15     1    14
  2.7617017014027950E-01 a       351     0    15     1    15
 -3.6253768085751099E-02 a       352     0    15     1    16
 -1.5061384682951557E-02 a       353     0    15     1    17
  2.2488749384904480E-01 a       354     0    15     1    18
 -1.5461847741737750E-01 a       355     0    15     1    19
  1.6486279243844507E-01 a       356     0    15     1    20
 -5.4997819084427357E-02 a       357     0    15     1    21
 -1.0495696769475654E-01 a       358     0    15     1    22
  6.7708826085370183E-02 a       359     0    15     1    23
 -7.0700965473524641E-02 a       360     0    15     1    24
  8.6398311122053512E-02 a       361     0    16     1     1
 -7.5009713363042973E-03 a       362     0    16     1     2
  1.6194283471631907E-01 a       363     0    16     1     3
 -1.8055301561562251E-01 a       364     0    16     1     4
 -7.0611544412669855E-02 a       365     0    16     1     5
 -6.9450754885372985E-03 a       366     0    16     1     6
  2.6199569944636725E-01 a       367     0    16     1     7
 -1.7591189515165465E-01 a       368     0    16     1     8
  9.7669071281291778E-02 a       369     0    16     1     9
 -7.5014579450239677E-02 a       370     0    16     1    10
 -1.5820605214358832E-01 a       371     0    16     1    11
  1.4363218160253957E-01 a       372     0    16     1    12
  4.5500596327506582E-02 a       373     0    16     1    13
 -1.0397854994978252E-02 a       374     0    16     1    14
  2.2930649742288270E-01 a       375     0    16     1    15
 -6.3996475811770745E-02 a       376     0    16     1    16
 -4.8510610890472886E-02 a       377     0    16     1    17
  7.2157999960227120E-02 a       378     0    16     1    18
 -1.2628140801871179E-01 a       379     0    16     1    19
  1.5313864797895951E-01 a       380     0    16     1    20
  3.1389470850417371E-02 a       381     0    16     1    21
  8.7809501768203721E-02 a       382     0    16     1    22
 -5.1948193964789077E-03 a       383     0    16     1    23
  2.4082840642208163E-02 a       384     0    16     1    24
 -6.9395260218471158E-02 a       385     0    17     1     1
  6.9254635094258207E-02 a       386     0    17     1     2
 -5.9937129865384881E-03 a       387     0    17     1     3
 -6.7561631571743649E-02 a       388     0    17     1     4
  4.6344758196894965E-02 a       389     0    17     1     5
  4.4258799273338048E-02 a       390     0    17     1     6
 -1.7158279514865774E-02 a       391     0    17     1     7
 -1.0152512922604653E-02 a       392     0    17     1     8
 -5.7153754756050709E-02 a       393     0    17     1     9
 -1.7081026644737182E-01 a       394     0    17     1    10
 -1.0932574517690264E-02 a       395     0    17     1    11
 -1.2236492885372245E-01 a       396     0    17     1    12
  1.3112205924100123E-02 a       397     0    17     1    13
 -4.7856902525731326E-02 a       398     0    17     1    14
  1.3938751119663752E-02 a       399     0    17     1    15
  1.0464727159541029E-01 a       400     0    17     1    16
 -1.8725435120039182E-02 a       401     0    17     1    17
 -1.2429315941005166E-01 a       402     0    17     1    18
  1.0382275790810400E-01 a       403     0    17     1    19
 -2.4337688636627913E-02 a       404     0    17     1    20
 -4.5312263608425989E-02 a       405     0    17     1    21
  8.8826105443468445E-02 a       406     0    17     1    22
  6.0435663260591861E-02 a       407     0    17     1    23
  5.0506066553452052E-03 a       408     0    17     1    24
  7.3240925849013636E-02 a       409     0    18     1     1
 -5.2025519919561884E-02 a       410     0    18     1     2
 -2.7523041804715712E-02 a       411     0    18     1     3
 -9.8978165239019811E-02 a       412     0    18     1     4
 -1.4523408319486197E-01 a       413     0    18     1     5
 -3.8201007248389830E-03 a       414     0    18     1     6
  7.8939448153641009E-03 a       415     0    18     1     7
  2.8949602231581821E-02 a       416     0    18     1     8
 -5.6839708624649959E-02 a       417     0    18     1     9
 -4.9503011882537362E-02 a       418     0    18     1    10
  6.2848859422726978E-04 a       419     0    18     1    11
  1.1280383343174313E-01 a       420     0    18     1    12
  3.9842131086764716E-02 a       421     0    18     1    13
  5.3385868926055846E-02 a       422     0    18     1    14
  2.6583568664740725E-01 a       423     0    18     1    15
 -2.0804255382722257E-02 a       424     0    18     1    16
  3.6915625912022347E-02 a       425     0    18     1    17
  1.3050499612045510E-01 a       426     0    18     1    18
  1.1705952295074747E-01 a       427     0    18     1    19
 -2.1314020343402690E-04 a       428     0    18     1    20
  7.1618296898431225E-03 a       429     0    18     1    21
  4.2902923732414819E-02 a       430     0    18     1    22
  2.7838846423212417E-02 a       431     0    18     1    23
 -9.1468858166443456E-02 a       432     0    18     1    24
 -2.8893374034356725E-02 a       433     0    19     1     1
 -3.8585052316955332E-02 a       434     0    19     1     2
 -3.4431669673773938E-02 a       435     0    19     1     3
 -1.0870063781641449E-01 a       436     0    19     1     4
 -9.0583204637809001E-02 a       437     0    19     1     5
  4.3468463481541091E-02 a       438     0    19     1     6
  3.7887343334075653E-02 a       439     0    19     1     7
 -9.1459364393829973E-03 a       440     0    19     1     8
  6.9440171569839601E-02 a       441     0    19     1     9
 -1.7701974529933903E-01 a       442     0    19     1    10
  3.9433162101366395E-02 a       443     0    19     1    11
 -1.5207294998453962E-02 a       444     0    19     1    12
 -1.2585694719498403E-01 a       445     0    19     1    13
 -2.8566053312890329E-02 a       446     0    19     1    14
  4.7859416609514885E-02 a       447     0    19     1    15
 -6.8537741394320340E-02 a       448     0    19     1    16
  2.9491915888091857E-01 a       449     0    19     1    17
  2.4860676674777808E-02 a       450     0    19     1    18
 -6.1145274820772991E-02 a       451     0    19     1    19
 -1.5335787312768741E-02 a       452     0    19     1    20
 -1.0677617465009208E-01 a       453     0    19     1    21
 -8.7155936198838099E-03 a       454     0    19     1    22
  1.9716939768421964E-02 a       455     0    19     1    23
 -5.6078685052327999E-02 a       456     0    19     1    24
 -4.4318510615141742E-02 a       457     0    20     1     1
 -9.7549835139054616E-02 a       458     0    20     1     2
  2.0574387178682940E-02 a       459     0    20     1     3
 -9.1972335937976629E-02 a       460     0    20     1     4
  7.9559302643283439E-02 a       461     0    20     1     5
 -1.7204487221691031E-02 a       462     0    20     1     6
 -3.5039345463443129E-03 a       463     0    20     1     7
 -9.5925566013729854E-02 a       464     0    20     1     8
  1.0177352848898594E-01 a       465     0    20     1     9
  4.3687806956698043E-02 a       466     0    20     1    10
  6.6527158597320432E-02 a       467     0    20     1    11
  8.3302067845383271E-02 a       468     0    20     1    12
 -5.4643945044532169E-02 a       469     0    20     1    13
  7.4815163210633681E-02 a       470     0    20     1    14
  2.3510199832790502E-02 a       471     0    20     1    15
 -9.0872269450676044E-02 a       472     0    20     1    16
  8.2210648921922772E-02 a       473     0    20     1    17
  1.3373296570240137E-01 a       474     0    20     1    18
 -4.0628398244184093E-02 a       475     0    20     1    19
 -7.4147076855937896E-02 a       476     0    20     1    20
 -8.1690983330467495E-02 a       477     0    20     1    21
  8.8422266835812349E-02 a       478     0    20     1    22
 -4.8858269015093159E-02 a       479     0    20     1    23
 -6.7027413147522003E-02 a       480     0    20     1    24
  2.5650843349334432E-02 a       481     0    21     1     1
  5.3975118843627747E-03 a       482     0    21     1     2
  4.0365320756127469E-02 a       483     0    21     1     3
  2.4817417946033149E-01 a       484     0    21     1     4
 -9.8557944312041026E-02 a       485     0    21     1     5
  6.1516662523102152E-02 a       486     0    21     1     6
 -1.1040686425146863E-01 a       487     0    21     1     7
 -8.1804654949328384E-02 a       488     0    21     1     8
 -5.6616010489979204E-02 a       489     0    21     1     9
 -1.5417389196295242E-01 a       490     0    21     1    10
  8.8822495194073287E-02 a       491     0    21     1    11
  8.4414422456596153E-02 a       492     0    21     1    12
 -1.5861777864408733E-01 a       493     0    21     1    13
  5.5456381972344088E-03 a       494     0    21     1    14
  3.4027651417871632E-02 a       495     0    21     1    15
 -1.0389285052051238E-01 a       496     0    21     1    16
  4.5347480800152183E-02 a       497     0    21     1    17
 -4.2806277309329982E-02 a       498     0    21     1    18
  1.2802762766006781E-02 a       499     0    21     1    19
 -1.2312299481317178E-01 a       500     0    21     1    20
 -1.7677988400763418E-02 a       501     0    21     1    21
 -8.0454039056918697E-02 a       502     0    21     1    22
 -3.0479960908785193E-02 a       503     0    21     1    23
  1.3415756283918001E-01 a       504     0    21     1    24
 -6.4597870983106959E-02 a       505     0    22     1     1
  5.7112437524748483E-02 a       506     0    22     1     2
 -1.6117214987255382E-01 a       507     0    22     1     3
 -5.8237025998450667E-02 a       508     0    22     1     4
 -1.6006302020536618E-02 a       509     0    22     1     5
 -4.9098992133385453E-03 a       510     0    22     1     6
  1.1043481965756376E-01 a       511     0    22     1     7
 -9.8183465672336170E-02 a       512     0    22     1     8
  7.8269245284898314E-02 a       513     0    22     1     9
  4.3962372519060926E-02 a       514     0    22     1    10
 -7.5328869952683231E-02 a       515     0    22     1    11
 -3.9291906777880997E-02 a       516     0    22     1    12
 -1.2176659407458511E-01 a       517     0    22     1    13
  1.3416807598065739E-01 a       518     0    22     1    14
 -3.4998627120409076E-02 a       519     0    22     1    15
 -1.9595314466550107E-02 a       520     0    22     1    16
 -1.1976694371482652E-01 a       521     0    22     1    17
  7.0466630601508408E-03 a       522     0    22     1    18
 -4.9399035831624187E-02 a       523     0    22     1    19
  8.6251206546127362E-02 a       524     0    22     1    20
 -6.1341380877261306E-02 a       525     0    22     1    21
 -2.5229959180873892E-02 a       526     0    22     1    22
  2.9463483332019202E-02 a       527     0    22     1    23
 -1.1537178900423950E-01 a       528     0    22     1    24
 -1.8374632085607429E-02 a       529     0    23     1     1
  2.6758512537912160E-01 a       530     0    23     1     2
 -5.7762379851949930E-02 a       531     0    23     1     3
  7.0931641626750017E-02 a       532     0    23     1     4
  2.9784326958359149E-02 a       533     0    23     1     5
 -1.3816821847957014E-01 a       534     0    23     1     6
  2.3639237320403456E-01 a       535     0    23     1     7
 -1.5314438437391464E-01 a       536     0    23     1     8
  5.4672121208631720E-02 a       537     0    23     1     9
 -7.4040033018338378E-02 a       538     0    23     1    10
 -1.1072007993008808E-01 a       539     0    23     1    11
 -6.1694505004519643E-04 a       540     0    23     1    12
  1.0677804146439150E-01 a       541     0    23     1    13
 -1.6410364814855340E-02 a       542     0    23     1    14
 -1.0625192600673569E-01 a       543     0    23     1    15
 -9.3332283780887010E-02 a       544     0    23     1    16
 -4.1906230098571993E-02 a       545     0    23     1    17
  1.7317531431411609E-01 a       546     0    23     1    18
 -7.3721541685260236E-03 a       547     0    23     1    19
 -1.1737209014964681E-01 a       548     0    23     1    20
 -1.3502371321030118E-01 a       549     0    23     1    21
 -2.6472405666222826E-01 a       550     0    23     1    22
 -1.7684836095207807E-01 a       551     0    23     1    23
 -7.6506681429498444E-02 a       552     0    23     1    24
 -1.8802791194700619E-02 a       553     0    24     1     1
  2.6028327648362368E-02 a       554     0    24     1     2
 -9.4994091279285986E-02 a       555     0    24     1     3
 -1.5059218516561281E-02 a       556     0    24     1     4
  2.2565622068855765E-02 a       557     0    24     1     5
 -6.4412082012475197E-02 a       558     0    24     1     6
  9.6185478089018658E-02 a       559     0    24     1     7
  6.6063695040399412E-02 a       560     0    24     1     8
  1.6185638122885077E-01 a       561     0    24     1     9
 -5.6836863625002107E-02 a       562     0    24     1    10
  1.1215354260872903E-02 a       563     0    24     1    11
  4.7706983876259421E-02 a       564     0    24     1    12
 -1.1111977308160155E-01 a       565     0    24     1    13
  2.8442798735037772E-02 a       566     0    24     1    14
  5.6862586686318509E-02 a       567     0    24     1    15
  1.1492028723276271E-01 a       568     0    24     1    16
 -1.2549840227829825E-01 a       569     0    24     1    17
  1.0928233733922914E-01 a       570     0    24     1    18
  3.8566008662806066E-02 a       571     0    24     1    19
  1.0361063792889993E-01 a       572     0    24     1    20
  9.2888374286059894E-02 a       573     0    24     1    21
 -1.6953854364619072E-02 a       574     0    24     1    22
  6.7029925308742702E-02 a       575     0    24     1    23
 -5.5822309394104520E-02 a       576     0    24     1    24
 -1.0220526604322881E-01 a       577     0    25     1     1
  9.0164048673803426E-02 a       578     0    25     1     2
  6.8013123711127527E-02 a       579     0    25     1     3
  9.0574853732406702E-02 a       580     0    25     1     4
  1.1949203588740179E-01 a       581     0    25     1     5
 -1.4473968692677083E-01 a       582     0    25     1     6
  1.2029540568514260E-01 a       583     0    25     1     7
 -8.4825356824469123E-02 a       584     0    25     1     8
 -5.1102697548142430E-02 a       585     0    25     1     9
 -4.9757815102112066E-02 a       586     0    25     1    10
 -1.3633545828568464E-01 a       587     0    25     1    11
 -1.4098332776210001E-01 a       588     0    25     1    12
  1.5310432902163831E-01 a       589     0    25     1    13
 -3.1309434737817651E-02 a       590     0    25     1    14
 -1.4843125978766125E-01 a       591     0    25     1    15
  6.2199730747751696E-02 a       592     0    25     1    16
 -1.1028212232072933E-01 a       593     0    25     1    17
 -1.3000974356098627E-01 a       594     0    25     1    18
  9.0736677078465167E-02 a       595     0    25     1    19
  8.3738765641649240E-02 a       596     0    25     1    20
 -8.0185366534787236E-02 a       597     0    25     1    21
  3.7769390303263733E-02 a       598     0    25     1    22
  4.4855075335559274E-03 a       599     0    25     1    23
  8.8317818319308766E-02 a       600     0    25     1    24
 -7.2144900663837020E-03 a       601     0    26     1     1
  1.2560301674157911E-04 a       602     0    26     1     2
 -1.3170990974776800E-02 a       603     0    26     1     3
  9.5493561594867507E-02 a       604     0    26     1     4
  8.6963061983701719E-03 a       605     0    26     1     5
 -4.7192407692268571E-03 a       606     0    26     1     6
 -1.0832468143942886E-01 a       607     0    26     1     7
  1.0325566856447287E-01 a       608     0    26     1     8
  2.5633797522696393E-02 a       609     0    26     1     9
  1.3862512576124511E-01 a       610     0    26     1    10
 -3.3957667778397080E-02 a       611     0    26     1    11
  6.0861521386308806E-02 a       612     0    26     1    12
 -6.1818701815307034E-02 a       613     0    26     1    13
  9.6151038529690092E-02 a       614     0    26     1    14
 -1.2480123950415931E-01 a       615     0    26     1    15
  4.3262383104254953E-02 a       616     0    26     1    16
  8.1305341872150744E-02 a       617     0    26     1    17
  9.2480176164886213E-02 a       618     0    26     1    18
 -1.1877210949898188E-01 a       619     0    26     1    19
  9.6896193083233495E-02 a       620     0    26     1    20
  8.7130734409334248E-02 a       621     0    26     1    21
  5.7722292451075650E-02 a       622     0    26     1    22
  3.5089385541551242E-02 a       623     0    26     1    23
 -9.4632031466787239E-02 a       624     0    26     1    24
  4.2828579564088809E-02 a       625     0    27     1     1
 -6.0468513375014153E-02 a       626     0    27     1     2
  6.5515133792300867E-02 a       627     0    27     1     3
  6.4825522018789231E-02 a       628     0    27     1     4
  4.1388748041404105E-02 a       629     0    27     1     5
 -6.6224964205273559E-02 a       630     0    27     1     6
  1.2385899555452938E-01 a       631     0    27     1     7
  5.6356549942249846E-02 a       632     0    27     1     8
 -4.4051511982898146E-02 a       633     0    27     1     9
  2.2386929739355254E-02 a       634     0    27     1    10
 -4.9060607881807002E-02 a       635     0    27     1    11
  1.1295107797122639E-01 a       636     0    27     1    12
 -1.9004484616936934E-02 a       637     0    27     1    13
  1.2924792561504822E-01 a       638     0    27     1    14
  5.2062973328908725E-02 a       639     0    27     1    15
  5.8782934897238924E-02 a       640     0    27     1    16
 -4.7074000360590007E-02 a       641     0    27     1    17
  7.2543103083018493E-02 a       642     0    27     1    18
 -9.4721022019284666E-03 a       643     0    27     1    19
 -1.0497812085413959E-01 a       644     0    27     1    20
  4.1558939599858805E-02 a       645     0    27     1    21
  1.1139023553040468E-03 a       646     0    27     1    22
 -1.1427179455432401E-01 a       647     0    27     1    23
 -7.4181730612311342E-02 a       648     0    27     1    24
 -8.5661899151355664E-02 a       649     0    28     1     1
  3.0809099012210014E-02 a       650     0    28     1     2
 -1.7680578251089435E-01 a       651     0    28     1     3
  2.2110492852195376E-02 a       652     0    28     1     4
  1.5296681961082459E-01 a       653     0    28     1     5
 -2.0587819487773193E-01 a       654     0    28     1     6
 -1.0121886433322104E-01 a       655     0    28     1     7
  1.3047343956574531E-01 a       656     0    28     1     8
  3.6070395043126639E-02 a       657     0    28     1     9
  2.0552738811934090E-01 a       658     0    28     1    10
  1.2875570850261042E-01 a       659     0    28     1    11
 -3.1553276514430628E-02 a       660     0    28     1    12
  1.5901036114596503E-01 a       661     0    28     1    13
 -4.9813292282900858E-02 a       662     0    28     1    14
 -2.0260938327834735E-01 a       663     0    28     1    15
  7.2894785544891719E-02 a       664     0    28     1    16
 -8.4825441969662380E-02 a       665     0    28     1    17
 -2.5404866248735752E-01 a       666     0    28     1    18
 -6.3178517738530268E-02 a       667     0    28     1    19
  9.1466310108568746E-02 a       668     0    28     1    20
  4.8485989031757402E-02 a       669     0    28     1    21
  5.9035617529620214E-04 a       670     0    28     1    22
 -6.0452742883836848E-02 a       671     0    28     1    23
  9.7205188563028483E-02 a       672     0    28     1    24
 -3.8372623977583004E-03 a       673     0    29     1     1
  1.1553760024603235E-03 a       674     0    29     1     2
  4.6193406407388886E-02 a       675     0    29     1     3
  9.5293827126325073E-02 a       676     0    29     1     4
 -3.3056949278201297E-02 a       677     0    29     1     5
  2.5344198163503480E-02 a       678     0    29     1     6
 -8.7627095669729288E-02 a       679     0    29     1     7
  1.1548525227379185E-01 a       680     0    29     1     8
 -7.7433701119478948E-02 a       681     0    29     1     9
 -4.3904999038206660E-02 a       682     0    29     1    10
  8.7436904867304210E-02 a       683     0    29     1    11
  2.6144474394150061E-02 a       684     0    29     1    12
  1.2697166610910615E-01 a       685     0    29     1    13
  7.3223271403749290E-02 a       686     0    29     1    14
  1.4270005004386258E-02 a       687     0    29     1    15
  1.7921206590027185E-02 a       688     0    29     1    16
 -1.3213225714343613E-01 a       689     0    29     1    17
 -7.0053531918665341E-04 a       690     0    29     1    18
 -6.3809687069562498E-02 a       691     0    29     1    19
 -1.5714824886730455E-01 a       692     0    29     1    20
  3.9917145626861349E-02 a       693     0    29     1    21
 -6.5337877560589383E-02 a       694     0    29     1    22
  1.2337614784154011E-02 a       695     0    29     1    23
  1.4028394583607062E-01 a       696     0    29     1    24
  2.8436250126407499E-02 a       697     0    30     1     1
 -5.5479408877058033E-03 a       698     0    30     1     2
 -8.2950149734033363E-02 a       699     0    30     1     3
  3.7451093081348377E-02 a       700     0    30     1     4
 -8.6882210688573130E-02 a       701     0    30     1     5
  5.5248937429320341E-02 a       702     0    30     1     6
 -1.8593333843888873E-01 a       703     0    30     1     7
 -2.5695874643204743E-03 a       704     0    30     1     8
  6.3010210614697316E-03 a       705     0    30     1     9
  1.2846449870225396E-01 a       706     0    30     1    10
  3.7093494102593003E-03 a       707     0    30     1    11
 -3.2750330740952197E-02 a       708     0    30     1    12
 -3.4626461946952652E-02 a       709     0    30     1    13
 -2.6579248457628740E-02 a       710     0    30     1    14
 -9.9739310947761520E-02 a       711     0    30     1    15
  2.6086791547304606E-02 a       712     0    30     1    16
  6.8665513083067314E-02 a       713     0    30     1    17
  9.1850113376933332E-03 a       714     0    30     1    18
  5.8046995082625868E-02 a       715     0    30     1    19
  2.8310818446802870E-02 a       716     0    30     1    20
  2.8159734926925171E-02 a       717     0    30     1    21
  4.6829492956167746E-03 a       718     0    30     1    22
 -3.0815790453139064E-02 a       719     0    30     1    23
 -2.7331097309013664E-02 a       720     0    30     1    24
 -3.6197809942826890E-02 a       721     0    31     1     1
  5.5850691187138875E-02 a       722     0    31     1     2
 -8.3476309103461266E-02 a       723     0    31     1     3
  5.1213569744863657E-02 a       724     0    31     1     4
 -1.1441924257794422E-01 a       725     0    31     1     5
  4.2037176883992167E-02 a       726     0    31     1     6
 -1.1647193486748229E-01 a       727     0    31     1     7
 -4.8123292020196419E-02 a       728     0    31     1     8
 -3.6886778167285485E-03 a       729     0    31     1     9
 -4.6467343109342710E-02 a       730     0    31     1    10
  3.9234096063675249E-02 a       731     0    31     1    11
 -2.1322767554665421E-02 a       732     0    31     1    12
 -7.9758835701862665E-02 a       733     0    31     1    13
 -5.9529810035892465E-03 a       734     0    31     1    14
  5.9449979684540542E-02 a       735     0    31     1    15
 -7.0431424755618130E-02 a       736     0    31     1    16
  1.1183228190281874E-01 a       737     0    31     1    17
 -1.0459334347520044E-01 a       738     0    31     1    18
 -4.1391078608902246E-02 a       739     0    31     1    19
 -1.3837743687881282E-01 a       740     0    31     1    20
  5.4417249826512488E-03 a       741     0    31     1    21
  1.4066161846608843E-01 a       742     0    31     1    22
 -6.3749994630063625E-03 a       743     0    31     1    23
 -4.8398599601148236E-02 a       744     0    31     1    24
  2.4283676499446870E-02 a       745     0    32     1     1
  6.1830136416047343E-02 a       746     0    32     1     2
 -1.6494724079181536E-01 a       747     0    32     1     3
  8.1000665825152363E-02 a       748     0    32     1     4
 -9.0654016132396140E-02 a       749     0    32     1     5
  6.4447451861772545E-02 a       750     0    32     1     6
 -9.8693375182678872E-02 a       751     0    32     1     7
  2.3294705825694831E-02 a       752     0    32     1     8
 -5.5891639952178801E-02 a       753     0    32     1     9
  7.6134182599583433E-03 a       754     0    32     1    10
 -1.0482507814476716E-01 a       755     0    32     1    11
 -1.0984262737073104E-01 a       756     0    32     1    12
  1.0655957270361822E-01 a       757     0    32     1    13
 -3.2673375469462404E-02 a       758     0    32     1    14
 -1.5189173684291407E-02 a       759     0    32     1    15
  1.8309151907498852E-01 a       760     0    32     1    16
 -6.5383148084980802E-02 a       761     0    32     1    17
  5.2153786657381324E-02 a       762     0    32     1    18
  5.0538259637902448E-02 a       763     0    32     1    19
  1.2252812592360770E-02 a       764     0    32     1    20
  2.5995160679604085E-02 a       765     0    32     1    21
 -1.1199769855572483E-02 a       766     0    32     1    22
 -5.7188303402874001E-02 a       767     0    32     1    23
  1.0516438433277745E-03 a       768     0    32     1    24
 -5.1142550614552709E-02 a       769     0    33     1     1
  3.6317314512005559E-02 a       770     0    33     1     2
  1.0779878666813313E-01 a       771     0    33     1     3
 -7.9023351663135136E-02 a       772     0    33     1     4
  1.0645752821469615E-01 a       773     0    33     1     5
  1.4594360116317395E-01 a       774     0    33     1     6
  6.0974800710485527E-02 a       775     0    33     1     7
 -4.9252884241295834E-02 a       776     0    33     1     8
 -1.2862208917149395E-01 a       777     0    33     1     9
 -1.6289167558613502E-01 a       778     0    33     1    10
 -1.1816407182042574E-01 a       779     0    33     1    11
  5.0869511662079703E-02 a       780     0    33     1    12
  1.0164977539275967E-01 a       781     0    33     1    13
  1.0809272913485522E-01 a       782     0    33     1    14
  3.5329000193851309E-02 a       783     0    33     1    15
  9.7154010783913163E-03 a       784     0    33     1    16
  3.5591814744705623E-02 a       785     0    33     1    17
 -1.9367223188733986E-02 a       786     0    33     1    18
  7.2918011157468390E-02 a       787     0    33     1    19
 -5.7761946558294031E-02 a       788     0    33     1    20
 -5.7754825265812167E-02 a       789     0    33     1    21
  5.1724686886474934E-02 a       790     0    33     1    22
 -1.7964535354779577E-02 a       791     0    33     1    23
 -5.3563116095529661E-02 a       792     0    33     1    24
 -1.5832828268482128E-03 a       793     0    34     1     1
  7.9364151805576627E-02 a       794     0    34     1     2
  1.0329161055080052E-01 a       795     0    34     1     3
 -1.6163761596299002E-02 a       796     0    34     1     4
 -2.7713796339069494E-02 a       797     0    34     1     5
  9.1113051878524351E-02 a       798     0    34     1     6
  1.6084008105663686E-01 a       799     0    34     1     7
 -1.0170831172537018E-03 a       800     0    34     1     8
 -6.1761580841182558E-02 a       801     0    34     1     9
  5.9751434669386476E-02 a       802     0    34     1    10
 -4.3836175882131352E-02 a       803     0    34     1    11
  3.1013002324382304E-02 a       804     0    34     1    12
 -1.5826974338760770E-02 a       805     0    34     1    13
  2.9750953895074726E-02 a       806     0    34     1    14
  1.0935805763320837E-01 a       807     0    34     1    15
  1.5608858937674042E-03 a       808     0    34     1    16
 -2.1313490823553001E-02 a       809     0    34     1    17
  3.1909534750148307E-03 a       810     0    34     1    18
 -7.1918000969603685E-03 a       811     0    34     1    19
  2.4702422921261991E-01 a       812     0    34     1    20
 -4.3560226427774622E-02 a       813     0    34     1    21
  1.0037742518662636E-01 a       814     0    34     1    22
 -1.3103635468238471E-02 a       815     0    34     1    23
 -3.8743639098985566E-02 a       816     0    34     1    24
 -9.9070028427598236E-03 a       817     0    35     1     1
  3.3352858426044505E-03 a       818     0    35     1     2
  9.9938848294127081E-02 a       819     0    35     1     3
 -2.2228140825384823E-02 a       820     0    35     1     4
 -3.1214343393047007E-02 a       821     0    35     1     5
 -3.7631294652898148E-02 a       822     0    35     1     6
  1.2072164626619354E-01 a       823     0    35     1     7
  7.2755876176792411E-02 a       824     0    35     1     8
 -4.9443650362595423E-03 a       825     0    35     1     9
  3.3286340118901837E-02 a       826     0    35     1    10
 -4.0663329146502801E-02 a       827     0    35     1    11
  2.2742399724207520E-02 a       828     0    35     1    12
 -1.2643754498665206E-02 a       829     0    35     1    13
 -3.8942480517119182E-02 a       830     0    35     1    14
  2.6991829596036323E-02 a       831     0    35     1    15
 -2.9618650452036651E-02 a       832     0    35     1    16
  5.2516319150950438E-02 a       833     0    35     1    17
 -5.5182573141841169E-02 a       834     0    35     1    18
  5.9243189106010501E-02 a       835     0    35     1    19
  1.3573407167484650E-02 a       836     0    35     1    20
 -5.4818364481237294E-02 a       837     0    35     1    21
 -4.0483841379207734E-02 a       838     0    35     1    22
  1.1145280838507068E-01 a       839     0    35     1    23
  2.3974997539346236E-02 a       840     0    35     1    24
 -1.1465910548265491E-02 a       841     0    36     1     1
  2.7564411241467950E-02 a       842     0    36     1     2
  5.5210958796006709E-02 a       843     0    36     1     3
 -1.0229623625650151E-01 a       844     0    36     1     4
 -6.3152081591673990E-03 a       845     0    36     1     5
  2.0280288844041930E-01 a       846     0    36     1     6
 -8.5315580083094963E-02 a       847     0    36     1     7
 -1.2196317852145236E-01 a       848     0    36     1     8
 -8.9676556719628292E-02 a       849     0    36     1     9
 -8.6686162963836660E-02 a       850     0    36     1    10
  1.8331719741893446E-01 a       851     0    36     1    11
  1.5765852001449299E-02 a       852     0    36     1    12
 -1.4476026520619120E-01 a       853     0    36     1    13
  1.7342625115921832E-02 a       854     0    36     1    14
  2.0664459243126262E-02 a       855     0    36     1    15
  1.4567469241092048E-03 a       856     0    36     1    16
 -7.1838517818247752E-02 a       857     0    36     1    17
  6.9521815702646067E-02 a       858     0    36     1    18
 -1.6920511747915490E-01 a       859     0    36     1    19
 -2.8617529784200020E-02 a       860     0    36     1    20
 -2.3275691178109525E-02 a       861     0    36     1    21
  1.6043524811480062E-01 a       862     0    36     1    22
  4.4836731779391938E-02 a       863     0    36     1    23
 -2.7464487367356485E-02 a       864     0    36     1    24
  6.8530522239353076E-02 a       865     0    37     1     1
  4.9104885413596880E-02 a       866     0    37     1     2
  1.0213761649049823E-01 a       867     0    37     1     3
 -2.3728615408822561E-03 a       868     0    37     1     4
 -1.2489412190771433E-02 a       869     0    37     1     5
 -5.0583730964664300E-03 a       870     0    37     1     6
 -1.4545786587687198E-01 a       871     0    37     1     7
 -4.6455351738542532E-02 a       872     0    37     1     8
 -1.0498842174729495E-01 a       873     0    37     1     9
  5.7301382003004782E-02 a       874     0    37     1    10
  7.5663367237082821E-02 a       875     0    37     1    11
  7.0471295691189526E-02 a       876     0    37     1    12
  1.1766337391164276E-02 a       877     0    37     1    13
 -8.0605675101925289E-02 a       878     0    37     1    14
 -4.4019287554200849E-02 a       879     0    37     1    15
 -1.7506261369639047E-02 a       880     0    37     1    16
  1.1346546046737639E-01 a       881     0    37     1    17
  5.2248958862671037E-02 a       882     0    37     1    18
 -3.1480657176396684E-02 a       883     0    37     1    19
 -2.4410687298297599E-02 a       884     0    37     1    20
 -2.4644392403301303E-02 a       885     0    37     1    21
 -5.1076802202864403E-02 a       886     0    37     1    22
 -6.1833801266331152E-02 a       887     0    37     1    23
  1.0323273162569360E-02 a       888     0    37     1    24
  2.1733966213693549E-02 a       889     0    38     1     1
  6.8335853699729249E-02 a       890     0    38     1     2
  2.2904185213595446E-01 a       891     0    38     1     3
  8.9143333762672985E-03 a       892     0    38     1     4
 -1.0141501338234521E-02 a       893     0    38     1     5
  1.3226254864833356E-01 a       894     0    38     1     6
  6.3796080146940690E-03 a       895     0    38     1     7
  2.7107429152640829E-02 a       896     0    38     1     8
  6.5782696777756710E-03 a       897     0    38     1     9
 -9.8769363111284564E-02 a       898     0    38     1    10
 -4.7661796044196460E-03 a       899     0    38     1    11
  9.3436399370474904E-02 a       900     0    38     1    12
  3.6496118833231214E-02 a       901     0    38     1    13
 -1.0774988248150019E-01 a       902     0    38     1    14
 -1.5180945378979682E-02 a       903     0    38     1    15
 -9.1501984958891780E-02 a       904     0    38     1    16
 -1.4297403954220350E-01 a       905     0    38     1    17
  5.8115872404201262E-02 a       906     0    38     1    18
  1.9368592124965052E-03 a       907     0    38     1    19
  1.5465246498699334E-02 a       908     0    38     1    20
  9.8279914085191121E-03 a       909     0    38     1    21
  1.5109885319576163E-01 a       910     0    38     1    22
 -1.1108332681160721E-01 a       911     0    38     1    23
 -5.7032143005521759E-03 a       912     0    38     1    24
  9.9541018740999507E-02 a       913     0    39     1     1
  2.3663399541463931E-02 a       914     0    39     1     2
  6.2295903214173713E-02 a       915     0    39     1     3
  2.1635095911703591E-02 a       916     0    39     1     4
  5.2733747156045049E-02 a       917     0    39     1     5
 -7.7589245894471220E-02 a       918     0    39     1     6
  3.6878590374991693E-02 a       919     0    39     1     7
 -1.8358216815464797E-02 a       920     0    39     1     8
 -1.3355746818931585E-01 a       921     0    39     1     9
  4.8155713002420143E-02 a       922     0    39     1    10
  3.3486445509666750E-02 a       923     0    39     1    11
 -3.6601444733339671E-02 a       924     0    39     1    12
  1.2666407581096781E-01 a       925     0    39     1    13
 -3.3679350623367972E-02 a       926     0    39     1    14
 -1.3286656426181762E-01 a       927     0    39     1    15
 -2.1965504346244773E-02 a       928     0    39     1    16
 -1.6034822594583487E-01 a       929     0    39     1    17
 -8.2065537873229941E-02 a       930     0    39     1    18
  3.3274693269451074E-02 a       931     0    39     1    19
  8.3705027636332932E-02 a       932     0    39     1    20
  1.9548152968462318E-01 a       933     0    39     1    21
  6.7867752196991718E-02 a       934     0    39     1    22
  1.7433782214867015E-02 a       935     0    39     1    23
  1.6632617591972793E-02 a       936     0    39     1    24
  7.0705339272404216E-02 a       937     0    40     1     1
 -5.1307450358375785E-03 a       938     0    40     1     2
 -1.6248038128418549E-01 a       939     0    40     1     3
  6.1196139587893397E-02 a       940     0    40     1     4
 -1.6574448963310934E-01 a       941     0    40     1     5
 -1.2786736941700810E-01 a       942     0    40     1     6
  9.7090380914829300E-02 a       943     0    40     1     7
  4.4673686871891501E-02 a       944     0    40     1     8
  8.4933292271028887E-02 a       945     0    40     1     9
  3.8131585622966528E-02 a       946     0    40     1    10
 -8.3401508328201784E-02 a       947     0    40     1    11
  3.6097434938429851E-03 a       948     0    40     1    12
  6.4744498203966716E-02 a       949     0    40     1    13
 -9.5085525738590696E-03 a       950     0    40     1    14
  4.3460941497257967E-02 a       951     0    40     1    15
 -1.1027540246321239E-01 a       952     0    40     1    16
 -3.2224523333843742E-02 a       953     0    40     1    17
 -1.4707278728007903E-01 a       954     0    40     1    18
 -9.3464250420541004E-02 a       955     0    40     1    19
 -1.4761394793917887E-01 a       956     0    40     1    20
 -1.3613079306490927E-02 a       957     0    40     1    21
  8.9070994033471795E-02 a       958     0    40     1    22
  5.7185301710767203E-02 a       959     0    40     1    23
  1.7042461920062268E-01 a       960     0    40     1    24
  6.4078309292252569E-02 a       961     0    41     1     1
 -1.1498558725433848E-01 a       962     0    41     1     2
  6.1827361615577774E-02 a       963     0    41     1     3
 -7.3066470741639050E-02 a       964     0    41     1     4
 -2.3279142522066407E-02 a       965     0    41     1     5
 -5.8759052381192655E-03 a       966     0    41     1     6
  2.9787753979050112E-02 a       967     0    41     1     7
  7.8499518488801850E-02 a       968     0    41     1     8
 -1.8932939202939047E-02 a       969     0    41     1     9
  7.0240191458863219E-02 a       970     0    41     1    10
  3.8047370459150409E-02 a       971     0    41     1    11
  4.5773855008275827E-02 a       972     0    41     1    12
  4.1795801419004422E-02 a       973     0    41     1    13
 -2.2838617269674587E-02 a       974     0    41     1    14
  1.2368267393739787E-01 a       975     0    41     1    15
  2.7011756255437808E-02 a       976     0    41     1    16
 -4.6310883376538485E-02 a       977     0    41     1    17
  1.3607079219228022E-01 a       978     0    41     1    18
  6.2650382323293216E-02 a       979     0    41     1    19
  2.3426465923927473E-02 a       980     0    41     1    20
  2.4728207442239324E-02 a       981     0    41     1    21
  1.5008791008107331E-02 a       982     0    41     1    22
 -1.0733561872300283E-02 a       983     0    41     1    23
  5.3718832461448096E-02 a       984     0    41     1    24
  2.8251957633493731E-02 a       985     0    42     1     1
  9.3890582673827799E-02 a       986     0    42     1     2
  9.4841903353822893E-02 a       987     0    42     1     3
 -7.2289855247349141E-02 a       988     0    42     1     4
 -1.0537388647789215E-02 a       989     0    42     1     5
  9.3074251050602099E-03 a       990     0    42     1     6
  7.0685170597783370E-02 a       991     0    42     1     7
 -1.0957106155123372E-01 a       992     0    42     1     8
  8.9584540636609811E-02 a       993     0    42     1     9
 -3.9397879129499790E-02 a       994     0    42     1    10
  7.0066669039094351E-02 a       995     0    42     1    11
 -1.7457188427244280E-02 a       996     0    42     1    12
 -2.4556086159557771E-02 a       997     0    42     1    13
  1.4912010232096418E-01 a       998     0    42     1    14
 -2.3506248204941769E-02 a       999     0    42     1    15
  1.4942835600578971E-03 a      1000     0    42     1    16
 -2.2040187995822282E-02 a      1001     0    42     1    17
  6.7115091807899332E-02 a      1002     0    42     1    18
 -9.1216806303280884E-02 a      1003     0    42     1    19
 -6.3561929263168337E-02 a      1004     0    42     1    20
 -1.0694350106879146E-02 a      1005     0    42     1    21
 -1.7440647000625209E-01 a      1006     0    42     1    22
  3.2826466209811875E-02 a      1007     0    42     1    23
  1.8037149662910507E-02 a      1008     0    42     1    24
  4.6214052942421889E-02 a      1009     0    43     1     1
  1.7282226730544307E-02 a      1010     0    43     1     2
  7.3281356318556562E-02 a      1011     0    43     1     3
  7.1324903311686741E-02 a      1012     0    43     1     4
 -2.3421672238029604E-02 a      1013     0    43     1     5
  1.4455572928055774E-01 a      1014     0    43     1     6
 -3.7758392010793632E-02 a      1015     0    43     1     7
  1.5820767064990446E-01 a      1016     0    43     1     8
  1.2034689027759058E-02 a      1017     0    43     1     9
 -3.3952057037973456E-03 a      1018     0    43     1    10
  6.3476840215112587E-02 a      1019     0    43     1    11
  6.6376584275004688E-02 a      1020     0    43     1    12
 -1.1425753729782033E-01 a      1021     0    43     1    13
  2.2494333589046323E-01 a      1022     0    43     1    14
  1.6915941351262484E-01 a      1023     0    43     1    15
  8.4581526226836790E-02 a      1024     0    43     1    16
  1.1834443866278467E-01 a      1025     0    43     1    17
  5.4660076282669542E-03 a      1026     0    43     1    18
 -6.8880640097062878E-02 a      1027     0    43     1    19
 -3.3053939175130498E-02 a      1028     0    43     1    20
  1.3117076210114328E-01 a      1029     0    43     1    21
 -9.8361342182400793E-02 a      1030     0    43     1    22
 -1.0110363217323444E-01 a      1031     0    43     1    23
  1.8116130162392145E-03 a      1032     0    43     1    24
  1.0254504795177843E-01 a      1033     0    44     1     1
 -1.9100573523418211E-02 a      1034     0    44     1     2
 -8.9316846727842472E-02 a      1035     0    44     1     3
 -3.5910401109212599E-02 a      1036     0    44     1     4
 -3.3288368168321536E-02 a      1037     0    44     1     5
  1.0938089784310377E-03 a      1038     0    44     1     6
 -5.8825287980921868E-02 a      1039     0    44     1     7
  5.9525460399082679E-02 a      1040     0    44     1     8
 -3.6039269953081023E-02 a      1041     0    44     1     9
 -2.4314390418891125E-02 a      1042     0    44     1    10
  7.5468325232757955E-02 a      1043     0    44     1    11
  1.3107785280589027E-01 a      1044     0    44     1    12
 -7.8926192759620775E-02 a      1045     0    44     1    13
 -1.2779783895950872E-01 a      1046     0    44     1    14
 -7.7152666220241459E-02 a      1047     0    44     1    15
  2.2273744090237482E-02 a      1048     0    44     1    16
  1.0304028930481393E-02 a      1049     0    44     1    17
  5.3083675435595758E-02 a      1050     0    44     1    18
  5.1395695898142878E-02 a      1051     0    44     1    19
 -1.1192907756580513E-01 a      1052     0    44     1    20
 -3.3471015880743249E-02 a      1053     0    44     1    21
  5.3029508275534301E-03 a      1054     0    44     1    22
 -2.1985481760524405E-02 a      1055     0    44     1    23
  4.3601783907830968E-02 a      1056     0    44     1    24
 -3.5931518968594804E-02 a      1057     0    45     1     1
 -7.8124943525854113E-02 a      1058     0    45     1     2
  5.4036909399845762E-02 a      1059     0    45     1     3
  2.3215129806431110E-02 a      1060     0    45     1     4
  1.0190271475642033E-03 a      1061     0    45     1     5
  1.3086738360014335E-02 a      1062     0    45     1     6
 -8.9963312531092021E-02 a      1063     0    45     1     7
 -5.2988959057472078E-02 a      1064     0    45     1     8
  1.3945069664889803E-01 a      1065     0    45     1     9
 -1.5253752302944168E-01 a      1066     0    45     1    10
  2.9338456044965583E-03 a      1067     0    45     1    11
  8.2564097873876335E-02 a      1068     0    45     1    12
  5.5108032374780104E-02 a      1069     0    45     1    13
 -6.3412184932513077E-02 a      1070     0    45     1    14
  2.2796163394163938E-03 a      1071     0    45     1    15
 -1.2649656835525613E-01 a      1072     0    45     1    16
 -3.9676912015830283E-02 a      1073     0    45     1    17
 -1.1220485007205799E-01 a      1074     0    45     1    18
  2.6506605123915006E-02 a      1075     0    45     1    19
  7.8584382784435886E-02 a      1076     0    45     1    20
  2.7635084163913238E-02 a      1077     0    45     1    21
  9.3261471634028328E-02 a      1078     0    45     1    22
 -1.1436724139365648E-01 a      1079     0    45     1    23
  5.9239839617314827E-02 a      1080     0    45     1    24
 -2.7211626614173038E-02 a      1081     0    46     1     1
  1.5951709198024019E-02 a      1082     0    46     1     2
 -1.2094471618145619E-01 a      1083     0    46     1     3
 -8.1043903901120776E-03 a      1084     0    46     1     4
  2.3211789939701195E-02 a      1085     0    46     1     5
  2.1474955161118661E-02 a      1086     0    46     1     6
 -7.3556306968439081E-02 a      1087     0    46     1     7
 -1.4741617671665295E-02 a      1088     0    46     1     8
 -1.4892064593781496E-02 a      1089     0    46     1     9
  4.0041162773834918E-02 a      1090     0    46     1    10
 -2.0018292763698070E-02 a      1091     0    46     1    11
 -1.3709854721252338E-01 a      1092     0    46     1    12
  3.9706908806799203E-02 a      1093     0    46     1    13
 -6.0427190508073929E-02 a      1094     0    46     1    14
 -1.9325854259770420E-02 a      1095     0    46     1    15
 -1.7689122387747641E-02 a      1096     0    46     1    16
 -8.0064529389804101E-02 a      1097     0    46     1    17
 -8.5193862501205843E-03 a      1098     0    46     1    18
 -4.8540808473223611E-02 a      1099     0    46     1    19
  6.8515816350727982E-02 a      1100     0    46     1    20
  2.9785365423373969E-02 a      1101     0    46     1    21
 -2.3985243117747107E-02 a      1102     0    46     1    22
  3.0777723892072315E-02 a      1103     0    46     1    23
  4.8745829881751523E-02 a      1104     0    46     1    24
 -9.4044233050380857E-02 a      1105     0    47     1     1
 -2.1065387267107896E-01 a      1106     0    47     1     2
  9.8982290707300330E-02 a      1107     0    47     1     3
  4.5436722824677206E-01 a      1108     0    47     1     4
  2.4231989433125706E-01 a      1109     0    47     1     5
  3.6523235635879220E-01 a      1110     0    47     1     6
 -1.8133988343830759E-01 a      1111     0    47     1     7
  1.2244849138252971E-01 a      1112     0    47     1     8
 -8.6525164402582164E-02 a      1113     0    47     1     9
  1.6207315059421770E-01 a      1114     0    47     1    10
  2.0883225737775662E-01 a      1115     0    47     1    11
  3.5375874021374383E-02 a      1116     0    47     1    12
 -3.7479983209337747E-01 a      1117     0    47     1    13
  2.9602169009767798E-01 a      1118     0    47     1    14
  2.3432889367387519E-01 a      1119     0    47     1    15
  1.0592812495785588E-01 a      1120     0    47     1    16
 -1.0499398658190559E-02 a      1121     0    47     1    17
 -3.6040293586621724E-01 a      1122     0    47     1    18
  2.1394578663343444E-02 a      1123     0    47     1    19
 -1.5076639333416528E-01 a      1124     0    47     1    20
  3.5843349689074801E-02 a      1125     0    47     1    21
 -2.9559752984484877E-02 a      1126     0    47     1    22
  2.9749465916330035E-02 a      1127     0    47     1    23
  6.3919645537518499E-02 a      1128     0    47     1    24
 -1.1953757297564402E-01 a      1129     0    48     1     1
 -7.6500832907095053E-03 a      1130     0    48     1     2
  5.8650818343955261E-02 a      1131     0    48     1     3
 -6.3036285755555366E-02 a      1132     0    48     1     4
  7.0977140761305180E-02 a      1133     0    48     1     5
 -7.5352151302703662E-03 a      1134     0    48     1     6
  8.8747315395450749E-02 a      1135     0    48     1     7
  3.3054417776729524E-02 a      1136     0    48     1     8
  5.2889793420287122E-02 a      1137     0    48     1     9
 -1.1461288543528621E-03 a      1138     0    48     1    10
 -8.5070085719816668E-02 a      1139     0    48     1    11
 -1.0959112645852866E-01 a      1140     0    48     1    12
 -2.3794521634881445E-02 a      1141     0    48     1    13
  8.3335360025421135E-02 a      1142     0    48     1    14
  4.1895899229759129E-02 a      1143     0    48     1    15
  6.7704929742411542E-03 a      1144     0    48     1    16
 -4.9179034732749337E-02 a      1145     0    48     1    17
  5.2392108889932981E-02 a      1146     0    48     1    18
  3.8591046703762941E-02 a      1147     0    48     1    19
  8.5484975323515358E-02 a      1148     0    48     1    20
  8.4705288736011738E-03 a      1149     0    48     1    21
  5.8325526010974592E-02 a      1150     0    48     1    22
  1.2717285777686002E-01 a      1151     0    48     1    23
 -6.5088519633954567E-02 a      1152     0    48     1    24
  3.1954521773786403E-02 a      1153     0    49     1     1
  1.9872807043226490E-01 a      1154     0    49     1     2
 -2.6489257743673219E-02 a      1155     0    49     1     3
  6.5255821611216069E-02 a      1156     0    49     1     4
  2.1785781122071551E-02 a      1157     0    49     1     5
 -1.2555329339417567E-02 a      1158     0    49     1     6
  1.4612432768088163E-01 a      1159     0    49     1     7
  1.1246070662455540E-01 a      1160     0    49     1     8
 -1.0982782425382345E-01 a      1161     0    49     1     9
  5.7727955685046642E-02 a      1162     0    49     1    10
  1.1331589028639641E-02 a      1163     0    49     1    11
  2.6654219456538994E-02 a      1164     0    49     1    12
 -2.8034028688405974E-02 a      1165     0    49     1    13
  1.1694610914903139E-01 a      1166     0    49     1    14
  3.6951562198781866E-02 a      1167     0    49     1    15
  2.1117730381403998E-01 a      1168     0    49     1    16
 -1.6923184824844714E-02 a      1169     0    49     1    17
 -4.8155811272773989E-03 a      1170     0    49     1    18
  3.8375702673234979E-02 a      1171     0    49     1    19
  5.5138873782082327E-02 a      1172     0    49     1    20
 -2.1215372766082482E-02 a      1173     0    49     1    21
  2.7014594549327480E-03 a      1174     0    49     1    22
  7.9051534612426352E-02 a      1175     0    49     1    23
 -9.4048313283422599E-02 a      1176     0    49     1    24
  4.2833447048637577E-02 a      1177     0    50     1     1
  7.6914839100487881E-02 a      1178     0    50     1     2
  9.1314614299686611E-02 a      1179     0    50     1     3
  1.6303134766084998E-02 a      1180     0    50     1     4
 -4.6377524185756178E-02 a      1181     0    50     1     5
  1.3604501381576006E-03 a      1182     0    50     1     6
  3.9990203277407751E-02 a      1183     0    50     1     7
  8.8344560030588382E-02 a      1184     0    50     1     8
  2.3544295259095818E-02 a      1185     0    50     1     9
  7.6938865771682720E-03 a      1186     0    50     1    10
  2.6342183438852314E-02 a      1187     0    50     1    11
  6.5305677889358565E-02 a      1188     0    50     1    12
 -7.8573529062600761E-02 a      1189     0    50     1    13
  2.6990817306318519E-02 a      1190     0    50     1    14
 -4.7551267604285942E-02 a      1191     0    50     1    15
  7.9014989353036205E-02 a      1192     0    50     1    16
  9.3676525576492815E-03 a      1193     0    50     1    17
  2.0779870434262668E-03 a      1194     0    50     1    18
  6.1612633975208511E-02 a      1195     0    50     1    19
  2.3403237643575492E-02 a      1196     0    50     1    20
 -6.5347215131624239E-02 a      1197     0    50     1    21
 -1.9501454482192791E-02 a      1198     0    50     1    22
  2.6656969310815456E-03 a      1199     0    50     1    23
 -6.8978193586957059E-02 a      1200     0    50     1    24
  9.6977983927526101E-02 a      1201     0    51     1     1
 -7.2417708134623851E-02 a      1202     0    51     1     2
  8.1917484102463828E-02 a      1203     0    51     1     3
  1.8913784318709319E-02 a      1204     0    51     1     4
  7.5612793167320419E-02 a      1205     0    51     1     5
 -8.0098964906736181E-02 a      1206     0    51     1     6
  7.7368352299795357E-02 a      1207     0    51     1     7
 -3.3112513468572936E-03 a      1208     0    51     1     8
 -7.4440117776588044E-02 a      1209     0    51     1     9
 -2.6733810707268449E-02 a      1210     0    51     1    10
  5.4886633955593539E-02 a      1211     0    51     1    11
  7.1959229668444563E-02 a      1212     0    51     1    12
 -2.6942588757886118E-02 a      1213     0    51     1    13
 -1.0646040284978596E-01 a      1214     0    51     1    14
  7.2606991687269879E-03 a      1215     0    51     1    15
 -8.7876685993215353E-02 a      1216     0    51     1    16
  7.5511181083726661E-02 a      1217     0    51     1    17
  2.6382391238474915E-02 a      1218     0    51     1    18
 -8.8017184403714144E-02 a      1219     0    51     1    19
 -8.9572324249618071E-02 a      1220     0    51     1    20
 -5.8993484296269355E-02 a      1221     0    51     1    21
 -5.7260111784796515E-02 a      1222     0    51     1    22
 -3.3434902970185004E-02 a      1223     0    51     1    23
  2.0578911063377552E-02 a      1224     0    51     1    24
  4.4424388929528436E-02 a      1225     0    52     1     1
 -2.0581746419834118E-01 a      1226     0    52     1     2
  9.2990287119665629E-02 a      1227     0    52     1     3
 -9.9028644073901606E-03 a      1228     0    52     1     4
  6.4766687449358970E-02 a      1229     0    52     1     5
  5.7050302446838711E-03 a      1230     0    52     1     6
  3.9623995862754960E-02 a      1231     0    52     1     7
  3.7179612410545959E-02 a      1232     0    52     1     8
  5.8267071557869247E-02 a      1233     0    52     1     9
 -5.3731188765413600E-02 a      1234     0    52     1    10
  6.7230352573340896E-02 a      1235     0    52     1    11
  6.5578542931652786E-02 a      1236     0    52     1    12
  1.4113241923151335E-01 a      1237     0    52     1    13
 -1.0749173375663998E-01 a      1238     0    52     1    14
 -9.4844029426966958E-02 a      1239     0    52     1    15
 -3.5885590903671230E-02 a      1240     0    52     1    16
 -7.9393274678237147E-02 a      1241     0    52     1    17
  8.2172226947909946E-02 a      1242     0    52     1    18
 -1.4152116799031897E-03 a      1243     0    52     1    19
  6.3331587889060723E-02 a      1244     0    52     1    20
  4.5908823996253303E-02 a      1245     0    52     1    21
 -1.1196701157670497E-01 a      1246     0    52     1    22
 -6.1262064082207052E-02 a      1247     0    52     1    23
  4.9878943143812922E-02 a      1248     0    52     1    24
 -1.0940609321451389E-02 a      1249     0    53     1     1
  9.1824284842760464E-04 a      1250     0    53     1     2
  1.3699147586973301E-01 a      1251     0    53     1     3
 -1.1288593076246277E-01 a      1252     0    53     1     4
  8.7260086855340285E-02 a      1253     0    53     1     5
 -5.7340297045019938E-02 a      1254     0    53     1     6
  2.4138184018452493E-02 a      1255     0    53     1     7
 -8.6270314308498020E-02 a      1256     0    53     1     8
 -2.4930163807944401E-03 a      1257     0    53     1     9
 -3.1771543875810361E-02 a      1258     0    53     1    10
  1.2158880792718413E-01 a      1259     0    53     1    11
  2.7247935388843712E-02 a      1260     0    53     1    12
  6.4349436380439218E-02 a      1261     0    53     1    13
  7.1272554059412255E-02 a      1262     0    53     1    14
 -4.8945131355153798E-03 a      1263     0    53     1    15
 -1.5013861020323493E-01 a      1264     0    53     1    16
  6.1394291718381809E-03 a      1265     0    53     1    17
 -7.9365135039608528E-02 a      1266     0    53     1    18
 -4.1240542440251528E-02 a      1267     0    53     1    19
  1.7843193327030868E-02 a      1268     0    53     1    20
  4.9144283092736496E-02 a      1269     0    53     1    21
  2.5637388711935643E-02 a      1270     0    53     1    22
 -6.2982735060933645E-02 a      1271     0    53     1    23
  1.1085996434721043E-01 a      1272     0    53     1    24
  1.0205747985018995E-01 a      1273     0    54     1     1
 -1.5692984104945154E-01 a      1274     0    54     1     2
 -7.3951597079203082E-02 a      1275     0    54     1     3
  4.1438943768978165E-02 a      1276     0    54     1     4
 -8.7048873031314589E-02 a      1277     0    54     1     5
 -9.1039414017299088E-03 a      1278     0    54     1     6
 -7.0313409301313466E-03 a      1279     0    54     1     7
 -3.8438677587773563E-02 a      1280     0    54     1     8
 -5.3928239003147669E-03 a      1281     0    54     1     9
 -1.4844066370219361E-01 a      1282     0    54     1    10
  6.8223785926527031E-02 a      1283     0    54     1    11
 -1.2493653570624083E-01 a      1284     0    54     1    12
  1.1203293000421143E-01 a      1285     0    54     1    13
 -1.0177537853903731E-01 a      1286     0    54     1    14
 -6.6957057369273709E-02 a      1287     0    54     1    15
 -1.7227410306902807E-02 a      1288     0    54     1    16
  1.6550989526591706E-01 a      1289     0    54     1    17
 -5.0169237523044405E-03 a      1290     0    54     1    18
  5.6402974899480721E-02 a      1291     0    54     1    19
  2.5013686206401434E-02 a      1292     0    54     1    20
  2.1980933546536550E-02 a      1293     0    54     1    21
  1.2774550334987581E-01 a      1294     0    54     1    22
  8.5182506508528377E-02 a      1295     0    54     1    23
 -1.0677247349529881E-01 a      1296     0    54     1    24
 -1.0979211113615883E-01 a      1297     0    55     1     1
 -1.8331916319481978E-03 a      1298     0    55     1     2
  5.6922220615253136E-02 a      1299     0    55     1     3
  1.6169153699055419E-01 a      1300     0    55     1     4
  2.4182110109356814E-01 a      1301     0    55     1     5
 -1.7493070289748958E-01 a      1302     0    55     1     6
  7.1254052356929151E-02 a      1303     0    55     1     7
  1.0194577394756475E-01 a      1304     0    55     1     8
  1.7269148948087537E-02 a      1305     0    55     1     9
  3.5764299406632599E-01 a      1306     0    55     1    10
  1.4546380790250954E-01 a      1307     0    55     1    11
 -1.6046240724126134E-02 a      1308     0    55     1    12
 -1.5982449457375264E-01 a      1309     0    55     1    13
 -1.1802445302563318E-02 a      1310     0    55     1    14
 -2.9130602023716556E-01 a      1311     0    55     1    15
  4.2005313739370241E-02 a      1312     0    55     1    16
  5.1975075402623853E-02 a      1313     0    55     1    17
 -2.9992204652696153E-01 a      1314     0    55     1    18
  1.2221362473533877E-02 a      1315     0    55     1    19
 -9.6324740916518020E-02 a      1316     0    55     1    20
  1.9413854646302142E-01 a      1317     0    55     1    21
  3.0516823643989932E-01 a      1318     0    55     1    22
 -2.2121659540231275E-01 a      1319     0    55     1    23
  8.2697996834321334E-03 a      1320     0    55     1    24
 -1.3888125766380743E-01 a      1321     0    56     1     1
  3.1863587909373513E-02 a      1322     0    56     1     2
 -3.2086116628348975E-02 a      1323     0    56     1     3
  7.1277873482687451E-02 a      1324     0    56     1     4
  8.4797662716337187E-03 a      1325     0    56     1     5
 -5.7229759096352709E-02 a      1326     0    56     1     6
 -1.0279270084141706E-01 a      1327     0    56     1     7
  2.6558375784103735E-02 a      1328     0    56     1     8
  3.8529639207335507E-02 a      1329     0    56     1     9
 -1.1652302255517121E-02 a      1330     0    56     1    10
  9.1164154414671128E-02 a      1331     0    56     1    11
 -8.2422506755267785E-02 a      1332     0    56     1    12
 -2.4938489808468915E-02 a      1333     0    56     1    13
 -1.1297566764858603E-01 a      1334     0    56     1    14
 -4.2350589743689264E-02 a      1335     0    56     1    15
  6.0752706601162519E-02 a      1336     0    56     1    16
 -3.5843704852084039E-02 a      1337     0    56     1    17
 -2.3220407625353445E-02 a      1338     0    56     1    18
  9.8587253097542557E-04 a      1339     0    56     1    19
 -4.5909789307816681E-02 a      1340     0    56     1    20
 -2.0280477141380916E-02 a      1341     0    56     1    21
 -1.5901493891467111E-02 a      1342     0    56     1    22
  1.1436642681450333E-01 a      1343     0    56     1    23
  2.9998098733636850E-02 a      1344     0    56     1    24
  1.8459220174216547E-03 a      1345     0    57     1     1
 -1.5649948815473214E-01 a      1346     0    57     1     2
 -1.6611161909001004E-01 a      1347     0    57     1     3
  1.0219640739012424E-02 a      1348     0    57     1     4
 -7.4355589018984924E-02 a      1349     0    57     1     5
 -6.2729679392673182E-02 a      1350     0    57     1     6
 -7.2380512536680611E-02 a      1351     0    57     1     7
  9.2880982433017970E-02 a      1352     0    57     1     8
  7.9269591724071553E-02 a      1353     0    57     1     9
 -1.4443936302775445E-01 a      1354     0    57     1    10
  2.0261523825357220E-02 a      1355     0    57     1    11
 -2.3523120608346812E-02 a      1356     0    57     1    12
 -1.4551059099526564E-01 a      1357     0    57     1    13
 -8.0891274762615178E-03 a      1358     0    57     1    14
  1.7915097145130510E-01 a      1359     0    57     1    15
  4.6717724667175668E-03 a      1360     0    57     1    16
  1.3211136704223669E-01 a      1361     0    57     1    17
  5.6583689048953230E-02 a      1362     0    57     1    18
  9.7507132599636434E-02 a      1363     0    57     1    19
 -2.3280997122909215E-02 a      1364     0    57     1    20
  4.5201335521302788E-02 a      1365     0    57     1    21
  5.4886850826236067E-02 a      1366     0    57     1    22
  6.8024005607986965E-02 a      1367     0    57     1    23
 -1.7099737214769972E-01 a      1368     0    57     1    24
 -1.3741613476713962E-01 a      1369     0    58     1     1
  3.6405786909043267E-02 a      1370     0    58     1     2
 -9.8493321945125001E-02 a      1371     0    58     1     3
 -2.9717711457146214E-02 a      1372     0    58     1     4
 -5.7986355645746231E-02 a      1373     0    58     1     5
  8.2082007923033773E-02 a      1374     0    58     1     6
 -2.9200210073002237E-02 a      1375     0    58     1     7
 -2.7459376813297225E-02 a      1376     0    58     1     8
  1.1310291079167914E-01 a      1377     0    58     1     9
 -2.0164519398754588E-01 a      1378     0    58     1    10
  4.2353396274598644E-02 a      1379     0    58     1    11
 -7.6878582331351100E-02 a      1380     0    58     1    12
 -1.1883953827777535E-01 a      1381     0    58     1    13
 -8.0501863486566405E-02 a      1382     0    58     1    14
  8.3778881674304737E-02 a      1383     0    58     1    15
  1.2615918942709976E-02 a      1384     0    58     1    16
  6.0946540384942183E-02 a      1385     0    58     1    17
 -2.3294595859567405E-02 a      1386     0    58     1    18
  5.4166472500600579E-03 a      1387     0    58     1    19
 -1.1919952499360378E-01 a      1388     0    58     1    20
 -1.3752682944588657E-01 a      1389     0    58     1    21
  2.3462664425441385E-02 a      1390     0    58     1    22
 -6.6810810466136433E-02 a      1391     0    58     1    23
 -9.1230317349678663E-03 a      1392     0    58     1    24
 -1.5560875384713100E-02 a      1393     0    59     1     1
 -7.3166432070508131E-02 a      1394     0    59     1     2
 -1.9668372400986414E-03 a      1395     0    59     1     3
  5.0938397119279855E-03 a      1396     0    59     1     4
 -1.0493007937691529E-01 a      1397     0    59     1     5
  7.8155724052832110E-02 a      1398     0    59     1     6
 -2.7592099203842899E-02 a      1399     0    59     1     7
  7.6837968480840874E-02 a      1400     0    59     1     8
 -2.3273795818034900E-02 a      1401     0    59     1     9
  8.1235769735945859E-02 a      1402     0    59     1    10
 -5.3614198690996914E-02 a      1403     0    59     1    11
 -8.6144484327587909E-02 a      1404     0    59     1    12
  3.4997692523432523E-02 a      1405     0    59     1    13
 -5.7268291498018256E-03 a      1406     0    59     1    14
  4.9456269489472328E-02 a      1407     0    59     1    15
  3.7953381232997689E-03 a      1408     0    59     1    16
 -5.6928522448412448E-02 a      1409     0    59     1    17
 -2.6173370537508813E-02 a      1410     0    59     1    18
  9.4174261741810913E-02 a      1411     0    59     1    19
 -7.0020281895981862E-02 a      1412     0    59     1    20
  9.8129565763317619E-02 a      1413     0    59     1    21
  4.3527863909399257E-02 a      1414     0    59     1    22
 -9.5247394013281819E-02 a      1415     0    59     1    23
 -1.5202147441070110E-01 a      1416     0    59     1    24
 -6.4595894496606396E-02 a      1417     0    60     1     1
  1.1126720027857612E-01 a      1418     0    60     1     2
  3.2895049409801293E-02 a      1419     0    60     1     3
 -1.0722057857648723E-01 a      1420     0    60     1     4
  4.1804377925415075E-02 a      1421     0    60     1     5
 -1.1371496269995157E-01 a      1422     0    60     1     6
  1.1183648630467909E-01 a      1423     0    60     1     7
  1.0867727912074322E-01 a      1424     0    60     1     8
  4.1534104619652373E-02 a      1425     0    60     1     9
  2.8114929116302603E-02 a      1426     0    60     1    10
  1.4177153985744137E-01 a      1427     0    60     1    11
  1.3985111310692719E-01 a      1428     0    60     1    12
 -1.0642888301463363E-01 a      1429     0    60     1    13
 -1.0530405685341285E-01 a      1430     0    60     1    14
 -1.1708325407695674E-01 a      1431     0    60     1    15
 -2.7682745407469796E-02 a      1432     0    60     1    16
 -3.5886570593756370E-02 a      1433     0    60     1    17
 -1.8283537374535216E-01 a      1434     0    60     1    18
 -1.0641523826450238E-02 a      1435     0    60     1    19
  1.7503330647961049E-01 a      1436     0    60     1    20
  7.0922258156497386E-02 a      1437     0    60     1    21
  1.3112929412652957E-01 a      1438     0    60     1    22
 -1.0288956458929838E-01 a      1439     0    60     1    23
  8.9328249996005790E-02 a      1440     0    60     1    24
 -3.3678373812513158E-02 a      1441     0    61     1     1
 -6.5963472960157407E-02 a      1442     0    61     1     2
 -1.8078191375865322E-03 a      1443     0    61     1     3
 -1.4268033330354130E-01 a      1444     0    61     1     4
  6.7619857399558322E-02 a      1445     0    61     1     5
  3.7207705462696430E-02 a      1446     0    61     1     6
 -2.1756070360058860E-01 a      1447     0    61     1     7
  1.3925791265121751E-01 a      1448     0    61     1     8
  8.2827120524006495E-02 a      1449     0    61     1     9
 -1.7073039487780536E-02 a      1450     0    61     1    10
 -6.5002776307903756E-02 a      1451     0    61     1    11
  9.1515735897261946E-02 a      1452     0    61     1    12
  1.5595240252045334E-02 a      1453     0    61     1    13
  5.8156885872322511E-02 a      1454     0    61     1    14
  4.9929811555431955E-02 a      1455     0    61     1    15
 -7.6432096916557335E-02 a      1456     0    61     1    16
  8.0470053098552929E-02 a      1457     0    61     1    17
  1.1937924235545735E-02 a      1458     0    61     1    18
 -1.3202998658204662E-01 a      1459     0    61     1    19
 -2.4189698840591106E-01 a      1460     0    61     1    20
  9.6613720057262792E-02 a      1461     0    61     1    21
  1.1664946631560685E-01 a      1462     0    61     1    22
 -4.1860931643624373E-02 a      1463     0    61     1    23
  5.8502052431342474E-02 a      1464     0    61     1    24
  6.4906198615954161E-02 a      1465     0    62     1     1
 -7.7691402903444784E-02 a      1466     0    62     1     2
 -7.5546039027200432E-02 a      1467     0    62     1     3
 -2.3739700516250802E-02 a      1468     0    62     1     4
  5.8644693997634258E-02 a      1469     0    62     1     5
 -3.0790208616992824E-02 a      1470     0    62     1     6
 -3.4607323292335200E-02 a      1471     0    62     1     7
  1.2536509225538846E-02 a      1472     0    62     1     8
 -1.3126526371545047E-01 a      1473     0    62     1     9
  2.1852391583559172E-01 a      1474     0    62     1    10
  7.7656162114599109E-02 a      1475     0    62     1    11
 -1.9803231928581896E-02 a      1476     0    62     1    12
  1.2924014945173331E-02 a      1477     0    62     1    13
 -1.1913461089774009E-01 a      1478     0    62     1    14
 -9.9553651755024619E-02 a      1479     0    62     1    15
 -6.0366559554297747E-02 a      1480     0    62     1    16
  7.1941407231791252E-02 a      1481     0    62     1    17
  2.3136223865636053E-02 a      1482     0    62     1    18
  2.8820655807020135E-02 a      1483     0    62     1    19
 -8.5638363163520234E-02 a      1484     0    62     1    20
 -8.4649142122530663E-02 a      1485     0    62     1    21
  9.3835092823355795E-02 a      1486     0    62     1    22
  1.2538131515933904E-01 a      1487     0    62     1    23
  5.9518535425637860E-04 a      1488     0    62     1    24
 -7.8165649165507611E-02 a      1489     0    63     1     1
 -7.2323338730366699E-02 a      1490     0    63     1     2
 -1.4230294463815063E-01 a      1491     0    63     1     3
  4.9302197561067442E-02 a      1492     0    63     1     4
 -2.5925882481742130E-01 a      1493     0    63     1     5
 -2.0043581439297187E-01 a      1494     0    63     1     6
  3.3092416000127786E-02 a      1495     0    63     1     7
 -1.2915829749675556E-01 a      1496     0    63     1     8
 -1.6367941268022992E-01 a      1497     0    63     1     9
  7.3833857738320977E-02 a      1498     0    63     1    10
  4.9919328265924857E-02 a      1499     0    63     1    11
 -2.1596826660745503E-02 a      1500     0    63     1    12
  1.7245463604170782E-02 a      1501     0    63     1    13
 -2.0150742448917527E-02 a      1502     0    63     1    14
 -3.6202085546599795E-02 a      1503     0    63     1    15
  6.7470136310248036E-02 a      1504     0    63     1    16
  5.9188821510854916E-02 a      1505     0    63     1    17
 -1.6466364849454454E-01 a      1506     0    63     1    18
 -3.7282960082813989E-02 a      1507     0    63     1    19
  9.6075333387263956E-04 a      1508     0    63     1    20
  9.3913611479739020E-02 a      1509     0    63     1    21
  1.6302867941453883E-01 a      1510     0    63     1    22
  4.8063152232469847E-02 a      1511     0    63     1    23
 -5.5346436328898761E-02 a      1512     0    63     1    24
 -1.7957110727375716E-01 a      1513     0    64     1     1
 -1.3519220837866046E-02 a      1514     0    64     1     2
  1.3208926715602809E-01 a      1515     0    64     1     3
  1.9292329064258746E-03 a      1516     0    64     1     4
 -9.0866618513040804E-03 a      1517     0    64     1     5
 -4.3837542218916441E-02 a      1518     0    64     1     6
 -1.5858160276881462E-02 a      1519     0    64     1     7
 -4.4637703597128604E-02 a      1520     0    64     1     8
 -6.5850944620244461E-03 a      1521     0    64     1     9
  5.4547513272027330E-02 a      1522     0    64     1    10
  5.8323916290675619E-02 a      1523     0    64     1    11
  3.0898836672649050E-02 a      1524     0    64     1    12
  5.4434970089794144E-02 a      1525     0    64     1    13
 -8.7637863487875292E-03 a      1526     0    64     1    14
 -1.2989369587070245E-02 a      1527     0    64     1    15
  1.6543756090684394E-02 a      1528     0    64     1    16
 -1.2158427328533439E-01 a      1529     0    64     1    17
 -3.6241705862469775E-02 a      1530     0    64     1    18
  8.8856774570730865E-02 a      1531     0    64     1    19
  1.5725824182544354E-02 a      1532     0    64     1    20
 -1.8620069462225711E-01 a      1533     0    64     1    21
  5.5634039493919013E-02 a      1534     0    64     1    22
  2.2977371517065484E-01 a      1535     0    64     1    23
  4.9215680266080204E-02 a      1536     0    64     1    24
  1.7534112067867969E-02 a      1537     0    65     1     1
  1.2393242701664606E-01 a      1538     0    65     1     2
 -8.8112406204856150E-02 a      1539     0    65     1     3
  1.0880168367383694E-01 a      1540     0    65     1     4
 -2.9459081808584460E-03 a      1541     0    65     1     5
 -4.8450345741704259E-02 a      1542     0    65     1     6
 -3.4603027710694283E-02 a      1543     0    65     1     7
  4.7882165588155820E-02 a      1544     0    65     1     8
  1.3547143881002147E-01 a      1545     0    65     1     9
  1.9120302248385387E-02 a      1546     0    65     1    10
  2.7137921664314862E-02 a      1547     0    65     1    11
  1.1915237463967716E-01 a      1548     0    65     1    12
 -6.5152487397431222E-02 a      1549     0    65     1    13
  1.0797625781862547E-01 a      1550     0    65     1    14
 -2.0888971255678276E-01 a      1551     0    65     1    15
 -8.4303265957651821E-02 a      1552     0    65     1    16
  7.1056050224391168E-02 a      1553     0    65     1    17
  1.1692308222505774E-02 a      1554     0    65     1    18
  9.0866281699829812E-02 a      1555     0    65     1    19
 -1.2016753681716225E-02 a      1556     0    65     1    20
 -2.1386127642717030E-02 a      1557     0    65     1    21
  1.0770866126636093E-01 a      1558     0    65     1    22
 -3.3516451991374263E-02 a      1559     0    65     1    23
 -3.3398034076641487E-05 a      1560     0    65     1    24
  1.4758384814181305E-02 a      1561     0    66     1     1
  7.4738478201126696E-02 a      1562     0    66     1     2
  1.8708410631453293E-01 a      1563     0    66     1     3
 -7.3414938441015909E-03 a      1564     0    66     1     4
 -6.4604941081910809E-03 a      1565     0    66     1     5
  4.9529073182151225E-02 a      1566     0    66     1     6
 -8.1853219228232729E-02 a      1567     0    66     1     7
  7.5555987097033830E-02 a      1568     0    66     1     8
 -2.6048173369043050E-02 a      1569     0    66     1     9
 -6.7541378291463509E-03 a      1570     0    66     1    10
 -1.1354138492062635E-01 a      1571     0    66     1    11
 -8.0282333299866060E-02 a      1572     0    66     1    12
 -9.0228825329051160E-02 a      1573     0    66     1    13
 -1.1913340932900726E-01 a      1574     0    66     1    14
  6.5985020407800299E-02 a      1575     0    66     1    15
 -2.0687749570062330E-01 a      1576     0    66     1    16
 -1.6748999296161526E-02 a      1577     0    66     1    17
 -1.2636654918113299E-01 a      1578     0    66     1    18
  2.1774114630191349E-01 a      1579     0    66     1    19
  1.2336454043191701E-01 a      1580     0    66     1    20
  6.3384205398871879E-02 a      1581     0    66     1    21
 -8.3074002315877471E-02 a      1582     0    66     1    22
 -1.3272647906059518E-01 a      1583     0    66     1    23
  9.2776834280951084E-02 a      1584     0    66     1    24
 -4.1683482956222401E-02 a      1585     0    67     1     1
  1.1616791153109317E-01 a      1586     0    67     1     2
 -1.6366423677400706E-02 a      1587     0    67     1     3
  1.5642782963033830E-01 a      1588     0    67     1     4
  1.1548912610985548E-02 a      1589     0    67     1     5
 -6.5791662461098202E-02 a      1590     0    67     1     6
 -1.2316759572946590E-01 a      1591     0    67     1     7
 -2.9058468439496103E-02 a      1592     0    67     1     8
 -1.0586511926060141E-01 a      1593     0    67     1     9
 -1.9805308176075298E-01 a      1594     0    67     1    10
  7.3748509643575544E-02 a      1595     0    67     1    11
  7.3126999790485911E-02 a      1596     0    67     1    12
  8.1955881798228297E-02 a      1597     0    67     1    13
  9.4365507171101475E-03 a      1598     0    67     1    14
  2.6939091261409105E-02 a      1599     0    67     1    15
  3.0351112063145783E-02 a      1600     0    67     1    16
 -1.1873188424394945E-01 a      1601     0    67     1    17
 -2.1580553067041991E-01 a      1602     0    67     1    18
 -9.4831614954452845E-02 a      1603     0    67     1    19
 -5.0075863696097629E-02 a      1604     0    67     1    20
 -1.2670860175460280E-01 a      1605     0    67     1    21
 -2.8655601395387458E-02 a      1606     0    67     1    22
 -7.9405066054390974E-02 a      1607     0    67     1    23
 -2.0431779904043768E-01 a      1608     0    67     1    24
  1.3137766760074571E-01 a      1609     0    68     1     1
  8.6883192751471244E-02 a      1610     0    68     1     2
  9.3696764822099668E-02 a      1611     0    68     1     3
 -5.3984803069696309E-02 a      1612     0    68     1     4
 -1.4002682966281640E-01 a      1613     0    68     1     5
  1.0524514756819821E-02 a      1614     0    68     1     6
  5.4722895416328396E-02 a      1615     0    68     1     7
  7.0975531675483261E-02 a      1616     0    68     1     8
  3.6485246949603985E-02 a      1617     0    68     1     9
 -1.5386764714718245E-02 a      1618     0    68     1    10
 -1.1728675362671540E-01 a      1619     0    68     1    11
  9.9047197901792922E-02 a      1620     0    68     1    12
  5.7289374027413159E-02 a      1621     0    68     1    13
 -1.0408357598382537E-01 a      1622     0    68     1    14
  7.2801359229204970E-02 a      1623     0    68     1    15
