################################################################################
# Neural network connection values (weights and biases).
################################################################################
# Col  Name       Description
################################################################################
# 1    connection Neural network connection value.
# 2    t          Connection type (a = weight, b = bias).
# 3    index      Index enumerating weights.
# 4    l_s        Starting point layer (end point layer for biases).
# 5    n_s        Starting point neuron in starting layer (end point neuron for biases).
# 6    l_e        End point layer.
# 7    n_e        End point neuron in end layer.
################################################################################
#                      1 2         3     4     5     6     7
#             connection t     index   l_s   n_s   l_e   n_e
############################################################
  6.4508964977972080E-02 a         1     0     1     1     1
  4.9824735547358785E-02 a         2     0     1     1     2
  1.6107294082830531E-01 a         3     0     1     1     3
  1.0826889860423947E-01 a         4     0     1     1     4
  1.2990606529277829E-01 a         5     0     1     1     5
  5.5369628085974010E-02 a         6     0     1     1     6
  4.9138161556110654E-03 a         7     0     1     1     7
 -2.4549796966108500E-01 a         8     0     1     1     8
 -2.8065925119077439E-01 a         9     0     1     1     9
 -1.6074369397072616E-01 a        10     0     1     1    10
  2.0413541693319959E-01 a        11     0     1     1    11
  1.6922039497918223E-01 a        12     0     1     1    12
 -6.0197744905732153E-02 a        13     0     1     1    13
 -2.4634809546234274E-01 a        14     0     1     1    14
  1.0173137372363766E-01 a        15     0     1     1    15
  3.5746444533842923E-02 a        16     0     1     1    16
  4.1362626986914765E-02 a        17     0     1     1    17
  1.0017475745307140E-01 a        18     0     1     1    18
  5.2161798743166655E-02 a        19     0     1     1    19
 -1.2003194474093197E-01 a        20     0     1     1    20
  1.4955888074838228E-01 a        21     0     1     1    21
 -5.2169946346779794E-02 a        22     0     1     1    22
  2.7433811836564768E-02 a        23     0     1     1    23
 -4.1609213569295317E-03 a        24     0     1     1    24
 -2.2424889083178920E-01 a        25     0     2     1     1
  4.6586573146180428E-02 a        26     0     2     1     2
  3.9898575493974048E-02 a        27     0     2     1     3
  8.7260612317972969E-02 a        28     0     2     1     4
  1.8416409265026765E-01 a        29     0     2     1     5
 -5.1629631265754320E-03 a        30     0     2     1     6
  2.1728424820760014E-01 a        31     0     2     1     7
 -6.9152968699573977E-02 a        32     0     2     1     8
 -3.5048872835552192E-01 a        33     0     2     1     9
 -1.0014274458163076E-01 a        34     0     2     1    10
 -2.2677879799390208E-01 a        35     0     2     1    11
 -7.8320003342887537E-02 a        36     0     2     1    12
 -6.0600841077595072E-02 a        37     0     2     1    13
 -1.4928491711847946E-02 a        38     0     2     1    14
 -1.1749149664543497E-01 a        39     0     2     1    15
  1.0910686070465596E-01 a        40     0     2     1    16
 -2.0029039883573185E-02 a        41     0     2     1    17
  2.6062574332689931E-01 a        42     0     2     1    18
  2.1501333299937095E-01 a        43     0     2     1    19
  5.1099732740268460E-02 a        44     0     2     1    20
 -4.0286146313068882E-04 a        45     0     2     1    21
  3.4620591397916331E-02 a        46     0     2     1    22
  8.8029732579176304E-02 a        47     0     2     1    23
  7.1212039621855294E-02 a        48     0     2     1    24
 -9.2580422661179954E-02 a        49     0     3     1     1
  3.7942136467651280E-02 a        50     0     3     1     2
 -1.0694876095331317E-01 a        51     0     3     1     3
 -1.1378069521092665E-01 a        52     0     3     1     4
  1.7437307123174239E-01 a        53     0     3     1     5
 -8.1715170238652518E-02 a        54     0     3     1     6
  2.0155247313759610E-02 a        55     0     3     1     7
  2.6355937367786825E-02 a        56     0     3     1     8
 -1.0619593057067946E-01 a        57     0     3     1     9
 -9.6438732825288118E-03 a        58     0     3     1    10
 -6.2511992505623920E-02 a        59     0     3     1    11
  8.4909393537692737E-02 a        60     0     3     1    12
  7.4247790706764710E-02 a        61     0     3     1    13
 -5.1157975124145334E-02 a        62     0     3     1    14
  7.6362807114121647E-02 a        63     0     3     1    15
  2.0152181747222603E-01 a        64     0     3     1    16
  9.7057870626716721E-03 a        65     0     3     1    17
  1.8038420079154599E-01 a        66     0     3     1    18
 -9.3642381411203929E-02 a        67     0     3     1    19
  1.0014299430502054E-01 a        68     0     3     1    20
 -5.7728219054014332E-02 a        69     0     3     1    21
 -1.0140937828632913E-03 a        70     0     3     1    22
  4.2747175661585902E-02 a        71     0     3     1    23
 -4.3561392860992906E-02 a        72     0     3     1    24
 -5.7273723398821315E-02 a        73     0     4     1     1
  1.2723541078051740E-02 a        74     0     4     1     2
 -1.3156371887096505E-01 a        75     0     4     1     3
  8.6833590717398129E-02 a        76     0     4     1     4
  1.4110692225618690E-01 a        77     0     4     1     5
 -1.2460546897099876E-01 a        78     0     4     1     6
  2.2961206327738713E-02 a        79     0     4     1     7
 -2.7492295450576926E-01 a        80     0     4     1     8
 -3.1290295822780573E-01 a        81     0     4     1     9
  2.2311464633129452E-01 a        82     0     4     1    10
 -8.9053113077059695E-02 a        83     0     4     1    11
  2.8533990339113940E-01 a        84     0     4     1    12
  2.6349474300042147E-01 a        85     0     4     1    13
  2.0447079947937923E-02 a        86     0     4     1    14
  2.3242164204472820E-02 a        87     0     4     1    15
  7.6707029785105199E-02 a        88     0     4     1    16
 -1.1933863698938232E-01 a        89     0     4     1    17
 -5.7534440208201261E-02 a        90     0     4     1    18
  1.9049397907919774E-01 a        91     0     4     1    19
 -1.1057216390926203E-01 a        92     0     4     1    20
 -1.4427038766380995E-01 a        93     0     4     1    21
 -3.3868181824034713E-02 a        94     0     4     1    22
  8.4965171351122276E-02 a        95     0     4     1    23
  4.5970396852000800E-02 a        96     0     4     1    24
  9.3373808731549615E-02 a        97     0     5     1     1
  3.8767084296377229E-02 a        98     0     5     1     2
 -1.6814038569478804E-02 a        99     0     5     1     3
 -3.4309012430867467E-02 a       100     0     5     1     4
  1.1375136257604908E-01 a       101     0     5     1     5
 -1.6413130306460844E-02 a       102     0     5     1     6
 -7.7444239536458822E-03 a       103     0     5     1     7
 -1.8097491689601908E-01 a       104     0     5     1     8
  1.0426088089726429E-02 a       105     0     5     1     9
 -9.5974267536032387E-02 a       106     0     5     1    10
  8.2298127766784659E-03 a       107     0     5     1    11
  6.4295590848208614E-02 a       108     0     5     1    12
 -5.1413448202934512E-03 a       109     0     5     1    13
  1.5773327394164402E-01 a       110     0     5     1    14
  5.2005636680008578E-02 a       111     0     5     1    15
  1.4634257426567404E-02 a       112     0     5     1    16
 -2.2596296985691322E-02 a       113     0     5     1    17
 -1.4041201829652322E-01 a       114     0     5     1    18
  1.4956232351263865E-02 a       115     0     5     1    19
 -4.2571491028713812E-02 a       116     0     5     1    20
 -3.5629052655763035E-02 a       117     0     5     1    21
 -4.4334462420734730E-02 a       118     0     5     1    22
 -8.2667359162739290E-02 a       119     0     5     1    23
 -4.5475476994833952E-02 a       120     0     5     1    24
  2.0655556157848351E-01 a       121     0     6     1     1
 -4.4382881024567944E-02 a       122     0     6     1     2
 -7.3363349759939002E-03 a       123     0     6     1     3
  7.9017328909026588E-02 a       124     0     6     1     4
  9.9350215974440562E-02 a       125     0     6     1     5
 -1.0438449113607554E-01 a       126     0     6     1     6
 -7.5486476188262139E-02 a       127     0     6     1     7
 -8.1523805410858782E-02 a       128     0     6     1     8
 -1.4667184495896746E-01 a       129     0     6     1     9
  2.6909126716714336E-02 a       130     0     6     1    10
  1.1582326170405163E-02 a       131     0     6     1    11
  1.1730880982743318E-01 a       132     0     6     1    12
 -9.2176514292831579E-02 a       133     0     6     1    13
  1.4632061960649315E-01 a       134     0     6     1    14
 -3.7988070290137434E-02 a       135     0     6     1    15
 -8.4059942664273923E-03 a       136     0     6     1    16
  9.0775940146374295E-04 a       137     0     6     1    17
 -1.0176133428857655E-01 a       138     0     6     1    18
  7.4274940822592214E-02 a       139     0     6     1    19
  8.5928172604911854E-02 a       140     0     6     1    20
  4.2035264401981604E-02 a       141     0     6     1    21
  1.0966436390553647E-01 a       142     0     6     1    22
 -8.3167347843345160E-02 a       143     0     6     1    23
 -1.2662766227048394E-01 a       144     0     6     1    24
  1.4060917223305755E-01 a       145     0     7     1     1
  9.1004376992317726E-02 a       146     0     7     1     2
  6.2465199558382097E-02 a       147     0     7     1     3
 -8.8515645249763568E-03 a       148     0     7     1     4
 -1.4685498908100134E-01 a       149     0     7     1     5
 -4.5006226499281175E-02 a       150     0     7     1     6
 -7.2449571929856876E-02 a       151     0     7     1     7
  2.2447631139519519E-01 a       152     0     7     1     8
  2.8958655344259016E-01 a       153     0     7     1     9
  6.1773502837344585E-03 a       154     0     7     1    10
 -5.6405672467550315E-02 a       155     0     7     1    11
 -3.2821114839816375E-02 a       156     0     7     1    12
 -1.0058187505184110E-01 a       157     0     7     1    13
  4.2591957496815526E-02 a       158     0     7     1    14
  2.5027478752285881E-01 a       159     0     7     1    15
 -5.9383117294124791E-03 a       160     0     7     1    16
  1.2628482916645561E-01 a       161     0     7     1    17
  2.3885721972904252E-02 a       162     0     7     1    18
 -1.0974840472569908E-01 a       163     0     7     1    19
  8.4652274642477002E-02 a       164     0     7     1    20
  1.4086333413236476E-02 a       165     0     7     1    21
 -1.9578512597786021E-02 a       166     0     7     1    22
  4.1436148818332734E-03 a       167     0     7     1    23
 -2.9917943910731347E-03 a       168     0     7     1    24
  2.7182238227652679E-02 a       169     0     8     1     1
 -1.1393918992496152E-01 a       170     0     8     1     2
 -7.0825139115463467E-02 a       171     0     8     1     3
 -6.1964766784345170E-02 a       172     0     8     1     4
  1.1269749356200408E-01 a       173     0     8     1     5
 -1.5244453409576003E-02 a       174     0     8     1     6
 -4.9274930947169476E-02 a       175     0     8     1     7
  7.3554287905940097E-02 a       176     0     8     1     8
  9.8542837699841554E-02 a       177     0     8     1     9
  1.2701575120765626E-01 a       178     0     8     1    10
  7.7186974921137061E-02 a       179     0     8     1    11
 -9.9054820524184503E-02 a       180     0     8     1    12
 -5.9440601001798703E-02 a       181     0     8     1    13
 -1.3653993408435713E-01 a       182     0     8     1    14
 -1.1785162047503517E-01 a       183     0     8     1    15
  5.0495245193542440E-02 a       184     0     8     1    16
 -7.8105245800395851E-02 a       185     0     8     1    17
  1.4301630556694211E-02 a       186     0     8     1    18
 -4.5736042564165746E-02 a       187     0     8     1    19
  1.5853383150120873E-02 a       188     0     8     1    20
  5.8582557176059133E-02 a       189     0     8     1    21
  1.5205401064050081E-01 a       190     0     8     1    22
 -2.8510090589798226E-02 a       191     0     8     1    23
  1.2075481428674585E-01 a       192     0     8     1    24
 -5.7000728987056021E-02 a       193     0     9     1     1
 -1.0575742340905692E-01 a       194     0     9     1     2
  2.0933984460765120E-01 a       195     0     9     1     3
  3.1066493166487386E-01 a       196     0     9     1     4
  8.0567774564889019E-02 a       197     0     9     1     5
  3.2415434930354881E-01 a       198     0     9     1     6
 -6.4446463530337186E-02 a       199     0     9     1     7
 -5.8382169424329784E-02 a       200     0     9     1     8
 -2.3861540813148438E-01 a       201     0     9     1     9
  8.9802350940931627E-02 a       202     0     9     1    10
 -4.9934488304030029E-02 a       203     0     9     1    11
  2.6733582505746378E-01 a       204     0     9     1    12
  1.0488706656450170E-01 a       205     0     9     1    13
 -2.4904614359267735E-01 a       206     0     9     1    14
 -2.8740511060932528E-01 a       207     0     9     1    15
  1.0249419338922367E-02 a       208     0     9     1    16
 -2.3407694353726683E-02 a       209     0     9     1    17
 -3.3489192808381966E-03 a       210     0     9     1    18
  4.4932077184164511E-02 a       211     0     9     1    19
 -1.1289670516698835E-01 a       212     0     9     1    20
  5.4994328586879575E-02 a       213     0     9     1    21
 -2.9735699916058073E-01 a       214     0     9     1    22
 -6.5714788841764377E-02 a       215     0     9     1    23
 -9.1426165106428772E-02 a       216     0     9     1    24
  2.7353027921063294E-01 a       217     0    10     1     1
 -2.9319987979754224E-02 a       218     0    10     1     2
 -1.8384494773909448E-02 a       219     0    10     1     3
  2.5968551939434803E-01 a       220     0    10     1     4
  9.4863401853344104E-02 a       221     0    10     1     5
 -4.3122550159569194E-02 a       222     0    10     1     6
 -2.1081358595478741E-01 a       223     0    10     1     7
  8.9356850740893043E-02 a       224     0    10     1     8
  1.7988718021387948E-01 a       225     0    10     1     9
  3.0732287370808392E-01 a       226     0    10     1    10
 -2.8320571876536488E-01 a       227     0    10     1    11
  2.3524512322062607E-01 a       228     0    10     1    12
  2.2491390268973491E-01 a       229     0    10     1    13
  1.8982689613507267E-01 a       230     0    10     1    14
  3.4267761905634415E-02 a       231     0    10     1    15
 -1.0213829626655421E-01 a       232     0    10     1    16
 -1.3307148186537140E-01 a       233     0    10     1    17
 -2.2045807806593171E-02 a       234     0    10     1    18
  3.3898884413848446E-02 a       235     0    10     1    19
 -2.1448893997042834E-01 a       236     0    10     1    20
 -5.6179758665061634E-02 a       237     0    10     1    21
  1.5921081628157310E-01 a       238     0    10     1    22
  1.0535162272812877E-01 a       239     0    10     1    23
  1.5999945026856813E-02 a       240     0    10     1    24
 -1.2032713202099279E-01 a       241     0    11     1     1
  1.9800539011424451E-01 a       242     0    11     1     2
  1.5479776402088800E-02 a       243     0    11     1     3
  1.5742920802696411E-01 a       244     0    11     1     4
 -1.1353352383505459E-01 a       245     0    11     1     5
 -7.0278508486899802E-02 a       246     0    11     1     6
  2.8390056188259571E-02 a       247     0    11     1     7
  1.5395319258949294E-01 a       248     0    11     1     8
 -1.0738117739585509E-01 a       249     0    11     1     9
 -2.0111712602688875E-02 a       250     0    11     1    10
 -1.0776457343006009E-01 a       251     0    11     1    11
 -5.4879675084202099E-02 a       252     0    11     1    12
 -1.9810794216778998E-03 a       253     0    11     1    13
 -8.7532376085213050E-03 a       254     0    11     1    14
 -4.0611284613416079E-02 a       255     0    11     1    15
 -1.1573711525200410E-01 a       256     0    11     1    16
  2.4423857873712370E-02 a       257     0    11     1    17
  2.2245732185650346E-03 a       258     0    11     1    18
 -9.7998933860746415E-02 a       259     0    11     1    19
 -9.7112246248776832E-02 a       260     0    11     1    20
 -1.3317779854067460E-01 a       261     0    11     1    21
  6.2995640589182000E-02 a       262     0    11     1    22
  3.2285886669698755E-02 a       263     0    11     1    23
  2.9488929957821172E-03 a       264     0    11     1    24
  4.6052144942728079E-02 a       265     0    12     1     1
  8.5616748795843273E-02 a       266     0    12     1     2
 -5.1711766762684054E-02 a       267     0    12     1     3
 -4.5431063940975609E-03 a       268     0    12     1     4
 -1.1455604021933533E-01 a       269     0    12     1     5
  1.3944009934653376E-01 a       270     0    12     1     6
 -1.3664307224800679E-01 a       271     0    12     1     7
  1.0139412410227909E-01 a       272     0    12     1     8
  9.8524473623337952E-02 a       273     0    12     1     9
  1.3845721163614985E-01 a       274     0    12     1    10
  9.6354250157229065E-02 a       275     0    12     1    11
  2.2975204695054896E-01 a       276     0    12     1    12
 -1.1165808995486606E-01 a       277     0    12     1    13
  3.0068732295751056E-02 a       278     0    12     1    14
  9.3927994933025352E-02 a       279     0    12     1    15
 -9.2958453789701648E-02 a       280     0    12     1    16
  1.9879271860983988E-01 a       281     0    12     1    17
 -2.1673842742395319E-01 a       282     0    12     1    18
  8.1189375167461580E-02 a       283     0    12     1    19
 -1.6504501250063283E-01 a       284     0    12     1    20
  5.3720857489889057E-02 a       285     0    12     1    21
 -4.9349225267753850E-04 a       286     0    12     1    22
  1.0635296251620702E-01 a       287     0    12     1    23
 -3.5248028848160373E-03 a       288     0    12     1    24
 -2.8716535737946908E-01 a       289     0    13     1     1
  9.2068078121948796E-02 a       290     0    13     1     2
 -1.5034308560735693E-01 a       291     0    13     1     3
 -2.7649992972091555E-02 a       292     0    13     1     4
 -8.8314919904232438E-03 a       293     0    13     1     5
 -2.5659488850084478E-01 a       294     0    13     1     6
  3.4320504881332842E-02 a       295     0    13     1     7
  1.8943778583823070E-01 a       296     0    13     1     8
  2.0418409306521071E-01 a       297     0    13     1     9
 -6.5017981618929910E-02 a       298     0    13     1    10
  2.3429160783661591E-02 a       299     0    13     1    11
 -3.3193827027584022E-01 a       300     0    13     1    12
  1.7206145344750040E-01 a       301     0    13     1    13
  1.9547327475748377E-01 a       302     0    13     1    14
 -3.4208721668492786E-02 a       303     0    13     1    15
  6.0122625052632002E-02 a       304     0    13     1    16
  4.3409775140482984E-02 a       305     0    13     1    17
  5.7172148407139640E-02 a       306     0    13     1    18
 -1.8454913150517147E-01 a       307     0    13     1    19
  7.3887855809166667E-02 a       308     0    13     1    20
 -1.5023160642086575E-01 a       309     0    13     1    21
  4.6753781619443173E-03 a       310     0    13     1    22
  9.9629114621156256E-02 a       311     0    13     1    23
  1.2391220986166954E-01 a       312     0    13     1    24
 -2.3498121128873511E-01 a       313     0    14     1     1
 -8.5771377027598392E-02 a       314     0    14     1     2
  1.9959147709645961E-01 a       315     0    14     1     3
 -3.1985810482076682E-01 a       316     0    14     1     4
 -1.8808771089214246E-01 a       317     0    14     1     5
 -9.3301404025630058E-02 a       318     0    14     1     6
  9.5698943263537506E-02 a       319     0    14     1     7
  1.7821912060039100E-01 a       320     0    14     1     8
  1.4208044894957914E-01 a       321     0    14     1     9
 -2.7162431748844523E-01 a       322     0    14     1    10
  2.9995797162274712E-01 a       323     0    14     1    11
 -1.1663537786569037E-01 a       324     0    14     1    12
 -9.5622077753827042E-02 a       325     0    14     1    13
 -1.3362271359223771E-01 a       326     0    14     1    14
 -8.4400592300945557E-02 a       327     0    14     1    15
  8.1832948584132287E-02 a       328     0    14     1    16
  8.4751938088831039E-02 a       329     0    14     1    17
 -1.5724548567857316E-01 a       330     0    14     1    18
 -9.5144138017503599E-02 a       331     0    14     1    19
  2.0820375319896106E-01 a       332     0    14     1    20
  3.1252223897403159E-01 a       333     0    14     1    21
  6.8424818625749270E-02 a       334     0    14     1    22
  3.0191930014140587E-02 a       335     0    14     1    23
  1.7843160020508284E-01 a       336     0    14     1    24
  1.5510713684970304E-01 a       337     0    15     1     1
  1.0845899869129221E-02 a       338     0    15     1     2
  5.1682857853590884E-02 a       339     0    15     1     3
  3.1763488486616039E-02 a       340     0    15     1     4
  1.2138355627418747E-02 a       341     0    15     1     5
 -4.3242752074844688E-02 a       342     0    15     1     6
 -3.4595715092775099E-02 a       343     0    15     1     7
 -2.4923475398061306E-03 a       344     0    15     1     8
 -9.6193060033152415E-03 a       345     0    15     1     9
 -1.0237867924937073E-01 a       346     0    15     1    10
  8.9475864572076624E-02 a       347     0    15     1    11
  1.4934818509163994E-01 a       348     0    15     1    12
  2.0384668706071823E-01 a       349     0    15     1    13
  6.7638006890901103E-02 a       350     0    15     1    14
  1.3196945916801184E-01 a       351     0    15     1    15
  9.7505680051282601E-02 a       352     0    15     1    16
  1.1696228350644421E-02 a       353     0    15     1    17
  1.7328284895666415E-01 a       354     0    15     1    18
 -3.8327464164948227E-02 a       355     0    15     1    19
  1.0827412528381231E-01 a       356     0    15     1    20
  3.9481131349368192E-03 a       357     0    15     1    21
  3.0827349343881486E-03 a       358     0    15     1    22
 -1.0276775957177216E-01 a       359     0    15     1    23
 -6.5937333501866952E-02 a       360     0    15     1    24
  6.6071769837590499E-02 a       361     0    16     1     1
 -9.0191505280850806E-02 a       362     0    16     1     2
 -1.1864216940737690E-01 a       363     0    16     1     3
 -2.1420425969611086E-02 a       364     0    16     1     4
 -1.2200184781564509E-01 a       365     0    16     1     5
 -2.6300613288946173E-01 a       366     0    16     1     6
  2.7821181394215572E-01 a       367     0    16     1     7
  1.4403576044996821E-01 a       368     0    16     1     8
  1.8332950974214338E-01 a       369     0    16     1     9
 -1.0189411212076234E-01 a       370     0    16     1    10
 -2.2882810026284707E-02 a       371     0    16     1    11
 -3.0098708757162518E-01 a       372     0    16     1    12
 -4.0492254571118581E-02 a       373     0    16     1    13
  9.7469820128882639E-02 a       374     0    16     1    14
  6.6933888248106602E-02 a       375     0    16     1    15
 -4.8617713848917860E-02 a       376     0    16     1    16
 -4.0344484131113800E-02 a       377     0    16     1    17
  1.3946357680443022E-01 a       378     0    16     1    18
 -1.8337850487268370E-01 a       379     0    16     1    19
  3.3443602468569111E-01 a       380     0    16     1    20
 -1.1339801727345325E-01 a       381     0    16     1    21
  2.1569588499809292E-01 a       382     0    16     1    22
  1.1852357026902841E-01 a       383     0    16     1    23
 -9.5690428458730145E-02 a       384     0    16     1    24
 -2.7235416607446822E-01 a       385     0    17     1     1
  1.2572311682517509E-01 a       386     0    17     1     2
  9.0065269854933461E-02 a       387     0    17     1     3
 -1.1551919162611242E-01 a       388     0    17     1     4
 -6.6497218851494941E-02 a       389     0    17     1     5
  5.5331767634167632E-02 a       390     0    17     1     6
  1.4632773010719261E-01 a       391     0    17     1     7
  1.2433445029558887E-01 a       392     0    17     1     8
  9.1114317701857656E-04 a       393     0    17     1     9
 -1.7489574666110091E-01 a       394     0    17     1    10
  2.2022527276944959E-01 a       395     0    17     1    11
 -3.6528565205386998E-01 a       396     0    17     1    12
 -5.0086861914670502E-02 a       397     0    17     1    13
 -3.0426486364325939E-01 a       398     0    17     1    14
 -1.2219965189884474E-01 a       399     0    17     1    15
  1.3566431085195246E-01 a       400     0    17     1    16
  1.1044300637927411E-01 a       401     0    17     1    17
  1.2877193139778015E-01 a       402     0    17     1    18
 -8.1952888843267305E-02 a       403     0    17     1    19
  1.1831075580872344E-01 a       404     0    17     1    20
  8.7956349172953696E-02 a       405     0    17     1    21
 -1.1683783316907041E-01 a       406     0    17     1    22
 -1.0211175200283852E-01 a       407     0    17     1    23
 -1.6689609907924835E-01 a       408     0    17     1    24
  1.9640336235855982E-02 a       409     0    18     1     1
 -1.0108595881924665E-01 a       410     0    18     1     2
  1.4738702897073841E-01 a       411     0    18     1     3
  3.1725932022914263E-03 a       412     0    18     1     4
  3.7192052569422325E-02 a       413     0    18     1     5
 -4.1833293594333486E-02 a       414     0    18     1     6
 -8.1355248623315446E-02 a       415     0    18     1     7
 -8.2131691199940141E-02 a       416     0    18     1     8
 -3.4557674047455508E-02 a       417     0    18     1     9
  2.0992992358405982E-01 a       418     0    18     1    10
 -1.2270050480788051E-01 a       419     0    18     1    11
  1.1223673217143383E-02 a       420     0    18     1    12
 -9.6723269410101620E-02 a       421     0    18     1    13
  2.3730648524025889E-02 a       422     0    18     1    14
 -1.1883697634131299E-01 a       423     0    18     1    15
  4.5628100582420436E-03 a       424     0    18     1    16
 -6.5587738020930361E-02 a       425     0    18     1    17
  2.8169975092253382E-02 a       426     0    18     1    18
  6.0967984768746521E-02 a       427     0    18     1    19
  3.1470878344287918E-02 a       428     0    18     1    20
  5.4031801666099631E-02 a       429     0    18     1    21
  7.6749984899459597E-02 a       430     0    18     1    22
 -1.8562735202298682E-02 a       431     0    18     1    23
  4.3445540601614187E-02 a       432     0    18     1    24
  4.5501589111583737E-02 a       433     0    19     1     1
 -1.1936641209665514E-02 a       434     0    19     1     2
 -4.7368666759948753E-02 a       435     0    19     1     3
 -2.3079043635253517E-03 a       436     0    19     1     4
  1.1489401101470065E-01 a       437     0    19     1     5
 -1.7473555257183780E-03 a       438     0    19     1     6
  5.4016582138286279E-02 a       439     0    19     1     7
 -6.6478995546451090E-03 a       440     0    19     1     8
  2.3736111967562087E-01 a       441     0    19     1     9
 -3.0878098992080077E-02 a       442     0    19     1    10
  4.0662158602942783E-02 a       443     0    19     1    11
 -1.1864662142113397E-01 a       444     0    19     1    12
  8.9365525782717892E-02 a       445     0    19     1    13
  1.2231133909328103E-01 a       446     0    19     1    14
 -5.0679648284082134E-02 a       447     0    19     1    15
  1.1664169933686518E-01 a       448     0    19     1    16
 -5.6584458683241298E-04 a       449     0    19     1    17
  1.1548598363165703E-01 a       450     0    19     1    18
 -2.2284130388114062E-01 a       451     0    19     1    19
  2.6771180489920938E-03 a       452     0    19     1    20
 -7.4246464258665837E-02 a       453     0    19     1    21
 -6.7666216625163079E-03 a       454     0    19     1    22
  1.2533379030823728E-02 a       455     0    19     1    23
 -1.8077185309056051E-02 a       456     0    19     1    24
 -1.4490836063205398E-01 a       457     0    20     1     1
  4.2146632768180356E-02 a       458     0    20     1     2
 -1.3616400792937200E-01 a       459     0    20     1     3
 -7.2656407138396526E-03 a       460     0    20     1     4
  1.6760216481780249E-02 a       461     0    20     1     5
  7.3473356385254138E-02 a       462     0    20     1     6
 -1.0825090211802616E-02 a       463     0    20     1     7
 -2.0597073950362019E-01 a       464     0    20     1     8
 -6.2659351987561937E-02 a       465     0    20     1     9
 -7.6493908841011541E-03 a       466     0    20     1    10
  1.8394040045902696E-01 a       467     0    20     1    11
  2.2969651681280265E-01 a       468     0    20     1    12
 -7.3094434960463528E-02 a       469     0    20     1    13
  1.8678547371087911E-01 a       470     0    20     1    14
 -2.1109944990177912E-01 a       471     0    20     1    15
  1.6333815139132554E-01 a       472     0    20     1    16
 -3.2233920010770918E-02 a       473     0    20     1    17
 -6.1267699740355432E-02 a       474     0    20     1    18
 -3.8674962956846720E-02 a       475     0    20     1    19
 -9.9975319778667512E-02 a       476     0    20     1    20
 -6.6212103882623496E-02 a       477     0    20     1    21
  2.4495609626621975E-01 a       478     0    20     1    22
  6.6982344476239131E-02 a       479     0    20     1    23
 -9.8606456373585380E-02 a       480     0    20     1    24
  9.1372758155651879E-02 a       481     0    21     1     1
 -3.0970473335134488E-02 a       482     0    21     1     2
  6.6032328223834952E-02 a       483     0    21     1     3
  1.6345670196094086E-01 a       484     0    21     1     4
 -3.2507306712288603E-02 a       485     0    21     1     5
  3.1668820874104858E-02 a       486     0    21     1     6
  1.2408885515648843E-02 a       487     0    21     1     7
 -2.7989843017168836E-02 a       488     0    21     1     8
  9.0994546945390442E-02 a       489     0    21     1     9
 -3.7685558471374989E-02 a       490     0    21     1    10
  1.3877924361224997E-01 a       491     0    21     1    11
  1.1505837143432437E-01 a       492     0    21     1    12
  7.0036438474450582E-02 a       493     0    21     1    13
  1.1311001474693083E-01 a       494     0    21     1    14
 -1.1455444490399959E-01 a       495     0    21     1    15
  5.6899645515543018E-03 a       496     0    21     1    16
  1.2669073296464172E-02 a       497     0    21     1    17
 -1.6695566537987885E-01 a       498     0    21     1    18
  5.5732142964855215E-02 a       499     0    21     1    19
 -6.9150368749395244E-02 a       500     0    21     1    20
 -6.2139020401688928E-02 a       501     0    21     1    21
 -7.7198791208070661E-02 a       502     0    21     1    22
 -2.5866700387521162E-03 a       503     0    21     1    23
  2.1404206678209109E-02 a       504     0    21     1    24
 -6.4156914211223274E-03 a       505     0    22     1     1
 -7.4522450930347192E-02 a       506     0    22     1     2
 -3.7865827616930955E-02 a       507     0    22     1     3
  1.0937928410077791E-01 a       508     0    22     1     4
  1.9075493351324468E-01 a       509     0    22     1     5
  2.3643295906099804E-01 a       510     0    22     1     6
 -1.2570889438134719E-01 a       511     0    22     1     7
 -1.0523980432565269E-01 a       512     0    22     1     8
 -1.6300143890067006E-02 a       513     0    22     1     9
  8.7671086194888975E-02 a       514     0    22     1    10
 -5.9675745650740316E-03 a       515     0    22     1    11
  6.2529450524466068E-02 a       516     0    22     1    12
  1.4314854133610513E-01 a       517     0    22     1    13
 -5.7647071019999670E-02 a       518     0    22     1    14
  6.7782230712119640E-02 a       519     0    22     1    15
 -6.3825378289092266E-02 a       520     0    22     1    16
 -1.4830647658737689E-01 a       521     0    22     1    17
 -4.0790842975222501E-02 a       522     0    22     1    18
  6.7071329531337362E-02 a       523     0    22     1    19
  3.9399090700020158E-02 a       524     0    22     1    20
  1.0974990962069819E-01 a       525     0    22     1    21
  1.2717893037798772E-01 a       526     0    22     1    22
  1.1329378595096443E-01 a       527     0    22     1    23
  1.0949013021921104E-01 a       528     0    22     1    24
 -3.3781056573143606E-02 a       529     0    23     1     1
 -2.7145260984596195E-03 a       530     0    23     1     2
  5.0993608757378871E-02 a       531     0    23     1     3
 -8.7125184313915860E-02 a       532     0    23     1     4
 -3.2190923592555855E-02 a       533     0    23     1     5
 -1.4663040853649091E-02 a       534     0    23     1     6
  5.6844250022396937E-02 a       535     0    23     1     7
  1.1931035843298113E-01 a       536     0    23     1     8
 -4.6713898422240371E-02 a       537     0    23     1     9
  7.1340967272106618E-03 a       538     0    23     1    10
  3.0404371906686826E-02 a       539     0    23     1    11
  3.8880208725660823E-02 a       540     0    23     1    12
  4.5250256117473769E-03 a       541     0    23     1    13
 -8.4991722377946999E-02 a       542     0    23     1    14
  4.3373289835205078E-03 a       543     0    23     1    15
 -7.8951623535983909E-02 a       544     0    23     1    16
 -5.8739534892747775E-02 a       545     0    23     1    17
 -7.7714794536854662E-02 a       546     0    23     1    18
  5.8037214434519889E-02 a       547     0    23     1    19
 -1.0859999054285895E-01 a       548     0    23     1    20
  1.3072104353493577E-01 a       549     0    23     1    21
 -3.5342205262958296E-02 a       550     0    23     1    22
 -9.3086865568506594E-02 a       551     0    23     1    23
  1.1514328365048682E-01 a       552     0    23     1    24
  7.4577106633464188E-02 a       553     0    24     1     1
  5.3343683731399409E-02 a       554     0    24     1     2
 -7.8983460616072379E-02 a       555     0    24     1     3
 -5.7539337838117377E-02 a       556     0    24     1     4
 -8.0299712774805951E-02 a       557     0    24     1     5
 -6.0507202360223285E-02 a       558     0    24     1     6
 -1.4150207226980827E-01 a       559     0    24     1     7
 -2.8056510312880400E-03 a       560     0    24     1     8
 -7.4404968303330210E-02 a       561     0    24     1     9
  5.4500434487081251E-02 a       562     0    24     1    10
 -1.1582685516980358E-01 a       563     0    24     1    11
 -2.0065474588485796E-01 a       564     0    24     1    12
  1.4978210595230221E-01 a       565     0    24     1    13
 -1.0973194669660478E-01 a       566     0    24     1    14
  1.1943010312099224E-01 a       567     0    24     1    15
  6.0748848330813926E-02 a       568     0    24     1    16
  8.0922230409052939E-03 a       569     0    24     1    17
 -2.7897929226816880E-02 a       570     0    24     1    18
 -2.4571093298784225E-02 a       571     0    24     1    19
  1.6211348769570713E-01 a       572     0    24     1    20
 -1.1462849371864422E-02 a       573     0    24     1    21
 -1.3422951201571048E-01 a       574     0    24     1    22
 -3.3057404738954056E-02 a       575     0    24     1    23
 -3.8645689426306931E-02 a       576     0    24     1    24
  1.0566755307391126E-01 a       577     0    25     1     1
 -1.6877338842498832E-01 a       578     0    25     1     2
  1.4876888704431707E-01 a       579     0    25     1     3
 -3.0698262196687649E-02 a       580     0    25     1     4
 -2.4610918485703608E-02 a       581     0    25     1     5
  8.2916298895655716E-02 a       582     0    25     1     6
 -1.6148762884400225E-01 a       583     0    25     1     7
 -1.6311898962055502E-01 a       584     0    25     1     8
 -8.1761891602368283E-02 a       585     0    25     1     9
 -4.8830262542480789E-02 a       586     0    25     1    10
  1.3561284284057129E-01 a       587     0    25     1    11
  8.1384156881591327E-02 a       588     0    25     1    12
  1.9458755137352797E-02 a       589     0    25     1    13
 -1.3561510294766463E-01 a       590     0    25     1    14
  8.1250352214784112E-03 a       591     0    25     1    15
 -1.1757196302770134E-01 a       592     0    25     1    16
  4.0541628131464495E-02 a       593     0    25     1    17
  6.2196640134274089E-02 a       594     0    25     1    18
 -5.6314932293556538E-03 a       595     0    25     1    19
 -1.4223612525522580E-01 a       596     0    25     1    20
 -6.1911720143142668E-02 a       597     0    25     1    21
 -2.1341472784359793E-02 a       598     0    25     1    22
  9.9464317672835187E-02 a       599     0    25     1    23
  2.3224913261452201E-01 a       600     0    25     1    24
  5.9175115536258913E-02 a       601     0    26     1     1
 -2.4475060835991488E-01 a       602     0    26     1     2
  2.1222162674556806E-02 a       603     0    26     1     3
 -8.8625789901843999E-02 a       604     0    26     1     4
  3.4240827826590658E-02 a       605     0    26     1     5
  9.2557085359403740E-02 a       606     0    26     1     6
 -1.7144408917311701E-01 a       607     0    26     1     7
 -8.1279285158495335E-02 a       608     0    26     1     8
 -2.4480141384749546E-01 a       609     0    26     1     9
  7.5945845128505135E-03 a       610     0    26     1    10
 -2.5335303764201580E-02 a       611     0    26     1    11
  3.2145624279929239E-03 a       612     0    26     1    12
  5.5322439274339941E-02 a       613     0    26     1    13
 -1.4250742515486822E-01 a       614     0    26     1    14
  2.8800166891773749E-01 a       615     0    26     1    15
 -1.2387878256771571E-01 a       616     0    26     1    16
  1.5934784385142542E-01 a       617     0    26     1    17
 -1.3227139998293813E-02 a       618     0    26     1    18
  4.9129563050807526E-02 a       619     0    26     1    19
  2.8383289544441286E-02 a       620     0    26     1    20
  6.7766499363744260E-03 a       621     0    26     1    21
  1.0267392993294550E-01 a       622     0    26     1    22
  1.2828971603698228E-01 a       623     0    26     1    23
  7.7838675464844728E-02 a       624     0    26     1    24
 -6.0807943251783283E-04 a       625     0    27     1     1
  9.6715012329825253E-02 a       626     0    27     1     2
  3.5409419143024271E-02 a       627     0    27     1     3
 -4.4828362007135837E-02 a       628     0    27     1     4
  3.2246819262345254E-03 a       629     0    27     1     5
 -5.2078140599383496E-02 a       630     0    27     1     6
  8.4789794704339186E-03 a       631     0    27     1     7
 -2.5080569199572168E-02 a       632     0    27     1     8
 -1.6278032125609176E-01 a       633     0    27     1     9
  1.3278393158940491E-01 a       634     0    27     1    10
  1.0657180162396701E-01 a       635     0    27     1    11
  1.4056787697371186E-02 a       636     0    27     1    12
  1.0669291005187349E-01 a       637     0    27     1    13
 -4.9757769130474923E-02 a       638     0    27     1    14
 -4.2393374784542803E-02 a       639     0    27     1    15
  5.6418223432080063E-02 a       640     0    27     1    16
  2.6107637964767751E-02 a       641     0    27     1    17
 -1.0222615226701114E-01 a       642     0    27     1    18
  1.7248592367383708E-01 a       643     0    27     1    19
 -4.1668342156538869E-02 a       644     0    27     1    20
 -2.2341657252770642E-02 a       645     0    27     1    21
 -1.0834606253776130E-01 a       646     0    27     1    22
  1.2116824893824377E-01 a       647     0    27     1    23
 -4.3648190978034317E-02 a       648     0    27     1    24
  2.7075571108104306E-02 a       649     0    28     1     1
  1.6598905029448935E-01 a       650     0    28     1     2
 -1.2829734859489459E-02 a       651     0    28     1     3
 -6.5258536971887484E-03 a       652     0    28     1     4
 -4.3555157325077941E-02 a       653     0    28     1     5
  1.1176452839295806E-01 a       654     0    28     1     6
  2.9736447289923050E-03 a       655     0    28     1     7
  9.5803323162070908E-02 a       656     0    28     1     8
 -8.5656940901866915E-02 a       657     0    28     1     9
  4.4299919491121158E-02 a       658     0    28     1    10
  5.1668894960459816E-02 a       659     0    28     1    11
 -6.0041840349012388E-02 a       660     0    28     1    12
 -2.7738302479592521E-02 a       661     0    28     1    13
 -8.3149739533710521E-02 a       662     0    28     1    14
  5.7771344931964425E-02 a       663     0    28     1    15
  3.7391581624078248E-02 a       664     0    28     1    16
  3.7284831308990983E-02 a       665     0    28     1    17
  1.2474260221504101E-01 a       666     0    28     1    18
 -1.0526271905646420E-01 a       667     0    28     1    19
  1.9332595988403956E-01 a       668     0    28     1    20
  6.6638557724881059E-02 a       669     0    28     1    21
 -3.8903014421363062E-02 a       670     0    28     1    22
  1.3789597562260481E-01 a       671     0    28     1    23
 -1.0557650357871330E-01 a       672     0    28     1    24
 -2.2724942603455766E-02 a       673     0    29     1     1
 -3.7941283462361093E-02 a       674     0    29     1     2
 -8.5603614909813983E-02 a       675     0    29     1     3
 -6.1163574253851147E-02 a       676     0    29     1     4
 -1.1578635061125438E-01 a       677     0    29     1     5
 -4.8869884780085658E-02 a       678     0    29     1     6
 -1.3461355421291746E-01 a       679     0    29     1     7
  3.8193820322907260E-02 a       680     0    29     1     8
 -1.0177770941025946E-01 a       681     0    29     1     9
 -2.6542423460215139E-02 a       682     0    29     1    10
  3.6276564002833731E-02 a       683     0    29     1    11
 -4.5720424508994092E-02 a       684     0    29     1    12
 -4.5941060303657105E-02 a       685     0    29     1    13
  1.2469413139339930E-01 a       686     0    29     1    14
 -2.4346488057759848E-02 a       687     0    29     1    15
 -1.0364990526237135E-01 a       688     0    29     1    16
 -4.5447570243541256E-02 a       689     0    29     1    17
  1.0600886434729777E-01 a       690     0    29     1    18
 -1.0458127469102489E-02 a       691     0    29     1    19
 -8.5575593826397775E-02 a       692     0    29     1    20
  8.2520435635977073E-03 a       693     0    29     1    21
 -1.9894763040537364E-02 a       694     0    29     1    22
 -1.2933556198544821E-01 a       695     0    29     1    23
  4.5600000449025908E-02 a       696     0    29     1    24
 -1.1494892505501031E-01 a       697     0    30     1     1
  1.0150838479021143E-02 a       698     0    30     1     2
  6.9866369748638191E-02 a       699     0    30     1     3
  1.0079038474319096E-01 a       700     0    30     1     4
  8.5718059949957577E-03 a       701     0    30     1     5
  9.9053832693443769E-02 a       702     0    30     1     6
 -1.1353325439506883E-02 a       703     0    30     1     7
  1.0336625826670698E-01 a       704     0    30     1     8
 -3.7676745084104180E-02 a       705     0    30     1     9
 -4.6766562282828723E-02 a       706     0    30     1    10
 -6.6734830304669389E-03 a       707     0    30     1    11
  1.3467300327748657E-01 a       708     0    30     1    12
  3.0547377428364622E-02 a       709     0    30     1    13
 -5.6020378527573661E-02 a       710     0    30     1    14
  4.4302335451906960E-03 a       711     0    30     1    15
  5.6742198182077895E-02 a       712     0    30     1    16
 -4.2431370244605103E-02 a       713     0    30     1    17
  5.9197087377186675E-03 a       714     0    30     1    18
  1.1238669025806389E-01 a       715     0    30     1    19
  1.5219349319066466E-01 a       716     0    30     1    20
 -1.2737491159279459E-03 a       717     0    30     1    21
 -8.1284182598063789E-02 a       718     0    30     1    22
 -1.0055078996883848E-01 a       719     0    30     1    23
  3.8738453386957671E-03 a       720     0    30     1    24
  1.7611831089895724E-01 a       721     0    31     1     1
 -3.3735819530513605E-02 a       722     0    31     1     2
 -3.9388277993917829E-02 a       723     0    31     1     3
  3.7431575020574592E-02 a       724     0    31     1     4
 -7.0209603642911386E-03 a       725     0    31     1     5
 -9.5088995759043338E-02 a       726     0    31     1     6
  1.1774119569625513E-01 a       727     0    31     1     7
  2.0624905925313530E-02 a       728     0    31     1     8
  2.0538878815149475E-01 a       729     0    31     1     9
  1.9677107824068812E-02 a       730     0    31     1    10
  1.5906623314542723E-02 a       731     0    31     1    11
 -9.8189813373094736E-02 a       732     0    31     1    12
 -9.6535856094585329E-02 a       733     0    31     1    13
 -1.2100670775508600E-01 a       734     0    31     1    14
  7.1242145491950709E-02 a       735     0    31     1    15
  2.4959720857075561E-02 a       736     0    31     1    16
 -8.3518059671455244E-02 a       737     0    31     1    17
  4.7529223403014340E-02 a       738     0    31     1    18
  1.3014059903471675E-01 a       739     0    31     1    19
  1.5127750789201960E-01 a       740     0    31     1    20
  4.0450752839877625E-02 a       741     0    31     1    21
 -1.4127652983872863E-01 a       742     0    31     1    22
 -1.2947603182427445E-01 a       743     0    31     1    23
 -6.6479403670528958E-02 a       744     0    31     1    24
 -8.1817978453138401E-02 a       745     0    32     1     1
  5.2681888701628113E-02 a       746     0    32     1     2
  1.0851865519371435E-02 a       747     0    32     1     3
  5.0749204513951485E-02 a       748     0    32     1     4
 -4.4794263838297377E-02 a       749     0    32     1     5
 -9.7714898638511058E-02 a       750     0    32     1     6
  8.9612770985818060E-02 a       751     0    32     1     7
 -1.1961178346239262E-01 a       752     0    32     1     8
 -3.5744851630787160E-02 a       753     0    32     1     9
 -4.4531223816038232E-02 a       754     0    32     1    10
 -7.6458675903044622E-03 a       755     0    32     1    11
  9.3389400466068875E-02 a       756     0    32     1    12
 -8.5098299356112822E-02 a       757     0    32     1    13
 -2.5668224382349131E-02 a       758     0    32     1    14
  8.8627915051146450E-02 a       759     0    32     1    15
  1.3607983825557407E-01 a       760     0    32     1    16
  9.5986226518588000E-02 a       761     0    32     1    17
 -1.0096518254112216E-01 a       762     0    32     1    18
  1.0995701768410050E-01 a       763     0    32     1    19
  7.9070194772336969E-02 a       764     0    32     1    20
  9.0191118583281854E-02 a       765     0    32     1    21
 -6.1039568200436975E-02 a       766     0    32     1    22
 -9.5296997319141097E-02 a       767     0    32     1    23
  3.1780653456713000E-02 a       768     0    32     1    24
 -4.8820789766054734E-04 a       769     0    33     1     1
  1.8766292122595307E-01 a       770     0    33     1     2
  1.2852043918502712E-01 a       771     0    33     1     3
 -3.1452787662619511E-02 a       772     0    33     1     4
 -1.3363622705293562E-02 a       773     0    33     1     5
  3.7892844883846463E-02 a       774     0    33     1     6
  8.1918424699739298E-02 a       775     0    33     1     7
  7.1252241275866865E-02 a       776     0    33     1     8
  1.0430940320851717E-01 a       777     0    33     1     9
 -9.3667597164964658E-02 a       778     0    33     1    10
 -7.1433366096262576E-03 a       779     0    33     1    11
 -9.5986251456921176E-03 a       780     0    33     1    12
 -4.3565161543642109E-02 a       781     0    33     1    13
 -1.2700142184167754E-01 a       782     0    33     1    14
 -8.3217931459126135E-02 a       783     0    33     1    15
  6.2512649865583914E-02 a       784     0    33     1    16
  7.2579035427444150E-02 a       785     0    33     1    17
 -1.8487003594261553E-01 a       786     0    33     1    18
 -1.8839661457019763E-01 a       787     0    33     1    19
  6.4592224660887640E-02 a       788     0    33     1    20
  6.6533155410309242E-02 a       789     0    33     1    21
 -2.1850941945445974E-02 a       790     0    33     1    22
 -9.5228379095009308E-02 a       791     0    33     1    23
 -1.1883984832684996E-01 a       792     0    33     1    24
 -6.9662056697629982E-02 a       793     0    34     1     1
  1.0242165833398573E-01 a       794     0    34     1     2
 -8.8158491109558326E-02 a       795     0    34     1     3
 -1.5274990648951414E-01 a       796     0    34     1     4
  3.1402900391170000E-03 a       797     0    34     1     5
 -1.8869133610859491E-02 a       798     0    34     1     6
  1.2512743208084938E-02 a       799     0    34     1     7
 -6.9607261754046162E-02 a       800     0    34     1     8
 -5.2415706012589776E-02 a       801     0    34     1     9
 -7.3984479468744341E-02 a       802     0    34     1    10
 -1.6513131836602801E-01 a       803     0    34     1    11
 -4.2020385562792195E-02 a       804     0    34     1    12
  6.0615326041994030E-02 a       805     0    34     1    13
 -2.9180694820907342E-02 a       806     0    34     1    14
  1.6765730752814099E-02 a       807     0    34     1    15
 -1.1337641926907485E-01 a       808     0    34     1    16
 -1.1821422707200411E-02 a       809     0    34     1    17
  3.7010479750110045E-03 a       810     0    34     1    18
 -5.0101629124990880E-02 a       811     0    34     1    19
  6.9369670291321321E-03 a       812     0    34     1    20
  2.4756415326646977E-02 a       813     0    34     1    21
 -8.3772901355202822E-02 a       814     0    34     1    22
  3.4194902541998855E-02 a       815     0    34     1    23
 -3.5549880553513456E-02 a       816     0    34     1    24
  4.8956295538888757E-02 a       817     0    35     1     1
  8.7418417268720419E-03 a       818     0    35     1     2
  5.9119993443670416E-02 a       819     0    35     1     3
  2.9222894825785512E-02 a       820     0    35     1     4
 -1.1453396724859202E-02 a       821     0    35     1     5
  9.8714240968495362E-02 a       822     0    35     1     6
  1.2460874162523101E-01 a       823     0    35     1     7
  8.5253043533944639E-02 a       824     0    35     1     8
  2.9041518402059213E-01 a       825     0    35     1     9
 -3.9889676330267194E-02 a       826     0    35     1    10
 -1.1670017850347816E-01 a       827     0    35     1    11
 -3.7982846906455654E-02 a       828     0    35     1    12
  6.4347238095480153E-03 a       829     0    35     1    13
  1.0073062337780379E-01 a       830     0    35     1    14
 -8.9359725337774643E-02 a       831     0    35     1    15
  3.4478421489265068E-02 a       832     0    35     1    16
 -4.4122973937007117E-03 a       833     0    35     1    17
 -6.0688708527651555E-02 a       834     0    35     1    18
 -1.8037611523490726E-01 a       835     0    35     1    19
  1.2070642285969041E-01 a       836     0    35     1    20
  3.9562039626377353E-03 a       837     0    35     1    21
  1.2771892363368273E-01 a       838     0    35     1    22
 -1.6973107909749232E-02 a       839     0    35     1    23
 -3.5125958253189475E-02 a       840     0    35     1    24
 -3.9919817817772998E-02 a       841     0    36     1     1
 -1.0765605967882121E-01 a       842     0    36     1     2
  5.4222794838893723E-02 a       843     0    36     1     3
 -2.2525423304308811E-01 a       844     0    36     1     4
 -8.1600751094994643E-03 a       845     0    36     1     5
  3.0252809324802102E-03 a       846     0    36     1     6
  4.1667799147967345E-02 a       847     0    36     1     7
 -1.1567450726389440E-01 a       848     0    36     1     8
 -1.7347668873119729E-02 a       849     0    36     1     9
  1.5678339602090481E-02 a       850     0    36     1    10
  5.8558085892355428E-02 a       851     0    36     1    11
 -4.9757004216321170E-02 a       852     0    36     1    12
  2.5425974423542080E-02 a       853     0    36     1    13
  1.0578500638592928E-01 a       854     0    36     1    14
 -2.4624674674759206E-02 a       855     0    36     1    15
  1.5635218974478163E-01 a       856     0    36     1    16
 -2.6958720037753379E-02 a       857     0    36     1    17
 -1.5723320677964094E-02 a       858     0    36     1    18
  2.4970469571980983E-01 a       859     0    36     1    19
 -3.0889032421569713E-02 a       860     0    36     1    20
 -7.6426602127465534E-02 a       861     0    36     1    21
  2.5288875788653969E-01 a       862     0    36     1    22
 -7.3437925945987872E-02 a       863     0    36     1    23
 -1.0065609061550828E-02 a       864     0    36     1    24
 -1.2963490484791618E-01 a       865     0    37     1     1
 -1.3695945172967591E-02 a       866     0    37     1     2
  5.3474703571112205E-02 a       867     0    37     1     3
  4.0538547578876538E-02 a       868     0    37     1     4
  5.2132962671831151E-02 a       869     0    37     1     5
  4.7155675324283289E-02 a       870     0    37     1     6
 -7.5001604926909743E-02 a       871     0    37     1     7
  4.4036298755267919E-02 a       872     0    37     1     8
 -6.1554684039810570E-02 a       873     0    37     1     9
  6.5218080282130983E-02 a       874     0    37     1    10
  9.2377090222305280E-02 a       875     0    37     1    11
  2.1699765189520319E-02 a       876     0    37     1    12
  9.3596450585998442E-02 a       877     0    37     1    13
 -4.9668200864062661E-03 a       878     0    37     1    14
 -6.3092461408986056E-02 a       879     0    37     1    15
  6.0025787122891623E-03 a       880     0    37     1    16
  5.2970775825973107E-02 a       881     0    37     1    17
 -1.2952533708051805E-01 a       882     0    37     1    18
 -5.4136486142750632E-03 a       883     0    37     1    19
 -2.7794206023169267E-02 a       884     0    37     1    20
  8.7182425038550906E-02 a       885     0    37     1    21
  2.9259503041592784E-02 a       886     0    37     1    22
  7.0308545868777300E-02 a       887     0    37     1    23
  3.9491977339258154E-02 a       888     0    37     1    24
 -4.3063850806304788E-02 a       889     0    38     1     1
 -9.2621435519282716E-02 a       890     0    38     1     2
 -3.8826621428024150E-02 a       891     0    38     1     3
 -9.7691873437412882E-02 a       892     0    38     1     4
 -1.0427557088308582E-01 a       893     0    38     1     5
 -2.2383754326508069E-02 a       894     0    38     1     6
  1.1230162432860520E-01 a       895     0    38     1     7
 -5.0721411137697757E-02 a       896     0    38     1     8
  2.2211647606173293E-02 a       897     0    38     1     9
  3.3225234142463637E-02 a       898     0    38     1    10
  3.3126578725019895E-02 a       899     0    38     1    11
  8.2274346011250735E-02 a       900     0    38     1    12
  1.1277700335691750E-01 a       901     0    38     1    13
 -3.1932618996421878E-02 a       902     0    38     1    14
 -1.1687734293191931E-01 a       903     0    38     1    15
 -8.2686738727925882E-02 a       904     0    38     1    16
 -1.0924460679458674E-01 a       905     0    38     1    17
 -1.2349612497419112E-01 a       906     0    38     1    18
  4.6245962211016872E-02 a       907     0    38     1    19
 -6.6478150605586178E-02 a       908     0    38     1    20
 -3.7406110608932041E-03 a       909     0    38     1    21
  1.3635965017901496E-02 a       910     0    38     1    22
 -9.1607193985212498E-02 a       911     0    38     1    23
  5.6334123600640773E-02 a       912     0    38     1    24
 -3.1193120774040000E-02 a       913     0    39     1     1
 -7.6160168891327401E-02 a       914     0    39     1     2
 -1.0402862181610198E-01 a       915     0    39     1     3
  1.7441328081580450E-02 a       916     0    39     1     4
 -7.1721618021921493E-03 a       917     0    39     1     5
 -2.3174093570308263E-01 a       918     0    39     1     6
 -6.6588843192831509E-02 a       919     0    39     1     7
 -5.8370355639456445E-02 a       920     0    39     1     8
 -2.4563830766732114E-02 a       921     0    39     1     9
 -1.0759959745688799E-01 a       922     0    39     1    10
 -2.9079046861293971E-02 a       923     0    39     1    11
 -4.1226823462905002E-02 a       924     0    39     1    12
 -9.6208827527463278E-03 a       925     0    39     1    13
 -2.1545638900839582E-02 a       926     0    39     1    14
 -4.5462760328991584E-03 a       927     0    39     1    15
 -1.5593727132966750E-02 a       928     0    39     1    16
  9.7536680610197990E-02 a       929     0    39     1    17
 -4.8732127824655476E-02 a       930     0    39     1    18
  1.7900095416251177E-01 a       931     0    39     1    19
 -1.8648203584168584E-02 a       932     0    39     1    20
 -1.0780890764711761E-03 a       933     0    39     1    21
  7.1440600503243828E-02 a       934     0    39     1    22
  6.0827589865519650E-02 a       935     0    39     1    23
  3.5101490487628791E-02 a       936     0    39     1    24
  5.8304544279666574E-03 a       937     0    40     1     1
  1.0197344486940860E-01 a       938     0    40     1     2
 -2.8827757739668773E-02 a       939     0    40     1     3
 -8.6883542552143672E-02 a       940     0    40     1     4
  1.4911588242641616E-01 a       941     0    40     1     5
 -2.3949451896021455E-02 a       942     0    40     1     6
  3.7788331324553774E-02 a       943     0    40     1     7
  1.2179562667616414E-01 a       944     0    40     1     8
  8.0183200868490428E-02 a       945     0    40     1     9
  5.4976773147397545E-02 a       946     0    40     1    10
  1.0115033385670397E-01 a       947     0    40     1    11
 -1.5728044854771295E-01 a       948     0    40     1    12
 -2.7788578484772022E-02 a       949     0    40     1    13
 -1.7969765302736418E-02 a       950     0    40     1    14
 -1.8035151404534648E-02 a       951     0    40     1    15
 -1.3388719765345130E-02 a       952     0    40     1    16
  2.0656287517951433E-01 a       953     0    40     1    17
 -6.0405371357664092E-02 a       954     0    40     1    18
 -7.7486867858750766E-02 a       955     0    40     1    19
 -1.6458915279727523E-02 a       956     0    40     1    20
  3.6217624886326766E-02 a       957     0    40     1    21
 -5.6936014745659375E-02 a       958     0    40     1    22
  3.3820385786196373E-02 a       959     0    40     1    23
  5.5760770536573502E-02 a       960     0    40     1    24
 -1.8973578950425292E-02 a       961     0    41     1     1
 -1.0265820485863277E-01 a       962     0    41     1     2
 -1.5235047777664204E-02 a       963     0    41     1     3
 -6.2921342683757445E-02 a       964     0    41     1     4
  1.9831026659903543E-02 a       965     0    41     1     5
  7.9631908283604919E-02 a       966     0    41     1     6
  1.1875287958375423E-01 a       967     0    41     1     7
 -1.1843445969442044E-01 a       968     0    41     1     8
 -1.0788210213554617E-01 a       969     0    41     1     9
  7.2674403442492480E-03 a       970     0    41     1    10
  4.1745562960462772E-02 a       971     0    41     1    11
  1.1163627922224295E-01 a       972     0    41     1    12
 -7.4625622302833899E-02 a       973     0    41     1    13
 -5.3039970129916417E-02 a       974     0    41     1    14
  3.8606502233425599E-02 a       975     0    41     1    15
  1.8480018519337504E-01 a       976     0    41     1    16
  1.3129179926012034E-02 a       977     0    41     1    17
  2.5522690216788237E-02 a       978     0    41     1    18
 -1.4145455813299571E-01 a       979     0    41     1    19
 -3.8513848479601362E-02 a       980     0    41     1    20
  1.0422664690875250E-01 a       981     0    41     1    21
  1.0506326447038426E-01 a       982     0    41     1    22
 -1.8449700931218865E-03 a       983     0    41     1    23
 -2.3225654020753791E-01 a       984     0    41     1    24
  1.3306697690641908E-01 a       985     0    42     1     1
  9.0547608661187759E-02 a       986     0    42     1     2
  1.3882599571462836E-01 a       987     0    42     1     3
 -3.9389537832971609E-04 a       988     0    42     1     4
  4.3845669288605164E-02 a       989     0    42     1     5
 -4.3581140284581751E-02 a       990     0    42     1     6
 -4.4576131252269953E-02 a       991     0    42     1     7
 -3.3306874057834920E-03 a       992     0    42     1     8
 -1.4193682060535492E-01 a       993     0    42     1     9
  3.9491633975084581E-02 a       994     0    42     1    10
 -2.3568763332093268E-03 a       995     0    42     1    11
 -3.4649346333857488E-02 a       996     0    42     1    12
 -8.2395763409089662E-02 a       997     0    42     1    13
  7.6526339371897983E-02 a       998     0    42     1    14
  8.5928559238813068E-02 a       999     0    42     1    15
  7.7782899823788693E-02 a      1000     0    42     1    16
 -2.0824054352587943E-02 a      1001     0    42     1    17
  8.4328571580398679E-02 a      1002     0    42     1    18
  3.9258511650207079E-02 a      1003     0    42     1    19
 -7.1360918447237146E-02 a      1004     0    42     1    20
 -9.4082559186283027E-02 a      1005     0    42     1    21
  9.9508244408577001E-02 a      1006     0    42     1    22
 -6.6281382528491681E-02 a      1007     0    42     1    23
  9.4040575072389776E-02 a      1008     0    42     1    24
 -6.5134557631136725E-03 a      1009     0    43     1     1
 -2.0166393756018128E-01 a      1010     0    43     1     2
  2.2117179591488099E-02 a      1011     0    43     1     3
  2.0065681943935262E-01 a      1012     0    43     1     4
 -5.3977774286107977E-02 a      1013     0    43     1     5
  5.5723353129172599E-02 a      1014     0    43     1     6
 -5.7390349469020142E-02 a      1015     0    43     1     7
  7.2754576027944818E-03 a      1016     0    43     1     8
  5.2264527290799764E-02 a      1017     0    43     1     9
  4.6700462414543273E-02 a      1018     0    43     1    10
 -4.6658797187030684E-02 a      1019     0    43     1    11
  2.8094341994479299E-02 a      1020     0    43     1    12
 -6.9675760622235294E-02 a      1021     0    43     1    13
  6.3282691125342225E-02 a      1022     0    43     1    14
  1.3952348278913959E-01 a      1023     0    43     1    15
 -8.6023572527321859E-02 a      1024     0    43     1    16
 -7.8322852217670838E-02 a      1025     0    43     1    17
  1.0634765994919351E-01 a      1026     0    43     1    18
  2.2218530459276496E-02 a      1027     0    43     1    19
 -7.2664268867171561E-02 a      1028     0    43     1    20
  1.7064683665199917E-02 a      1029     0    43     1    21
  4.3961205776411674E-02 a      1030     0    43     1    22
  2.6527592224589953E-02 a      1031     0    43     1    23
 -4.4730261267389347E-02 a      1032     0    43     1    24
 -6.8727785188893841E-03 a      1033     0    44     1     1
 -1.1438542710599209E-01 a      1034     0    44     1     2
  1.0692758373356695E-01 a      1035     0    44     1     3
 -9.9091308406871123E-02 a      1036     0    44     1     4
  3.7447147612711798E-02 a      1037     0    44     1     5
 -7.4501623373638762E-02 a      1038     0    44     1     6
  1.0100481091471743E-02 a      1039     0    44     1     7
  1.0614526338412011E-01 a      1040     0    44     1     8
  6.6584726287407095E-02 a      1041     0    44     1     9
 -2.4223407073986424E-02 a      1042     0    44     1    10
 -4.2675818335112442E-02 a      1043     0    44     1    11
 -1.9425012941329863E-03 a      1044     0    44     1    12
 -1.1275288337867437E-01 a      1045     0    44     1    13
 -1.5706487060148749E-02 a      1046     0    44     1    14
 -5.8827089943260316E-02 a      1047     0    44     1    15
 -1.3080199495006713E-02 a      1048     0    44     1    16
  5.0572110811733031E-02 a      1049     0    44     1    17
  1.5766180027034449E-01 a      1050     0    44     1    18
  4.5789023527483971E-02 a      1051     0    44     1    19
  2.2239356536803184E-02 a      1052     0    44     1    20
  6.1412573590296591E-03 a      1053     0    44     1    21
  6.5412462053611911E-02 a      1054     0    44     1    22
  3.1312487956741339E-02 a      1055     0    44     1    23
  1.3931191412480279E-01 a      1056     0    44     1    24
 -5.4839490831771039E-02 a      1057     0    45     1     1
  8.2088370138810360E-02 a      1058     0    45     1     2
 -1.2224126498417705E-02 a      1059     0    45     1     3
 -1.2310837587506475E-01 a      1060     0    45     1     4
  7.0077934878949782E-02 a      1061     0    45     1     5
  6.4316166854905252E-02 a      1062     0    45     1     6
  8.4237714308993267E-02 a      1063     0    45     1     7
  1.4123812449514220E-02 a      1064     0    45     1     8
 -1.9822937865975963E-02 a      1065     0    45     1     9
  2.7207130087339038E-02 a      1066     0    45     1    10
 -5.1131635041032596E-03 a      1067     0    45     1    11
  5.2057547425201078E-02 a      1068     0    45     1    12
  1.8235910680892967E-01 a      1069     0    45     1    13
  3.6815736642153735E-02 a      1070     0    45     1    14
  9.0804514370958392E-02 a      1071     0    45     1    15
 -2.1008840406826039E-02 a      1072     0    45     1    16
  6.4393318306050926E-02 a      1073     0    45     1    17
  1.5860950836138563E-01 a      1074     0    45     1    18
  5.9743422149819363E-02 a      1075     0    45     1    19
  1.0734706147768278E-01 a      1076     0    45     1    20
 -1.0131597354716357E-01 a      1077     0    45     1    21
 -6.9417060741621068E-03 a      1078     0    45     1    22
  8.9391766820775861E-02 a      1079     0    45     1    23
 -1.5445043013269677E-01 a      1080     0    45     1    24
 -2.1892660196196033E-02 a      1081     0    46     1     1
 -9.0690715254083495E-02 a      1082     0    46     1     2
  3.4494344384838317E-02 a      1083     0    46     1     3
  7.0888472885158715E-03 a      1084     0    46     1     4
 -2.9068805636571653E-02 a      1085     0    46     1     5
 -6.8900059390240395E-02 a      1086     0    46     1     6
 -1.1589814370640368E-02 a      1087     0    46     1     7
 -8.5871321633188211E-02 a      1088     0    46     1     8
  2.2207482203921623E-02 a      1089     0    46     1     9
 -8.5258885244431190E-02 a      1090     0    46     1    10
 -7.1866090101812594E-02 a      1091     0    46     1    11
 -2.9634519899903788E-02 a      1092     0    46     1    12
  3.5939953333949753E-02 a      1093     0    46     1    13
 -8.8388022586606663E-02 a      1094     0    46     1    14
 -4.8445469132535411E-02 a      1095     0    46     1    15
  1.9939128795073500E-02 a      1096     0    46     1    16
  8.8494686262003797E-02 a      1097     0    46     1    17
 -5.8651480109365807E-02 a      1098     0    46     1    18
  5.6950374805644702E-02 a      1099     0    46     1    19
 -5.5682442321832920E-02 a      1100     0    46     1    20
  7.5924536740985052E-02 a      1101     0    46     1    21
 -1.4814868918198060E-01 a      1102     0    46     1    22
 -2.7370637798402923E-02 a      1103     0    46     1    23
 -5.6595025580265836E-02 a      1104     0    46     1    24
  3.4410493500488866E-02 a      1105     0    47     1     1
  4.0702312952195008E-02 a      1106     0    47     1     2
  3.6792930373668931E-02 a      1107     0    47     1     3
  4.7914995646634644E-02 a      1108     0    47     1     4
  3.5855507850371747E-02 a      1109     0    47     1     5
  1.4235929858342836E-02 a      1110     0    47     1     6
  3.8811241801454975E-02 a      1111     0    47     1     7
 -2.7302782468389313E-03 a      1112     0    47     1     8
  1.4289180192020032E-02 a      1113     0    47     1     9
 -2.6218545809943879E-02 a      1114     0    47     1    10
  6.1937804551854417E-03 a      1115     0    47     1    11
  2.4412561982137083E-02 a      1116     0    47     1    12
 -1.2788875774762676E-01 a      1117     0    47     1    13
 -8.6803521972813533E-02 a      1118     0    47     1    14
  1.0190797409488636E-01 a      1119     0    47     1    15
  1.3698353145862338E-02 a      1120     0    47     1    16
  1.0216688292627821E-01 a      1121     0    47     1    17
  3.5058043976625271E-02 a      1122     0    47     1    18
 -1.0315448131851339E-01 a      1123     0    47     1    19
  3.9143209114884378E-02 a      1124     0    47     1    20
  2.3865481470041125E-02 a      1125     0    47     1    21
 -7.1302040757204907E-02 a      1126     0    47     1    22
 -2.3576034873425810E-02 a      1127     0    47     1    23
  3.1731142629128344E-02 a      1128     0    47     1    24
 -1.3940710248991356E-01 a      1129     0    48     1     1
 -7.0857450237197042E-02 a      1130     0    48     1     2
 -1.1567874885776841E-01 a      1131     0    48     1     3
 -1.0805102270778293E-01 a      1132     0    48     1     4
  3.1765002526907865E-02 a      1133     0    48     1     5
  3.3907891934911179E-02 a      1134     0    48     1     6
 -6.6249725831166908E-02 a      1135     0    48     1     7
  9.4016186121704690E-02 a      1136     0    48     1     8
  7.3608524141062448E-02 a      1137     0    48     1     9
 -2.2202463679981691E-02 a      1138     0    48     1    10
  1.3119051613250315E-02 a      1139     0    48     1    11
  1.2217233667990967E-02 a      1140     0    48     1    12
  1.0054532090276695E-01 a      1141     0    48     1    13
  7.5924044300169094E-02 a      1142     0    48     1    14
 -5.4888724207496319E-02 a      1143     0    48     1    15
 -1.0764434863026369E-01 a      1144     0    48     1    16
 -1.2736384805638770E-01 a      1145     0    48     1    17
  7.7832695069185470E-02 a      1146     0    48     1    18
 -5.1772527408164286E-02 a      1147     0    48     1    19
 -1.4884866256507059E-02 a      1148     0    48     1    20
  4.3964731821772428E-02 a      1149     0    48     1    21
  4.8914038313505569E-02 a      1150     0    48     1    22
  5.6887255558281918E-02 a      1151     0    48     1    23
 -5.6618790409858427E-02 a      1152     0    48     1    24
  9.2084254245064334E-02 a      1153     0    49     1     1
  2.0707505971762313E-01 a      1154     0    49     1     2
  7.8151138797055208E-02 a      1155     0    49     1     3
 -9.6811046471189224E-02 a      1156     0    49     1     4
  3.4380284837189365E-03 a      1157     0    49     1     5
  3.5003998148888771E-02 a      1158     0    49     1     6
 -5.2993429586508101E-02 a      1159     0    49     1     7
  5.1185726550735763E-02 a      1160     0    49     1     8
 -7.7632023215606930E-02 a      1161     0    49     1     9
  2.3999944296178650E-02 a      1162     0    49     1    10
  1.1256267072879390E-02 a      1163     0    49     1    11
 -1.1148519381913592E-01 a      1164     0    49     1    12
  1.3366214730992071E-01 a      1165     0    49     1    13
  4.3519062923119023E-02 a      1166     0    49     1    14
 -6.4932894863611743E-02 a      1167     0    49     1    15
 -3.0706510749307237E-02 a      1168     0    49     1    16
 -1.1760093084961182E-01 a      1169     0    49     1    17
  1.6767467023375483E-02 a      1170     0    49     1    18
 -1.3601751780355306E-01 a      1171     0    49     1    19
  1.6286448141387025E-01 a      1172     0    49     1    20
  5.1299843018350944E-02 a      1173     0    49     1    21
  1.2884202627311536E-01 a      1174     0    49     1    22
 -5.7820743007744833E-03 a      1175     0    49     1    23
 -6.7461393987397339E-02 a      1176     0    49     1    24
 -4.3533210781112198E-02 a      1177     0    50     1     1
 -8.6858773983350415E-02 a      1178     0    50     1     2
  4.5414260072102100E-02 a      1179     0    50     1     3
 -5.1093560952354074E-02 a      1180     0    50     1     4
 -4.4967507442206844E-02 a      1181     0    50     1     5
  2.1887657823437410E-02 a      1182     0    50     1     6
 -1.7975237037154066E-02 a      1183     0    50     1     7
  5.6819760174274765E-02 a      1184     0    50     1     8
  1.6515210280227583E-02 a      1185     0    50     1     9
  1.0351161826694387E-01 a      1186     0    50     1    10
  3.9616637139487237E-02 a      1187     0    50     1    11
 -2.4317088833702240E-02 a      1188     0    50     1    12
  1.3286920325326860E-02 a      1189     0    50     1    13
  1.6765173072517250E-02 a      1190     0    50     1    14
 -5.8389197542650949E-02 a      1191     0    50     1    15
 -9.0596842203873144E-03 a      1192     0    50     1    16
  6.4385799347723746E-02 a      1193     0    50     1    17
 -3.6420339955616022E-03 a      1194     0    50     1    18
  1.4706316781598650E-01 a      1195     0    50     1    19
  4.9227091115287100E-02 a      1196     0    50     1    20
 -1.1500438812257333E-02 a      1197     0    50     1    21
  1.3960295791155600E-01 a      1198     0    50     1    22
  7.0149561208587397E-02 a      1199     0    50     1    23
 -2.3576385801707806E-02 a      1200     0    50     1    24
 -3.8745155334386182E-02 a      1201     0    51     1     1
  4.0610646199813957E-02 a      1202     0    51     1     2
 -6.6253733229626036E-02 a      1203     0    51     1     3
  1.1232852924802980E-01 a      1204     0    51     1     4
  1.9840573828924651E-02 a      1205     0    51     1     5
 -1.1281113989145412E-01 a      1206     0    51     1     6
  3.2164715032361305E-02 a      1207     0    51     1     7
 -2.7281375283039970E-02 a      1208     0    51     1     8
  3.6943744298134788E-02 a      1209     0    51     1     9
 -3.9471249483153677E-02 a      1210     0    51     1    10
  6.8546320561049048E-02 a      1211     0    51     1    11
  5.3963403791700018E-02 a      1212     0    51     1    12
 -3.2207839302758182E-02 a      1213     0    51     1    13
 -2.4469126416469315E-02 a      1214     0    51     1    14
 -6.8386174049465134E-02 a      1215     0    51     1    15
 -9.8432545280645288E-03 a      1216     0    51     1    16
 -2.8630616801046026E-02 a      1217     0    51     1    17
 -1.5967856454767784E-01 a      1218     0    51     1    18
  2.8463986885214839E-02 a      1219     0    51     1    19
 -5.4445882579411367E-02 a      1220     0    51     1    20
 -3.6916500184644624E-02 a      1221     0    51     1    21
 -2.1123128323247205E-02 a      1222     0    51     1    22
  4.9677014525694702E-02 a      1223     0    51     1    23
  7.2647213214693598E-02 a      1224     0    51     1    24
  5.1584171104523950E-02 a      1225     0    52     1     1
 -1.1274459421356774E-01 a      1226     0    52     1     2
 -5.6953413449807817E-02 a      1227     0    52     1     3
  2.6423046100798778E-02 a      1228     0    52     1     4
  1.5200432548232714E-03 a      1229     0    52     1     5
 -3.0720223256305204E-02 a      1230     0    52     1     6
 -1.0822716013517007E-01 a      1231     0    52     1     7
  9.8831400846230910E-04 a      1232     0    52     1     8
 -3.8059372006390750E-02 a      1233     0    52     1     9
 -1.2400932903330869E-01 a      1234     0    52     1    10
 -7.4435197698152808E-02 a      1235     0    52     1    11
 -9.0253271751306041E-02 a      1236     0    52     1    12
  5.5833928694709982E-02 a      1237     0    52     1    13
 -1.1800588567971328E-01 a      1238     0    52     1    14
 -5.8096112043846619E-02 a      1239     0    52     1    15
 -9.4854327918055911E-02 a      1240     0    52     1    16
 -2.9687903939074313E-02 a      1241     0    52     1    17
  6.0024775572046031E-02 a      1242     0    52     1    18
  5.1046137751980136E-02 a      1243     0    52     1    19
 -1.4913907276460572E-01 a      1244     0    52     1    20
 -1.3747471193860616E-01 a      1245     0    52     1    21
 -8.5919181743146070E-02 a      1246     0    52     1    22
  1.0188125638295092E-01 a      1247     0    52     1    23
 -4.9756543918349719E-03 a      1248     0    52     1    24
  6.7514901841923644E-02 a      1249     0    53     1     1
  3.3770448401187023E-02 a      1250     0    53     1     2
 -1.8980068354932744E-01 a      1251     0    53     1     3
  9.9041826717233800E-02 a      1252     0    53     1     4
  7.6033223449933574E-02 a      1253     0    53     1     5
 -1.0637295393690371E-01 a      1254     0    53     1     6
  2.5995453493029553E-02 a      1255     0    53     1     7
 -2.5819244696615718E-02 a      1256     0    53     1     8
 -1.0233553764774585E-01 a      1257     0    53     1     9
  5.2560360812774778E-02 a      1258     0    53     1    10
  6.2300645966615019E-02 a      1259     0    53     1    11
  3.8689132595213227E-02 a      1260     0    53     1    12
 -3.4902538475084420E-02 a      1261     0    53     1    13
  4.4529571165340044E-02 a      1262     0    53     1    14
  5.8851705220014705E-02 a      1263     0    53     1    15
 -9.7839612460402486E-02 a      1264     0    53     1    16
  1.3114830222557178E-02 a      1265     0    53     1    17
  8.0552990686930864E-02 a      1266     0    53     1    18
 -1.4367837582963422E-01 a      1267     0    53     1    19
 -8.4727180333588697E-02 a      1268     0    53     1    20
  8.6342536290391070E-02 a      1269     0    53     1    21
 -1.2927042408829909E-01 a      1270     0    53     1    22
  1.3421095165023232E-02 a      1271     0    53     1    23
  6.5951178050891485E-02 a      1272     0    53     1    24
  1.6590745627183065E-01 a      1273     0    54     1     1
 -8.8186420424626287E-03 a      1274     0    54     1     2
 -2.5820301934938741E-02 a      1275     0    54     1     3
  9.5944429842292844E-02 a      1276     0    54     1     4
 -4.7782573001777323E-02 a      1277     0    54     1     5
  9.0415325648570161E-02 a      1278     0    54     1     6
  7.8119236929099986E-02 a      1279     0    54     1     7
 -6.1899875406784072E-02 a      1280     0    54     1     8
  7.5320287154575699E-02 a      1281     0    54     1     9
  3.3305732068118002E-02 a      1282     0    54     1    10
  8.1085954437666224E-02 a      1283     0    54     1    11
  5.3352334146071559E-03 a      1284     0    54     1    12
  5.8789450869103581E-02 a      1285     0    54     1    13
  3.4033984706858755E-02 a      1286     0    54     1    14
 -4.3543868264287772E-02 a      1287     0    54     1    15
  5.4984497700127477E-02 a      1288     0    54     1    16
 -7.8730943867409239E-02 a      1289     0    54     1    17
 -3.5895368289038151E-02 a      1290     0    54     1    18
  1.4513737304304129E-02 a      1291     0    54     1    19
 -1.1216449348461999E-02 a      1292     0    54     1    20
  8.3360997116030594E-02 a      1293     0    54     1    21
  8.6583928780975997E-02 a      1294     0    54     1    22
  2.1790867029598000E-02 a      1295     0    54     1    23
 -9.7053875975037271E-02 a      1296     0    54     1    24
 -3.5542313692096643E-02 a      1297     0    55     1     1
  2.5026602399710350E-02 a      1298     0    55     1     2
  1.3198162288453319E-01 a      1299     0    55     1     3
 -3.8765920094504969E-02 a      1300     0    55     1     4
 -1.3326154531957937E-01 a      1301     0    55     1     5
 -1.1312831118412194E-01 a      1302     0    55     1     6
 -4.9097352671896875E-02 a      1303     0    55     1     7
  1.5467572823681366E-01 a      1304     0    55     1     8
  1.2763838244468858E-02 a      1305     0    55     1     9
  4.9239938829200261E-02 a      1306     0    55     1    10
 -5.9044975300150460E-02 a      1307     0    55     1    11
  2.1539310949213356E-02 a      1308     0    55     1    12
  1.5298526943011936E-01 a      1309     0    55     1    13
 -7.6179857364045825E-02 a      1310     0    55     1    14
 -6.9089625183103194E-03 a      1311     0    55     1    15
 -4.0315642101253941E-02 a      1312     0    55     1    16
  2.3813528476127728E-02 a      1313     0    55     1    17
 -6.2258514174459321E-03 a      1314     0    55     1    18
 -3.1970043941165281E-02 a      1315     0    55     1    19
  4.7399515314658454E-03 a      1316     0    55     1    20
 -8.3736509609730989E-02 a      1317     0    55     1    21
 -8.8362708217711403E-02 a      1318     0    55     1    22
  1.3983330536703953E-01 a      1319     0    55     1    23
  1.0800963862595106E-01 a      1320     0    55     1    24
  3.9505310636141870E-02 a      1321     0    56     1     1
 -6.7011792983650384E-02 a      1322     0    56     1     2
  1.2892024009289796E-01 a      1323     0    56     1     3
 -9.7690816183143667E-02 a      1324     0    56     1     4
  1.2666627651177864E-01 a      1325     0    56     1     5
 -7.5035747260538715E-02 a      1326     0    56     1     6
 -8.6514467891237082E-02 a      1327     0    56     1     7
 -3.9498960344933630E-02 a      1328     0    56     1     8
  3.0589937467737122E-01 a      1329     0    56     1     9
  8.4757021587347950E-02 a      1330     0    56     1    10
  5.0007307159812442E-02 a      1331     0    56     1    11
  1.5948580121872924E-01 a      1332     0    56     1    12
  9.1804957232068010E-02 a      1333     0    56     1    13
 -6.7951186531712712E-02 a      1334     0    56     1    14
  6.9529036654596407E-02 a      1335     0    56     1    15
 -1.6782482268911164E-01 a      1336     0    56     1    16
 -4.2917824996544986E-02 a      1337     0    56     1    17
 -7.8961024952973261E-02 a      1338     0    56     1    18
 -1.2404795338189936E-01 a      1339     0    56     1    19
 -3.8855055618604979E-02 a      1340     0    56     1    20
 -9.6808900885034702E-02 a      1341     0    56     1    21
 -5.2861467240114229E-02 a      1342     0    56     1    22
 -1.1222159404802857E-02 a      1343     0    56     1    23
  8.2337104460674562E-02 a      1344     0    56     1    24
  9.9498218377852304E-02 a      1345     0    57     1     1
  8.4781810508593736E-02 a      1346     0    57     1     2
 -2.3070767952579469E-02 a      1347     0    57     1     3
 -4.1122686894777397E-02 a      1348     0    57     1     4
  3.6371937499647712E-02 a      1349     0    57     1     5
 -1.0462303820636540E-01 a      1350     0    57     1     6
 -5.6495452216989761E-02 a      1351     0    57     1     7
 -6.8916704122424580E-02 a      1352     0    57     1     8
 -1.4598796445094378E-01 a      1353     0    57     1     9
  6.4963884631601982E-03 a      1354     0    57     1    10
  1.0053625381562829E-01 a      1355     0    57     1    11
 -8.2092167740789451E-02 a      1356     0    57     1    12
 -4.1334433124711675E-02 a      1357     0    57     1    13
  7.0078657350522613E-02 a      1358     0    57     1    14
  2.4949152483761956E-02 a      1359     0    57     1    15
 -1.1319687822584083E-01 a      1360     0    57     1    16
 -7.8504929571897308E-02 a      1361     0    57     1    17
  7.0000288034502353E-02 a      1362     0    57     1    18
 -1.2871747818547449E-01 a      1363     0    57     1    19
 -1.6324047501455007E-02 a      1364     0    57     1    20
  7.1763850098513382E-02 a      1365     0    57     1    21
 -8.7920563225417400E-02 a      1366     0    57     1    22
 -1.1152073808293647E-01 a      1367     0    57     1    23
  4.1584951311275341E-03 a      1368     0    57     1    24
 -2.5847868869765204E-03 a      1369     0    58     1     1
 -1.5417681653677526E-01 a      1370     0    58     1     2
  1.3291356814898966E-01 a      1371     0    58     1     3
  1.7110432732547465E-01 a      1372     0    58     1     4
 -6.8986898972052235E-02 a      1373     0    58     1     5
 -1.0074413514804628E-01 a      1374     0    58     1     6
 -9.2760492495953861E-02 a      1375     0    58     1     7
  3.7199203789906078E-03 a      1376     0    58     1     8
 -4.9405295823015560E-02 a      1377     0    58     1     9
 -2.7595469156715752E-02 a      1378     0    58     1    10
 -1.6346325763566191E-01 a      1379     0    58     1    11
  1.8560555283726451E-01 a      1380     0    58     1    12
  2.8434964683052899E-02 a      1381     0    58     1    13
  3.9574020562523259E-02 a      1382     0    58     1    14
 -2.3484550281220071E-02 a      1383     0    58     1    15
 -7.2012399195894639E-02 a      1384     0    58     1    16
  4.1229168866115051E-02 a      1385     0    58     1    17
 -4.3693973018459906E-03 a      1386     0    58     1    18
 -7.2782230316173618E-02 a      1387     0    58     1    19
 -1.1407548099741512E-01 a      1388     0    58     1    20
 -9.0907683500523348E-02 a      1389     0    58     1    21
 -5.3930574359659290E-02 a      1390     0    58     1    22
 -3.2762403889159387E-02 a      1391     0    58     1    23
  5.8744037924835506E-02 a      1392     0    58     1    24
  1.4677478698444529E-01 a      1393     0    59     1     1
  7.5290882648444607E-02 a      1394     0    59     1     2
 -5.5527855112348428E-03 a      1395     0    59     1     3
  5.3471793927646220E-02 a      1396     0    59     1     4
 -8.4289912785450477E-02 a      1397     0    59     1     5
  1.3222585138314757E-01 a      1398     0    59     1     6
  8.3303365559593889E-02 a      1399     0    59     1     7
 -4.4719054949755518E-03 a      1400     0    59     1     8
  1.9247871279432846E-01 a      1401     0    59     1     9
 -3.1475856995670418E-02 a      1402     0    59     1    10
  1.2649261775076822E-02 a      1403     0    59     1    11
  7.6767774283253237E-02 a      1404     0    59     1    12
  8.1034765910645137E-02 a      1405     0    59     1    13
  5.3190214360621942E-02 a      1406     0    59     1    14
 -1.0879118336206246E-01 a      1407     0    59     1    15
 -5.8308991828425707E-02 a      1408     0    59     1    16
 -1.3350050682937176E-01 a      1409     0    59     1    17
  2.0440312345010116E-02 a      1410     0    59     1    18
  5.8041531225435594E-02 a      1411     0    59     1    19
  3.0850336898978464E-02 a      1412     0    59     1    20
 -9.6924065273801804E-02 a      1413     0    59     1    21
  8.4840582580588894E-02 a      1414     0    59     1    22
  2.4677564345088367E-02 a      1415     0    59     1    23
 -6.2806997450815055E-02 a      1416     0    59     1    24
 -5.2232866460733156E-02 a      1417     0    60     1     1
  1.2445485722488905E-01 a      1418     0    60     1     2
 -7.9310888469885044E-02 a      1419     0    60     1     3
 -4.5016898206171552E-02 a      1420     0    60     1     4
  1.0514522639265293E-01 a      1421     0    60     1     5
 -3.7245148517033699E-02 a      1422     0    60     1     6
 -4.8224372662503213E-02 a      1423     0    60     1     7
  6.9136877321739690E-02 a      1424     0    60     1     8
 -1.1363443420031683E-01 a      1425     0    60     1     9
  5.5108207895224602E-02 a      1426     0    60     1    10
 -7.0751669197735734E-02 a      1427     0    60     1    11
  4.9224225135412206E-02 a      1428     0    60     1    12
 -9.7791004131326492E-02 a      1429     0    60     1    13
 -1.5764525647147816E-02 a      1430     0    60     1    14
  8.0176759770413483E-02 a      1431     0    60     1    15
  6.1397515199092763E-02 a      1432     0    60     1    16
  1.1332905002360530E-01 a      1433     0    60     1    17
 -5.5776687029674137E-02 a      1434     0    60     1    18
  3.1783604881180892E-02 a      1435     0    60     1    19
  1.9736522712681714E-01 a      1436     0    60     1    20
  1.2363012535754113E-03 a      1437     0    60     1    21
  1.1139262765531591E-01 a      1438     0    60     1    22
 -1.5328444993001183E-02 a      1439     0    60     1    23
 -8.4766673086441188E-02 a      1440     0    60     1    24
  7.0597695807918748E-02 a      1441     0    61     1     1
  5.0720835634689918E-02 a      1442     0    61     1     2
 -2.8722463544787641E-01 a      1443     0    61     1     3
 -9.8805609840297196E-02 a      1444     0    61     1     4
  9.7672097110282630E-02 a      1445     0    61     1     5
  7.1841219276771381E-02 a      1446     0    61     1     6
  3.7908415701735039E-02 a      1447     0    61     1     7
 -4.3136498069928343E-02 a      1448     0    61     1     8
 -1.3892315576445179E-02 a      1449     0    61     1     9
  1.0110134177723286E-01 a      1450     0    61     1    10
 -8.2665630221887249E-02 a      1451     0    61     1    11
 -6.7939960274674277E-02 a      1452     0    61     1    12
 -2.6889180248729754E-02 a      1453     0    61     1    13
  2.4438002051736695E-02 a      1454     0    61     1    14
  8.3206797538167981E-02 a      1455     0    61     1    15
 -4.3561047320377085E-02 a      1456     0    61     1    16
  1.7419582190346458E-01 a      1457     0    61     1    17
 -4.6598346063553356E-02 a      1458     0    61     1    18
 -1.0893148280930286E-01 a      1459     0    61     1    19
  3.1775305262272624E-01 a      1460     0    61     1    20
  7.5894725388780879E-03 a      1461     0    61     1    21
  2.8207852708041420E-01 a      1462     0    61     1    22
 -6.5125970335997999E-02 a      1463     0    61     1    23
 -6.4197800988884154E-02 a      1464     0    61     1    24
  1.1959653535717654E-01 a      1465     0    62     1     1
 -7.5655146838870105E-02 a      1466     0    62     1     2
 -2.4783036524625303E-02 a      1467     0    62     1     3
 -1.5764785712564619E-01 a      1468     0    62     1     4
 -9.3440294348673125E-02 a      1469     0    62     1     5
 -1.3415966617724825E-01 a      1470     0    62     1     6
  1.2953977692713525E-01 a      1471     0    62     1     7
 -1.2531586372872563E-01 a      1472     0    62     1     8
  6.0535401923505643E-02 a      1473     0    62     1     9
 -5.1527007114662515E-02 a      1474     0    62     1    10
  6.7904300053424668E-02 a      1475     0    62     1    11
 -4.8291396745555215E-02 a      1476     0    62     1    12
 -6.7247965811028126E-02 a      1477     0    62     1    13
 -6.9741430247818412E-02 a      1478     0    62     1    14
 -8.3296595380789720E-02 a      1479     0    62     1    15
 -7.8248413908379222E-02 a      1480     0    62     1    16
 -2.1749476172186952E-02 a      1481     0    62     1    17
 -1.2825078938848686E-01 a      1482     0    62     1    18
  6.4574855144348779E-04 a      1483     0    62     1    19
 -1.6032644653239923E-02 a      1484     0    62     1    20
  9.3733841376269805E-02 a      1485     0    62     1    21
  2.1802708880070749E-02 a      1486     0    62     1    22
  8.0698686973575424E-03 a      1487     0    62     1    23
 -1.2483718395796427E-01 a      1488     0    62     1    24
 -4.6288974414281620E-02 a      1489     0    63     1     1
  6.6985291892680557E-02 a      1490     0    63     1     2
  7.7842718655652440E-02 a      1491     0    63     1     3
  1.1157172925142909E-01 a      1492     0    63     1     4
  1.6783109959217141E-01 a      1493     0    63     1     5
 -4.3556491967749161E-02 a      1494     0    63     1     6
 -5.3044225577492173E-02 a      1495     0    63     1     7
  1.5025808334209148E-01 a      1496     0    63     1     8
  1.5554695122800016E-01 a      1497     0    63     1     9
  8.5088871664424082E-02 a      1498     0    63     1    10
 -1.6941867539485311E-01 a      1499     0    63     1    11
 -2.0213880047719071E-01 a      1500     0    63     1    12
 -1.3789516905579011E-01 a      1501     0    63     1    13
 -4.4418169468735995E-02 a      1502     0    63     1    14
  6.9706636893531418E-02 a      1503     0    63     1    15
  1.9368340963553757E-01 a      1504     0    63     1    16
 -8.7637664602215420E-02 a      1505     0    63     1    17
  1.1766662526099336E-01 a      1506     0    63     1    18
  1.3573302373701676E-01 a      1507     0    63     1    19
 -5.1066833308235166E-02 a      1508     0    63     1    20
 -1.1674288807408865E-01 a      1509     0    63     1    21
  1.2820160738558628E-01 a      1510     0    63     1    22
 -4.9358191098330881E-03 a      1511     0    63     1    23
  6.1517998271868837E-02 a      1512     0    63     1    24
  1.1002796115892681E-02 a      1513     0    64     1     1
 -5.2985414213305437E-02 a      1514     0    64     1     2
 -1.0843750283020522E-01 a      1515     0    64     1     3
  3.9827868169335999E-02 a      1516     0    64     1     4
 -8.4297786470623401E-02 a      1517     0    64     1     5
  2.8720867591133341E-02 a      1518     0    64     1     6
 -1.0368143045451658E-01 a      1519     0    64     1     7
 -6.0370072367508958E-02 a      1520     0    64     1     8
  4.2474902247715739E-02 a      1521     0    64     1     9
 -7.8473792351875737E-02 a      1522     0    64     1    10
  6.9579762266322384E-02 a      1523     0    64     1    11
 -9.1060439157973252E-02 a      1524     0    64     1    12
  2.3257917081942325E-01 a      1525     0    64     1    13
 -1.2228292893848462E-01 a      1526     0    64     1    14
  1.0918861106223200E-01 a      1527     0    64     1    15
 -1.5216764903042346E-01 a      1528     0    64     1    16
  9.5682179987404928E-02 a      1529     0    64     1    17
 -8.1094705381591900E-02 a      1530     0    64     1    18
  1.7127834075724727E-02 a      1531     0    64     1    19
 -1.0968918156101759E-01 a      1532     0    64     1    20
  8.0837713265949351E-02 a      1533     0    64     1    21
  3.3593054931392204E-02 a      1534     0    64     1    22
 -2.9202059750012312E-02 a      1535     0    64     1    23
 -1.2914345278364395E-01 a      1536     0    64     1    24
  6.2258653497403761E-02 a      1537     0    65     1     1
  2.9451373415028955E-02 a      1538     0    65     1     2
 -4.4231224390432367E-02 a      1539     0    65     1     3
  1.3390528441538330E-01 a      1540     0    65     1     4
 -8.8496233208368247E-02 a      1541     0    65     1     5
  3.5483161328161247E-02 a      1542     0    65     1     6
 -1.2277465330778113E-01 a      1543     0    65     1     7
 -3.8399934185876644E-02 a      1544     0    65     1     8
 -1.1653133426219816E-02 a      1545     0    65     1     9
  2.3592374585686051E-02 a      1546     0    65     1    10
  7.4872563953072277E-02 a      1547     0    65     1    11
  7.7679289228920340E-02 a      1548     0    65     1    12
  1.0459773035605165E-01 a      1549     0    65     1    13
  1.2557919056789985E-01 a      1550     0    65     1    14
 -2.6259791348504060E-02 a      1551     0    65     1    15
  9.6881938771291684E-02 a      1552     0    65     1    16
  1.4973776051062943E-03 a      1553     0    65     1    17
  1.3285766047531500E-01 a      1554     0    65     1    18
  5.3596470113787431E-02 a      1555     0    65     1    19
 -4.4896056096230166E-02 a      1556     0    65     1    20
 -5.7565674323988833E-02 a      1557     0    65     1    21
  1.2268411981116069E-01 a      1558     0    65     1    22
  1.1314115375330050E-01 a      1559     0    65     1    23
 -1.6655674695231444E-02 a      1560     0    65     1    24
  4.4995656008618060E-02 a      1561     0    66     1     1
  1.2364379468614495E-01 a      1562     0    66     1     2
 -1.7849516564604118E-01 a      1563     0    66     1     3
  7.7880416319579234E-03 a      1564     0    66     1     4
 -8.6667143827648202E-02 a      1565     0    66     1     5
 -8.6187592137056471E-02 a      1566     0    66     1     6
 -1.7912210189120199E-03 a      1567     0    66     1     7
 -2.0114476666062120E-01 a      1568     0    66     1     8
  2.1758808377017443E-02 a      1569     0    66     1     9
 -3.3174807712845998E-02 a      1570     0    66     1    10
 -1.4586585163231089E-01 a      1571     0    66     1    11
  7.9949601526341577E-02 a      1572     0    66     1    12
 -5.7256060773915561E-03 a      1573     0    66     1    13
  8.5154541527424826E-02 a      1574     0    66     1    14
 -1.4418375292882440E-01 a      1575     0    66     1    15
  2.1532157344662464E-01 a      1576     0    66     1    16
 -6.8952624606800531E-02 a      1577     0    66     1    17
 -3.1339667564153385E-02 a      1578     0    66     1    18
 -6.3879275527875853E-02 a      1579     0    66     1    19
 -2.6272469688197558E-02 a      1580     0    66     1    20
  1.1939524587110827E-01 a      1581     0    66     1    21
 -5.0270917334507552E-02 a      1582     0    66     1    22
  5.9401865904918263E-02 a      1583     0    66     1    23
  1.0219371051471833E-01 a      1584     0    66     1    24
 -2.0080191409062951E-02 a      1585     0    67     1     1
 -1.0859945780890784E-02 a      1586     0    67     1     2
  7.6426882527892329E-02 a      1587     0    67     1     3
 -1.7780003200828090E-01 a      1588     0    67     1     4
 -7.0583827412322206E-02 a      1589     0    67     1     5
 -8.0575091380062372E-02 a      1590     0    67     1     6
 -1.9759894003495182E-01 a      1591     0    67     1     7
 -2.0933283395427382E-02 a      1592     0    67     1     8
 -8.1672028334273783E-02 a      1593     0    67     1     9
  7.4859354854135515E-02 a      1594     0    67     1    10
 -1.0539877928790120E-01 a      1595     0    67     1    11
  1.1227293982906232E-01 a      1596     0    67     1    12
  1.7336358088799603E-02 a      1597     0    67     1    13
  1.2039617976312293E-01 a      1598     0    67     1    14
 -9.8805599835817701E-02 a      1599     0    67     1    15
 -2.2609199334516127E-02 a      1600     0    67     1    16
 -3.8774961017161644E-02 a      1601     0    67     1    17
 -1.8873205860667278E-01 a      1602     0    67     1    18
  7.4038608816916957E-02 a      1603     0    67     1    19
  2.1825682614707798E-01 a      1604     0    67     1    20
  4.8101713608836742E-02 a      1605     0    67     1    21
  6.7362826318482089E-02 a      1606     0    67     1    22
  4.0175065652909646E-02 a      1607     0    67     1    23
 -4.9829353176444977E-02 a      1608     0    67     1    24
 -1.8334864373835819E-01 a      1609     0    68     1     1
  5.3513079967442694E-02 a      1610     0    68     1     2
 -1.6643114930004618E-01 a      1611     0    68     1     3
  1.1609195103997313E-01 a      1612     0    68     1     4
  2.2346577520942257E-01 a      1613     0    68     1     5
 -4.3255802218311351E-02 a      1614     0    68     1     6
  8.3150357582228232E-03 a      1615     0    68     1     7
 -7.1946281677184629E-02 a      1616     0    68     1     8
  2.2167173190898021E-02 a      1617     0    68     1     9
 -1.3592019700537866E-01 a      1618     0    68     1    10
  1.1642336412686197E-01 a      1619     0    68     1    11
  4.8331148133812368E-02 a      1620     0    68     1    12
 -2.7858366675737465E-02 a      1621     0    68     1    13
 -9.2739710342295056E-02 a      1622     0    68     1    14
 -9.8021123820174871E-03 a      1623     0    68     1    15
