################################################################################
# Neural network connection values (weights and biases).
################################################################################
# Col  Name       Description
################################################################################
# 1    connection Neural network connection value.
# 2    t          Connection type (a = weight, b = bias).
# 3    index      Index enumerating weights.
# 4    l_s        Starting point layer (end point layer for biases).
# 5    n_s        Starting point neuron in starting layer (end point neuron for biases).
# 6    l_e        End point layer.
# 7    n_e        End point neuron in end layer.
################################################################################
#                      1 2         3     4     5     6     7
#             connection t     index   l_s   n_s   l_e   n_e
############################################################
 -1.2134845223964050E+00 a         1     0     1     1     1
 -4.3078723193531598E-01 a         2     0     1     1     2
  6.3055540234327884E-02 a         3     0     1     1     3
  1.3839962733690858E+00 a         4     0     1     1     4
 -1.1070445114917442E+00 a         5     0     1     1     5
  1.3262255391047506E-01 a         6     0     1     1     6
  1.7410020722509185E+00 a         7     0     1     1     7
 -1.1143040950034686E+00 a         8     0     1     1     8
  2.6781924612520064E-01 a         9     0     1     1     9
  3.3234873602758785E-01 a        10     0     1     1    10
 -9.0136307009769906E-02 a        11     0     1     1    11
  1.7581572315833689E+00 a        12     0     1     1    12
  1.3748863131075866E+00 a        13     0     1     1    13
  2.4514364746870523E-01 a        14     0     1     1    14
  5.8144673855947338E-01 a        15     0     1     1    15
 -4.9907633537241713E-01 a        16     0     1     1    16
  1.0463584289936538E+00 a        17     0     1     1    17
  1.1759798879749868E+00 a        18     0     1     1    18
  3.7310671124200057E-01 a        19     0     1     1    19
 -1.3730190926683308E+00 a        20     0     1     1    20
  2.2098979592677707E-02 a        21     0     1     1    21
  3.7561872270891816E-01 a        22     0     1     1    22
 -2.0459014980080517E-01 a        23     0     1     1    23
 -3.6813398152548799E-01 a        24     0     1     1    24
 -3.1106228977271881E-02 a        25     0     2     1     1
  1.8744863293439207E-01 a        26     0     2     1     2
  3.5706505899416141E-01 a        27     0     2     1     3
  3.1453244742069753E-01 a        28     0     2     1     4
  4.4955853416533592E-01 a        29     0     2     1     5
 -2.7735764426490334E-01 a        30     0     2     1     6
  7.2042400952368468E-01 a        31     0     2     1     7
 -4.5496312551300233E-01 a        32     0     2     1     8
  2.1735656971073802E-01 a        33     0     2     1     9
  6.5189589543330573E-01 a        34     0     2     1    10
  9.3667884635301554E-02 a        35     0     2     1    11
  6.0308431285225417E-01 a        36     0     2     1    12
  8.2030317561935262E-01 a        37     0     2     1    13
 -1.8591739075752176E-01 a        38     0     2     1    14
 -2.7539868528328654E-01 a        39     0     2     1    15
  3.2314533315154398E-01 a        40     0     2     1    16
 -6.3323480713672231E-01 a        41     0     2     1    17
 -7.4210137595927067E-02 a        42     0     2     1    18
  4.6604972152013829E-01 a        43     0     2     1    19
  4.9206404775928408E-01 a        44     0     2     1    20
  1.9589177133067989E-01 a        45     0     2     1    21
  3.4262679854668010E-01 a        46     0     2     1    22
  4.1340214556195914E-01 a        47     0     2     1    23
  3.2073389407543845E-01 a        48     0     2     1    24
  8.7676681899888220E-01 a        49     0     3     1     1
 -1.4148327394295890E-01 a        50     0     3     1     2
 -3.1389362772562035E-01 a        51     0     3     1     3
  6.4230522077996743E-01 a        52     0     3     1     4
  3.6126492028431012E-01 a        53     0     3     1     5
  4.4179644399964019E-01 a        54     0     3     1     6
 -2.0271234731951218E+00 a        55     0     3     1     7
 -4.6572892096295315E-01 a        56     0     3     1     8
 -3.5937520785967014E-01 a        57     0     3     1     9
 -5.2027172925986764E-01 a        58     0     3     1    10
 -5.8840723783020177E-01 a        59     0     3     1    11
 -5.1517480686468269E-02 a        60     0     3     1    12
 -7.4700542054449134E-02 a        61     0     3     1    13
  1.7390353182650017E-01 a        62     0     3     1    14
 -7.4089072262131361E-01 a        63     0     3     1    15
 -8.3593781971556358E-01 a        64     0     3     1    16
  7.1485712114539879E-01 a        65     0     3     1    17
 -1.6786902343957544E-01 a        66     0     3     1    18
 -1.5899746305317378E-01 a        67     0     3     1    19
 -1.1360823641071940E-01 a        68     0     3     1    20
  1.2495237527917193E+00 a        69     0     3     1    21
  2.5294691782503848E-01 a        70     0     3     1    22
 -2.0605087054531510E-01 a        71     0     3     1    23
  1.4838003470496222E-01 a        72     0     3     1    24
 -3.1060696780577995E-01 a        73     0     4     1     1
 -1.4587667699432810E-01 a        74     0     4     1     2
  8.9984086867671853E-01 a        75     0     4     1     3
  6.5732053711366825E-02 a        76     0     4     1     4
  6.2961745143346826E-01 a        77     0     4     1     5
  2.4084975738720527E-02 a        78     0     4     1     6
  4.1971196637118297E-01 a        79     0     4     1     7
 -1.6739324798348940E-01 a        80     0     4     1     8
  3.5228583395015539E-01 a        81     0     4     1     9
 -1.8977448275624517E-01 a        82     0     4     1    10
  9.8727528267526538E-02 a        83     0     4     1    11
 -7.6765175037389122E-01 a        84     0     4     1    12
  4.5288784172999597E-01 a        85     0     4     1    13
 -8.5059550639809467E-01 a        86     0     4     1    14
  2.9405360120556578E-01 a        87     0     4     1    15
 -4.4233776385283663E-01 a        88     0     4     1    16
  2.5368365700473633E-01 a        89     0     4     1    17
  3.2563749180081605E-02 a        90     0     4     1    18
 -6.9835860889556511E-01 a        91     0     4     1    19
 -2.6566258378756663E-01 a        92     0     4     1    20
  2.5229343108846292E-01 a        93     0     4     1    21
 -3.4543989188142599E-01 a        94     0     4     1    22
 -9.7603504294717508E-03 a        95     0     4     1    23
 -5.5130620880046977E-01 a        96     0     4     1    24
 -4.4768848494017477E-01 a        97     0     5     1     1
 -3.1382066952063176E-01 a        98     0     5     1     2
 -1.4766318364281272E-01 a        99     0     5     1     3
  2.6286995700053665E-02 a       100     0     5     1     4
  2.6732336354968073E-01 a       101     0     5     1     5
 -1.7711366306992893E-01 a       102     0     5     1     6
 -3.7758101146837746E-02 a       103     0     5     1     7
 -1.0434551953182504E-01 a       104     0     5     1     8
 -3.4108050101928244E-01 a       105     0     5     1     9
  3.4867534589549587E-01 a       106     0     5     1    10
 -5.5725075665283119E-01 a       107     0     5     1    11
  4.0090549983066953E-01 a       108     0     5     1    12
  2.2970930356659913E-01 a       109     0     5     1    13
  2.3947303232446537E-01 a       110     0     5     1    14
 -3.7001943390574649E-01 a       111     0     5     1    15
 -6.3838387734479662E-01 a       112     0     5     1    16
 -2.4969245721077138E-01 a       113     0     5     1    17
  4.8976218002048633E-01 a       114     0     5     1    18
  4.7033243751597370E-01 a       115     0     5     1    19
 -1.5532636857872309E-01 a       116     0     5     1    20
  3.7602198197106762E-01 a       117     0     5     1    21
 -1.1631269739789028E-01 a       118     0     5     1    22
 -2.1174395218118916E-01 a       119     0     5     1    23
  5.3838667730435530E-01 a       120     0     5     1    24
 -1.0165500685507201E-01 a       121     0     6     1     1
  5.5902826355345221E-02 a       122     0     6     1     2
  1.0441990437653413E-02 a       123     0     6     1     3
 -2.2014045058599771E-01 a       124     0     6     1     4
 -2.2125270862332214E-01 a       125     0     6     1     5
 -9.3875929142450659E-02 a       126     0     6     1     6
  2.9995170670991350E-01 a       127     0     6     1     7
 -3.6389078359933374E-01 a       128     0     6     1     8
 -1.3708768544770303E-01 a       129     0     6     1     9
  1.6203766738832751E-01 a       130     0     6     1    10
 -1.7913988855930146E-01 a       131     0     6     1    11
  2.4777497241209737E-01 a       132     0     6     1    12
 -1.6268347276943179E-01 a       133     0     6     1    13
  2.1370178384198774E-01 a       134     0     6     1    14
 -4.3636503425599965E-01 a       135     0     6     1    15
 -4.7751103586370414E-02 a       136     0     6     1    16
  3.3002365244491821E-01 a       137     0     6     1    17
  3.3453859498895955E-01 a       138     0     6     1    18
 -1.0946701539238285E-01 a       139     0     6     1    19
  1.1945369075203266E-01 a       140     0     6     1    20
 -1.1480036221366179E-01 a       141     0     6     1    21
 -2.0487352191805874E-01 a       142     0     6     1    22
 -3.7385029677555059E-01 a       143     0     6     1    23
  3.5246709230836321E-01 a       144     0     6     1    24
 -6.7922648709384081E-02 a       145     0     7     1     1
 -1.2041112159030797E-01 a       146     0     7     1     2
  1.3017233082630544E-01 a       147     0     7     1     3
  1.4786213805340492E-01 a       148     0     7     1     4
  1.6961576619530955E-01 a       149     0     7     1     5
  2.1692427079989411E-02 a       150     0     7     1     6
 -1.0620571201604062E-01 a       151     0     7     1     7
 -2.4457423124439481E-01 a       152     0     7     1     8
 -6.8396914755965488E-02 a       153     0     7     1     9
 -1.5957742620912002E-01 a       154     0     7     1    10
  2.6074747273810973E-02 a       155     0     7     1    11
  3.4836462409289887E-01 a       156     0     7     1    12
 -5.4211960403178997E-03 a       157     0     7     1    13
 -2.4780133608684271E-01 a       158     0     7     1    14
 -1.1239189077196568E-01 a       159     0     7     1    15
 -4.3595182931958054E-01 a       160     0     7     1    16
  3.1187757649165748E-01 a       161     0     7     1    17
 -3.1441235048311512E-02 a       162     0     7     1    18
  3.7411009434974674E-01 a       163     0     7     1    19
  1.4632758023606418E-01 a       164     0     7     1    20
  2.6708956077283819E-01 a       165     0     7     1    21
  4.9023884752157194E-02 a       166     0     7     1    22
 -7.4346971472643783E-03 a       167     0     7     1    23
  1.1424192283358123E-01 a       168     0     7     1    24
 -1.9543405789000853E-01 a       169     0     8     1     1
 -2.8888741467470863E-01 a       170     0     8     1     2
 -8.2105791654289301E-02 a       171     0     8     1     3
  3.2108474935480844E-02 a       172     0     8     1     4
 -1.2983374323369951E-01 a       173     0     8     1     5
  8.0948190522406829E-02 a       174     0     8     1     6
 -2.8065515672982155E-01 a       175     0     8     1     7
  3.7874863351785942E-01 a       176     0     8     1     8
 -6.5917783311076519E-02 a       177     0     8     1     9
  2.1225720316044749E-01 a       178     0     8     1    10
  5.4350951610703184E-02 a       179     0     8     1    11
 -1.4627979437933233E-01 a       180     0     8     1    12
 -4.6153984424244371E-01 a       181     0     8     1    13
 -1.3859148921205899E-01 a       182     0     8     1    14
  2.2708095533112452E-01 a       183     0     8     1    15
 -1.2722819751542613E-01 a       184     0     8     1    16
  3.1855864154793773E-01 a       185     0     8     1    17
  1.6964139469054007E-01 a       186     0     8     1    18
  5.2636536343287389E-02 a       187     0     8     1    19
 -3.4929926309364756E-01 a       188     0     8     1    20
 -4.9469358188005041E-01 a       189     0     8     1    21
 -5.3703413832839553E-01 a       190     0     8     1    22
 -3.4638438569691599E-01 a       191     0     8     1    23
 -3.5286765943347825E-01 a       192     0     8     1    24
 -3.9439049217718375E-02 a       193     0     9     1     1
  6.9578895161343121E-02 a       194     0     9     1     2
  2.3620350905261434E-01 a       195     0     9     1     3
  1.1033777529824057E-01 a       196     0     9     1     4
  1.5099038168941953E-01 a       197     0     9     1     5
 -2.0342564059306137E-01 a       198     0     9     1     6
  4.0299515280381747E-02 a       199     0     9     1     7
  2.2239791842722950E-03 a       200     0     9     1     8
  3.3768505467472271E-01 a       201     0     9     1     9
  1.6749313266102031E-02 a       202     0     9     1    10
  4.0879695080939943E-02 a       203     0     9     1    11
 -1.7809526238971637E-01 a       204     0     9     1    12
  7.0055484269367876E-02 a       205     0     9     1    13
  7.0579994105929619E-02 a       206     0     9     1    14
  2.5467935175493500E-01 a       207     0     9     1    15
 -6.4426016930611337E-03 a       208     0     9     1    16
  4.5586056140997540E-02 a       209     0     9     1    17
 -1.9906684688975598E-01 a       210     0     9     1    18
 -1.7599280162599173E-01 a       211     0     9     1    19
 -1.4899720833310873E-01 a       212     0     9     1    20
 -7.7692869501945386E-02 a       213     0     9     1    21
  1.5782302674102391E-01 a       214     0     9     1    22
 -1.5342732823164265E-02 a       215     0     9     1    23
  7.0170821478139564E-02 a       216     0     9     1    24
 -1.1284638045115797E-01 a       217     0    10     1     1
  4.2550646431037238E-02 a       218     0    10     1     2
  5.8922976144719763E-01 a       219     0    10     1     3
  3.8437295848188092E-02 a       220     0    10     1     4
  8.4195639301856987E-02 a       221     0    10     1     5
 -2.7385067690904780E-01 a       222     0    10     1     6
 -4.4430227566038866E-01 a       223     0    10     1     7
 -1.0274559151862861E-01 a       224     0    10     1     8
  2.5617610438145894E-01 a       225     0    10     1     9
  1.2898110623633446E-01 a       226     0    10     1    10
  1.3643840631940823E-01 a       227     0    10     1    11
  2.2956748512049399E-01 a       228     0    10     1    12
  1.0757736608515833E-01 a       229     0    10     1    13
  1.2189642170062551E-01 a       230     0    10     1    14
  4.9017072224839940E-02 a       231     0    10     1    15
 -2.0068123307505334E-01 a       232     0    10     1    16
 -3.5767001289627959E-01 a       233     0    10     1    17
  5.0049714424241311E-02 a       234     0    10     1    18
 -8.7698202007658321E-02 a       235     0    10     1    19
  1.5420187587328879E-01 a       236     0    10     1    20
  1.9029444022762682E-01 a       237     0    10     1    21
 -1.7117822815413136E-01 a       238     0    10     1    22
  6.0566353297313837E-02 a       239     0    10     1    23
  1.2959027473875553E-01 a       240     0    10     1    24
  3.9168402637867319E-02 a       241     0    11     1     1
  1.1167112153512257E-01 a       242     0    11     1     2
 -1.6150382856859929E-01 a       243     0    11     1     3
 -2.1759463790074113E-02 a       244     0    11     1     4
 -1.3619762507243405E-01 a       245     0    11     1     5
 -6.7002015583253999E-02 a       246     0    11     1     6
 -9.2590164342199313E-02 a       247     0    11     1     7
 -6.9207645409364235E-03 a       248     0    11     1     8
  1.6522267098978494E-01 a       249     0    11     1     9
 -9.0477422331891155E-02 a       250     0    11     1    10
  4.2589931746084199E-02 a       251     0    11     1    11
  6.3352777856123893E-02 a       252     0    11     1    12
  5.8523737814130915E-03 a       253     0    11     1    13
 -4.0262459931165485E-03 a       254     0    11     1    14
  1.2016433943127960E-03 a       255     0    11     1    15
  7.7781207932851759E-02 a       256     0    11     1    16
  4.8498831261908938E-02 a       257     0    11     1    17
 -1.1326460590474151E-01 a       258     0    11     1    18
  2.9682156344471262E-02 a       259     0    11     1    19
 -1.8993553749553030E-01 a       260     0    11     1    20
 -2.9251785607792552E-01 a       261     0    11     1    21
  2.8173196326724537E-02 a       262     0    11     1    22
 -8.6519610100131386E-02 a       263     0    11     1    23
 -5.2105426547038806E-02 a       264     0    11     1    24
 -1.5078217843780262E-01 a       265     0    12     1     1
  1.6959479202206124E-01 a       266     0    12     1     2
 -3.4583269544226625E-01 a       267     0    12     1     3
  1.1119131134412233E-01 a       268     0    12     1     4
 -1.8014773189560876E-01 a       269     0    12     1     5
 -4.3016025917854396E-02 a       270     0    12     1     6
 -1.0092642952987115E-01 a       271     0    12     1     7
  1.0170192051298303E-03 a       272     0    12     1     8
  2.1624465500013565E-01 a       273     0    12     1     9
 -2.5710617257466439E-01 a       274     0    12     1    10
  8.5421069423104942E-02 a       275     0    12     1    11
  2.1606635006747521E-01 a       276     0    12     1    12
  5.0427771635551961E-02 a       277     0    12     1    13
 -5.0335880836911484E-02 a       278     0    12     1    14
 -1.3785530090958747E-01 a       279     0    12     1    15
 -1.1996786301694948E-01 a       280     0    12     1    16
 -3.4235833760683884E-02 a       281     0    12     1    17
 -6.1770338905649265E-02 a       282     0    12     1    18
 -1.8749148035473881E-01 a       283     0    12     1    19
 -9.3516585703273786E-02 a       284     0    12     1    20
 -4.7823194240280607E-02 a       285     0    12     1    21
  6.0361420833927506E-03 a       286     0    12     1    22
 -3.4617612487902009E-02 a       287     0    12     1    23
  1.8179703798095503E-01 a       288     0    12     1    24
  8.7416816490953619E-02 a       289     0    13     1     1
 -4.0426191980133516E-02 a       290     0    13     1     2
  1.0484388277375273E-01 a       291     0    13     1     3
  3.4132572917436316E-01 a       292     0    13     1     4
 -5.8939750634969819E-02 a       293     0    13     1     5
  9.9834130961442297E-03 a       294     0    13     1     6
 -1.5888333805279548E-01 a       295     0    13     1     7
 -1.7491704129436264E-01 a       296     0    13     1     8
 -4.7353649890303501E-01 a       297     0    13     1     9
 -1.3130712210945270E-01 a       298     0    13     1    10
 -1.3445242819134037E-01 a       299     0    13     1    11
  3.8781222654649583E-01 a       300     0    13     1    12
 -1.1408214070959648E-01 a       301     0    13     1    13
  3.2594752960919759E-01 a       302     0    13     1    14
 -1.2999197834279419E-01 a       303     0    13     1    15
 -6.7953503389844860E-01 a       304     0    13     1    16
  2.7674848152867648E-01 a       305     0    13     1    17
  2.3396422512174716E-02 a       306     0    13     1    18
  3.6893304548027273E-01 a       307     0    13     1    19
  1.4933551537615181E-01 a       308     0    13     1    20
  4.7326260551086929E-01 a       309     0    13     1    21
  8.4835736663273181E-02 a       310     0    13     1    22
 -5.4636420886111777E-03 a       311     0    13     1    23
  1.7460413678467215E-01 a       312     0    13     1    24
 -8.7979355545149976E-02 a       313     0    14     1     1
 -1.2218445089161406E-01 a       314     0    14     1     2
  2.2529006154341086E-01 a       315     0    14     1     3
  1.8655322878830960E-01 a       316     0    14     1     4
  1.4211805611756823E-01 a       317     0    14     1     5
  7.2018493407777134E-02 a       318     0    14     1     6
  2.0906443822148507E-01 a       319     0    14     1     7
  4.0882419446802300E-02 a       320     0    14     1     8
 -2.8763415986505118E-02 a       321     0    14     1     9
 -1.7621374228949899E-01 a       322     0    14     1    10
 -8.2962143984221942E-02 a       323     0    14     1    11
 -2.3352247034110774E-01 a       324     0    14     1    12
  3.1404970530004080E-02 a       325     0    14     1    13
  4.5418668780881348E-02 a       326     0    14     1    14
  1.7482910965461418E-01 a       327     0    14     1    15
  4.2114384910418828E-02 a       328     0    14     1    16
 -1.4913648959543535E-01 a       329     0    14     1    17
  9.0708575507665978E-02 a       330     0    14     1    18
  1.0895958051282203E-02 a       331     0    14     1    19
  1.9625504945425684E-02 a       332     0    14     1    20
  2.2263846345339369E-01 a       333     0    14     1    21
  1.3655223292504343E-01 a       334     0    14     1    22
  1.1950865485525243E-01 a       335     0    14     1    23
 -1.1227042319454353E-01 a       336     0    14     1    24
 -2.4146693843300823E-01 a       337     0    15     1     1
 -1.9303460572179929E-01 a       338     0    15     1     2
  4.6507590766134371E-01 a       339     0    15     1     3
  9.7535728411179329E-02 a       340     0    15     1     4
  2.3633822725229712E-02 a       341     0    15     1     5
 -2.6196558502589795E-01 a       342     0    15     1     6
 -1.8870281092388747E-01 a       343     0    15     1     7
  2.8055066175886489E-02 a       344     0    15     1     8
  2.6731689394231883E-01 a       345     0    15     1     9
  4.1321134992034200E-02 a       346     0    15     1    10
  1.0115671891381954E-01 a       347     0    15     1    11
 -1.4042111288063258E-01 a       348     0    15     1    12
  1.0788133509160244E-01 a       349     0    15     1    13
 -1.1310843138476159E-01 a       350     0    15     1    14
  2.7597287123579078E-01 a       351     0    15     1    15
 -2.1062698502804138E-03 a       352     0    15     1    16
 -3.2490829674702232E-01 a       353     0    15     1    17
 -7.4654867340017902E-02 a       354     0    15     1    18
 -9.7454472462945432E-02 a       355     0    15     1    19
 -7.2716359385709417E-02 a       356     0    15     1    20
  2.3278075003128507E-01 a       357     0    15     1    21
 -2.9914307598579931E-01 a       358     0    15     1    22
  5.0833729631847659E-02 a       359     0    15     1    23
 -1.3651672677917118E-01 a       360     0    15     1    24
 -5.5877751328525120E-02 a       361     0    16     1     1
  1.6354138363130757E-01 a       362     0    16     1     2
  1.8559844694741504E-01 a       363     0    16     1     3
  2.8890171638110479E-03 a       364     0    16     1     4
  1.3213659469092681E-01 a       365     0    16     1     5
  2.8711372998451568E-01 a       366     0    16     1     6
 -1.7769858320458201E-02 a       367     0    16     1     7
 -3.2180313612714095E-01 a       368     0    16     1     8
 -1.8374862038270531E-01 a       369     0    16     1     9
 -2.6591066029191346E-01 a       370     0    16     1    10
 -6.1349959919369132E-02 a       371     0    16     1    11
  1.2824244105773996E-01 a       372     0    16     1    12
  3.2876779146984025E-01 a       373     0    16     1    13
  4.4475962329063856E-01 a       374     0    16     1    14
  4.5548824988078704E-02 a       375     0    16     1    15
 -1.2726539754071478E-01 a       376     0    16     1    16
 -4.2594241526453464E-01 a       377     0    16     1    17
 -3.5478019916017388E-03 a       378     0    16     1    18
 -1.4240543115757523E-01 a       379     0    16     1    19
  2.6799875069651008E-01 a       380     0    16     1    20
  6.4733244141916901E-01 a       381     0    16     1    21
  4.3798371596671820E-01 a       382     0    16     1    22
  1.6320429792063010E-01 a       383     0    16     1    23
  4.0025879335402431E-01 a       384     0    16     1    24
  3.5033490270324215E-02 a       385     0    17     1     1
  3.3383220634473920E-01 a       386     0    17     1     2
  2.4295622084940324E-01 a       387     0    17     1     3
  3.4238345826247386E-02 a       388     0    17     1     4
  1.3574977401924468E-01 a       389     0    17     1     5
 -1.1190094613264021E-01 a       390     0    17     1     6
 -2.3799261904770883E-01 a       391     0    17     1     7
 -7.7888944594247958E-02 a       392     0    17     1     8
  2.1801789865186164E-01 a       393     0    17     1     9
 -2.6080155776336721E-02 a       394     0    17     1    10
  6.5440888719886514E-02 a       395     0    17     1    11
 -1.8603183434145190E-01 a       396     0    17     1    12
  1.3492232641831881E-01 a       397     0    17     1    13
 -2.5495646787624227E-02 a       398     0    17     1    14
 -1.4848574772172382E-01 a       399     0    17     1    15
 -1.5446371873659295E-01 a       400     0    17     1    16
  6.4319129667856689E-02 a       401     0    17     1    17
 -2.4859514962592275E-01 a       402     0    17     1    18
 -2.9574369986784432E-01 a       403     0    17     1    19
  5.1891104086646274E-02 a       404     0    17     1    20
 -5.1341560010161255E-02 a       405     0    17     1    21
 -1.3344618194546587E-01 a       406     0    17     1    22
 -6.4352356545045244E-02 a       407     0    17     1    23
  1.0453276768678350E-01 a       408     0    17     1    24
  4.7813492749584935E-01 a       409     0    18     1     1
 -2.2883416777144003E-01 a       410     0    18     1     2
  2.2366312635557389E-01 a       411     0    18     1     3
 -8.7447333512393233E-01 a       412     0    18     1     4
 -3.8733461809601777E-01 a       413     0    18     1     5
  7.7571078497117821E-02 a       414     0    18     1     6
  1.5638139433914450E-01 a       415     0    18     1     7
  6.2276216312879296E-01 a       416     0    18     1     8
 -4.9617761324712328E-01 a       417     0    18     1     9
 -7.2108800757665104E-01 a       418     0    18     1    10
 -4.6190846880494524E-01 a       419     0    18     1    11
 -5.7186534987578808E-01 a       420     0    18     1    12
  2.4472149197819024E-01 a       421     0    18     1    13
 -7.3399230837087659E-01 a       422     0    18     1    14
 -2.0539286723777989E-01 a       423     0    18     1    15
  1.3350135190149908E+00 a       424     0    18     1    16
  3.8594357921325845E-01 a       425     0    18     1    17
  2.7243337244227639E-01 a       426     0    18     1    18
  3.9138691462053010E-01 a       427     0    18     1    19
 -7.0824684587535747E-01 a       428     0    18     1    20
  1.2325184765321780E-01 a       429     0    18     1    21
 -2.7712779142425792E-01 a       430     0    18     1    22
 -3.3105471599341324E-01 a       431     0    18     1    23
 -6.3181439647172122E-01 a       432     0    18     1    24
  3.2628626903227889E-02 a       433     0    19     1     1
 -3.6864095401930197E-02 a       434     0    19     1     2
  3.0944970612535022E-01 a       435     0    19     1     3
  1.0386768831408690E-01 a       436     0    19     1     4
  2.0153906313488476E-01 a       437     0    19     1     5
 -4.9826046124410539E-01 a       438     0    19     1     6
 -1.1034042963932568E-01 a       439     0    19     1     7
 -6.3486380097598688E-02 a       440     0    19     1     8
  4.2075919601301115E-01 a       441     0    19     1     9
 -3.1551574100761172E-03 a       442     0    19     1    10
  3.0195928345164855E-02 a       443     0    19     1    11
 -7.2676137735209173E-02 a       444     0    19     1    12
  4.4732209383040213E-03 a       445     0    19     1    13
 -8.3399289232379201E-02 a       446     0    19     1    14
 -8.0585719738424239E-02 a       447     0    19     1    15
  2.6301384333754858E-02 a       448     0    19     1    16
 -2.9164914311092954E-01 a       449     0    19     1    17
 -9.9778814806717256E-02 a       450     0    19     1    18
  1.9103039126243637E-01 a       451     0    19     1    19
 -5.3758575253536840E-02 a       452     0    19     1    20
  1.5420449124702706E-01 a       453     0    19     1    21
 -1.6476782864554471E-01 a       454     0    19     1    22
 -8.9141349604887080E-02 a       455     0    19     1    23
 -1.9514611255704594E-02 a       456     0    19     1    24
 -2.5413066418422164E-01 a       457     0    20     1     1
 -6.4907646555005361E-02 a       458     0    20     1     2
 -7.8515667552136681E-01 a       459     0    20     1     3
 -2.9117273637681179E-01 a       460     0    20     1     4
 -1.6493028664849108E-01 a       461     0    20     1     5
  4.1931091775923152E-01 a       462     0    20     1     6
  2.8312971976277634E-01 a       463     0    20     1     7
  1.9202749159512804E-02 a       464     0    20     1     8
  1.2113880807778918E-01 a       465     0    20     1     9
  2.3670421846031009E-01 a       466     0    20     1    10
 -3.0718244483574002E-02 a       467     0    20     1    11
 -5.5096808354128654E-02 a       468     0    20     1    12
 -1.2528590054510311E-01 a       469     0    20     1    13
 -3.7491570059183271E-01 a       470     0    20     1    14
  7.5374210107911985E-03 a       471     0    20     1    15
  7.9108208664225091E-03 a       472     0    20     1    16
 -7.3607707870428085E-04 a       473     0    20     1    17
 -1.4117781706804183E-01 a       474     0    20     1    18
 -2.2008723619152001E-01 a       475     0    20     1    19
  1.2035880422952251E-01 a       476     0    20     1    20
 -6.6195251387673248E-01 a       477     0    20     1    21
  3.0907953145471767E-01 a       478     0    20     1    22
  1.1406329317726903E-01 a       479     0    20     1    23
  3.4426463689622799E-01 a       480     0    20     1    24
  1.5075102934894016E-01 a       481     0    21     1     1
  7.4043842473569363E-02 a       482     0    21     1     2
  1.0554563480034296E-01 a       483     0    21     1     3
  9.5499650659014043E-02 a       484     0    21     1     4
 -8.1497675497135005E-02 a       485     0    21     1     5
 -1.3718916785953209E-01 a       486     0    21     1     6
  7.1809291198463882E-02 a       487     0    21     1     7
 -4.7647006791764460E-04 a       488     0    21     1     8
 -2.2930564167754483E-01 a       489     0    21     1     9
 -1.9810627492786486E-02 a       490     0    21     1    10
  9.5335378748433133E-02 a       491     0    21     1    11
 -3.0908486494943585E-02 a       492     0    21     1    12
 -2.8146917707870395E-02 a       493     0    21     1    13
  4.5239503005559761E-01 a       494     0    21     1    14
  7.9503312699660197E-02 a       495     0    21     1    15
  1.4213592618476445E-01 a       496     0    21     1    16
  1.8304384028961274E-02 a       497     0    21     1    17
  3.1370470630904736E-02 a       498     0    21     1    18
 -9.3169612771587876E-02 a       499     0    21     1    19
 -1.0582573170329609E-01 a       500     0    21     1    20
 -5.7312617915511614E-02 a       501     0    21     1    21
 -2.8743146711450167E-02 a       502     0    21     1    22
  2.7818723154245092E-02 a       503     0    21     1    23
 -4.1837852528150282E-04 a       504     0    21     1    24
  2.3079963814859097E-01 a       505     0    22     1     1
  1.8789352296920153E-01 a       506     0    22     1     2
 -1.7622378299516778E-01 a       507     0    22     1     3
  1.4848183456655245E-01 a       508     0    22     1     4
  3.3859888269538302E-01 a       509     0    22     1     5
  2.0371668822093385E-02 a       510     0    22     1     6
  2.7082268077257188E-01 a       511     0    22     1     7
  6.1239957212430460E-02 a       512     0    22     1     8
  7.8248584245891636E-02 a       513     0    22     1     9
  7.0286026586941031E-01 a       514     0    22     1    10
  1.3880714568434618E-03 a       515     0    22     1    11
 -7.9939429418412630E-02 a       516     0    22     1    12
 -1.8401565520248192E-01 a       517     0    22     1    13
  4.0220542099978964E-03 a       518     0    22     1    14
 -1.8038391354320152E-01 a       519     0    22     1    15
  2.0822027658751560E-02 a       520     0    22     1    16
  2.0886714277686508E-01 a       521     0    22     1    17
  1.0990616176808096E-01 a       522     0    22     1    18
  1.8613909022343111E-01 a       523     0    22     1    19
  1.1580606218930702E-01 a       524     0    22     1    20
 -4.0708422521260079E-01 a       525     0    22     1    21
 -3.3487554506321232E-01 a       526     0    22     1    22
 -1.7968042877486717E-01 a       527     0    22     1    23
 -1.7305826114025621E-01 a       528     0    22     1    24
  1.3934277398877270E-02 a       529     0    23     1     1
  1.0027447570506154E-01 a       530     0    23     1     2
 -5.5472639957930218E-02 a       531     0    23     1     3
  4.2015276831873088E-02 a       532     0    23     1     4
 -1.6993631657538497E-01 a       533     0    23     1     5
 -1.7494917058024920E-01 a       534     0    23     1     6
 -3.4628932103820433E-02 a       535     0    23     1     7
 -6.5229124267048397E-02 a       536     0    23     1     8
 -1.1203504735434892E-01 a       537     0    23     1     9
 -1.3157049704115700E-01 a       538     0    23     1    10
  9.0055621914063549E-02 a       539     0    23     1    11
 -1.7696031631336238E-02 a       540     0    23     1    12
  8.0716118414707796E-03 a       541     0    23     1    13
  3.3646287689758048E-01 a       542     0    23     1    14
  6.2955039262216114E-02 a       543     0    23     1    15
  1.4668631032866020E-01 a       544     0    23     1    16
 -4.8626688796882332E-02 a       545     0    23     1    17
 -1.2131294938100334E-01 a       546     0    23     1    18
 -1.4645651913712274E-01 a       547     0    23     1    19
 -8.7628796555248550E-02 a       548     0    23     1    20
 -7.8662485305887972E-02 a       549     0    23     1    21
  1.8076812174502993E-02 a       550     0    23     1    22
  7.3444356920773654E-02 a       551     0    23     1    23
  1.5598787698943781E-02 a       552     0    23     1    24
 -7.4687095010962357E-01 a       553     0    24     1     1
 -3.2752651713378178E-01 a       554     0    24     1     2
  2.0178833332302451E-01 a       555     0    24     1     3
 -2.5273117469971546E-01 a       556     0    24     1     4
  6.4948592282102280E-01 a       557     0    24     1     5
  7.0367596556719147E-01 a       558     0    24     1     6
  2.6459807442254922E-02 a       559     0    24     1     7
 -5.2390060286916884E-01 a       560     0    24     1     8
  2.1371068950974120E-01 a       561     0    24     1     9
 -1.0898203960321315E-01 a       562     0    24     1    10
 -9.7219462172539461E-02 a       563     0    24     1    11
  6.9059978450716236E-02 a       564     0    24     1    12
  7.3248011703435323E-01 a       565     0    24     1    13
  3.6040741417188070E-02 a       566     0    24     1    14
 -3.6690150969520891E-01 a       567     0    24     1    15
 -1.9817623534244322E-01 a       568     0    24     1    16
  8.2639671922106295E-01 a       569     0    24     1    17
 -5.8622051913705800E-02 a       570     0    24     1    18
 -9.6771571179450400E-02 a       571     0    24     1    19
  4.1301964796138591E-01 a       572     0    24     1    20
  4.4862362049944021E-01 a       573     0    24     1    21
  4.9758446493468095E-01 a       574     0    24     1    22
 -4.3446648729564677E-02 a       575     0    24     1    23
 -2.4538406628986598E-01 a       576     0    24     1    24
  1.5221874765829885E-01 a       577     0    25     1     1
  3.9848572473918098E-02 a       578     0    25     1     2
 -9.8453496957638986E-01 a       579     0    25     1     3
 -5.9026644381326221E-01 a       580     0    25     1     4
  1.1587161009927235E-02 a       581     0    25     1     5
 -7.4645323242140627E-01 a       582     0    25     1     6
 -4.3996576114221209E-01 a       583     0    25     1     7
  7.7195411118615154E-01 a       584     0    25     1     8
 -4.9441867722147836E-01 a       585     0    25     1     9
  8.5393028676787469E-02 a       586     0    25     1    10
  1.2135415533904513E-02 a       587     0    25     1    11
 -4.0861858015270142E-01 a       588     0    25     1    12
 -4.3001796586745977E-01 a       589     0    25     1    13
 -3.5667412438405044E-01 a       590     0    25     1    14
 -2.9233157638254464E-01 a       591     0    25     1    15
 -3.7233031033276515E-01 a       592     0    25     1    16
 -8.8160480805188679E-02 a       593     0    25     1    17
 -7.6717228552243832E-02 a       594     0    25     1    18
 -4.1655452695500406E-01 a       595     0    25     1    19
 -4.8921498765377054E-02 a       596     0    25     1    20
 -2.8740640491920905E-01 a       597     0    25     1    21
  4.2148713632161916E-01 a       598     0    25     1    22
  3.1644476130168636E-01 a       599     0    25     1    23
  6.2567035120600156E-01 a       600     0    25     1    24
 -6.3217699497514512E-01 a       601     0    26     1     1
 -5.1895913196527962E-02 a       602     0    26     1     2
  8.7753150140765435E-01 a       603     0    26     1     3
  9.2575190028693924E-02 a       604     0    26     1     4
 -6.3901623882077927E-03 a       605     0    26     1     5
 -1.0035914845269274E-01 a       606     0    26     1     6
  3.3871964273686828E-01 a       607     0    26     1     7
 -9.3461886665293414E-01 a       608     0    26     1     8
  4.7026172428431251E-01 a       609     0    26     1     9
  4.9469440669904696E-01 a       610     0    26     1    10
 -6.2072607401947436E-02 a       611     0    26     1    11
 -4.8741271783346762E-01 a       612     0    26     1    12
  6.1679132444091989E-01 a       613     0    26     1    13
 -1.0709063752139301E-01 a       614     0    26     1    14
  7.2008934829653803E-01 a       615     0    26     1    15
  9.8447945303496071E-02 a       616     0    26     1    16
 -1.6986137461527021E-01 a       617     0    26     1    17
  4.0276659256888211E-02 a       618     0    26     1    18
  9.9175843539193953E-02 a       619     0    26     1    19
 -3.0489987504964911E-01 a       620     0    26     1    20
 -5.6993467949037124E-01 a       621     0    26     1    21
 -2.3512174254546422E-01 a       622     0    26     1    22
 -4.8696916142666818E-01 a       623     0    26     1    23
 -9.4748859708086464E-01 a       624     0    26     1    24
 -6.0962230331891054E-01 a       625     0    27     1     1
 -2.0614256130213154E-01 a       626     0    27     1     2
  3.2251809489890210E-01 a       627     0    27     1     3
 -5.3248759528741108E-01 a       628     0    27     1     4
  1.2734136082013564E-01 a       629     0    27     1     5
  9.7116358915871559E-02 a       630     0    27     1     6
 -5.0799699848633501E-02 a       631     0    27     1     7
  3.3244330199595917E-01 a       632     0    27     1     8
 -5.6482892545666497E-01 a       633     0    27     1     9
  2.7387751428500251E-01 a       634     0    27     1    10
 -3.4292096497424773E-01 a       635     0    27     1    11
 -3.9615543811780740E-01 a       636     0    27     1    12
  1.0221783082180603E-02 a       637     0    27     1    13
 -2.0151177900990616E-01 a       638     0    27     1    14
 -2.6305002714590988E-02 a       639     0    27     1    15
 -3.4949656828099385E-01 a       640     0    27     1    16
 -3.6768774344621918E-02 a       641     0    27     1    17
 -6.5917474651246311E-02 a       642     0    27     1    18
 -7.3605712060300565E-01 a       643     0    27     1    19
  6.5284915167192492E-01 a       644     0    27     1    20
  2.3066444352655444E-01 a       645     0    27     1    21
 -4.0722114505503243E-01 a       646     0    27     1    22
  5.3709292821095811E-01 a       647     0    27     1    23
  3.3926622572345738E-01 a       648     0    27     1    24
  2.9969581587336069E-01 a       649     0    28     1     1
  8.1887173399158875E-01 a       650     0    28     1     2
  1.3503070226739153E-01 a       651     0    28     1     3
  4.9340678926851123E-01 a       652     0    28     1     4
  1.4240144535092658E-01 a       653     0    28     1     5
 -4.5954668655882680E-01 a       654     0    28     1     6
 -5.7901253996371993E-01 a       655     0    28     1     7
 -1.1986523669513972E-01 a       656     0    28     1     8
 -4.2581051074441972E-01 a       657     0    28     1     9
  5.6879389590132640E-02 a       658     0    28     1    10
 -1.1740357667324501E-01 a       659     0    28     1    11
  1.4628465641546828E-01 a       660     0    28     1    12
 -5.3917959573865970E-01 a       661     0    28     1    13
  1.5521396470011769E-02 a       662     0    28     1    14
 -3.3689135374225443E-01 a       663     0    28     1    15
  3.9751511880593993E-03 a       664     0    28     1    16
 -3.6498208802240661E-01 a       665     0    28     1    17
 -2.3196510473144864E-02 a       666     0    28     1    18
  1.5005468907167421E-01 a       667     0    28     1    19
 -6.9003060714711861E-01 a       668     0    28     1    20
 -5.8670640993810641E-01 a       669     0    28     1    21
  2.7742360328356377E-02 a       670     0    28     1    22
  9.3313720761139154E-02 a       671     0    28     1    23
  1.5245203074884231E-01 a       672     0    28     1    24
  7.1739864137981368E-01 a       673     0    29     1     1
 -1.9704572700599388E-01 a       674     0    29     1     2
  5.4247567135269492E-01 a       675     0    29     1     3
  1.8555673318812252E-01 a       676     0    29     1     4
  6.3110405514780099E-01 a       677     0    29     1     5
 -1.1550019901469545E-01 a       678     0    29     1     6
 -1.0729817142294198E-01 a       679     0    29     1     7
 -2.5263751334209167E-01 a       680     0    29     1     8
 -4.4468641727947372E-01 a       681     0    29     1     9
 -5.0098157127412457E-01 a       682     0    29     1    10
  1.8899775280894532E-01 a       683     0    29     1    11
 -3.3138087729298332E-01 a       684     0    29     1    12
  4.4660590947646578E-01 a       685     0    29     1    13
  3.7407944807885352E-01 a       686     0    29     1    14
  5.3915599229929787E-03 a       687     0    29     1    15
 -5.8469986841969179E-01 a       688     0    29     1    16
  3.3518481030562919E-01 a       689     0    29     1    17
  4.2748825717186573E-01 a       690     0    29     1    18
 -2.9294726787839087E-01 a       691     0    29     1    19
  2.0294092163362237E-01 a       692     0    29     1    20
  3.1559638307570453E-01 a       693     0    29     1    21
  3.0727206240683674E-01 a       694     0    29     1    22
  6.3654642184795565E-02 a       695     0    29     1    23
  1.7376111844040226E-02 a       696     0    29     1    24
  1.7141260568163527E-01 a       697     0    30     1     1
  8.3801224300232083E-02 a       698     0    30     1     2
  6.1797225664536881E-02 a       699     0    30     1     3
 -1.0382179964491881E-01 a       700     0    30     1     4
 -2.9330822961939607E-01 a       701     0    30     1     5
 -2.3431083074769807E-01 a       702     0    30     1     6
  8.6399531715234165E-02 a       703     0    30     1     7
 -1.5266697399537851E-01 a       704     0    30     1     8
 -4.1053262162209274E-02 a       705     0    30     1     9
 -5.3830590368264664E-01 a       706     0    30     1    10
 -2.9832883955473338E-01 a       707     0    30     1    11
  2.4595415495507417E-01 a       708     0    30     1    12
  6.7502786333562534E-02 a       709     0    30     1    13
 -3.4892723241104782E-02 a       710     0    30     1    14
  1.8476223896183902E-01 a       711     0    30     1    15
  2.5482957395697159E-01 a       712     0    30     1    16
 -3.3736912849595582E-02 a       713     0    30     1    17
 -1.2320649124864408E-01 a       714     0    30     1    18
  1.1750378918787636E-03 a       715     0    30     1    19
 -1.5944069022813699E-03 a       716     0    30     1    20
 -2.0657338219114507E-01 a       717     0    30     1    21
 -3.8298743432289400E-01 a       718     0    30     1    22
  4.5686489995869850E-01 a       719     0    30     1    23
 -1.5891414472980497E-01 a       720     0    30     1    24
  2.4904905256051196E-01 a       721     0    31     1     1
  1.9179118521281038E-01 a       722     0    31     1     2
  7.8142073802603268E-03 a       723     0    31     1     3
  1.7692535029183656E-01 a       724     0    31     1     4
 -4.6807575736071411E-01 a       725     0    31     1     5
 -5.1443407203076585E-01 a       726     0    31     1     6
 -2.2458539845643680E-01 a       727     0    31     1     7
  1.0081504791808373E-01 a       728     0    31     1     8
  5.9937230372775085E-01 a       729     0    31     1     9
 -4.6070660992260681E-01 a       730     0    31     1    10
 -1.3024292802682538E+00 a       731     0    31     1    11
 -1.1597759309450374E-01 a       732     0    31     1    12
 -1.7344374073408678E-01 a       733     0    31     1    13
 -1.4760755566446654E-01 a       734     0    31     1    14
 -2.1209869106062604E-01 a       735     0    31     1    15
 -1.2752950840835989E-03 a       736     0    31     1    16
 -5.6803224244461037E-01 a       737     0    31     1    17
  1.0928755193043022E-01 a       738     0    31     1    18
  7.6800452725105817E-01 a       739     0    31     1    19
 -3.5575961560136382E-01 a       740     0    31     1    20
  1.9599425975624976E-01 a       741     0    31     1    21
 -9.1324442755802870E-01 a       742     0    31     1    22
  3.4361358753147692E-01 a       743     0    31     1    23
  2.1515813974145895E-01 a       744     0    31     1    24
 -1.0205631090693936E+00 a       745     0    32     1     1
 -4.5605158272554813E-01 a       746     0    32     1     2
  2.0014852565447791E-01 a       747     0    32     1     3
  6.0683277622485676E-01 a       748     0    32     1     4
  6.8501503235588346E-01 a       749     0    32     1     5
 -5.7518003209263080E-01 a       750     0    32     1     6
 -7.5036568150642136E-01 a       751     0    32     1     7
 -4.8173842833100672E-01 a       752     0    32     1     8
  5.4532097287138770E-01 a       753     0    32     1     9
  1.1435167273140763E+00 a       754     0    32     1    10
 -1.5628941061636266E+00 a       755     0    32     1    11
  1.6248403857787008E-01 a       756     0    32     1    12
 -6.5152598285243812E-01 a       757     0    32     1    13
  9.9355291156352707E-02 a       758     0    32     1    14
 -2.3971226004534918E-01 a       759     0    32     1    15
 -2.7129769712687873E-01 a       760     0    32     1    16
  3.7023329840602220E-01 a       761     0    32     1    17
 -1.1344114652527477E-01 a       762     0    32     1    18
  7.0323666050814182E-01 a       763     0    32     1    19
 -3.4219796482123566E-01 a       764     0    32     1    20
  3.5708797930418118E-01 a       765     0    32     1    21
 -4.0238846665909556E-01 a       766     0    32     1    22
 -3.3203406607136837E-01 a       767     0    32     1    23
 -7.3915765949081266E-02 a       768     0    32     1    24
  4.1110432296688276E-01 a       769     0    33     1     1
 -2.4380424438308804E-02 a       770     0    33     1     2
 -6.1052070137107306E-01 a       771     0    33     1     3
  5.5594566546706421E-02 a       772     0    33     1     4
 -1.6956548250133269E-01 a       773     0    33     1     5
  5.6075895591284741E-01 a       774     0    33     1     6
  2.1996306149970551E-01 a       775     0    33     1     7
 -4.0202060726057864E-01 a       776     0    33     1     8
  7.2971355588690512E-01 a       777     0    33     1     9
  2.7781309826407163E-01 a       778     0    33     1    10
  1.0459774261509397E-01 a       779     0    33     1    11
 -2.8267552874615461E-02 a       780     0    33     1    12
  1.6537894943147527E-01 a       781     0    33     1    13
  1.0825618104144939E-01 a       782     0    33     1    14
  7.3370010578121380E-03 a       783     0    33     1    15
  1.8522918295124033E-01 a       784     0    33     1    16
 -5.7521197435834892E-01 a       785     0    33     1    17
  2.2709989355012192E-01 a       786     0    33     1    18
  1.9020976489684607E-01 a       787     0    33     1    19
  2.8484678635618821E-01 a       788     0    33     1    20
 -3.5953725857733376E-01 a       789     0    33     1    21
  3.4821984075989881E-01 a       790     0    33     1    22
  2.4428700648113501E-02 a       791     0    33     1    23
  4.0280033594085479E-01 a       792     0    33     1    24
  8.0773763142956390E-01 a       793     0    34     1     1
  5.5398948467901010E-01 a       794     0    34     1     2
  8.8479865817907555E-01 a       795     0    34     1     3
  3.1208945762073365E-01 a       796     0    34     1     4
 -3.5910049688314649E-01 a       797     0    34     1     5
 -2.7596326822457284E-01 a       798     0    34     1     6
 -8.7570544993630040E-01 a       799     0    34     1     7
  4.5037838736953084E-01 a       800     0    34     1     8
  1.1941452763346429E-01 a       801     0    34     1     9
 -4.9045388370501841E-01 a       802     0    34     1    10
  8.8666034474173139E-01 a       803     0    34     1    11
 -6.0973313121351547E-01 a       804     0    34     1    12
  9.3065399773610905E-02 a       805     0    34     1    13
  1.0801213177729163E+00 a       806     0    34     1    14
 -2.3348996774993866E-01 a       807     0    34     1    15
 -3.7774327716119160E-01 a       808     0    34     1    16
  1.0103661643077763E-01 a       809     0    34     1    17
 -4.7765440878747001E-01 a       810     0    34     1    18
 -5.7314036011402636E-01 a       811     0    34     1    19
  1.2997125166714035E-01 a       812     0    34     1    20
 -6.0428243238549273E-01 a       813     0    34     1    21
 -9.7495518942430381E-01 a       814     0    34     1    22
  2.7434933464313399E-01 a       815     0    34     1    23
 -3.9786236797279398E-02 a       816     0    34     1    24
  5.0721449687401132E-01 a       817     0    35     1     1
 -4.4042819595310767E-01 a       818     0    35     1     2
  1.8917440964412363E-01 a       819     0    35     1     3
 -7.2445604864526980E-01 a       820     0    35     1     4
 -4.5459121711313616E-01 a       821     0    35     1     5
  3.5007789370713716E-01 a       822     0    35     1     6
  6.8304471656403831E-01 a       823     0    35     1     7
  2.5687602660330261E-01 a       824     0    35     1     8
 -1.0983368890767364E+00 a       825     0    35     1     9
 -2.3149742021098318E-01 a       826     0    35     1    10
 -1.7365432150391952E-02 a       827     0    35     1    11
  2.0990655164276034E-01 a       828     0    35     1    12
  1.1578740560589824E-01 a       829     0    35     1    13
  4.5375637473600122E-01 a       830     0    35     1    14
 -8.0731601241889966E-02 a       831     0    35     1    15
 -1.8978957239200947E-01 a       832     0    35     1    16
  5.8754811056647893E-01 a       833     0    35     1    17
  4.6378481545511635E-01 a       834     0    35     1    18
  2.5629836489487684E-01 a       835     0    35     1    19
  4.8094865931598269E-01 a       836     0    35     1    20
  8.2351902730201154E-01 a       837     0    35     1    21
  2.5971832508752413E-01 a       838     0    35     1    22
  5.2286013510928775E-01 a       839     0    35     1    23
  9.9816105398380026E-02 a       840     0    35     1    24
 -3.8726232259123750E-01 a       841     0    36     1     1
 -6.9760237871298902E-01 a       842     0    36     1     2
  4.7225893291668358E-01 a       843     0    36     1     3
 -6.1317157639918574E-01 a       844     0    36     1     4
  1.2539602362440867E+00 a       845     0    36     1     5
  6.3419897992580043E-01 a       846     0    36     1     6
 -6.8003268548495166E-01 a       847     0    36     1     7
  3.4257984254384538E-01 a       848     0    36     1     8
  3.0509460853163328E-01 a       849     0    36     1     9
  3.3346541747731584E-01 a       850     0    36     1    10
 -1.6931595415223688E-01 a       851     0    36     1    11
 -1.3452538107910061E+00 a       852     0    36     1    12
  8.0954465944730825E-02 a       853     0    36     1    13
  3.8915757059257972E-01 a       854     0    36     1    14
  7.2212816848058170E-01 a       855     0    36     1    15
 -5.1772961359666143E-02 a       856     0    36     1    16
 -1.0683809376225541E+00 a       857     0    36     1    17
 -9.7858743222956834E-01 a       858     0    36     1    18
 -9.6835744623513853E-01 a       859     0    36     1    19
 -4.7637846243559384E-01 a       860     0    36     1    20
  5.9133958484841737E-02 a       861     0    36     1    21
 -4.6773720940073177E-01 a       862     0    36     1    22
  5.4456488284825322E-01 a       863     0    36     1    23
 -9.4882382449801672E-01 a       864     0    36     1    24
  5.1404845470868980E-02 a       865     0    37     1     1
 -1.8340634317893920E-01 a       866     0    37     1     2
 -5.8790922402112455E-01 a       867     0    37     1     3
 -5.9258065778309121E-01 a       868     0    37     1     4
  1.8836217044188869E-01 a       869     0    37     1     5
 -2.5687123254556748E-01 a       870     0    37     1     6
  4.6609176393745616E-01 a       871     0    37     1     7
 -1.0715421957058364E+00 a       872     0    37     1     8
 -9.9713060544433751E-01 a       873     0    37     1     9
  3.5183239774029579E-01 a       874     0    37     1    10
 -2.4118487383851528E-01 a       875     0    37     1    11
  3.3873151471585906E-02 a       876     0    37     1    12
  4.2395254348392247E-01 a       877     0    37     1    13
 -1.0472791336245735E+00 a       878     0    37     1    14
  3.4453104856615591E-01 a       879     0    37     1    15
  7.6912464929542645E-01 a       880     0    37     1    16
  5.0346519768431364E-01 a       881     0    37     1    17
  6.1541664014747553E-02 a       882     0    37     1    18
 -4.0604250434834044E-01 a       883     0    37     1    19
  6.9137901977975391E-01 a       884     0    37     1    20
 -4.2929634725277527E-01 a       885     0    37     1    21
 -6.2271714420125301E-02 a       886     0    37     1    22
 -2.8847144352312276E-01 a       887     0    37     1    23
  2.7064689435269507E-01 a       888     0    37     1    24
  7.4008406661406151E-02 a       889     0    38     1     1
  1.1291718196268932E+00 a       890     0    38     1     2
  3.6196738878912765E-01 a       891     0    38     1     3
  7.8613195735589791E-01 a       892     0    38     1     4
  1.5643532257234768E-01 a       893     0    38     1     5
 -6.7053911476727357E-01 a       894     0    38     1     6
 -1.2637529074805693E-02 a       895     0    38     1     7
 -1.4154190967255337E-01 a       896     0    38     1     8
  4.5848228604818553E-01 a       897     0    38     1     9
  1.1668764803033109E-01 a       898     0    38     1    10
 -2.6114892243130505E-01 a       899     0    38     1    11
  7.5269014867846457E-02 a       900     0    38     1    12
 -9.0217306923900689E-02 a       901     0    38     1    13
  8.3603055004350213E-01 a       902     0    38     1    14
 -3.4001809776306580E-01 a       903     0    38     1    15
  5.6116340895012240E-01 a       904     0    38     1    16
 -6.8364533402771810E-01 a       905     0    38     1    17
 -1.5074067201811198E-01 a       906     0    38     1    18
  2.2952151061462245E-01 a       907     0    38     1    19
 -4.3136696263670649E-01 a       908     0    38     1    20
 -4.7576945686305133E-01 a       909     0    38     1    21
  3.0871728200369170E-01 a       910     0    38     1    22
  3.4139219552936545E-01 a       911     0    38     1    23
  3.6465352349364838E-01 a       912     0    38     1    24
  1.1249905441170582E+00 a       913     0    39     1     1
  5.6565579609621323E-03 a       914     0    39     1     2
 -1.6854378889711832E+00 a       915     0    39     1     3
 -1.2147899065426084E+00 a       916     0    39     1     4
  7.7069173716086370E-01 a       917     0    39     1     5
 -3.7730215382369592E-01 a       918     0    39     1     6
  6.4092097560501327E-01 a       919     0    39     1     7
 -6.8713866506359333E-01 a       920     0    39     1     8
 -2.5365929937304060E-01 a       921     0    39     1     9
 -3.1728140173218594E-01 a       922     0    39     1    10
 -2.9363034246403819E-01 a       923     0    39     1    11
  3.0651313374055794E-01 a       924     0    39     1    12
  1.0346000927410732E+00 a       925     0    39     1    13
 -6.8059792568693100E-01 a       926     0    39     1    14
 -6.5713171913849711E-01 a       927     0    39     1    15
  3.9398312519074813E-01 a       928     0    39     1    16
 -4.9565098356690640E-01 a       929     0    39     1    17
  3.5720580945682062E-02 a       930     0    39     1    18
  1.5691236345398468E-01 a       931     0    39     1    19
  2.8563880644915901E-01 a       932     0    39     1    20
 -1.3441624781052128E-01 a       933     0    39     1    21
 -1.1609436947979652E+00 a       934     0    39     1    22
  2.7605445030197751E-01 a       935     0    39     1    23
 -8.1350658782949531E-02 a       936     0    39     1    24
 -5.6464384127017775E-01 a       937     0    40     1     1
 -1.3943714526929263E-01 a       938     0    40     1     2
  5.0390859114081954E-01 a       939     0    40     1     3
 -5.1576595087200944E-02 a       940     0    40     1     4
  1.3361670694322228E-01 a       941     0    40     1     5
  1.7322468866411454E-02 a       942     0    40     1     6
 -3.2393058306892160E-02 a       943     0    40     1     7
 -1.3627196034807727E-02 a       944     0    40     1     8
 -2.4202036309686231E-01 a       945     0    40     1     9
  5.7000508253512294E-01 a       946     0    40     1    10
  3.5066988515270327E-02 a       947     0    40     1    11
  1.5472657133180062E-01 a       948     0    40     1    12
 -8.7167084779276732E-02 a       949     0    40     1    13
  2.5814126567641621E-01 a       950     0    40     1    14
  4.1095096290363387E-01 a       951     0    40     1    15
  4.7836740929729005E-01 a       952     0    40     1    16
 -1.7971021168408918E-01 a       953     0    40     1    17
  2.2751668784818244E-01 a       954     0    40     1    18
 -1.2833052061647306E-02 a       955     0    40     1    19
 -2.3906903356346124E-01 a       956     0    40     1    20
 -3.9524662238313896E-01 a       957     0    40     1    21
 -4.1671364522127147E-01 a       958     0    40     1    22
 -1.8498315902016330E-01 a       959     0    40     1    23
 -4.9711563531587072E-01 a       960     0    40     1    24
  1.8332488101056663E-01 a       961     0    41     1     1
  3.9972385077641670E-01 a       962     0    41     1     2
 -5.5649275929354336E-01 a       963     0    41     1     3
 -1.8132130820795661E-01 a       964     0    41     1     4
 -3.3452814915824491E-01 a       965     0    41     1     5
  1.6389365835648589E-01 a       966     0    41     1     6
  7.8696520881299037E-01 a       967     0    41     1     7
  4.7279695749802941E-01 a       968     0    41     1     8
  4.1563983203683985E-02 a       969     0    41     1     9
 -2.9402200344784013E-01 a       970     0    41     1    10
  3.9068542769010250E-01 a       971     0    41     1    11
 -8.0919251471119114E-01 a       972     0    41     1    12
 -3.1149471595867217E-01 a       973     0    41     1    13
 -3.0816038510037813E-01 a       974     0    41     1    14
 -4.0846455917866348E-01 a       975     0    41     1    15
  2.6048791918527586E-01 a       976     0    41     1    16
 -8.8205870662655261E-01 a       977     0    41     1    17
  1.6830656585221282E-01 a       978     0    41     1    18
 -4.2881391416910837E-02 a       979     0    41     1    19
  6.6584839712379940E-01 a       980     0    41     1    20
  9.5568659196617201E-01 a       981     0    41     1    21
 -4.3221924137246104E-01 a       982     0    41     1    22
 -7.1938334222606426E-02 a       983     0    41     1    23
 -2.5694597606741726E-01 a       984     0    41     1    24
 -2.4042476286978615E-01 a       985     0    42     1     1
  9.6967337888231042E-01 a       986     0    42     1     2
  6.4600736339514298E-01 a       987     0    42     1     3
 -1.2437661034332190E+00 a       988     0    42     1     4
 -8.1244511469031144E-01 a       989     0    42     1     5
 -6.1014058261217075E-01 a       990     0    42     1     6
  1.4352227918483880E+00 a       991     0    42     1     7
 -8.9169340387833820E-02 a       992     0    42     1     8
  7.5166000043529579E-01 a       993     0    42     1     9
  1.3650791896569382E-02 a       994     0    42     1    10
 -3.3215428503991956E-01 a       995     0    42     1    11
 -1.4780810015371981E+00 a       996     0    42     1    12
  5.6683393691672557E-01 a       997     0    42     1    13
  1.1715439733894235E-01 a       998     0    42     1    14
 -2.1395352686757832E-01 a       999     0    42     1    15
 -3.9214808650446636E-01 a      1000     0    42     1    16
 -8.1728960795429006E-01 a      1001     0    42     1    17
 -7.8683676551006210E-01 a      1002     0    42     1    18
 -2.8796547057468293E-02 a      1003     0    42     1    19
 -3.3072442712548233E-01 a      1004     0    42     1    20
  1.2312001877209944E+00 a      1005     0    42     1    21
  1.0815799219173921E+00 a      1006     0    42     1    22
  9.5694958655526596E-01 a      1007     0    42     1    23
  1.3802881155306748E-01 a      1008     0    42     1    24
  2.0837676631633417E-01 a      1009     0    43     1     1
 -7.7797852367178266E-01 a      1010     0    43     1     2
  3.0957528340704887E-01 a      1011     0    43     1     3
 -3.6192659973241864E-02 a      1012     0    43     1     4
 -1.5669132741818831E-01 a      1013     0    43     1     5
 -8.3068598044015407E-01 a      1014     0    43     1     6
 -1.5537764262996042E-02 a      1015     0    43     1     7
  4.1800156705435615E-01 a      1016     0    43     1     8
 -7.6337753731383601E-02 a      1017     0    43     1     9
 -3.3184621474378539E-01 a      1018     0    43     1    10
  8.4718631347714193E-02 a      1019     0    43     1    11
  1.9625559098773543E-01 a      1020     0    43     1    12
 -1.6391907627949478E-02 a      1021     0    43     1    13
  1.8325788730855821E-01 a      1022     0    43     1    14
 -4.5869964090162283E-03 a      1023     0    43     1    15
 -2.4290612648845421E-02 a      1024     0    43     1    16
 -1.6812773371937890E-02 a      1025     0    43     1    17
 -1.4130498486377249E-01 a      1026     0    43     1    18
  2.8595325601993599E-01 a      1027     0    43     1    19
  2.3037913295479459E-01 a      1028     0    43     1    20
  8.7041179350793840E-01 a      1029     0    43     1    21
 -5.8604316779156651E-01 a      1030     0    43     1    22
  3.3526620285833530E-01 a      1031     0    43     1    23
  2.3273664315880807E-01 a      1032     0    43     1    24
 -3.8582189995610300E-01 a      1033     0    44     1     1
 -6.4504820131170149E-01 a      1034     0    44     1     2
 -1.0878052109462232E-01 a      1035     0    44     1     3
 -8.1113892671512200E-01 a      1036     0    44     1     4
 -2.8123968013561990E-01 a      1037     0    44     1     5
 -3.3750412464505573E-02 a      1038     0    44     1     6
 -1.7566318064689018E-01 a      1039     0    44     1     7
  5.1319308850114964E-01 a      1040     0    44     1     8
  4.8742646534698181E-01 a      1041     0    44     1     9
 -6.9390399884137410E-01 a      1042     0    44     1    10
  5.1597905140159696E-02 a      1043     0    44     1    11
  5.9668832232233782E-01 a      1044     0    44     1    12
  2.1659679290368383E-01 a      1045     0    44     1    13
 -1.2284297715343335E+00 a      1046     0    44     1    14
 -2.3281042936370758E-01 a      1047     0    44     1    15
 -7.4874077082923896E-01 a      1048     0    44     1    16
 -2.8428106817520526E-01 a      1049     0    44     1    17
 -1.4230946557270169E-01 a      1050     0    44     1    18
  7.5608918119133606E-01 a      1051     0    44     1    19
 -1.5097937543380680E-02 a      1052     0    44     1    20
  3.6444225132573238E-01 a      1053     0    44     1    21
 -2.1866557981510051E-01 a      1054     0    44     1    22
  2.7794091930178472E-01 a      1055     0    44     1    23
 -3.9193035330435771E-01 a      1056     0    44     1    24
 -5.5203913041031816E-01 a      1057     0    45     1     1
  2.1311635037965371E-01 a      1058     0    45     1     2
 -3.4553577939588148E-01 a      1059     0    45     1     3
 -2.4643217352110405E-01 a      1060     0    45     1     4
 -1.7741531784522105E-01 a      1061     0    45     1     5
 -5.9950977752523629E-02 a      1062     0    45     1     6
  6.3709984000441283E-02 a      1063     0    45     1     7
 -1.5377848745280578E-01 a      1064     0    45     1     8
 -3.2261257702179330E-01 a      1065     0    45     1     9
 -1.7682260209016779E-01 a      1066     0    45     1    10
  2.4633716813777060E-02 a      1067     0    45     1    11
 -1.4082791320365784E-01 a      1068     0    45     1    12
  1.4106552950785281E-01 a      1069     0    45     1    13
 -3.0791732035907279E-02 a      1070     0    45     1    14
  3.8171863292106123E-01 a      1071     0    45     1    15
  6.1000638093773529E-01 a      1072     0    45     1    16
 -8.0214448836339403E-01 a      1073     0    45     1    17
 -3.3674619114735987E-01 a      1074     0    45     1    18
  3.6498762272777768E-01 a      1075     0    45     1    19
  1.8243786178080226E-01 a      1076     0    45     1    20
 -3.1507618865277259E-01 a      1077     0    45     1    21
 -5.7166260196606045E-01 a      1078     0    45     1    22
 -7.2345935204360765E-02 a      1079     0    45     1    23
 -2.2477564954356227E-01 a      1080     0    45     1    24
 -3.2275495971495133E-01 a      1081     0    46     1     1
 -1.0856390782842222E+00 a      1082     0    46     1     2
  4.5172577837573941E-01 a      1083     0    46     1     3
  5.6473434419754076E-01 a      1084     0    46     1     4
  5.6438108241417462E-01 a      1085     0    46     1     5
 -5.5002228967136046E-01 a      1086     0    46     1     6
 -6.9372074692942742E-01 a      1087     0    46     1     7
 -4.3929822870039215E-01 a      1088     0    46     1     8
 -1.1853651139145782E+00 a      1089     0    46     1     9
  8.7236066679288582E-01 a      1090     0    46     1    10
 -1.1328405582852641E+00 a      1091     0    46     1    11
  4.1720705745730718E-01 a      1092     0    46     1    12
 -3.0579255540352651E-01 a      1093     0    46     1    13
 -5.9244781124172097E-01 a      1094     0    46     1    14
  4.1973269843012367E-01 a      1095     0    46     1    15
  7.6968623616459642E-01 a      1096     0    46     1    16
  9.8402276286816170E-01 a      1097     0    46     1    17
  9.5864808528577428E-01 a      1098     0    46     1    18
 -4.7763348342342332E-01 a      1099     0    46     1    19
 -7.2829428610850100E-01 a      1100     0    46     1    20
 -1.3189184897145956E+00 a      1101     0    46     1    21
  6.6160347553633780E-01 a      1102     0    46     1    22
 -5.3236883550781704E-02 a      1103     0    46     1    23
  2.3597913598227385E-01 a      1104     0    46     1    24
 -4.6098864296709918E-01 a      1105     0    47     1     1
  5.5130459004000065E-01 a      1106     0    47     1     2
 -5.9972846723211279E-02 a      1107     0    47     1     3
  6.0588478729476525E-01 a      1108     0    47     1     4
 -1.3556423827874751E-02 a      1109     0    47     1     5
 -8.1864768481960393E-02 a      1110     0    47     1     6
  8.7724401621916442E-02 a      1111     0    47     1     7
 -3.6283293757356744E-01 a      1112     0    47     1     8
 -6.0234244630723921E-01 a      1113     0    47     1     9
  4.1972399285459810E-01 a      1114     0    47     1    10
 -1.6426830347771670E-01 a      1115     0    47     1    11
  3.3410116034379522E-01 a      1116     0    47     1    12
 -5.7896150378588807E-01 a      1117     0    47     1    13
 -1.3908236424292986E-01 a      1118     0    47     1    14
  2.1798116148987923E-01 a      1119     0    47     1    15
  2.6285887802286773E-01 a      1120     0    47     1    16
 -4.0877298987163035E-01 a      1121     0    47     1    17
  7.7060176935697666E-01 a      1122     0    47     1    18
  2.1611659271606538E-02 a      1123     0    47     1    19
 -2.1472018814565660E-01 a      1124     0    47     1    20
 -1.0907495291970801E+00 a      1125     0    47     1    21
  4.6338228875101262E-01 a      1126     0    47     1    22
 -3.0842160105215527E-01 a      1127     0    47     1    23
 -8.9228605227626678E-01 a      1128     0    47     1    24
 -4.8719527726720613E-01 a      1129     0    48     1     1
  2.0890907175871673E-01 a      1130     0    48     1     2
  2.1058777202321308E-01 a      1131     0    48     1     3
  1.6491699964039830E-01 a      1132     0    48     1     4
 -1.0933711301850944E+00 a      1133     0    48     1     5
 -1.7616270328355835E-01 a      1134     0    48     1     6
  1.7747348877624325E-01 a      1135     0    48     1     7
  3.1143842216076945E-01 a      1136     0    48     1     8
  4.5408480542110052E-01 a      1137     0    48     1     9
 -1.8040241049829417E-01 a      1138     0    48     1    10
 -4.7800867713946364E-02 a      1139     0    48     1    11
 -1.8534736696426263E-01 a      1140     0    48     1    12
 -5.4772038476706753E-02 a      1141     0    48     1    13
  2.2609016575467064E-01 a      1142     0    48     1    14
  6.2797382343592140E-02 a      1143     0    48     1    15
 -7.1645545305525959E-01 a      1144     0    48     1    16
 -8.8526213767797501E-01 a      1145     0    48     1    17
  3.4627426602616009E-02 a      1146     0    48     1    18
  1.0168515087746832E+00 a      1147     0    48     1    19
 -1.1094636877789696E-01 a      1148     0    48     1    20
 -1.1118302673266025E+00 a      1149     0    48     1    21
 -1.1122886434472593E-01 a      1150     0    48     1    22
  2.2999013778587965E-01 a      1151     0    48     1    23
  5.7461623001387852E-01 a      1152     0    48     1    24
  6.1481181870129598E-01 a      1153     0    49     1     1
  1.1589377557283567E+00 a      1154     0    49     1     2
  1.9661798812310466E-01 a      1155     0    49     1     3
 -4.1736322314498520E-01 a      1156     0    49     1     4
  2.4442083473384288E-01 a      1157     0    49     1     5
 -4.5230443730216729E-01 a      1158     0    49     1     6
  7.0342241032050445E-02 a      1159     0    49     1     7
  4.5913543465262124E-01 a      1160     0    49     1     8
 -4.5176484611280321E-01 a      1161     0    49     1     9
  2.7629254473158574E-02 a      1162     0    49     1    10
  6.8738089033814909E-01 a      1163     0    49     1    11
 -3.5609804565723172E-02 a      1164     0    49     1    12
  1.1432944111273982E+00 a      1165     0    49     1    13
  3.7114038416179346E-01 a      1166     0    49     1    14
  2.9449231507069951E-01 a      1167     0    49     1    15
  1.0759664071781545E+00 a      1168     0    49     1    16
  2.7564760823744272E-01 a      1169     0    49     1    17
  1.5237034415142256E-01 a      1170     0    49     1    18
 -4.7432283874124143E-01 a      1171     0    49     1    19
 -5.9163380272833632E-01 a      1172     0    49     1    20
 -4.6850122200719674E-01 a      1173     0    49     1    21
  6.6140255883433829E-01 a      1174     0    49     1    22
 -4.4339369715387567E-01 a      1175     0    49     1    23
  6.3279632159348342E-01 a      1176     0    49     1    24
  1.0343754549165129E+00 a      1177     0    50     1     1
  5.2507528564359182E-02 a      1178     0    50     1     2
 -2.6341315921565639E-01 a      1179     0    50     1     3
 -1.2267959477547565E+00 a      1180     0    50     1     4
  4.2362117877573068E-02 a      1181     0    50     1     5
  2.9110928510275941E-01 a      1182     0    50     1     6
 -1.0124860247862919E+00 a      1183     0    50     1     7
 -3.2707199047332236E-01 a      1184     0    50     1     8
 -5.0220833310139812E-01 a      1185     0    50     1     9
 -7.7624028667250178E-01 a      1186     0    50     1    10
  2.8905700887526914E-01 a      1187     0    50     1    11
  2.4441151602334391E-01 a      1188     0    50     1    12
  3.2877461200053859E-01 a      1189     0    50     1    13
  4.8640454287634122E-01 a      1190     0    50     1    14
  1.1076147980591750E-01 a      1191     0    50     1    15
 -9.1398101815013191E-02 a      1192     0    50     1    16
 -1.3259847400940158E-01 a      1193     0    50     1    17
 -7.7228972455795930E-01 a      1194     0    50     1    18
  4.9234832584992677E-01 a      1195     0    50     1    19
  2.6481286559773787E-01 a      1196     0    50     1    20
 -4.1215639216576905E-01 a      1197     0    50     1    21
 -5.2778091418068507E-01 a      1198     0    50     1    22
 -2.4380969179423027E-03 a      1199     0    50     1    23
 -1.4073728101586238E+00 a      1200     0    50     1    24
  2.8969030433996612E-01 a      1201     0    51     1     1
 -1.0395393926673488E-01 a      1202     0    51     1     2
  2.9796675342319984E-01 a      1203     0    51     1     3
  1.9826936794573416E-01 a      1204     0    51     1     4
 -1.5100105072161615E-01 a      1205     0    51     1     5
  4.7794404455118944E-01 a      1206     0    51     1     6
 -8.1578133618246285E-02 a      1207     0    51     1     7
  5.9232874080556497E-01 a      1208     0    51     1     8
 -4.3293951406169146E-01 a      1209     0    51     1     9
 -6.2823333930673475E-01 a      1210     0    51     1    10
 -4.3239883313719474E-02 a      1211     0    51     1    11
  4.9105672499725611E-01 a      1212     0    51     1    12
 -4.1383831677499355E-01 a      1213     0    51     1    13
  9.4332284998360022E-02 a      1214     0    51     1    14
  3.7315131907045429E-01 a      1215     0    51     1    15
  3.3706589288734135E-01 a      1216     0    51     1    16
  7.5358187171874258E-01 a      1217     0    51     1    17
 -4.0175127197485422E-01 a      1218     0    51     1    18
  5.2749079388657816E-01 a      1219     0    51     1    19
 -2.8509696457833095E-01 a      1220     0    51     1    20
  4.1849412601428859E-01 a      1221     0    51     1    21
  3.6912665159213565E-01 a      1222     0    51     1    22
  2.2213487443657559E-02 a      1223     0    51     1    23
  3.8668692582666564E-01 a      1224     0    51     1    24
  8.4675621816808466E-01 a      1225     0    52     1     1
 -9.6889597593513010E-02 a      1226     0    52     1     2
 -7.9412271123345912E-01 a      1227     0    52     1     3
  6.3633343164711295E-02 a      1228     0    52     1     4
 -1.6217202114958792E-01 a      1229     0    52     1     5
  2.4087711647998836E-01 a      1230     0    52     1     6
 -3.8861702821248928E-01 a      1231     0    52     1     7
  3.6370957318708480E-01 a      1232     0    52     1     8
  1.0197949295162489E+00 a      1233     0    52     1     9
 -3.5048652398093300E-01 a      1234     0    52     1    10
  7.9067509342882786E-02 a      1235     0    52     1    11
  7.2953870289702361E-01 a      1236     0    52     1    12
 -2.1978416288216787E-01 a      1237     0    52     1    13
 -1.2002307815276243E+00 a      1238     0    52     1    14
 -3.6991467845368747E-01 a      1239     0    52     1    15
 -1.4082347454933453E+00 a      1240     0    52     1    16
  5.8197901973661326E-01 a      1241     0    52     1    17
  6.2171140431561511E-01 a      1242     0    52     1    18
 -2.9339553944300262E-01 a      1243     0    52     1    19
  1.0804352292432760E+00 a      1244     0    52     1    20
  2.8167531960488414E-02 a      1245     0    52     1    21
  6.0294767284610928E-01 a      1246     0    52     1    22
  9.5784556558947087E-01 a      1247     0    52     1    23
  2.1733276468731483E-01 a      1248     0    52     1    24
  9.9239173373302278E-02 a      1249     0    53     1     1
 -8.0576286558160026E-01 a      1250     0    53     1     2
 -1.7454537068013951E-01 a      1251     0    53     1     3
  2.7748259904847777E-01 a      1252     0    53     1     4
  2.4434479549780680E-01 a      1253     0    53     1     5
  6.0365903722133085E-01 a      1254     0    53     1     6
  4.5058529151452742E-01 a      1255     0    53     1     7
 -8.1907851425639389E-02 a      1256     0    53     1     8
 -2.2349191104404623E-01 a      1257     0    53     1     9
  1.1599045583174350E-01 a      1258     0    53     1    10
  3.4779169314613445E-01 a      1259     0    53     1    11
  5.5067295749602274E-01 a      1260     0    53     1    12
 -2.5287105482289757E-02 a      1261     0    53     1    13
 -3.2331000331589976E-02 a      1262     0    53     1    14
  5.7742855419577899E-01 a      1263     0    53     1    15
  1.5177519140536713E-01 a      1264     0    53     1    16
  6.4962241631830664E-01 a      1265     0    53     1    17
  6.3653054731011471E-01 a      1266     0    53     1    18
 -8.8618290321381289E-03 a      1267     0    53     1    19
 -8.6410604853107684E-02 a      1268     0    53     1    20
 -2.8076106229913772E-02 a      1269     0    53     1    21
  3.7686480210532064E-01 a      1270     0    53     1    22
 -5.1095923751558880E-01 a      1271     0    53     1    23
 -1.5012384063512857E-01 a      1272     0    53     1    24
  2.5142640614656736E-01 a      1273     0    54     1     1
 -5.6746234677038054E-01 a      1274     0    54     1     2
 -1.1096451685495894E+00 a      1275     0    54     1     3
  4.5367417080724531E-02 a      1276     0    54     1     4
  2.5281944383392996E-01 a      1277     0    54     1     5
 -5.4588495531318870E-01 a      1278     0    54     1     6
  8.9044363833083603E-02 a      1279     0    54     1     7
 -3.4566630429462269E-01 a      1280     0    54     1     8
  5.3220890017576850E-01 a      1281     0    54     1     9
  3.8624480313427571E-02 a      1282     0    54     1    10
  3.3905530565257364E-01 a      1283     0    54     1    11
  2.3309506065130225E-01 a      1284     0    54     1    12
 -6.7749711631015497E-01 a      1285     0    54     1    13
 -1.3361926445352643E-01 a      1286     0    54     1    14
 -4.8602561201733235E-01 a      1287     0    54     1    15
  2.1024648921576428E-01 a      1288     0    54     1    16
 -2.6732511924494246E-01 a      1289     0    54     1    17
  2.9079840958297215E-01 a      1290     0    54     1    18
 -2.4042892432497992E-01 a      1291     0    54     1    19
 -2.8032045096390751E-01 a      1292     0    54     1    20
 -4.0791933757022175E-01 a      1293     0    54     1    21
  5.1001688364553777E-01 a      1294     0    54     1    22
 -7.8027432686627804E-02 a      1295     0    54     1    23
  1.1055589871074163E-01 a      1296     0    54     1    24
 -2.3788696847541194E-01 a      1297     0    55     1     1
  1.7931809046845977E+00 a      1298     0    55     1     2
 -6.8354227424251335E-01 a      1299     0    55     1     3
 -5.7210895330769970E-03 a      1300     0    55     1     4
 -9.7020472596989105E-01 a      1301     0    55     1     5
 -5.5225464856742312E-01 a      1302     0    55     1     6
 -1.9431787847029675E-02 a      1303     0    55     1     7
  9.4772588729774609E-01 a      1304     0    55     1     8
 -5.6955678447240879E-03 a      1305     0    55     1     9
  8.9336350381923291E-01 a      1306     0    55     1    10
  5.7463458807343737E-01 a      1307     0    55     1    11
 -8.4206965178168858E-01 a      1308     0    55     1    12
 -4.1804561592089673E-01 a      1309     0    55     1    13
 -6.2642992676903708E-01 a      1310     0    55     1    14
 -1.7541524083455120E+00 a      1311     0    55     1    15
  8.9277819316137164E-01 a      1312     0    55     1    16
  3.5454069384445080E-01 a      1313     0    55     1    17
 -5.5974187039838386E-01 a      1314     0    55     1    18
 -2.3699043312596893E-01 a      1315     0    55     1    19
 -3.4499644296308912E-01 a      1316     0    55     1    20
 -3.7185488156647367E-01 a      1317     0    55     1    21
 -6.4400833926221512E-01 a      1318     0    55     1    22
  2.9559554361985285E-01 a      1319     0    55     1    23
 -4.3369833933920587E-01 a      1320     0    55     1    24
 -1.7656460297054488E-01 a      1321     0    56     1     1
  5.9023449727271293E-01 a      1322     0    56     1     2
  4.7805788640682516E-02 a      1323     0    56     1     3
  1.6525103080471318E-01 a      1324     0    56     1     4
  1.8081993304409175E-01 a      1325     0    56     1     5
 -2.6490141062432959E-01 a      1326     0    56     1     6
  5.4284601080196526E-01 a      1327     0    56     1     7
  1.6860119123490208E-01 a      1328     0    56     1     8
 -2.4962703160128372E-01 a      1329     0    56     1     9
  3.7926645249225649E-01 a      1330     0    56     1    10
  1.0035048492693242E+00 a      1331     0    56     1    11
 -3.9220172877290560E-01 a      1332     0    56     1    12
 -2.8572457821765079E-01 a      1333     0    56     1    13
  1.7718783818733280E-01 a      1334     0    56     1    14
  1.2495305303548158E-01 a      1335     0    56     1    15
  4.1123751907273637E-01 a      1336     0    56     1    16
  4.6963590820030227E-01 a      1337     0    56     1    17
  3.9062096673479235E-02 a      1338     0    56     1    18
 -1.0606914695959790E+00 a      1339     0    56     1    19
  1.4673828254989832E-01 a      1340     0    56     1    20
 -6.2054355057061128E-01 a      1341     0    56     1    21
  7.8175118764287610E-01 a      1342     0    56     1    22
 -3.2755343836601547E-01 a      1343     0    56     1    23
 -2.5054092109615156E-01 a      1344     0    56     1    24
 -1.1658960279534196E+00 a      1345     0    57     1     1
  1.0262326451130397E+00 a      1346     0    57     1     2
  1.5814066158535114E+00 a      1347     0    57     1     3
  9.2475547293516328E-02 a      1348     0    57     1     4
 -2.4676984949231678E-01 a      1349     0    57     1     5
 -8.7248318929249535E-01 a      1350     0    57     1     6
  3.3823680120524718E-01 a      1351     0    57     1     7
 -2.8589099113568933E-01 a      1352     0    57     1     8
  3.0997893446795116E-01 a      1353     0    57     1     9
 -1.2783799848907229E-01 a      1354     0    57     1    10
  3.9969560614716720E-01 a      1355     0    57     1    11
  1.0318181545882006E-01 a      1356     0    57     1    12
  5.4621344665418692E-01 a      1357     0    57     1    13
  6.2413071479243513E-02 a      1358     0    57     1    14
  4.5765494556511432E-01 a      1359     0    57     1    15
  1.6923150691986633E+00 a      1360     0    57     1    16
 -2.3812470152323523E-01 a      1361     0    57     1    17
 -5.8331109774581558E-01 a      1362     0    57     1    18
  4.8420287387135669E-01 a      1363     0    57     1    19
 -7.3945604894543115E-01 a      1364     0    57     1    20
 -1.0146167221168996E+00 a      1365     0    57     1    21
 -2.2858538179639665E-01 a      1366     0    57     1    22
 -5.7296338955714210E-01 a      1367     0    57     1    23
 -8.0893736123484439E-02 a      1368     0    57     1    24
 -5.2775974240832024E-01 a      1369     0    58     1     1
  6.8654704229057717E-01 a      1370     0    58     1     2
 -7.6794674336335977E-01 a      1371     0    58     1     3
  4.8173595083008008E-01 a      1372     0    58     1     4
 -7.4395584858248265E-02 a      1373     0    58     1     5
 -6.2430159892798831E-01 a      1374     0    58     1     6
 -3.8376382384304397E-01 a      1375     0    58     1     7
  4.1442395069097676E-01 a      1376     0    58     1     8
 -5.3065168768262638E-01 a      1377     0    58     1     9
  3.7842451829414253E-01 a      1378     0    58     1    10
 -1.1508562942640517E-01 a      1379     0    58     1    11
  6.1400268309202677E-01 a      1380     0    58     1    12
 -2.7937311747794313E-01 a      1381     0    58     1    13
 -2.9345982855090058E-01 a      1382     0    58     1    14
 -2.9691827040488483E-01 a      1383     0    58     1    15
  2.2568215183404661E-01 a      1384     0    58     1    16
  2.2947828980101853E-01 a      1385     0    58     1    17
  5.0880044357132087E-02 a      1386     0    58     1    18
 -9.5786370528082206E-03 a      1387     0    58     1    19
  8.1619969950576443E-01 a      1388     0    58     1    20
 -4.1203283327928020E-01 a      1389     0    58     1    21
 -8.2019234260955587E-01 a      1390     0    58     1    22
 -3.0837778539580929E-01 a      1391     0    58     1    23
  1.0568592916654800E+00 a      1392     0    58     1    24
 -8.5418228737581547E-01 a      1393     0    59     1     1
 -5.9672178308558010E-01 a      1394     0    59     1     2
 -3.5433859658170797E-01 a      1395     0    59     1     3
 -5.9019020829805569E-01 a      1396     0    59     1     4
  5.8358634750440275E-01 a      1397     0    59     1     5
  1.7086531017202859E+00 a      1398     0    59     1     6
  5.0479566073259552E-01 a      1399     0    59     1     7
 -4.5494847115937315E-01 a      1400     0    59     1     8
 -3.7481562957805137E-01 a      1401     0    59     1     9
  6.0696039637006149E-01 a      1402     0    59     1    10
 -7.5284749695624320E-01 a      1403     0    59     1    11
  2.5993710581243623E-01 a      1404     0    59     1    12
  3.7619642549673107E-02 a      1405     0    59     1    13
 -1.5827107596316081E-01 a      1406     0    59     1    14
  1.6442962239688275E+00 a      1407     0    59     1    15
 -9.4749325724522415E-01 a      1408     0    59     1    16
 -4.1052455431619811E-01 a      1409     0    59     1    17
  7.9091056120110337E-01 a      1410     0    59     1    18
 -2.4470791321725424E-01 a      1411     0    59     1    19
 -2.6842969697263779E-02 a      1412     0    59     1    20
 -8.2217073349161829E-01 a      1413     0    59     1    21
  5.9051267179031897E-01 a      1414     0    59     1    22
 -8.3001872791878251E-01 a      1415     0    59     1    23
  1.1493195635286606E-01 a      1416     0    59     1    24
  2.0629486012907733E-01 a      1417     0    60     1     1
  6.6351225063995989E-01 a      1418     0    60     1     2
  4.6954201849661314E-01 a      1419     0    60     1     3
  6.0282617565129593E-01 a      1420     0    60     1     4
  1.9345573085423606E-01 a      1421     0    60     1     5
  2.5258620494991596E-01 a      1422     0    60     1     6
  3.3633654725401044E-02 a      1423     0    60     1     7
 -1.3168110366200095E-02 a      1424     0    60     1     8
  2.5583553017031863E-01 a      1425     0    60     1     9
  2.2199985935493882E-01 a      1426     0    60     1    10
  9.0671781202963708E-02 a      1427     0    60     1    11
 -1.0801547489896464E+00 a      1428     0    60     1    12
 -2.9012913297819953E-01 a      1429     0    60     1    13
  9.7873092178506771E-01 a      1430     0    60     1    14
 -1.5335642568736549E-01 a      1431     0    60     1    15
  7.0951555772796882E-01 a      1432     0    60     1    16
 -9.6737074997408926E-02 a      1433     0    60     1    17
 -3.9011776024173711E-01 a      1434     0    60     1    18
 -5.2638445108796050E-01 a      1435     0    60     1    19
 -3.8541405747752561E-01 a      1436     0    60     1    20
 -2.6764756160273445E-01 a      1437     0    60     1    21
  9.4556780530842127E-02 a      1438     0    60     1    22
  9.7349519786272140E-02 a      1439     0    60     1    23
 -1.8142681332609775E-01 a      1440     0    60     1    24
  7.3410682781361747E-01 a      1441     0    61     1     1
 -1.2382546194097206E+00 a      1442     0    61     1     2
 -6.9569274347489618E-01 a      1443     0    61     1     3
 -6.0156088676552144E-01 a      1444     0    61     1     4
  4.5249909131325067E-02 a      1445     0    61     1     5
  1.0574356705372998E-01 a      1446     0    61     1     6
  4.7231071122024876E-02 a      1447     0    61     1     7
  2.1742302865576013E-01 a      1448     0    61     1     8
 -3.0932521079261147E-02 a      1449     0    61     1     9
  2.7377089944295435E-01 a      1450     0    61     1    10
 -2.4005297754046703E-01 a      1451     0    61     1    11
  3.4751097648521206E-01 a      1452     0    61     1    12
  1.6035146914783144E-01 a      1453     0    61     1    13
  6.5372473975806547E-02 a      1454     0    61     1    14
  3.1239520123958775E-01 a      1455     0    61     1    15
 -5.4316648216853525E-01 a      1456     0    61     1    16
  4.9218568374770633E-01 a      1457     0    61     1    17
  1.0669839618454834E-01 a      1458     0    61     1    18
  1.7347403271891396E-02 a      1459     0    61     1    19
 -3.4507383802110642E-01 a      1460     0    61     1    20
  1.6383701459861003E-01 a      1461     0    61     1    21
  4.7108256699373442E-02 a      1462     0    61     1    22
 -1.7933939024080473E-02 a      1463     0    61     1    23
 -5.8922885023740146E-01 a      1464     0    61     1    24
 -6.6649989912896479E-01 a      1465     0    62     1     1
 -1.0940672287722730E-01 a      1466     0    62     1     2
 -8.1937526586398546E-01 a      1467     0    62     1     3
 -9.7816471659448601E-01 a      1468     0    62     1     4
 -3.2652580504475348E-01 a      1469     0    62     1     5
  4.7392074725221328E-01 a      1470     0    62     1     6
  2.0501642245086118E+00 a      1471     0    62     1     7
 -8.2665968332212114E-01 a      1472     0    62     1     8
  4.5280431830686357E-01 a      1473     0    62     1     9
  2.1304256711063557E-01 a      1474     0    62     1    10
 -3.3220855636406466E-01 a      1475     0    62     1    11
  3.5241301096078043E-01 a      1476     0    62     1    12
  3.4976265836057441E-01 a      1477     0    62     1    13
 -2.0251812793249618E-01 a      1478     0    62     1    14
 -1.7299249857710450E-01 a      1479     0    62     1    15
  2.1352241772373975E-01 a      1480     0    62     1    16
 -8.4825353069262155E-01 a      1481     0    62     1    17
 -4.1187151974994629E-01 a      1482     0    62     1    18
  7.7372324990811769E-01 a      1483     0    62     1    19
 -7.4307208501026997E-02 a      1484     0    62     1    20
  9.6938011545126146E-01 a      1485     0    62     1    21
 -1.6474605880792570E-01 a      1486     0    62     1    22
  2.6463770721187374E-01 a      1487     0    62     1    23
 -1.0511143470786691E-01 a      1488     0    62     1    24
 -1.2456362320891321E+00 a      1489     0    63     1     1
  4.1038355716625624E-01 a      1490     0    63     1     2
  4.7536421409840202E-01 a      1491     0    63     1     3
  8.6245293640892140E-01 a      1492     0    63     1     4
  9.2979130872063553E-01 a      1493     0    63     1     5
 -5.2029857432786131E-01 a      1494     0    63     1     6
  3.6858892029685736E-01 a      1495     0    63     1     7
 -1.3959800535813019E-02 a      1496     0    63     1     8
  7.2044136618028876E-01 a      1497     0    63     1     9
  3.9479501465866751E-01 a      1498     0    63     1    10
 -2.0825447520660795E-01 a      1499     0    63     1    11
 -4.5914945867693130E-01 a      1500     0    63     1    12
  8.1182580006587596E-02 a      1501     0    63     1    13
 -5.0202198942011267E-01 a      1502     0    63     1    14
  3.3152600663887549E-01 a      1503     0    63     1    15
  6.1456874642536341E-01 a      1504     0    63     1    16
  4.2403643591846091E-02 a      1505     0    63     1    17
  1.9846461485651803E-01 a      1506     0    63     1    18
 -8.0184962294267625E-01 a      1507     0    63     1    19
 -2.2770089844362679E-01 a      1508     0    63     1    20
 -8.9689734103783747E-01 a      1509     0    63     1    21
  1.7124250574031472E-01 a      1510     0    63     1    22
 -5.6106340703228597E-01 a      1511     0    63     1    23
  6.5122080961147699E-01 a      1512     0    63     1    24
  2.5949522051397417E-01 a      1513     0    64     1     1
 -9.3515168555664052E-02 a      1514     0    64     1     2
 -2.1847538376636316E-01 a      1515     0    64     1     3
 -9.8124163099571782E-01 a      1516     0    64     1     4
  4.1813322038001241E-02 a      1517     0    64     1     5
  5.4237687651380329E-01 a      1518     0    64     1     6
 -5.4385918693228241E-01 a      1519     0    64     1     7
 -6.4303327423256118E-02 a      1520     0    64     1     8
 -3.6212191379472974E-01 a      1521     0    64     1     9
 -2.7322708022780867E-01 a      1522     0    64     1    10
 -6.5967620892764045E-01 a      1523     0    64     1    11
  5.3594557821514410E-01 a      1524     0    64     1    12
 -3.6235453699433362E-01 a      1525     0    64     1    13
 -8.7113689012293230E-02 a      1526     0    64     1    14
 -9.6912292841119269E-02 a      1527     0    64     1    15
  1.1187655145449813E+00 a      1528     0    64     1    16
  1.8865657364500518E-01 a      1529     0    64     1    17
 -1.2728031816699334E+00 a      1530     0    64     1    18
  4.5994558284380205E-01 a      1531     0    64     1    19
  8.0853962266502238E-02 a      1532     0    64     1    20
  3.4453831998502271E-01 a      1533     0    64     1    21
 -2.3368558413834228E-01 a      1534     0    64     1    22
 -2.6949368774738047E-01 a      1535     0    64     1    23
 -3.5523691306646549E-01 a      1536     0    64     1    24
  2.5498132175028676E-01 a      1537     0    65     1     1
  1.1994375197238570E-01 a      1538     0    65     1     2
  1.5186485356031451E-01 a      1539     0    65     1     3
  1.9888032983590517E-01 a      1540     0    65     1     4
 -1.8214979306773954E-01 a      1541     0    65     1     5
  4.1802080347550374E-01 a      1542     0    65     1     6
 -3.1239423305395392E-01 a      1543     0    65     1     7
  9.2307594001320006E-02 a      1544     0    65     1     8
  3.1589246469782706E-01 a      1545     0    65     1     9
 -5.7540445367183231E-02 a      1546     0    65     1    10
  3.7838534792631584E-01 a      1547     0    65     1    11
 -2.1560041855399578E-01 a      1548     0    65     1    12
 -3.0237069196693439E-01 a      1549     0    65     1    13
  1.0509429027832992E-01 a      1550     0    65     1    14
  3.8757954092834002E-02 a      1551     0    65     1    15
 -1.8685927198260011E-01 a      1552     0    65     1    16
  5.3899316161961856E-02 a      1553     0    65     1    17
 -1.5929835015468022E-01 a      1554     0    65     1    18
  7.8550850671796527E-02 a      1555     0    65     1    19
 -2.4085711702893312E-01 a      1556     0    65     1    20
 -3.9346574550124566E-02 a      1557     0    65     1    21
  1.3177734273377123E-01 a      1558     0    65     1    22
 -1.1321068509333448E-01 a      1559     0    65     1    23
 -1.1679762001055710E-01 a      1560     0    65     1    24
  2.9087786392314036E-01 a      1561     0    66     1     1
 -1.5247058359089513E-01 a      1562     0    66     1     2
  1.3710355393062862E-01 a      1563     0    66     1     3
 -2.5439545071065828E-01 a      1564     0    66     1     4
  1.8451321542336672E-02 a      1565     0    66     1     5
  4.2883681559943362E-02 a      1566     0    66     1     6
 -2.0077635090293325E-02 a      1567     0    66     1     7
  2.4833906957397786E-01 a      1568     0    66     1     8
  2.1919318192063583E-01 a      1569     0    66     1     9
 -5.4656176769961803E-02 a      1570     0    66     1    10
  1.0848583820023025E-01 a      1571     0    66     1    11
  8.6582929739449532E-02 a      1572     0    66     1    12
 -2.8363812695326696E-01 a      1573     0    66     1    13
  2.4132681154187352E-01 a      1574     0    66     1    14
 -1.4344604155402027E-01 a      1575     0    66     1    15
  4.8372392470218367E-01 a      1576     0    66     1    16
 -2.7140548811512150E-01 a      1577     0    66     1    17
 -2.1190924790308627E-01 a      1578     0    66     1    18
 -4.7943346578299663E-02 a      1579     0    66     1    19
 -2.3478875777454458E-01 a      1580     0    66     1    20
  1.9966250890260889E-01 a      1581     0    66     1    21
 -1.6396965679312939E-01 a      1582     0    66     1    22
 -1.1077048198249993E-01 a      1583     0    66     1    23
 -2.9198639416980726E-02 a      1584     0    66     1    24
  1.2184834494098351E-01 a      1585     0    67     1     1
 -1.6580087676819555E-01 a      1586     0    67     1     2
  1.4104668951319479E+00 a      1587     0    67     1     3
  2.9584461834716452E-01 a      1588     0    67     1     4
 -2.2269206215407369E-01 a      1589     0    67     1     5
 -9.6122888744498503E-01 a      1590     0    67     1     6
 -6.9949900916834351E-01 a      1591     0    67     1     7
 -3.6736760871189034E-01 a      1592     0    67     1     8
  5.8873803067199578E-03 a      1593     0    67     1     9
 -1.0896599841107457E+00 a      1594     0    67     1    10
  7.0274552574366572E-02 a      1595     0    67     1    11
  2.3611122875897428E-01 a      1596     0    67     1    12
  2.1628784310717009E-01 a      1597     0    67     1    13
  1.0425990072388311E+00 a      1598     0    67     1    14
 -5.2321399134909741E-01 a      1599     0    67     1    15
  4.9695185221987281E-01 a      1600     0    67     1    16
  5.3239659575344223E-01 a      1601     0    67     1    17
 -5.2866996380796216E-01 a      1602     0    67     1    18
  9.8622858493102339E-01 a      1603     0    67     1    19
  4.7014786832189204E-01 a      1604     0    67     1    20
  5.6365516156132800E-01 a      1605     0    67     1    21
  1.8242409489732803E-01 a      1606     0    67     1    22
  8.6392132294942270E-01 a      1607     0    67     1    23
  1.6249976307441200E-01 a      1608     0    67     1    24
 -5.6652505946951082E-01 a      1609     0    68     1     1
  1.5387237571837338E+00 a      1610     0    68     1     2
  5.6234742176634940E-02 a      1611     0    68     1     3
  7.4709370775078043E-01 a      1612     0    68     1     4
  3.4358766052051698E-01 a      1613     0    68     1     5
  3.6850921447421725E-01 a      1614     0    68     1     6
  5.4107352527379160E-01 a      1615     0    68     1     7
  3.1572671651346429E-01 a      1616     0    68     1     8
  6.8828598433690102E-02 a      1617     0    68     1     9
  4.9882783929450697E-02 a      1618     0    68     1    10
  4.9755641026838809E-01 a      1619     0    68     1    11
 -8.4040081359215868E-01 a      1620     0    68     1    12
 -6.3346021385768836E-01 a      1621     0    68     1    13
 -1.6144439646812561E+00 a      1622     0    68     1    14
 -3.7355073171398268E-01 a      1623     0    68     1    15
