################################################################################
# Neural network connection values (weights and biases).
################################################################################
# Col  Name       Description
################################################################################
# 1    connection Neural network connection value.
# 2    t          Connection type (a = weight, b = bias).
# 3    index      Index enumerating weights.
# 4    l_s        Starting point layer (end point layer for biases).
# 5    n_s        Starting point neuron in starting layer (end point neuron for biases).
# 6    l_e        End point layer.
# 7    n_e        End point neuron in end layer.
################################################################################
#                      1 2         3     4     5     6     7
#             connection t     index   l_s   n_s   l_e   n_e
############################################################
 -4.7056187222853640E-01 a         1     0     1     1     1
 -1.0750319127502441E+00 a         2     0     1     1     2
 -3.3193044485402078E-02 a         3     0     1     1     3
  7.6205888362445862E-01 a         4     0     1     1     4
  9.3022682553214386E-01 a         5     0     1     1     5
  4.9134480440691415E-02 a         6     0     1     1     6
  3.6459660025341151E-01 a         7     0     1     1     7
 -6.6837711473144412E-01 a         8     0     1     1     8
 -4.1609367181161838E-01 a         9     0     1     1     9
 -6.0761845150364580E-01 a        10     0     1     1    10
  5.7482618972955102E-01 a        11     0     1     1    11
  5.1590398285485251E-01 a        12     0     1     1    12
  4.4772920031961760E-01 a        13     0     1     1    13
  3.6713677865436156E-01 a        14     0     1     1    14
  1.4850163356338347E-01 a        15     0     1     1    15
  5.7956204555255963E-01 a        16     0     1     1    16
  2.2598449374266208E-01 a        17     0     1     1    17
  6.0205846251552209E-01 a        18     0     1     1    18
  2.9080059140074732E-01 a        19     0     1     1    19
  5.5232681990701049E-01 a        20     0     1     1    20
 -4.5957174259216188E-01 a        21     0     1     1    21
  1.2041271577424684E+00 a        22     0     1     1    22
 -6.6218947511830439E-01 a        23     0     1     1    23
 -9.6464834553798529E-01 a        24     0     1     1    24
  8.2181590775220179E-02 a        25     0     2     1     1
 -5.5917388104123562E-02 a        26     0     2     1     2
 -3.3871986632023854E-01 a        27     0     2     1     3
  1.0314132042690090E+00 a        28     0     2     1     4
 -5.3286912452550947E-02 a        29     0     2     1     5
  3.0013030493231718E-01 a        30     0     2     1     6
 -1.4796088595360177E-01 a        31     0     2     1     7
 -3.0562206023014010E-01 a        32     0     2     1     8
  2.7374965416456187E-01 a        33     0     2     1     9
 -4.2604435763669501E-01 a        34     0     2     1    10
 -8.3585425715501607E-02 a        35     0     2     1    11
 -2.9830842824775661E-01 a        36     0     2     1    12
  9.1195838050044817E-02 a        37     0     2     1    13
  2.8099677309377008E-01 a        38     0     2     1    14
  4.9962534524502278E-02 a        39     0     2     1    15
  1.8337725578555203E-01 a        40     0     2     1    16
  1.9254858461234131E-01 a        41     0     2     1    17
 -4.5779545923239079E-01 a        42     0     2     1    18
 -7.0444408361712119E-02 a        43     0     2     1    19
 -7.6776868864172676E-02 a        44     0     2     1    20
  2.2288005331039298E-01 a        45     0     2     1    21
 -3.8709167982523401E-01 a        46     0     2     1    22
 -3.8347492689834334E-01 a        47     0     2     1    23
  7.7505450273074805E-01 a        48     0     2     1    24
 -5.4702029906615746E-01 a        49     0     3     1     1
  3.1759769437541824E-01 a        50     0     3     1     2
  1.4276514948165717E-01 a        51     0     3     1     3
  5.7946655080605081E-01 a        52     0     3     1     4
  4.7880387939485020E-01 a        53     0     3     1     5
 -3.1087177343336936E-01 a        54     0     3     1     6
 -6.5178920348735361E-02 a        55     0     3     1     7
 -9.3094040311184378E-01 a        56     0     3     1     8
 -9.0819066665698681E-02 a        57     0     3     1     9
 -7.4399561467018427E-01 a        58     0     3     1    10
 -5.6838197635883325E-01 a        59     0     3     1    11
 -2.6504054455594711E-01 a        60     0     3     1    12
  4.0294123613200378E-01 a        61     0     3     1    13
  1.0876275121185261E-01 a        62     0     3     1    14
  4.9265479871823692E-01 a        63     0     3     1    15
 -4.2338382097508488E-03 a        64     0     3     1    16
 -1.2646494223632192E+00 a        65     0     3     1    17
  8.8445936552906057E-01 a        66     0     3     1    18
 -9.9352756287453470E-01 a        67     0     3     1    19
 -1.8194817352589712E-01 a        68     0     3     1    20
  1.6401571053581027E-01 a        69     0     3     1    21
 -5.7387860628489507E-01 a        70     0     3     1    22
 -6.0615126187060253E-01 a        71     0     3     1    23
  1.2858212781219974E-01 a        72     0     3     1    24
 -2.2598695846928465E-01 a        73     0     4     1     1
 -1.0921798417038766E+00 a        74     0     4     1     2
  1.1675675691145314E-01 a        75     0     4     1     3
  1.5550563655272626E-01 a        76     0     4     1     4
  3.5939704361821179E-01 a        77     0     4     1     5
  5.2342953846408768E-01 a        78     0     4     1     6
 -7.5637786889993383E-02 a        79     0     4     1     7
 -2.3748455258695719E-01 a        80     0     4     1     8
 -5.5968033708027734E-02 a        81     0     4     1     9
 -5.8969034578103507E-01 a        82     0     4     1    10
  4.3849892580247651E-01 a        83     0     4     1    11
 -3.2251290373597385E-01 a        84     0     4     1    12
 -1.2031697252943128E-01 a        85     0     4     1    13
 -8.6597753735184579E-01 a        86     0     4     1    14
  6.5431443953410462E-01 a        87     0     4     1    15
  8.1381019597897911E-02 a        88     0     4     1    16
  2.3220143557601408E-01 a        89     0     4     1    17
 -4.3784674632593573E-01 a        90     0     4     1    18
 -1.9387395923255721E-01 a        91     0     4     1    19
 -3.1118862467916859E-02 a        92     0     4     1    20
 -1.8786631111347746E-01 a        93     0     4     1    21
 -6.2525645361016202E-01 a        94     0     4     1    22
 -1.0691708207567823E+00 a        95     0     4     1    23
 -7.2145366753632878E-01 a        96     0     4     1    24
 -4.4841836966185702E-03 a        97     0     5     1     1
 -8.1209710814287994E-01 a        98     0     5     1     2
  3.0850491509307232E-01 a        99     0     5     1     3
 -7.3908772669139011E-01 a       100     0     5     1     4
 -5.3287166691811627E-01 a       101     0     5     1     5
 -6.5340481173531673E-01 a       102     0     5     1     6
 -1.8891099733337133E-01 a       103     0     5     1     7
  9.0027767316137564E-01 a       104     0     5     1     8
  2.4201417393666283E-02 a       105     0     5     1     9
  1.5640245037547074E-01 a       106     0     5     1    10
  4.9638935483878066E-01 a       107     0     5     1    11
 -1.2414011957151114E-01 a       108     0     5     1    12
 -3.4127971456487427E-01 a       109     0     5     1    13
  3.3547053513670450E-01 a       110     0     5     1    14
 -4.5400997094127699E-01 a       111     0     5     1    15
  4.8775076629750458E-01 a       112     0     5     1    16
  3.4853923879283361E-01 a       113     0     5     1    17
  6.5951012637608233E-02 a       114     0     5     1    18
 -4.5320478034038997E-01 a       115     0     5     1    19
  4.0167109452834476E-01 a       116     0     5     1    20
  4.6170657858418111E-02 a       117     0     5     1    21
 -1.7009563598210743E-02 a       118     0     5     1    22
 -1.1416268918495955E+00 a       119     0     5     1    23
 -8.7425450341143884E-01 a       120     0     5     1    24
 -1.6777101501832825E-01 a       121     0     6     1     1
 -4.0618308479904863E-01 a       122     0     6     1     2
  3.1717012858146831E-01 a       123     0     6     1     3
  3.1893120663654767E-01 a       124     0     6     1     4
  5.1464001927823477E-01 a       125     0     6     1     5
 -2.4412262751406172E-01 a       126     0     6     1     6
  3.5979178253082295E-01 a       127     0     6     1     7
 -3.9688719839568393E-01 a       128     0     6     1     8
 -2.7524178917504011E-01 a       129     0     6     1     9
 -2.8241895137929829E-01 a       130     0     6     1    10
  5.6089754546552106E-01 a       131     0     6     1    11
 -5.8243213893169221E-01 a       132     0     6     1    12
 -1.0903012681512356E-01 a       133     0     6     1    13
 -6.1947429905382288E-02 a       134     0     6     1    14
  7.9604730949245150E-01 a       135     0     6     1    15
 -2.1024922167022930E-01 a       136     0     6     1    16
 -9.7280247422836830E-01 a       137     0     6     1    17
 -3.7803957791161363E-01 a       138     0     6     1    18
 -5.5836654933706820E-01 a       139     0     6     1    19
  2.7216142150129990E-01 a       140     0     6     1    20
 -2.9924455103126418E-01 a       141     0     6     1    21
 -2.1245914535206473E-01 a       142     0     6     1    22
 -4.0612619634882785E-01 a       143     0     6     1    23
  5.2898808009905329E-01 a       144     0     6     1    24
  3.9771811953566277E-01 a       145     0     7     1     1
  2.3377996286186759E-01 a       146     0     7     1     2
  4.5891698102165729E-01 a       147     0     7     1     3
 -7.8216576247089020E-01 a       148     0     7     1     4
  6.0239612120678998E-01 a       149     0     7     1     5
 -3.3241057207634411E-01 a       150     0     7     1     6
  1.0859521359964489E-01 a       151     0     7     1     7
  3.1743087263628839E-01 a       152     0     7     1     8
 -2.6603182229618727E-01 a       153     0     7     1     9
  1.8689373008315882E-01 a       154     0     7     1    10
 -2.4105466175471196E-01 a       155     0     7     1    11
 -4.8864141524289639E-02 a       156     0     7     1    12
 -1.5979732396795631E-02 a       157     0     7     1    13
 -2.0190012486161510E-01 a       158     0     7     1    14
 -2.7041529436775535E-01 a       159     0     7     1    15
  3.2170643655896197E-01 a       160     0     7     1    16
  5.7054885191109805E-01 a       161     0     7     1    17
 -1.5440816998322933E-02 a       162     0     7     1    18
 -3.6068431334708495E-01 a       163     0     7     1    19
  2.5083959303204706E-01 a       164     0     7     1    20
  2.0456625394144973E-01 a       165     0     7     1    21
  3.0888707192357678E-01 a       166     0     7     1    22
 -6.5107577797668473E-02 a       167     0     7     1    23
  3.7105060329885314E-01 a       168     0     7     1    24
  2.2540773029015770E-01 a       169     0     8     1     1
  2.0370966305089333E-01 a       170     0     8     1     2
  2.8319823288125157E-01 a       171     0     8     1     3
  9.3149703712155571E-02 a       172     0     8     1     4
  2.2683717057263741E-02 a       173     0     8     1     5
 -2.8716595551601526E-01 a       174     0     8     1     6
 -6.3660412136954572E-02 a       175     0     8     1     7
 -2.1355422345254008E-01 a       176     0     8     1     8
  4.6419675769243357E-02 a       177     0     8     1     9
  1.4400955979342150E-01 a       178     0     8     1    10
  1.1306657071419028E-01 a       179     0     8     1    11
 -4.1095621107571240E-01 a       180     0     8     1    12
  5.4683958344442596E-01 a       181     0     8     1    13
 -9.5475568546258868E-02 a       182     0     8     1    14
 -2.9763998191779567E-01 a       183     0     8     1    15
 -1.1503713998779286E-01 a       184     0     8     1    16
 -5.7086516616924365E-01 a       185     0     8     1    17
  1.7898865719037219E-01 a       186     0     8     1    18
 -4.9732885903936935E-01 a       187     0     8     1    19
 -4.7358577410065378E-01 a       188     0     8     1    20
 -3.4115113643679296E-01 a       189     0     8     1    21
 -2.6038342343539761E-01 a       190     0     8     1    22
  1.0272460642824440E-02 a       191     0     8     1    23
  4.2636883665817626E-01 a       192     0     8     1    24
 -1.6109908104279366E-01 a       193     0     9     1     1
  1.2757030127650174E-01 a       194     0     9     1     2
  3.0694419747555341E-02 a       195     0     9     1     3
  2.5878941422398348E-02 a       196     0     9     1     4
 -1.9206188712112292E-02 a       197     0     9     1     5
 -9.4257372218278263E-02 a       198     0     9     1     6
  6.1156177131573473E-02 a       199     0     9     1     7
 -9.7146648478050518E-02 a       200     0     9     1     8
  6.3121490535003426E-03 a       201     0     9     1     9
 -1.1570296168866548E-01 a       202     0     9     1    10
  1.8952388419292275E-02 a       203     0     9     1    11
  1.9622334346222299E-02 a       204     0     9     1    12
 -3.1042587865818958E-02 a       205     0     9     1    13
  2.8356649935102091E-02 a       206     0     9     1    14
 -1.4932754563746969E-01 a       207     0     9     1    15
  2.4263525912116026E-02 a       208     0     9     1    16
 -5.1970814749402218E-02 a       209     0     9     1    17
  3.5213261187047526E-02 a       210     0     9     1    18
 -7.1362609549087908E-02 a       211     0     9     1    19
 -1.2419577807925952E-01 a       212     0     9     1    20
 -4.7323382633391281E-02 a       213     0     9     1    21
  8.1123656117181170E-02 a       214     0     9     1    22
 -2.4179797024374444E-01 a       215     0     9     1    23
 -2.0284327045581413E-01 a       216     0     9     1    24
  2.5991903445929143E-01 a       217     0    10     1     1
 -2.6475993642996237E-01 a       218     0    10     1     2
 -1.7444741096660976E-01 a       219     0    10     1     3
  1.1127972893531736E-01 a       220     0    10     1     4
 -2.1837953572446434E-01 a       221     0    10     1     5
  4.2989388842744572E-02 a       222     0    10     1     6
  1.2852077592760722E-01 a       223     0    10     1     7
  2.7282525613092490E-01 a       224     0    10     1     8
  1.1579804452760804E-01 a       225     0    10     1     9
  2.6142076135620440E-01 a       226     0    10     1    10
  2.3155160454520468E-01 a       227     0    10     1    11
 -1.8243756866385193E-02 a       228     0    10     1    12
 -1.5596634640821197E-01 a       229     0    10     1    13
 -3.6648369518080301E-02 a       230     0    10     1    14
 -4.5526913040363583E-02 a       231     0    10     1    15
  1.1307525380397507E-01 a       232     0    10     1    16
  4.9809951200329505E-01 a       233     0    10     1    17
 -2.0954574854096808E-01 a       234     0    10     1    18
  4.8448787862221637E-01 a       235     0    10     1    19
 -4.0466925298951635E-02 a       236     0    10     1    20
  1.8435361140717055E-04 a       237     0    10     1    21
  3.7528846134195748E-01 a       238     0    10     1    22
  2.3864277617142113E-01 a       239     0    10     1    23
  5.3465613897173003E-01 a       240     0    10     1    24
 -1.0678019346272759E-01 a       241     0    11     1     1
 -7.4982680953423822E-02 a       242     0    11     1     2
 -7.5111222315378909E-02 a       243     0    11     1     3
  6.9083296862976845E-02 a       244     0    11     1     4
  1.2776929723559519E-01 a       245     0    11     1     5
 -7.6109163115604950E-02 a       246     0    11     1     6
  2.4902789375746401E-02 a       247     0    11     1     7
 -5.1542371343833437E-02 a       248     0    11     1     8
  3.1961713639480492E-02 a       249     0    11     1     9
 -1.7755192399230635E-01 a       250     0    11     1    10
  1.3807330574715590E-01 a       251     0    11     1    11
 -1.2082337409314674E-01 a       252     0    11     1    12
 -1.0671563870209848E-01 a       253     0    11     1    13
  1.8393443447234328E-01 a       254     0    11     1    14
  2.0931476877854974E-01 a       255     0    11     1    15
 -1.0404626205464915E-01 a       256     0    11     1    16
 -5.5843023996849574E-02 a       257     0    11     1    17
 -3.8387253638476788E-02 a       258     0    11     1    18
 -1.8152420068794351E-02 a       259     0    11     1    19
 -9.0779103577144124E-02 a       260     0    11     1    20
 -1.0126606558903695E-01 a       261     0    11     1    21
  4.2457008487696284E-02 a       262     0    11     1    22
 -3.5143558743717540E-01 a       263     0    11     1    23
  3.2165987995377560E-01 a       264     0    11     1    24
 -6.4526765484357984E-02 a       265     0    12     1     1
  1.0981823108920502E-01 a       266     0    12     1     2
  7.0463424610281156E-02 a       267     0    12     1     3
  2.3834683020310145E-02 a       268     0    12     1     4
  1.3637016800178689E-01 a       269     0    12     1     5
 -1.1078549968514709E-01 a       270     0    12     1     6
 -2.6820788965044362E-02 a       271     0    12     1     7
 -1.1913488039605759E-01 a       272     0    12     1     8
  9.8992312229534252E-02 a       273     0    12     1     9
 -2.7736131490486621E-02 a       274     0    12     1    10
  8.0856489811374818E-02 a       275     0    12     1    11
 -5.4082092530001055E-02 a       276     0    12     1    12
  2.6356966186146823E-02 a       277     0    12     1    13
  5.3589145199409577E-02 a       278     0    12     1    14
 -1.4940081744957440E-01 a       279     0    12     1    15
 -3.0334903765303664E-02 a       280     0    12     1    16
 -1.0704538105799802E-01 a       281     0    12     1    17
 -1.5859286643060827E-01 a       282     0    12     1    18
 -5.4921312603276817E-02 a       283     0    12     1    19
  1.9839511628599309E-02 a       284     0    12     1    20
 -2.0790782994731796E-01 a       285     0    12     1    21
 -1.8958155374140306E-01 a       286     0    12     1    22
 -5.0719962347817442E-02 a       287     0    12     1    23
 -3.5110752522100774E-01 a       288     0    12     1    24
 -2.4807616910007790E-01 a       289     0    13     1     1
 -3.5045567448530358E-02 a       290     0    13     1     2
  2.4663323022203304E-01 a       291     0    13     1     3
 -2.7321177610252728E-01 a       292     0    13     1     4
 -8.1185206341633148E-02 a       293     0    13     1     5
 -1.1105186679696849E-01 a       294     0    13     1     6
 -1.2622999264688947E-01 a       295     0    13     1     7
 -6.6963611888376323E-02 a       296     0    13     1     8
 -5.5614740152866445E-02 a       297     0    13     1     9
 -2.3416801133936385E-01 a       298     0    13     1    10
  3.7866931857410524E-02 a       299     0    13     1    11
  7.3744461405500783E-02 a       300     0    13     1    12
  9.3509671987358836E-03 a       301     0    13     1    13
 -3.6493820171153504E-02 a       302     0    13     1    14
  7.9262070894634856E-02 a       303     0    13     1    15
 -6.2135513650933196E-03 a       304     0    13     1    16
 -3.0745681141327269E-01 a       305     0    13     1    17
  5.0863592383132566E-02 a       306     0    13     1    18
 -2.8194744783931419E-01 a       307     0    13     1    19
 -6.2711401926331470E-02 a       308     0    13     1    20
 -3.9289775721488070E-02 a       309     0    13     1    21
  5.7371129489594608E-02 a       310     0    13     1    22
 -4.1194632851011638E-02 a       311     0    13     1    23
 -2.0359804741578477E-01 a       312     0    13     1    24
 -1.4955241979362530E-02 a       313     0    14     1     1
 -1.3712443800054491E-01 a       314     0    14     1     2
 -2.4295430434266846E-01 a       315     0    14     1     3
  2.9156677343785964E-01 a       316     0    14     1     4
 -1.0412726385033134E-02 a       317     0    14     1     5
 -4.8080633210228242E-02 a       318     0    14     1     6
  5.6031862944024308E-03 a       319     0    14     1     7
 -1.4815315835034190E-01 a       320     0    14     1     8
 -2.2353649675576150E-02 a       321     0    14     1     9
 -9.9550910582737559E-02 a       322     0    14     1    10
 -7.0783024492776639E-02 a       323     0    14     1    11
  1.8020823696328868E-02 a       324     0    14     1    12
  1.5942013627340865E-01 a       325     0    14     1    13
  6.6497734924779645E-02 a       326     0    14     1    14
  3.3665756684841758E-02 a       327     0    14     1    15
  9.2781976363850882E-02 a       328     0    14     1    16
  2.4595401677020214E-02 a       329     0    14     1    17
  7.8674823892680615E-02 a       330     0    14     1    18
 -3.7457242551534324E-03 a       331     0    14     1    19
 -1.0304835989551321E-01 a       332     0    14     1    20
 -1.7344908054347699E-02 a       333     0    14     1    21
 -8.3982283825881368E-02 a       334     0    14     1    22
  1.0727431508344091E-03 a       335     0    14     1    23
  1.7201103290395098E-01 a       336     0    14     1    24
 -1.0936711442064209E-01 a       337     0    15     1     1
  1.6855792748431533E-01 a       338     0    15     1     2
  1.1877590915159336E-02 a       339     0    15     1     3
 -1.5154021125267836E-01 a       340     0    15     1     4
 -6.9541186811556188E-02 a       341     0    15     1     5
 -5.1528245943569702E-02 a       342     0    15     1     6
  9.9033373282273490E-02 a       343     0    15     1     7
  6.3799072340408797E-02 a       344     0    15     1     8
  4.5335703047514837E-02 a       345     0    15     1     9
 -6.3285779158692879E-02 a       346     0    15     1    10
 -5.7246691660033440E-02 a       347     0    15     1    11
 -3.7835656041661378E-02 a       348     0    15     1    12
 -1.7704510769875156E-01 a       349     0    15     1    13
  4.9284272632002857E-02 a       350     0    15     1    14
  3.6629917036600962E-01 a       351     0    15     1    15
  1.1437843374792400E-01 a       352     0    15     1    16
 -3.4146713010784251E-02 a       353     0    15     1    17
 -6.2367728745583356E-02 a       354     0    15     1    18
  7.8673157973066128E-03 a       355     0    15     1    19
 -1.5020504237448901E-01 a       356     0    15     1    20
 -4.2345042562270445E-02 a       357     0    15     1    21
 -4.4919114335161575E-02 a       358     0    15     1    22
 -1.8278070269279859E-01 a       359     0    15     1    23
  5.3906027033939496E-01 a       360     0    15     1    24
  2.7386255207053978E-01 a       361     0    16     1     1
  3.4980301735614600E-01 a       362     0    16     1     2
  1.0245240415423805E-01 a       363     0    16     1     3
 -1.3752810019727937E-01 a       364     0    16     1     4
 -2.7159778332509582E-01 a       365     0    16     1     5
  2.6970457055800479E-01 a       366     0    16     1     6
  3.0484057023713057E-01 a       367     0    16     1     7
  6.0971543113117373E-02 a       368     0    16     1     8
 -7.1177413597638753E-02 a       369     0    16     1     9
 -1.6836690245992134E-01 a       370     0    16     1    10
 -2.8847471956600427E-02 a       371     0    16     1    11
  2.2813788147879954E-01 a       372     0    16     1    12
  1.2145141345032762E-01 a       373     0    16     1    13
  8.5865745715022160E-02 a       374     0    16     1    14
 -1.0800166952810841E-01 a       375     0    16     1    15
 -1.5388416170643439E-02 a       376     0    16     1    16
  3.6387508940277774E-01 a       377     0    16     1    17
 -5.4671245211392117E-01 a       378     0    16     1    18
 -1.4939421702894140E-01 a       379     0    16     1    19
 -3.2117551025797582E-03 a       380     0    16     1    20
 -4.2162326770675124E-01 a       381     0    16     1    21
  7.1283075699574332E-03 a       382     0    16     1    22
  3.6465673259186293E-01 a       383     0    16     1    23
 -8.9370509854049573E-01 a       384     0    16     1    24
  1.1342258726224705E-01 a       385     0    17     1     1
  2.2422772074608358E-02 a       386     0    17     1     2
 -8.3788061274653367E-02 a       387     0    17     1     3
  1.1269983490113440E-01 a       388     0    17     1     4
  3.0584575700167673E-02 a       389     0    17     1     5
  3.7374057816041417E-02 a       390     0    17     1     6
  3.9591301420195277E-02 a       391     0    17     1     7
  1.1813811451949392E-01 a       392     0    17     1     8
  6.8675203291913831E-02 a       393     0    17     1     9
  1.0335969383264440E-01 a       394     0    17     1    10
  2.2872804631014484E-02 a       395     0    17     1    11
 -1.8437520350818570E-01 a       396     0    17     1    12
 -1.7818534098965270E-02 a       397     0    17     1    13
  4.4095919458371727E-02 a       398     0    17     1    14
  3.2961076568595975E-02 a       399     0    17     1    15
 -1.4002780715424740E-01 a       400     0    17     1    16
  1.9049090548534436E-01 a       401     0    17     1    17
 -4.4094427068346589E-03 a       402     0    17     1    18
  1.9366010292844987E-01 a       403     0    17     1    19
  4.6036260458586074E-02 a       404     0    17     1    20
 -1.2585821436749242E-03 a       405     0    17     1    21
 -8.2734948900227659E-02 a       406     0    17     1    22
  7.3874836620858197E-02 a       407     0    17     1    23
  2.1251994651578374E-01 a       408     0    17     1    24
  4.2574605160126573E-02 a       409     0    18     1     1
 -7.4544586686717679E-02 a       410     0    18     1     2
  6.5705696946130779E-02 a       411     0    18     1     3
  9.8812539144151099E-02 a       412     0    18     1     4
  5.1799256225926113E-02 a       413     0    18     1     5
 -1.5300698237045326E-02 a       414     0    18     1     6
 -5.1870414420242685E-02 a       415     0    18     1     7
  1.1196351445985694E-01 a       416     0    18     1     8
 -5.1177185477587414E-02 a       417     0    18     1     9
  4.5636597077628328E-02 a       418     0    18     1    10
  5.4743313236688101E-02 a       419     0    18     1    11
 -5.1679984311667405E-02 a       420     0    18     1    12
  3.3907840708889789E-02 a       421     0    18     1    13
  2.3507460735659919E-02 a       422     0    18     1    14
 -1.0404494979007888E-01 a       423     0    18     1    15
  4.8302179348559723E-02 a       424     0    18     1    16
  3.5892675463441291E-02 a       425     0    18     1    17
  2.8243375153865685E-02 a       426     0    18     1    18
  7.2920514199749153E-02 a       427     0    18     1    19
  7.8212026189395337E-02 a       428     0    18     1    20
  9.0715770517648689E-02 a       429     0    18     1    21
 -7.5678344598387251E-02 a       430     0    18     1    22
 -1.0925794504789915E-01 a       431     0    18     1    23
 -1.5250907133621275E-01 a       432     0    18     1    24
 -2.4529997136674883E-01 a       433     0    19     1     1
  1.0780710333696232E-01 a       434     0    19     1     2
 -2.7228408485546456E-02 a       435     0    19     1     3
 -1.5374318806045342E-01 a       436     0    19     1     4
  6.8972087932851855E-01 a       437     0    19     1     5
 -1.3766007222905774E-01 a       438     0    19     1     6
 -1.4278016153350137E-01 a       439     0    19     1     7
 -8.7566719976980067E-02 a       440     0    19     1     8
  6.8919069004586553E-02 a       441     0    19     1     9
 -2.7346255434637251E-01 a       442     0    19     1    10
 -1.7035131727268782E-01 a       443     0    19     1    11
 -8.0724050637290920E-02 a       444     0    19     1    12
  8.4127527161446933E-02 a       445     0    19     1    13
 -5.9327489156918822E-02 a       446     0    19     1    14
  6.8310475593264697E-02 a       447     0    19     1    15
 -2.9281538440228633E-01 a       448     0    19     1    16
 -4.7709354296766004E-01 a       449     0    19     1    17
 -3.3657431602820545E-02 a       450     0    19     1    18
 -5.9211824315311767E-01 a       451     0    19     1    19
  1.1555260143872503E-01 a       452     0    19     1    20
  2.6520992305700746E-02 a       453     0    19     1    21
 -8.1575598466572241E-01 a       454     0    19     1    22
 -2.0111043760919842E-01 a       455     0    19     1    23
 -1.0527659003449836E+00 a       456     0    19     1    24
 -2.3263317013358698E-01 a       457     0    20     1     1
 -2.3747702510369353E-01 a       458     0    20     1     2
  1.4796969628988549E-01 a       459     0    20     1     3
 -4.7719129902505973E-03 a       460     0    20     1     4
  1.2834902885753385E-01 a       461     0    20     1     5
 -1.5676903689899493E-01 a       462     0    20     1     6
  1.5863070548641214E-01 a       463     0    20     1     7
  1.0629690721810632E-03 a       464     0    20     1     8
 -1.1279741118776830E-01 a       465     0    20     1     9
 -4.0225736630709455E-02 a       466     0    20     1    10
  1.8538348366907924E-02 a       467     0    20     1    11
 -6.8972657949714564E-02 a       468     0    20     1    12
  5.8665301900440718E-02 a       469     0    20     1    13
 -1.5055304674767265E-02 a       470     0    20     1    14
  2.4500817255032398E-01 a       471     0    20     1    15
  7.3396374294947372E-02 a       472     0    20     1    16
 -2.0293458304250880E-01 a       473     0    20     1    17
  1.0474929478679878E-02 a       474     0    20     1    18
 -1.4729780963666778E-01 a       475     0    20     1    19
  1.9829530218151104E-01 a       476     0    20     1    20
 -2.4478088006827905E-02 a       477     0    20     1    21
 -3.9734746684250710E-01 a       478     0    20     1    22
 -1.3016965860151527E-02 a       479     0    20     1    23
 -1.2839933230579401E-01 a       480     0    20     1    24
  8.5998966473239069E-02 a       481     0    21     1     1
 -1.9853960043131480E-01 a       482     0    21     1     2
 -3.3606062305949445E-02 a       483     0    21     1     3
  2.1741316520776865E-01 a       484     0    21     1     4
 -1.2872945087575358E-01 a       485     0    21     1     5
 -5.5675892316921279E-02 a       486     0    21     1     6
 -9.8538878920285206E-02 a       487     0    21     1     7
  1.3107849699255719E-01 a       488     0    21     1     8
  6.0853276531112589E-02 a       489     0    21     1     9
  8.7572975566145433E-03 a       490     0    21     1    10
 -5.6635174030350262E-03 a       491     0    21     1    11
 -8.4974347358937467E-04 a       492     0    21     1    12
  1.6066200053058230E-01 a       493     0    21     1    13
 -2.9947432280600907E-02 a       494     0    21     1    14
  1.8482581757087363E-01 a       495     0    21     1    15
  5.1237890561130692E-02 a       496     0    21     1    16
 -3.7172213816619247E-02 a       497     0    21     1    17
  4.2165039809647704E-02 a       498     0    21     1    18
 -9.7764206087050193E-02 a       499     0    21     1    19
 -9.0481613941848213E-02 a       500     0    21     1    20
 -1.1327781882955688E-01 a       501     0    21     1    21
 -2.5086705685568389E-01 a       502     0    21     1    22
 -3.4828672000759807E-02 a       503     0    21     1    23
  2.8351638200934148E-01 a       504     0    21     1    24
 -9.6392258161977554E-04 a       505     0    22     1     1
  6.0504873513746033E-02 a       506     0    22     1     2
  5.3785885883449382E-02 a       507     0    22     1     3
 -1.2152599854936627E-01 a       508     0    22     1     4
 -1.5814229112443234E-01 a       509     0    22     1     5
 -7.3240535672746559E-04 a       510     0    22     1     6
 -3.2592119794222378E-02 a       511     0    22     1     7
 -1.6265775364064070E-01 a       512     0    22     1     8
 -4.7260767561871503E-02 a       513     0    22     1     9
 -4.4241468967782027E-02 a       514     0    22     1    10
  7.3267458239860223E-02 a       515     0    22     1    11
  9.8304218885423886E-02 a       516     0    22     1    12
 -1.0743540711994316E-01 a       517     0    22     1    13
 -7.4565216707051976E-02 a       518     0    22     1    14
 -1.3862578404570133E-01 a       519     0    22     1    15
  4.6361780141890296E-02 a       520     0    22     1    16
 -4.9180712813491493E-03 a       521     0    22     1    17
 -5.4478098744281042E-02 a       522     0    22     1    18
  5.6235707709575498E-02 a       523     0    22     1    19
 -2.5035753423664370E-01 a       524     0    22     1    20
 -1.7920129601541945E-02 a       525     0    22     1    21
  5.2284665654920404E-01 a       526     0    22     1    22
  3.4188035602306578E-02 a       527     0    22     1    23
 -1.5704545069946112E-02 a       528     0    22     1    24
 -1.0540085276858370E-01 a       529     0    23     1     1
  7.4967621858782571E-02 a       530     0    23     1     2
 -3.5202376288498460E-01 a       531     0    23     1     3
 -1.7278583986627599E-02 a       532     0    23     1     4
  4.9106491646094638E-02 a       533     0    23     1     5
 -1.8682347563660866E-02 a       534     0    23     1     6
  1.0037399580660855E-02 a       535     0    23     1     7
 -1.0656908913340375E-01 a       536     0    23     1     8
 -9.2316508008169845E-02 a       537     0    23     1     9
  1.1910289627155646E-01 a       538     0    23     1    10
 -1.5310933762343898E-01 a       539     0    23     1    11
  3.0031775563255349E-02 a       540     0    23     1    12
  1.3014703303562505E-01 a       541     0    23     1    13
 -4.8796791536655643E-02 a       542     0    23     1    14
 -1.3501988672656934E-01 a       543     0    23     1    15
  5.0357175483112623E-02 a       544     0    23     1    16
  1.9121265535778065E-01 a       545     0    23     1    17
 -3.6636924790088551E-02 a       546     0    23     1    18
  1.8294879629155358E-01 a       547     0    23     1    19
 -6.0806865447019735E-02 a       548     0    23     1    20
  2.1097084012097331E-01 a       549     0    23     1    21
 -2.2316845894294485E-01 a       550     0    23     1    22
  6.2835842410832506E-03 a       551     0    23     1    23
 -2.3309247880163259E-01 a       552     0    23     1    24
 -9.9817533009336004E-02 a       553     0    24     1     1
 -2.5524548835135613E-01 a       554     0    24     1     2
  2.7025847981019907E-01 a       555     0    24     1     3
  1.1673669360127481E-01 a       556     0    24     1     4
  3.2616389377760430E-02 a       557     0    24     1     5
 -1.9603963018780417E-02 a       558     0    24     1     6
  1.0219705207024634E-02 a       559     0    24     1     7
  1.9157654425254825E-01 a       560     0    24     1     8
 -6.2965920031111733E-02 a       561     0    24     1     9
 -8.7706637926579109E-02 a       562     0    24     1    10
  5.0694673293091429E-02 a       563     0    24     1    11
 -6.4853962816986271E-02 a       564     0    24     1    12
 -2.8006446887168586E-02 a       565     0    24     1    13
 -5.4011215031657393E-02 a       566     0    24     1    14
  1.4616419502680048E-01 a       567     0    24     1    15
 -3.8258023790162979E-02 a       568     0    24     1    16
 -1.5645229306074354E-01 a       569     0    24     1    17
  1.9968165063173798E-01 a       570     0    24     1    18
 -3.4761217714239290E-01 a       571     0    24     1    19
  2.7768832476519395E-01 a       572     0    24     1    20
 -1.0309094535674765E-02 a       573     0    24     1    21
 -2.5836173731978990E-01 a       574     0    24     1    22
 -2.0871921252332815E-01 a       575     0    24     1    23
  1.7533128816363705E-01 a       576     0    24     1    24
 -1.6857899689450558E-02 a       577     0    25     1     1
 -1.7461092434077047E-01 a       578     0    25     1     2
  4.9663008570223426E-02 a       579     0    25     1     3
  1.4960531176270284E-01 a       580     0    25     1     4
 -2.5998639810643726E-01 a       581     0    25     1     5
  2.7750132433064637E-02 a       582     0    25     1     6
 -2.7041758590967042E-02 a       583     0    25     1     7
 -7.2764005795488099E-02 a       584     0    25     1     8
 -8.0228508753077271E-02 a       585     0    25     1     9
 -2.9534981170244223E-02 a       586     0    25     1    10
  9.7366207102110566E-02 a       587     0    25     1    11
 -9.2620722434237461E-04 a       588     0    25     1    12
  1.1191929704077678E-02 a       589     0    25     1    13
  7.1975174875414244E-02 a       590     0    25     1    14
  6.0351454467032481E-02 a       591     0    25     1    15
  1.9497548416064156E-01 a       592     0    25     1    16
  9.7243809605607370E-02 a       593     0    25     1    17
  1.3984033552097208E-01 a       594     0    25     1    18
  5.9050277320087448E-02 a       595     0    25     1    19
  5.0474154024635128E-02 a       596     0    25     1    20
  1.1515695001080764E-01 a       597     0    25     1    21
  2.5758254998645419E-01 a       598     0    25     1    22
  1.4584984951882617E-02 a       599     0    25     1    23
  5.8888939908023952E-01 a       600     0    25     1    24
  3.2319449547203855E-01 a       601     0    26     1     1
  2.9311032178036051E-01 a       602     0    26     1     2
  7.8591720632181983E-01 a       603     0    26     1     3
  1.7418398598704260E-01 a       604     0    26     1     4
  7.2545189025470647E-01 a       605     0    26     1     5
 -1.1241276976694259E-01 a       606     0    26     1     6
  1.4131053357600859E-01 a       607     0    26     1     7
 -3.3341017251935279E-01 a       608     0    26     1     8
  4.1518590817627099E-01 a       609     0    26     1     9
 -7.5439903575347578E-01 a       610     0    26     1    10
  3.8888283760351167E-01 a       611     0    26     1    11
  7.9676960779801256E-02 a       612     0    26     1    12
 -9.1482350217698322E-02 a       613     0    26     1    13
 -4.7769283261291184E-01 a       614     0    26     1    14
 -6.7277590473184556E-01 a       615     0    26     1    15
 -1.4827645664412387E-01 a       616     0    26     1    16
 -2.3500429781866075E-02 a       617     0    26     1    17
  3.3645965881946405E-01 a       618     0    26     1    18
 -6.4889340721021579E-02 a       619     0    26     1    19
  8.5320029463713876E-01 a       620     0    26     1    20
 -2.6220598561682523E-01 a       621     0    26     1    21
  2.2587248134225330E-01 a       622     0    26     1    22
 -3.1507676224527248E-01 a       623     0    26     1    23
 -9.6154008970436944E-01 a       624     0    26     1    24
  9.3803264873755321E-01 a       625     0    27     1     1
  2.7769278671826347E-01 a       626     0    27     1     2
 -8.7161430281797414E-01 a       627     0    27     1     3
 -8.0090723218135351E-01 a       628     0    27     1     4
  2.4470437574373594E-01 a       629     0    27     1     5
 -6.4798587485635231E-02 a       630     0    27     1     6
  3.8795381381140431E-01 a       631     0    27     1     7
 -6.0100508349647130E-01 a       632     0    27     1     8
  8.0873929528431343E-01 a       633     0    27     1     9
  1.9454596581013564E-01 a       634     0    27     1    10
 -4.7843764026701784E-02 a       635     0    27     1    11
  4.3892651610177087E-02 a       636     0    27     1    12
  2.0242319145170187E-01 a       637     0    27     1    13
  6.3628345038206413E-01 a       638     0    27     1    14
  5.8860118304087006E-01 a       639     0    27     1    15
  4.2010131347612090E-01 a       640     0    27     1    16
 -3.3588358376295840E-01 a       641     0    27     1    17
  3.4302923707835137E-02 a       642     0    27     1    18
 -3.7164286396367330E-01 a       643     0    27     1    19
  3.5987075129684187E-01 a       644     0    27     1    20
 -2.4601872227054936E-01 a       645     0    27     1    21
  1.1017050968200366E+00 a       646     0    27     1    22
 -2.1353540314131308E-01 a       647     0    27     1    23
 -4.8358502500089207E-01 a       648     0    27     1    24
 -7.0234720529477779E-01 a       649     0    28     1     1
  4.0167296026880817E-01 a       650     0    28     1     2
  5.0608962234104493E-02 a       651     0    28     1     3
  4.1023308780756840E-01 a       652     0    28     1     4
 -3.9997243930538390E-01 a       653     0    28     1     5
 -2.3357601513259782E-01 a       654     0    28     1     6
 -5.2729294456850173E-01 a       655     0    28     1     7
  6.1732294902215845E-01 a       656     0    28     1     8
 -3.4599936975381468E-01 a       657     0    28     1     9
 -4.2424325532471321E-03 a       658     0    28     1    10
 -5.7453896571349261E-01 a       659     0    28     1    11
  1.6790248699141788E-01 a       660     0    28     1    12
 -8.5678577196373409E-02 a       661     0    28     1    13
  2.6349449666446606E-01 a       662     0    28     1    14
  2.4498325051994196E-01 a       663     0    28     1    15
  2.7943487351861340E-01 a       664     0    28     1    16
  2.7217006013181289E-01 a       665     0    28     1    17
 -8.5741387852674833E-01 a       666     0    28     1    18
 -2.5900492478940135E-01 a       667     0    28     1    19
 -1.0386777883543887E+00 a       668     0    28     1    20
 -3.4425598303485475E-02 a       669     0    28     1    21
  1.2125601599279599E-01 a       670     0    28     1    22
  7.2695808179175747E-01 a       671     0    28     1    23
  1.5856207543516163E-01 a       672     0    28     1    24
  2.2671095301622823E-01 a       673     0    29     1     1
  1.4958474682665085E-01 a       674     0    29     1     2
  6.6693507341891922E-01 a       675     0    29     1     3
  2.5303450821766293E-01 a       676     0    29     1     4
  7.0887350964932788E-02 a       677     0    29     1     5
  1.6959748750414172E-01 a       678     0    29     1     6
 -2.0887963591460548E-01 a       679     0    29     1     7
 -1.0657595085774532E+00 a       680     0    29     1     8
  6.4065933965126365E-01 a       681     0    29     1     9
  6.5903475393727262E-02 a       682     0    29     1    10
 -1.2985442193795502E-01 a       683     0    29     1    11
 -4.3041421085446324E-01 a       684     0    29     1    12
 -2.5133440772040910E-01 a       685     0    29     1    13
 -4.0358016393961282E-01 a       686     0    29     1    14
 -3.4353340806058336E-01 a       687     0    29     1    15
  1.7701176438276117E-01 a       688     0    29     1    16
  1.8143667696458571E-01 a       689     0    29     1    17
  3.3171863417158232E-01 a       690     0    29     1    18
 -6.5896417814394392E-01 a       691     0    29     1    19
  3.3041707128750369E-01 a       692     0    29     1    20
  2.7004062773759796E-01 a       693     0    29     1    21
  6.2329854167881826E-01 a       694     0    29     1    22
  2.5425659041202464E-01 a       695     0    29     1    23
 -4.4400351547993222E-01 a       696     0    29     1    24
 -3.8056379766703274E-01 a       697     0    30     1     1
 -2.1770437737495651E-01 a       698     0    30     1     2
 -3.7645120386894626E-01 a       699     0    30     1     3
  3.9042061490317015E-01 a       700     0    30     1     4
 -6.0816470449445180E-02 a       701     0    30     1     5
 -5.7039094980690701E-02 a       702     0    30     1     6
 -1.0029896991064997E-01 a       703     0    30     1     7
 -9.3971927684725846E-03 a       704     0    30     1     8
 -2.1735358523415677E-01 a       705     0    30     1     9
  1.1215925228370409E-01 a       706     0    30     1    10
  1.5986111954696405E-01 a       707     0    30     1    11
 -5.1773712104623271E-01 a       708     0    30     1    12
 -3.8926479796424818E-01 a       709     0    30     1    13
 -1.3029764979127248E-01 a       710     0    30     1    14
  1.1151594471667488E-01 a       711     0    30     1    15
 -2.7079160403579977E-01 a       712     0    30     1    16
 -3.3544934350435029E-01 a       713     0    30     1    17
  4.9718112168572015E-01 a       714     0    30     1    18
  2.4511240076984062E-04 a       715     0    30     1    19
  8.7010633463232762E-02 a       716     0    30     1    20
  3.9151137437738759E-01 a       717     0    30     1    21
 -5.2600013061875062E-01 a       718     0    30     1    22
  9.9759781971448983E-02 a       719     0    30     1    23
 -3.3824662168881592E-01 a       720     0    30     1    24
 -9.3308466162119574E-02 a       721     0    31     1     1
  6.9002348198697228E-01 a       722     0    31     1     2
 -2.4617545601186758E-01 a       723     0    31     1     3
  3.4242134771455446E-01 a       724     0    31     1     4
  2.3626692384077205E-01 a       725     0    31     1     5
  7.8820792281312502E-02 a       726     0    31     1     6
 -1.0816250855121001E-01 a       727     0    31     1     7
 -1.8696643117195905E-01 a       728     0    31     1     8
  9.7543940886356240E-04 a       729     0    31     1     9
  3.1086410979142093E-01 a       730     0    31     1    10
  1.3663019019725994E-01 a       731     0    31     1    11
 -3.3467121138052447E-01 a       732     0    31     1    12
  6.3409062348932538E-02 a       733     0    31     1    13
  1.8693591166030524E-01 a       734     0    31     1    14
  2.8351902767455783E-01 a       735     0    31     1    15
 -7.9101350925801974E-03 a       736     0    31     1    16
 -1.8278667764008633E-02 a       737     0    31     1    17
 -1.9972315411030608E-01 a       738     0    31     1    18
 -3.6563836194939708E-01 a       739     0    31     1    19
  2.4653771178215322E-01 a       740     0    31     1    20
  1.0551228135308352E-02 a       741     0    31     1    21
 -8.5643930329735751E-01 a       742     0    31     1    22
 -3.6556090850108658E-01 a       743     0    31     1    23
 -5.6153422686090448E-01 a       744     0    31     1    24
 -2.8994918228608824E-01 a       745     0    32     1     1
  7.6550265710598775E-01 a       746     0    32     1     2
 -1.7801500358709428E+00 a       747     0    32     1     3
  1.4641279530567611E-01 a       748     0    32     1     4
 -3.4358730643376995E-01 a       749     0    32     1     5
 -6.6791045153556028E-01 a       750     0    32     1     6
  1.1609985990496321E+00 a       751     0    32     1     7
 -3.1140234609116468E-01 a       752     0    32     1     8
  3.9425604692405608E-01 a       753     0    32     1     9
  2.5012074803167156E-01 a       754     0    32     1    10
  4.8309872266026738E-01 a       755     0    32     1    11
  2.2814953074428590E-01 a       756     0    32     1    12
  7.4916245152889513E-02 a       757     0    32     1    13
  8.7331997865795807E-01 a       758     0    32     1    14
 -5.1280967971314373E-02 a       759     0    32     1    15
 -3.0491719859689942E-01 a       760     0    32     1    16
  1.1213543659245899E-01 a       761     0    32     1    17
 -8.2857406603470773E-01 a       762     0    32     1    18
 -5.2173657371575877E-01 a       763     0    32     1    19
  4.7183009577023066E-01 a       764     0    32     1    20
 -6.2053643959896343E-01 a       765     0    32     1    21
 -6.0982436674186569E-01 a       766     0    32     1    22
 -3.8640093494176819E-01 a       767     0    32     1    23
 -1.7314659285526608E+00 a       768     0    32     1    24
 -9.3917233784240883E-01 a       769     0    33     1     1
 -3.7090619789921592E-01 a       770     0    33     1     2
 -1.4183627728581323E+00 a       771     0    33     1     3
  5.6862991365381838E-02 a       772     0    33     1     4
  2.1677644109711425E-01 a       773     0    33     1     5
  2.0522385651482075E-01 a       774     0    33     1     6
  1.3255107734613800E+00 a       775     0    33     1     7
 -1.5021161922494880E-01 a       776     0    33     1     8
 -6.0530128471898714E-01 a       777     0    33     1     9
 -7.7340245437082233E-02 a       778     0    33     1    10
 -1.1586069341686667E+00 a       779     0    33     1    11
  5.0425350418867010E-01 a       780     0    33     1    12
 -8.0136410830333860E-01 a       781     0    33     1    13
 -1.9080334866602837E+00 a       782     0    33     1    14
 -1.2899983384569171E+00 a       783     0    33     1    15
 -1.3422400574969420E-01 a       784     0    33     1    16
  5.5213393714309278E-01 a       785     0    33     1    17
  8.0796737227190621E-02 a       786     0    33     1    18
  4.3716210675177386E-01 a       787     0    33     1    19
 -8.0486418809019389E-01 a       788     0    33     1    20
 -8.1897142335477557E-01 a       789     0    33     1    21
 -5.1867206753936146E-01 a       790     0    33     1    22
 -2.7306683961161277E-01 a       791     0    33     1    23
  5.5483455635586520E-01 a       792     0    33     1    24
  4.9060663438261609E-01 a       793     0    34     1     1
 -2.2933080827925684E-01 a       794     0    34     1     2
  2.5249165263740747E-01 a       795     0    34     1     3
  3.1694346751430645E-02 a       796     0    34     1     4
 -2.3449963119099507E-01 a       797     0    34     1     5
 -3.1236888497795184E-01 a       798     0    34     1     6
 -3.2098735652173677E-01 a       799     0    34     1     7
 -1.4213412972224654E-01 a       800     0    34     1     8
  2.0109020428994354E-01 a       801     0    34     1     9
  6.1389953341852224E-02 a       802     0    34     1    10
  5.7873152775082570E-01 a       803     0    34     1    11
 -2.9901634667854388E-01 a       804     0    34     1    12
  2.1111976901568069E-01 a       805     0    34     1    13
 -2.0809188419005620E-01 a       806     0    34     1    14
 -4.3833165084268050E-01 a       807     0    34     1    15
 -3.2947795682268421E-01 a       808     0    34     1    16
  3.7518220854113699E-01 a       809     0    34     1    17
 -4.2794074599620224E-01 a       810     0    34     1    18
 -3.7561461183560818E-01 a       811     0    34     1    19
  4.2198888479985969E-01 a       812     0    34     1    20
 -4.5019223751740035E-02 a       813     0    34     1    21
 -5.8353946861297845E-01 a       814     0    34     1    22
  5.9920010799648904E-01 a       815     0    34     1    23
  3.9243546424736847E-01 a       816     0    34     1    24
  1.4646960105841100E-01 a       817     0    35     1     1
 -1.7431067018722812E-01 a       818     0    35     1     2
  5.9755849365636349E-01 a       819     0    35     1     3
  4.3087566729695437E-01 a       820     0    35     1     4
  2.9290592364902907E-01 a       821     0    35     1     5
  6.1387301956703844E-01 a       822     0    35     1     6
  1.4881970966588504E-01 a       823     0    35     1     7
  7.1277417500318652E-01 a       824     0    35     1     8
 -1.6290608975982010E-01 a       825     0    35     1     9
  3.2360981286858914E-01 a       826     0    35     1    10
 -9.2931691351853959E-02 a       827     0    35     1    11
  4.3236371090269399E-01 a       828     0    35     1    12
 -1.6341346894935146E-01 a       829     0    35     1    13
  5.9853534961464720E-02 a       830     0    35     1    14
 -6.5493418546618665E-01 a       831     0    35     1    15
  8.6330543789387926E-02 a       832     0    35     1    16
  7.8854193538265194E-01 a       833     0    35     1    17
 -8.7678204772696300E-01 a       834     0    35     1    18
  4.6799914813975285E-01 a       835     0    35     1    19
  3.4394003862404632E-01 a       836     0    35     1    20
 -2.7468179693282085E-01 a       837     0    35     1    21
  8.0527679965530841E-01 a       838     0    35     1    22
  1.5350303228432741E-01 a       839     0    35     1    23
 -6.0683106753183913E-01 a       840     0    35     1    24
  2.8020126392045985E-01 a       841     0    36     1     1
 -5.0892371302363348E-01 a       842     0    36     1     2
 -3.5709140605255846E-01 a       843     0    36     1     3
 -6.5375302438862831E-02 a       844     0    36     1     4
 -6.9924314888140993E-01 a       845     0    36     1     5
 -4.7859878818076490E-01 a       846     0    36     1     6
 -1.5270177184153216E-01 a       847     0    36     1     7
 -3.9178573470644940E-01 a       848     0    36     1     8
  7.4072291000921064E-01 a       849     0    36     1     9
 -7.0696624002873049E-02 a       850     0    36     1    10
  6.0096402944284011E-01 a       851     0    36     1    11
  2.5580280552193918E-01 a       852     0    36     1    12
  5.6815610638929681E-01 a       853     0    36     1    13
 -5.3868002091153755E-01 a       854     0    36     1    14
 -1.9498730016341168E-01 a       855     0    36     1    15
 -7.9831012907493268E-02 a       856     0    36     1    16
 -6.7523553281604232E-01 a       857     0    36     1    17
  5.1251373761173935E-01 a       858     0    36     1    18
 -2.4108768972952438E-01 a       859     0    36     1    19
  4.4538767064517315E-01 a       860     0    36     1    20
 -5.8622338536539337E-02 a       861     0    36     1    21
  1.3925659036834506E+00 a       862     0    36     1    22
  1.7560479882461152E-01 a       863     0    36     1    23
 -1.4030844983748865E+00 a       864     0    36     1    24
  1.1126295875050436E-01 a       865     0    37     1     1
 -1.5833268987388768E-01 a       866     0    37     1     2
 -4.8529525625593062E-01 a       867     0    37     1     3
 -1.9431730043351042E-01 a       868     0    37     1     4
  2.4345034255575226E-01 a       869     0    37     1     5
 -2.0559964817088483E-01 a       870     0    37     1     6
 -1.0290476103937733E-01 a       871     0    37     1     7
 -3.4851967522458277E-01 a       872     0    37     1     8
 -7.6182726950882629E-02 a       873     0    37     1     9
 -3.6675712389098669E-01 a       874     0    37     1    10
 -4.6685723632316913E-02 a       875     0    37     1    11
 -3.3064531057451722E-03 a       876     0    37     1    12
  1.4519401291892259E-01 a       877     0    37     1    13
 -3.1917555733175623E-01 a       878     0    37     1    14
 -1.5836482673106744E-01 a       879     0    37     1    15
 -7.3458152994961515E-02 a       880     0    37     1    16
  4.3281818688830700E-02 a       881     0    37     1    17
  7.3306506887805711E-01 a       882     0    37     1    18
 -4.9361835566757516E-02 a       883     0    37     1    19
  2.7989241157851724E-01 a       884     0    37     1    20
  6.5516723525827936E-01 a       885     0    37     1    21
 -1.2344207214649623E-01 a       886     0    37     1    22
 -2.3341338335996056E-01 a       887     0    37     1    23
 -3.7419095754674592E-01 a       888     0    37     1    24
 -1.7329316747357239E-02 a       889     0    38     1     1
  5.7310289470785647E-01 a       890     0    38     1     2
  2.0661351768856417E-02 a       891     0    38     1     3
  4.2833739416344330E-02 a       892     0    38     1     4
 -1.4900755037206143E-01 a       893     0    38     1     5
  3.4455989399462283E-01 a       894     0    38     1     6
  4.8719693702229894E-01 a       895     0    38     1     7
 -7.0190285887583886E-02 a       896     0    38     1     8
 -3.4955801978679218E-01 a       897     0    38     1     9
  8.1211732760193375E-02 a       898     0    38     1    10
 -1.8854696295116771E-01 a       899     0    38     1    11
  1.7717319507896834E-01 a       900     0    38     1    12
  1.5897216822949789E-01 a       901     0    38     1    13
 -2.1784817021217825E-01 a       902     0    38     1    14
  6.2099686414497968E-01 a       903     0    38     1    15
  2.4687636648631958E-01 a       904     0    38     1    16
 -1.4650838198362359E-01 a       905     0    38     1    17
 -2.4348955129025315E-01 a       906     0    38     1    18
  9.7173111469404369E-02 a       907     0    38     1    19
 -3.9744853855806794E-04 a       908     0    38     1    20
  1.5611258927967681E-01 a       909     0    38     1    21
  4.9066286860747196E-02 a       910     0    38     1    22
 -2.7932562478012213E-01 a       911     0    38     1    23
  5.1500309182486703E-01 a       912     0    38     1    24
  1.1294910574749159E-01 a       913     0    39     1     1
 -3.7705916968943670E-01 a       914     0    39     1     2
  7.8594428193500276E-01 a       915     0    39     1     3
  1.6057760764205833E-01 a       916     0    39     1     4
 -6.0873221822258350E-02 a       917     0    39     1     5
  6.0881740295762887E-01 a       918     0    39     1     6
 -2.3938793310385505E-02 a       919     0    39     1     7
  7.4497961405260771E-01 a       920     0    39     1     8
 -1.0728617885876304E+00 a       921     0    39     1     9
 -2.1382760029948336E-01 a       922     0    39     1    10
  2.3241594904074767E-02 a       923     0    39     1    11
 -2.2439176399560981E-01 a       924     0    39     1    12
 -5.4457798135463609E-01 a       925     0    39     1    13
  1.2897528914325573E-01 a       926     0    39     1    14
 -2.5206450355429105E-01 a       927     0    39     1    15
 -3.0991175880524169E-01 a       928     0    39     1    16
  1.7523729678387581E-01 a       929     0    39     1    17
 -9.0553986264691932E-01 a       930     0    39     1    18
 -8.5620397757606118E-02 a       931     0    39     1    19
 -6.3556199645423384E-01 a       932     0    39     1    20
  8.3019499346873082E-02 a       933     0    39     1    21
 -1.2715833635738039E+00 a       934     0    39     1    22
  2.7972615597556416E-01 a       935     0    39     1    23
  8.7196111697857914E-01 a       936     0    39     1    24
  2.8865600922701562E-01 a       937     0    40     1     1
 -8.1169924307912800E-01 a       938     0    40     1     2
 -6.1299257179665896E-02 a       939     0    40     1     3
  8.4330717919348444E-03 a       940     0    40     1     4
 -4.1879316466265815E-01 a       941     0    40     1     5
  1.5321971636644402E-02 a       942     0    40     1     6
 -1.1751826833265888E+00 a       943     0    40     1     7
  2.6991299884536396E-01 a       944     0    40     1     8
  3.2697069392833972E-01 a       945     0    40     1     9
  2.7591885929113530E-01 a       946     0    40     1    10
  3.5602417044851686E-01 a       947     0    40     1    11
 -4.9483077397345765E-01 a       948     0    40     1    12
  9.8339087005700501E-02 a       949     0    40     1    13
  5.3786737837740939E-01 a       950     0    40     1    14
  4.6523993316972417E-01 a       951     0    40     1    15
 -4.9837778592271176E-01 a       952     0    40     1    16
  1.6865793490958655E-01 a       953     0    40     1    17
  1.2737865490996425E+00 a       954     0    40     1    18
  9.1294191263895275E-01 a       955     0    40     1    19
 -1.1286497651744947E+00 a       956     0    40     1    20
  1.1695447098183198E+00 a       957     0    40     1    21
  9.2251487688772837E-01 a       958     0    40     1    22
  6.7411274285438638E-01 a       959     0    40     1    23
  1.0498008407843311E+00 a       960     0    40     1    24
 -2.5287139732797426E-01 a       961     0    41     1     1
  1.4218704222580552E+00 a       962     0    41     1     2
 -3.4950793028921179E-01 a       963     0    41     1     3
 -1.0440953730405332E-01 a       964     0    41     1     4
  3.1073735175111628E-01 a       965     0    41     1     5
 -9.9064339760770406E-02 a       966     0    41     1     6
  1.9200429353733084E-01 a       967     0    41     1     7
  1.0416947311224732E-01 a       968     0    41     1     8
  7.8681384143504851E-01 a       969     0    41     1     9
  1.7109976476512542E-01 a       970     0    41     1    10
 -8.2911719943753492E-01 a       971     0    41     1    11
  3.2733428119568954E-02 a       972     0    41     1    12
 -8.5922487984720186E-02 a       973     0    41     1    13
  1.1098012674128385E-01 a       974     0    41     1    14
  7.4053208441735519E-02 a       975     0    41     1    15
  1.2465968765279604E-01 a       976     0    41     1    16
  3.7891340044041905E-01 a       977     0    41     1    17
 -5.1128771850344457E-01 a       978     0    41     1    18
  2.2173324707609521E-01 a       979     0    41     1    19
 -9.7621613750248537E-01 a       980     0    41     1    20
  2.9639856936025932E-01 a       981     0    41     1    21
 -6.3004542853471801E-01 a       982     0    41     1    22
  5.6310766471110080E-02 a       983     0    41     1    23
  2.9487425386680843E-01 a       984     0    41     1    24
  1.6197940997160071E-01 a       985     0    42     1     1
  1.8305629011180369E+00 a       986     0    42     1     2
 -3.3362956952760142E-01 a       987     0    42     1     3
  8.3846307581881330E-01 a       988     0    42     1     4
  6.2429087740408107E-01 a       989     0    42     1     5
  1.9136296803948921E-01 a       990     0    42     1     6
  3.1703815476339309E-01 a       991     0    42     1     7
 -6.1987952775576324E-02 a       992     0    42     1     8
 -4.3064842387657530E-02 a       993     0    42     1     9
  7.6104792569545596E-02 a       994     0    42     1    10
  2.4336206298656002E-01 a       995     0    42     1    11
  7.2647538046398785E-02 a       996     0    42     1    12
  9.7627457245311883E-02 a       997     0    42     1    13
 -1.1174068080190875E+00 a       998     0    42     1    14
 -9.0950200707149043E-01 a       999     0    42     1    15
  3.2344409038304761E-01 a      1000     0    42     1    16
  2.0962059806983631E-02 a      1001     0    42     1    17
 -1.4045957387147876E+00 a      1002     0    42     1    18
  9.3829745245389040E-01 a      1003     0    42     1    19
  8.7285406744542959E-01 a      1004     0    42     1    20
 -1.5006990606456059E+00 a      1005     0    42     1    21
  3.3404471194389648E-02 a      1006     0    42     1    22
 -1.8371232393277298E-01 a      1007     0    42     1    23
 -1.1543822766546106E+00 a      1008     0    42     1    24
 -2.1549649009468416E-01 a      1009     0    43     1     1
  3.1786494060063814E-01 a      1010     0    43     1     2
  6.7861481822327796E-01 a      1011     0    43     1     3
 -3.8371490684504922E-01 a      1012     0    43     1     4
  1.0709913581460091E+00 a      1013     0    43     1     5
 -5.2178165561088341E-01 a      1014     0    43     1     6
  2.3457068193485558E-01 a      1015     0    43     1     7
  6.0554008674435034E-01 a      1016     0    43     1     8
 -6.5435582874830478E-01 a      1017     0    43     1     9
 -6.0737247332462319E-01 a      1018     0    43     1    10
  4.3991613505322422E-02 a      1019     0    43     1    11
 -1.0383416338318753E-02 a      1020     0    43     1    12
  1.3958573824854728E-01 a      1021     0    43     1    13
  9.1099179325783342E-01 a      1022     0    43     1    14
 -1.1075679240676986E-01 a      1023     0    43     1    15
  6.0783798402511156E-02 a      1024     0    43     1    16
 -9.3425597360016499E-01 a      1025     0    43     1    17
  2.0844659842339633E-01 a      1026     0    43     1    18
  4.5348539061064209E-02 a      1027     0    43     1    19
 -1.0425673056943516E+00 a      1028     0    43     1    20
 -1.1522582179496751E-01 a      1029     0    43     1    21
  5.7138585008719345E-01 a      1030     0    43     1    22
 -1.0291912358403115E+00 a      1031     0    43     1    23
 -1.0522960811205353E+00 a      1032     0    43     1    24
 -4.5458220592143456E-01 a      1033     0    44     1     1
 -1.5866317226265350E+00 a      1034     0    44     1     2
  1.0273480751172190E+00 a      1035     0    44     1     3
  8.3448238924087342E-02 a      1036     0    44     1     4
 -1.6707810597017561E-01 a      1037     0    44     1     5
  1.3195132182872418E-01 a      1038     0    44     1     6
 -1.3522331111936989E-01 a      1039     0    44     1     7
  4.8055288098148718E-01 a      1040     0    44     1     8
 -1.1182593897829710E-01 a      1041     0    44     1     9
 -3.0274262656129616E-02 a      1042     0    44     1    10
 -4.9860010126676008E-01 a      1043     0    44     1    11
  4.6097462028295504E-02 a      1044     0    44     1    12
 -2.4148122431647873E-01 a      1045     0    44     1    13
  1.2051683746834927E+00 a      1046     0    44     1    14
  8.9778321027346142E-01 a      1047     0    44     1    15
  3.2180278241439916E-02 a      1048     0    44     1    16
  5.2994592981466615E-01 a      1049     0    44     1    17
  1.4236169752755687E+00 a      1050     0    44     1    18
 -1.3110993464797155E-01 a      1051     0    44     1    19
 -8.3136554513367400E-01 a      1052     0    44     1    20
  6.2219650898390055E-01 a      1053     0    44     1    21
  1.9503658493119777E-01 a      1054     0    44     1    22
 -5.4279402249307551E-01 a      1055     0    44     1    23
  1.5824656488885085E+00 a      1056     0    44     1    24
 -4.0473166884149475E-01 a      1057     0    45     1     1
 -6.7134430052342176E-01 a      1058     0    45     1     2
 -1.7651540189217223E+00 a      1059     0    45     1     3
  6.7296978486804115E-01 a      1060     0    45     1     4
 -1.6450626913397901E+00 a      1061     0    45     1     5
 -4.0874518491989875E-01 a      1062     0    45     1     6
  1.5840338684198214E-02 a      1063     0    45     1     7
 -6.1339758888478235E-01 a      1064     0    45     1     8
  4.6670657049076597E-01 a      1065     0    45     1     9
 -5.3894500642041210E-01 a      1066     0    45     1    10
 -5.7141329054872214E-01 a      1067     0    45     1    11
 -8.4209702313002080E-03 a      1068     0    45     1    12
  9.0067708516363670E-02 a      1069     0    45     1    13
 -5.1022119196884819E-01 a      1070     0    45     1    14
  2.0774978432708786E+00 a      1071     0    45     1    15
  1.9984976356672611E-03 a      1072     0    45     1    16
 -4.5632744997181363E-01 a      1073     0    45     1    17
  8.7586315546313326E-02 a      1074     0    45     1    18
 -4.8904802797168301E-01 a      1075     0    45     1    19
 -2.7767932798183543E+00 a      1076     0    45     1    20
 -2.6595061291956518E-01 a      1077     0    45     1    21
 -2.0486360616747006E+00 a      1078     0    45     1    22
 -2.6894472159948540E-01 a      1079     0    45     1    23
  1.7367439777669866E+00 a      1080     0    45     1    24
 -3.9259287431077469E-02 a      1081     0    46     1     1
 -5.6240597129107650E-01 a      1082     0    46     1     2
  1.2668369970511062E-01 a      1083     0    46     1     3
 -3.7480808114892189E-01 a      1084     0    46     1     4
 -1.3350843196576817E-01 a      1085     0    46     1     5
 -3.5066105655151897E-01 a      1086     0    46     1     6
  5.9471873696459732E-01 a      1087     0    46     1     7
 -3.0567894481944813E-01 a      1088     0    46     1     8
  1.1193163330866444E-01 a      1089     0    46     1     9
  3.3462037185579840E-01 a      1090     0    46     1    10
  6.0566227747473311E-01 a      1091     0    46     1    11
 -2.5028480826571814E-01 a      1092     0    46     1    12
 -3.4122882120275438E-01 a      1093     0    46     1    13
  1.6747578136373295E-01 a      1094     0    46     1    14
 -7.2778272570645874E-01 a      1095     0    46     1    15
 -1.0839786615201670E-01 a      1096     0    46     1    16
 -8.8745829547181720E-01 a      1097     0    46     1    17
 -5.0374540666805889E-01 a      1098     0    46     1    18
  8.7640697671259693E-01 a      1099     0    46     1    19
  4.7554335640814310E-01 a      1100     0    46     1    20
 -1.2529134072836268E-01 a      1101     0    46     1    21
  1.5488737104166412E+00 a      1102     0    46     1    22
  4.9863378508073673E-02 a      1103     0    46     1    23
 -6.6673159035610841E-01 a      1104     0    46     1    24
 -1.8081449389680943E-01 a      1105     0    47     1     1
  7.9763022045875195E-02 a      1106     0    47     1     2
 -6.5405010840263500E-01 a      1107     0    47     1     3
  2.2220721030530211E-01 a      1108     0    47     1     4
  2.6223314585194921E-02 a      1109     0    47     1     5
 -2.8539737406468713E-01 a      1110     0    47     1     6
 -5.8192042263446216E-02 a      1111     0    47     1     7
 -3.3671861807086501E-01 a      1112     0    47     1     8
  9.7083372764427384E-02 a      1113     0    47     1     9
  2.3498486752612981E-03 a      1114     0    47     1    10
 -6.5480545055015646E-02 a      1115     0    47     1    11
 -3.7107761971613595E-01 a      1116     0    47     1    12
  3.5086414991196258E-01 a      1117     0    47     1    13
 -6.2577208322730404E-01 a      1118     0    47     1    14
 -8.0490755633170805E-02 a      1119     0    47     1    15
 -6.1083856560412131E-01 a      1120     0    47     1    16
 -4.3615859001409885E-01 a      1121     0    47     1    17
  1.9062889882983983E-01 a      1122     0    47     1    18
  1.1992934033657432E-01 a      1123     0    47     1    19
 -5.8416726898259375E-01 a      1124     0    47     1    20
  3.3762397938239291E-01 a      1125     0    47     1    21
  4.8348370775334049E-01 a      1126     0    47     1    22
 -6.8232704388240295E-01 a      1127     0    47     1    23
 -3.5866778256335419E-01 a      1128     0    47     1    24
  1.2537269284373351E-01 a      1129     0    48     1     1
 -2.4296861267632763E-01 a      1130     0    48     1     2
  6.7714726794262470E-01 a      1131     0    48     1     3
  5.0828759780333155E-01 a      1132     0    48     1     4
 -5.8035533359947121E-02 a      1133     0    48     1     5
  3.8185824782449480E-02 a      1134     0    48     1     6
 -6.2502088225815225E-02 a      1135     0    48     1     7
  1.2675226047061219E-01 a      1136     0    48     1     8
 -4.7537130889034940E-01 a      1137     0    48     1     9
 -1.4223972549049685E-01 a      1138     0    48     1    10
 -9.7069471102529892E-02 a      1139     0    48     1    11
 -3.8918473998504516E-01 a      1140     0    48     1    12
  3.8573033457876515E-01 a      1141     0    48     1    13
  2.7017836097671388E-01 a      1142     0    48     1    14
  4.4412453917190342E-01 a      1143     0    48     1    15
  1.4420598792473516E-01 a      1144     0    48     1    16
 -6.1231690631901237E-01 a      1145     0    48     1    17
 -6.5424701505455263E-02 a      1146     0    48     1    18
  3.1419714806772425E-01 a      1147     0    48     1    19
 -5.9779745784394367E-01 a      1148     0    48     1    20
 -5.8162711693041014E-01 a      1149     0    48     1    21
  5.9819613058355636E-01 a      1150     0    48     1    22
 -4.4782589582337073E-01 a      1151     0    48     1    23
 -1.1676572718923358E-02 a      1152     0    48     1    24
  5.2493943076660533E-02 a      1153     0    49     1     1
  1.6584297575652320E+00 a      1154     0    49     1     2
  2.8726931418460927E-01 a      1155     0    49     1     3
  8.7746860202524213E-01 a      1156     0    49     1     4
  3.8905784564408585E-01 a      1157     0    49     1     5
  2.1386409157667402E-01 a      1158     0    49     1     6
  2.6020544441335136E-01 a      1159     0    49     1     7
 -1.3155770525578994E-01 a      1160     0    49     1     8
 -2.5846755651121361E-01 a      1161     0    49     1     9
 -1.5562584098802074E-01 a      1162     0    49     1    10
 -1.5010574763249498E+00 a      1163     0    49     1    11
  5.7292661420565549E-01 a      1164     0    49     1    12
  6.2608657082177543E-01 a      1165     0    49     1    13
  5.5752796562297047E-01 a      1166     0    49     1    14
  7.7649796172924801E-01 a      1167     0    49     1    15
  7.0400427154039436E-01 a      1168     0    49     1    16
  1.3166181644070707E+00 a      1169     0    49     1    17
  1.2039890008631700E+00 a      1170     0    49     1    18
  1.1174834625692788E-01 a      1171     0    49     1    19
 -1.2380297841784031E+00 a      1172     0    49     1    20
 -6.9786733473633866E-01 a      1173     0    49     1    21
  3.7724957577936070E-02 a      1174     0    49     1    22
  3.3676725472099944E-01 a      1175     0    49     1    23
  6.9415760137535276E-01 a      1176     0    49     1    24
  4.6186190092059681E-01 a      1177     0    50     1     1
 -2.6013583200699197E-01 a      1178     0    50     1     2
 -3.8542874589125070E-01 a      1179     0    50     1     3
  2.9911514331036365E-01 a      1180     0    50     1     4
  3.4251352944696717E-01 a      1181     0    50     1     5
  6.3261335162564247E-01 a      1182     0    50     1     6
  5.2686412082509715E-01 a      1183     0    50     1     7
 -2.0168442259170727E-01 a      1184     0    50     1     8
  4.0663333621116196E-02 a      1185     0    50     1     9
 -2.8811965361606151E-01 a      1186     0    50     1    10
 -3.7908972465193813E-02 a      1187     0    50     1    11
 -5.5287170384820124E-02 a      1188     0    50     1    12
 -2.1180907069448462E-01 a      1189     0    50     1    13
 -1.3682011262453214E-01 a      1190     0    50     1    14
 -4.1653505367752719E-01 a      1191     0    50     1    15
 -7.0703244163422977E-03 a      1192     0    50     1    16
 -2.3528077583041585E-02 a      1193     0    50     1    17
  4.6858074427204344E-01 a      1194     0    50     1    18
 -9.7968549307988359E-02 a      1195     0    50     1    19
  5.9970589541531405E-01 a      1196     0    50     1    20
  6.4487293760304210E-01 a      1197     0    50     1    21
  3.1788304491997044E-01 a      1198     0    50     1    22
 -4.7658386060867736E-01 a      1199     0    50     1    23
  3.4524130561305560E-01 a      1200     0    50     1    24
  7.6599953689288069E-02 a      1201     0    51     1     1
  3.1452862202452886E-01 a      1202     0    51     1     2
 -3.2970081708619015E-01 a      1203     0    51     1     3
  3.4915840279350970E-02 a      1204     0    51     1     4
  6.3421108713667718E-01 a      1205     0    51     1     5
  2.1225851425087147E-01 a      1206     0    51     1     6
 -1.7587355215810434E-02 a      1207     0    51     1     7
  2.2815523360589152E-01 a      1208     0    51     1     8
  2.0668454671110442E-01 a      1209     0    51     1     9
 -2.3378371398503316E-02 a      1210     0    51     1    10
 -4.2249414327716028E-01 a      1211     0    51     1    11
  2.2524036820570417E-01 a      1212     0    51     1    12
 -2.5619938019823846E-01 a      1213     0    51     1    13
 -7.5321013227957131E-02 a      1214     0    51     1    14
 -5.6872744498524375E-01 a      1215     0    51     1    15
  8.1958705363988549E-01 a      1216     0    51     1    16
 -1.5859202656607174E-02 a      1217     0    51     1    17
 -7.0926764369251893E-01 a      1218     0    51     1    18
 -5.8662458138206461E-02 a      1219     0    51     1    19
 -1.9414728694093594E-01 a      1220     0    51     1    20
 -4.2132281642087321E-01 a      1221     0    51     1    21
  3.4261559497090271E-01 a      1222     0    51     1    22
 -2.3148130476127887E-02 a      1223     0    51     1    23
 -7.3530132769610790E-01 a      1224     0    51     1    24
  3.1331351741241759E-01 a      1225     0    52     1     1
 -4.3548681255731131E-01 a      1226     0    52     1     2
  3.9247248605407697E-01 a      1227     0    52     1     3
  1.9235390216401427E-01 a      1228     0    52     1     4
 -8.1002782986603328E-01 a      1229     0    52     1     5
  8.5069543623966448E-01 a      1230     0    52     1     6
  6.5706014138060576E-01 a      1231     0    52     1     7
 -3.5874811133773954E-01 a      1232     0    52     1     8
 -2.9252612998088440E-01 a      1233     0    52     1     9
 -7.7181204537028703E-01 a      1234     0    52     1    10
 -5.7440170435027887E-02 a      1235     0    52     1    11
  1.1004841133363534E+00 a      1236     0    52     1    12
  3.1360220710720416E-01 a      1237     0    52     1    13
 -6.9602009537933340E-01 a      1238     0    52     1    14
 -1.2455151550363799E+00 a      1239     0    52     1    15
  8.7809296626071798E-01 a      1240     0    52     1    16
 -3.9750037194332494E-01 a      1241     0    52     1    17
 -1.2015251453210209E+00 a      1242     0    52     1    18
 -1.1888145362949192E+00 a      1243     0    52     1    19
  2.2478692134401101E-01 a      1244     0    52     1    20
 -1.0225051678711958E+00 a      1245     0    52     1    21
 -6.4813385181295791E-01 a      1246     0    52     1    22
 -9.5542561904503698E-01 a      1247     0    52     1    23
  5.9214749957317392E-01 a      1248     0    52     1    24
 -1.7441678609699923E-01 a      1249     0    53     1     1
 -4.5456933922065471E-02 a      1250     0    53     1     2
 -6.2339161548635136E-01 a      1251     0    53     1     3
 -2.1057752661530629E-01 a      1252     0    53     1     4
 -3.1382021605285459E-01 a      1253     0    53     1     5
 -1.2711939581971302E-01 a      1254     0    53     1     6
  6.2015513770890436E-02 a      1255     0    53     1     7
 -1.3973188072028095E-01 a      1256     0    53     1     8
 -2.2456576476907439E-01 a      1257     0    53     1     9
  2.0183771837699030E-01 a      1258     0    53     1    10
 -2.8120895593621176E-01 a      1259     0    53     1    11
 -1.0964832490918647E-02 a      1260     0    53     1    12
 -4.6618966569246835E-02 a      1261     0    53     1    13
 -2.4128768561436473E-01 a      1262     0    53     1    14
  5.2207242979666113E-02 a      1263     0    53     1    15
 -2.7022121951913824E-01 a      1264     0    53     1    16
 -8.4150001364036553E-02 a      1265     0    53     1    17
 -7.7024150168583409E-03 a      1266     0    53     1    18
 -1.8230184016611323E-01 a      1267     0    53     1    19
  2.2636917752279776E-02 a      1268     0    53     1    20
  9.5517363269762609E-02 a      1269     0    53     1    21
 -1.8468814226431757E-01 a      1270     0    53     1    22
  8.0321960031246531E-02 a      1271     0    53     1    23
  1.3737719756894093E-01 a      1272     0    53     1    24
 -7.9099974523856378E-02 a      1273     0    54     1     1
  8.7925555203451722E-01 a      1274     0    54     1     2
  9.9612525178982791E-01 a      1275     0    54     1     3
  6.6267987062938616E-01 a      1276     0    54     1     4
 -5.0038916686462126E-02 a      1277     0    54     1     5
  3.1334249188931190E-01 a      1278     0    54     1     6
  4.7438904762056568E-02 a      1279     0    54     1     7
 -1.5471889694259836E-01 a      1280     0    54     1     8
  1.0446061250136740E-01 a      1281     0    54     1     9
  2.3733372984952014E-01 a      1282     0    54     1    10
  3.1040321304716906E-01 a      1283     0    54     1    11
 -1.2824874995625404E-01 a      1284     0    54     1    12
 -2.7395712074774875E-01 a      1285     0    54     1    13
 -3.6994352025865561E-02 a      1286     0    54     1    14
 -4.4772870736391324E-01 a      1287     0    54     1    15
 -6.4942603274318778E-02 a      1288     0    54     1    16
 -4.5867143149490260E-02 a      1289     0    54     1    17
 -9.0640369034506385E-01 a      1290     0    54     1    18
  1.4935253436770163E-01 a      1291     0    54     1    19
 -3.9060339023745760E-01 a      1292     0    54     1    20
 -1.4742429766113704E-01 a      1293     0    54     1    21
  1.0790213675100480E+00 a      1294     0    54     1    22
  6.6627390477702708E-01 a      1295     0    54     1    23
 -1.2775094443604940E-01 a      1296     0    54     1    24
 -2.6835753620544506E-01 a      1297     0    55     1     1
 -1.7873595140162923E-01 a      1298     0    55     1     2
 -1.5815343275938570E-01 a      1299     0    55     1     3
 -8.2411055062508828E-02 a      1300     0    55     1     4
  1.8871769310969413E-01 a      1301     0    55     1     5
 -3.8434568760935928E-01 a      1302     0    55     1     6
  9.5836665354302394E-03 a      1303     0    55     1     7
  6.5759109727900311E-01 a      1304     0    55     1     8
 -5.4425179575033678E-01 a      1305     0    55     1     9
 -5.3978439547660503E-02 a      1306     0    55     1    10
  3.8766267855267256E-01 a      1307     0    55     1    11
 -1.0150409754572539E-02 a      1308     0    55     1    12
  5.5408097374046464E-02 a      1309     0    55     1    13
  1.7082875947042292E-01 a      1310     0    55     1    14
  1.1787678124639683E-01 a      1311     0    55     1    15
 -1.6174231451826887E-01 a      1312     0    55     1    16
 -6.9456248920046015E-01 a      1313     0    55     1    17
 -4.6659194168143581E-01 a      1314     0    55     1    18
  3.0022855497423334E-01 a      1315     0    55     1    19
 -4.6216999023295108E-01 a      1316     0    55     1    20
 -3.0992415628161168E-01 a      1317     0    55     1    21
 -2.3020628287117847E-01 a      1318     0    55     1    22
 -2.1659775523393002E-01 a      1319     0    55     1    23
 -5.4120362923229776E-02 a      1320     0    55     1    24
 -2.7240456197030888E-02 a      1321     0    56     1     1
 -3.4221508939111861E-01 a      1322     0    56     1     2
  2.5150742982225003E+00 a      1323     0    56     1     3
  1.4293098354061101E-01 a      1324     0    56     1     4
 -5.8570215548627813E-01 a      1325     0    56     1     5
 -3.6432691577096615E-01 a      1326     0    56     1     6
 -9.2603857859637961E-01 a      1327     0    56     1     7
  3.2641526768793155E-01 a      1328     0    56     1     8
 -4.8466206574799925E-01 a      1329     0    56     1     9
 -3.3858012965475631E-01 a      1330     0    56     1    10
  1.3344057746020410E+00 a      1331     0    56     1    11
 -9.1719998284357629E-01 a      1332     0    56     1    12
  5.5321508824564036E-01 a      1333     0    56     1    13
  1.5934156213016528E+00 a      1334     0    56     1    14
  5.6480980146096371E-01 a      1335     0    56     1    15
 -2.4046099399599377E-01 a      1336     0    56     1    16
 -1.0916328726578368E+00 a      1337     0    56     1    17
 -4.7816849304560954E-01 a      1338     0    56     1    18
 -7.8903739758655411E-01 a      1339     0    56     1    19
 -6.6660660651977149E-02 a      1340     0    56     1    20
  9.2803290405191685E-01 a      1341     0    56     1    21
 -7.6105733800035269E-02 a      1342     0    56     1    22
  7.8310727001259250E-01 a      1343     0    56     1    23
 -1.5860143417449121E-01 a      1344     0    56     1    24
  8.3968086093767172E-02 a      1345     0    57     1     1
  2.6936051487657375E-01 a      1346     0    57     1     2
 -1.6003222712516094E+00 a      1347     0    57     1     3
  1.6536004223440630E+00 a      1348     0    57     1     4
 -1.7060358090021528E+00 a      1349     0    57     1     5
  1.2590085861366911E+00 a      1350     0    57     1     6
  1.5185434169458316E+00 a      1351     0    57     1     7
 -7.2055326212004889E-01 a      1352     0    57     1     8
  5.9024784917421746E-01 a      1353     0    57     1     9
  4.0592599607445873E-01 a      1354     0    57     1    10
 -6.9982566631474397E-01 a      1355     0    57     1    11
  4.8361520553596199E-01 a      1356     0    57     1    12
  5.2485853364278343E-02 a      1357     0    57     1    13
 -7.7810425313127829E-01 a      1358     0    57     1    14
 -1.3570759621967568E-01 a      1359     0    57     1    15
  1.3961867424263100E-01 a      1360     0    57     1    16
  8.5062887995722758E-02 a      1361     0    57     1    17
  9.0471960570613930E-01 a      1362     0    57     1    18
  9.3236743538910694E-01 a      1363     0    57     1    19
  2.8186196363594118E-01 a      1364     0    57     1    20
  5.6449247430833949E-01 a      1365     0    57     1    21
 -6.8489159038770620E-02 a      1366     0    57     1    22
  5.7023582031584952E-01 a      1367     0    57     1    23
  7.5164969100938228E-01 a      1368     0    57     1    24
  1.0400002002271888E-01 a      1369     0    58     1     1
  5.5901881062248593E-01 a      1370     0    58     1     2
 -7.7529466652263479E-01 a      1371     0    58     1     3
  1.4422718706663892E-01 a      1372     0    58     1     4
  5.0491576272938474E-02 a      1373     0    58     1     5
 -3.5619166266472518E-01 a      1374     0    58     1     6
 -2.3331385078416722E-01 a      1375     0    58     1     7
  1.4888055519382864E-02 a      1376     0    58     1     8
 -4.1392192596039094E-02 a      1377     0    58     1     9
  1.0326409595366690E-02 a      1378     0    58     1    10
  1.5688332871557437E-01 a      1379     0    58     1    11
 -2.1549034409990545E-01 a      1380     0    58     1    12
  1.2136371231429950E-01 a      1381     0    58     1    13
 -2.1836784359044134E-01 a      1382     0    58     1    14
  9.0692611790113190E-02 a      1383     0    58     1    15
 -2.1700727557769167E-01 a      1384     0    58     1    16
 -1.4621353132594198E-02 a      1385     0    58     1    17
 -7.5461684353625591E-01 a      1386     0    58     1    18
  5.2715387147937764E-01 a      1387     0    58     1    19
 -7.6678147005451114E-02 a      1388     0    58     1    20
 -9.4967001324130895E-01 a      1389     0    58     1    21
  6.6867318405779508E-01 a      1390     0    58     1    22
  9.2824583590833381E-03 a      1391     0    58     1    23
 -2.2667623711647811E-01 a      1392     0    58     1    24
 -1.6949980881005114E-01 a      1393     0    59     1     1
  4.1729588491985914E-01 a      1394     0    59     1     2
  4.6215946439942468E-01 a      1395     0    59     1     3
 -6.2650177830965292E-01 a      1396     0    59     1     4
 -1.1319266059099115E-01 a      1397     0    59     1     5
  1.4518189160236783E-01 a      1398     0    59     1     6
  6.2397556424291095E-02 a      1399     0    59     1     7
  4.4430400517917973E-01 a      1400     0    59     1     8
 -9.8567352439303424E-02 a      1401     0    59     1     9
  3.4418275294219197E-01 a      1402     0    59     1    10
  2.9082011050478218E-01 a      1403     0    59     1    11
 -1.0009343772438117E-01 a      1404     0    59     1    12
 -1.8484644019291943E-01 a      1405     0    59     1    13
  2.0874767129000701E-01 a      1406     0    59     1    14
  4.0173532508226761E-01 a      1407     0    59     1    15
  6.8915961816491244E-03 a      1408     0    59     1    16
 -4.6180131037664551E-01 a      1409     0    59     1    17
 -4.5737976128584173E-01 a      1410     0    59     1    18
 -6.2360224854509416E-01 a      1411     0    59     1    19
  4.1455028140943186E-03 a      1412     0    59     1    20
  2.9147865491690683E-01 a      1413     0    59     1    21
 -1.2204830929037003E-01 a      1414     0    59     1    22
 -5.9447945120985812E-01 a      1415     0    59     1    23
  7.9670950250910488E-01 a      1416     0    59     1    24
  1.5953197272307629E-01 a      1417     0    60     1     1
  6.5447086048014289E-02 a      1418     0    60     1     2
  1.2209233488278698E-01 a      1419     0    60     1     3
  4.5369431725158677E-01 a      1420     0    60     1     4
  3.0722920517874286E-01 a      1421     0    60     1     5
 -1.5988011057543788E-01 a      1422     0    60     1     6
 -3.4363205298223665E-01 a      1423     0    60     1     7
  2.3269753901215912E-02 a      1424     0    60     1     8
 -2.8682521741812000E-01 a      1425     0    60     1     9
 -3.1697334508461938E-01 a      1426     0    60     1    10
  3.8571812985537191E-02 a      1427     0    60     1    11
 -3.2134936792728358E-01 a      1428     0    60     1    12
  2.3741117962497033E-01 a      1429     0    60     1    13
  8.3971026490700651E-01 a      1430     0    60     1    14
  3.3424784318369948E-02 a      1431     0    60     1    15
 -1.9947007557741250E-01 a      1432     0    60     1    16
  5.0218637124981447E-01 a      1433     0    60     1    17
  6.4912019452169178E-02 a      1434     0    60     1    18
 -6.9600792653806365E-02 a      1435     0    60     1    19
 -2.5156375192125457E-01 a      1436     0    60     1    20
 -3.8542407386823976E-02 a      1437     0    60     1    21
 -8.1378170554849846E-02 a      1438     0    60     1    22
  3.2125230727831144E-01 a      1439     0    60     1    23
  2.0454517770588942E-01 a      1440     0    60     1    24
 -2.7307263772243551E-01 a      1441     0    61     1     1
  8.3701387465745924E-01 a      1442     0    61     1     2
  4.2467392229889217E-01 a      1443     0    61     1     3
 -4.5370167982751586E-01 a      1444     0    61     1     4
  2.3727045754795678E-01 a      1445     0    61     1     5
  2.5264465662484592E-01 a      1446     0    61     1     6
 -1.1846469268202235E+00 a      1447     0    61     1     7
  3.8244970801376198E-02 a      1448     0    61     1     8
 -4.3352677356926944E-01 a      1449     0    61     1     9
  4.8279742392323066E-01 a      1450     0    61     1    10
  1.2184187836815864E-01 a      1451     0    61     1    11
  3.9816248143476624E-01 a      1452     0    61     1    12
 -3.1528825197539728E-01 a      1453     0    61     1    13
  6.3830067625745124E-01 a      1454     0    61     1    14
  1.2094096454958571E-01 a      1455     0    61     1    15
  5.1667130738310352E-01 a      1456     0    61     1    16
  6.9973099588329335E-01 a      1457     0    61     1    17
  3.9256473985233620E-01 a      1458     0    61     1    18
 -3.0955728184530629E-01 a      1459     0    61     1    19
  2.9446849950957293E-01 a      1460     0    61     1    20
  4.5018961859877649E-01 a      1461     0    61     1    21
 -3.5297542446298191E-01 a      1462     0    61     1    22
  3.4850609837861535E-01 a      1463     0    61     1    23
 -1.2916737321920670E+00 a      1464     0    61     1    24
 -6.6317346269451005E-01 a      1465     0    62     1     1
 -8.3105158946030808E-02 a      1466     0    62     1     2
 -8.3034292240768992E-01 a      1467     0    62     1     3
 -3.8599516423657698E-01 a      1468     0    62     1     4
  3.6201017296296761E-01 a      1469     0    62     1     5
  1.5275202628637496E-01 a      1470     0    62     1     6
  8.1268060503569584E-01 a      1471     0    62     1     7
  9.8737600037586692E-02 a      1472     0    62     1     8
  1.0695585540500086E-02 a      1473     0    62     1     9
 -5.4440325749798801E-01 a      1474     0    62     1    10
 -6.8813928968602600E-01 a      1475     0    62     1    11
  3.5535869918371527E-01 a      1476     0    62     1    12
  7.8101591676799975E-02 a      1477     0    62     1    13
 -4.7834924191032729E-01 a      1478     0    62     1    14
  2.8986187219318610E-01 a      1479     0    62     1    15
 -7.9930143346257698E-02 a      1480     0    62     1    16
  1.2743785086633111E-01 a      1481     0    62     1    17
  5.8929795169151783E-02 a      1482     0    62     1    18
  4.2336990596813290E-01 a      1483     0    62     1    19
  5.9467682826554957E-02 a      1484     0    62     1    20
  4.9863485418502362E-01 a      1485     0    62     1    21
 -1.4432634963343658E+00 a      1486     0    62     1    22
 -1.0254154118115852E+00 a      1487     0    62     1    23
  7.9675634463127462E-02 a      1488     0    62     1    24
 -2.7407499647568961E-01 a      1489     0    63     1     1
  6.3587567458845040E-01 a      1490     0    63     1     2
 -1.5787063269962678E-01 a      1491     0    63     1     3
  9.2055239580671588E-01 a      1492     0    63     1     4
 -1.2555218881797331E-01 a      1493     0    63     1     5
  1.3921895614296281E-01 a      1494     0    63     1     6
 -2.2843951440152322E-02 a      1495     0    63     1     7
 -1.3354476888997874E-01 a      1496     0    63     1     8
 -4.2776725366503948E-01 a      1497     0    63     1     9
 -4.0879490696767318E-01 a      1498     0    63     1    10
 -1.1526839789886108E-01 a      1499     0    63     1    11
  3.5330963501734486E-01 a      1500     0    63     1    12
 -5.5673603159773329E-02 a      1501     0    63     1    13
  5.1141734444954590E-01 a      1502     0    63     1    14
 -6.5109991763064187E-02 a      1503     0    63     1    15
  5.0000090342736481E-01 a      1504     0    63     1    16
  2.7051660667754224E-01 a      1505     0    63     1    17
  3.3417881535632105E-01 a      1506     0    63     1    18
  1.7641540187023105E-01 a      1507     0    63     1    19
  2.3476600492088842E-01 a      1508     0    63     1    20
 -1.2831951126637037E-01 a      1509     0    63     1    21
  4.7973131337579450E-01 a      1510     0    63     1    22
  8.8184290891065986E-01 a      1511     0    63     1    23
  8.6703744660153140E-02 a      1512     0    63     1    24
 -6.0861372646342872E-02 a      1513     0    64     1     1
  1.0948695609476229E-01 a      1514     0    64     1     2
 -1.1139726996869856E-01 a      1515     0    64     1     3
  2.6222897161625991E-01 a      1516     0    64     1     4
 -1.5430331703186895E-01 a      1517     0    64     1     5
  1.9408098609531826E-01 a      1518     0    64     1     6
 -8.5462938046443532E-02 a      1519     0    64     1     7
 -2.5718532816593864E-01 a      1520     0    64     1     8
  2.2507130394379876E-01 a      1521     0    64     1     9
 -4.4566678517864462E-03 a      1522     0    64     1    10
 -1.8935496574063515E-01 a      1523     0    64     1    11
 -9.2571068206495993E-02 a      1524     0    64     1    12
 -1.1706358618396419E-01 a      1525     0    64     1    13
 -9.1998834943778918E-02 a      1526     0    64     1    14
 -1.1596675710832435E-01 a      1527     0    64     1    15
  1.1182992111749394E-01 a      1528     0    64     1    16
  3.1560982509606733E-01 a      1529     0    64     1    17
  1.4846569872354942E-01 a      1530     0    64     1    18
 -2.1544528887085940E-01 a      1531     0    64     1    19
  3.3721467681792749E-01 a      1532     0    64     1    20
  2.6050898743229045E-01 a      1533     0    64     1    21
 -1.9611034307092304E-01 a      1534     0    64     1    22
  1.2438485979877612E-01 a      1535     0    64     1    23
  6.6511887174756934E-01 a      1536     0    64     1    24
  1.7588929728983536E-02 a      1537     0    65     1     1
 -2.8100421939257758E-01 a      1538     0    65     1     2
  3.0598963116777489E-01 a      1539     0    65     1     3
 -1.3688009126389969E-01 a      1540     0    65     1     4
  7.8282793322271782E-02 a      1541     0    65     1     5
 -1.4987394149943858E-01 a      1542     0    65     1     6
 -3.3646214105062307E-02 a      1543     0    65     1     7
  2.0434340331733972E-01 a      1544     0    65     1     8
  8.1776902238989924E-02 a      1545     0    65     1     9
  1.7230002972224689E-01 a      1546     0    65     1    10
 -1.4654223416752526E-01 a      1547     0    65     1    11
  1.9919675606199977E-01 a      1548     0    65     1    12
  1.7386182201729118E-04 a      1549     0    65     1    13
 -2.0523448329789948E-01 a      1550     0    65     1    14
 -9.6241496389041087E-03 a      1551     0    65     1    15
  7.1243665872929907E-02 a      1552     0    65     1    16
  5.1915762241297188E-02 a      1553     0    65     1    17
  7.8513631949085769E-02 a      1554     0    65     1    18
  3.3454456441117975E-01 a      1555     0    65     1    19
  1.9668710844998369E-01 a      1556     0    65     1    20
 -1.5750488381455566E-01 a      1557     0    65     1    21
  3.4889472166926366E-01 a      1558     0    65     1    22
 -3.5025541134240397E-02 a      1559     0    65     1    23
  3.3060229562890486E-01 a      1560     0    65     1    24
 -4.9849532227918242E-01 a      1561     0    66     1     1
  1.3321531642605242E+00 a      1562     0    66     1     2
 -1.2962974574011810E+00 a      1563     0    66     1     3
 -6.0937061133105019E-01 a      1564     0    66     1     4
  1.6391327660906423E+00 a      1565     0    66     1     5
 -1.7177657725499929E+00 a      1566     0    66     1     6
  1.5365924094941662E-02 a      1567     0    66     1     7
  6.6843609727367537E-01 a      1568     0    66     1     8
  7.3428936890644347E-01 a      1569     0    66     1     9
  1.1286579881160768E+00 a      1570     0    66     1    10
 -9.9457385427222336E-02 a      1571     0    66     1    11
 -1.1790348357081024E+00 a      1572     0    66     1    12
 -1.8863042730413768E-01 a      1573     0    66     1    13
  1.5046134440167560E+00 a      1574     0    66     1    14
  1.6125052207336636E+00 a      1575     0    66     1    15
 -1.2165421574969806E+00 a      1576     0    66     1    16
  8.6219203087260909E-01 a      1577     0    66     1    17
  1.2317245977777003E-02 a      1578     0    66     1    18
  8.3938548799922053E-01 a      1579     0    66     1    19
  7.0221532513032381E-01 a      1580     0    66     1    20
  6.2387685454613306E-01 a      1581     0    66     1    21
  1.0006697470520554E+00 a      1582     0    66     1    22
  6.3466920333450427E-01 a      1583     0    66     1    23
 -5.0139104288637459E-01 a      1584     0    66     1    24
  5.4371282910954333E-01 a      1585     0    67     1     1
 -2.5754235876625847E-01 a      1586     0    67     1     2
  1.0001869118669111E-01 a      1587     0    67     1     3
 -1.6004925647143295E-01 a      1588     0    67     1     4
  3.4527223337774071E-01 a      1589     0    67     1     5
 -2.0101430391117506E-01 a      1590     0    67     1     6
 -9.1942549846608601E-02 a      1591     0    67     1     7
 -5.0635318944710822E-02 a      1592     0    67     1     8
 -5.2934835242184827E-02 a      1593     0    67     1     9
  5.6471279896799627E-02 a      1594     0    67     1    10
  4.6361592204177239E-03 a      1595     0    67     1    11
 -2.2976598560171174E-01 a      1596     0    67     1    12
 -7.8838624857596983E-03 a      1597     0    67     1    13
  6.8988622592448659E-02 a      1598     0    67     1    14
  4.1495016293309800E-01 a      1599     0    67     1    15
 -2.8362319649077705E-01 a      1600     0    67     1    16
  2.9375076622344332E-01 a      1601     0    67     1    17
 -1.1215306279320574E-01 a      1602     0    67     1    18
 -3.6407466005766814E-01 a      1603     0    67     1    19
 -5.0995461486869786E-01 a      1604     0    67     1    20
  3.8996047556158786E-01 a      1605     0    67     1    21
 -1.2039580623823608E-01 a      1606     0    67     1    22
 -2.7242081225768627E-01 a      1607     0    67     1    23
  3.5744848978092165E-02 a      1608     0    67     1    24
  1.9042896691533881E-03 a      1609     0    68     1     1
  4.2476145435463225E-01 a      1610     0    68     1     2
 -2.9620475534178664E-01 a      1611     0    68     1     3
  2.8241010895796759E-01 a      1612     0    68     1     4
 -3.5559572281782126E-01 a      1613     0    68     1     5
 -4.0562119306483047E-01 a      1614     0    68     1     6
 -2.3877061204332953E-01 a      1615     0    68     1     7
  9.7571505614187093E-01 a      1616     0    68     1     8
  1.1009118659092447E+00 a      1617     0    68     1     9
 -3.8120703995660105E-01 a      1618     0    68     1    10
  3.0754926210929207E-01 a      1619     0    68     1    11
  1.1428624365913469E-01 a      1620     0    68     1    12
 -2.3341166259557691E-01 a      1621     0    68     1    13
  1.8982556848604840E-01 a      1622     0    68     1    14
 -3.5688469384979554E-01 a      1623     0    68     1    15
