################################################################################
# Neural network connection values (weights and biases).
################################################################################
# Col  Name       Description
################################################################################
# 1    connection Neural network connection value.
# 2    t          Connection type (a = weight, b = bias).
# 3    index      Index enumerating weights.
# 4    l_s        Starting point layer (end point layer for biases).
# 5    n_s        Starting point neuron in starting layer (end point neuron for biases).
# 6    l_e        End point layer.
# 7    n_e        End point neuron in end layer.
################################################################################
#                      1 2         3     4     5     6     7
#             connection t     index   l_s   n_s   l_e   n_e
############################################################
  1.5802332367745436E-01 a         1     0     1     1     1
  6.5196031008080690E-01 a         2     0     1     1     2
 -1.4642669801813335E-01 a         3     0     1     1     3
 -1.3481202464766529E-01 a         4     0     1     1     4
 -5.7466624753475748E-01 a         5     0     1     1     5
 -4.2691735830250599E-01 a         6     0     1     1     6
 -3.4159409448470518E-01 a         7     0     1     1     7
 -4.0060495097759374E-01 a         8     0     1     1     8
  7.8479837552790740E-02 a         9     0     1     1     9
 -9.7094336431964232E-02 a        10     0     1     1    10
 -2.0011305340591201E-01 a        11     0     1     1    11
  5.2079579706057288E-01 a        12     0     1     1    12
 -9.6187743611703111E-02 a        13     0     1     1    13
  4.8632371371938377E-01 a        14     0     1     1    14
 -6.2991468638994097E-01 a        15     0     1     1    15
 -3.9637306064309863E-01 a        16     0     1     1    16
 -8.3102895200750856E-03 a        17     0     1     1    17
 -8.0737546705070842E-02 a        18     0     1     1    18
 -6.8151447361077711E-01 a        19     0     1     1    19
 -1.9412309498942192E-02 a        20     0     1     1    20
  3.0868961645041576E-01 a        21     0     1     1    21
 -1.6836638610476320E-01 a        22     0     1     1    22
 -1.2350245750481739E-01 a        23     0     1     1    23
  2.4876453144154798E-01 a        24     0     1     1    24
 -5.3670372999757521E-01 a        25     0     2     1     1
 -2.9960497098202304E-01 a        26     0     2     1     2
  1.8880592658377507E-01 a        27     0     2     1     3
  1.1771160419226712E-01 a        28     0     2     1     4
  8.6549850376203635E-02 a        29     0     2     1     5
  3.0701830678731729E-01 a        30     0     2     1     6
 -2.2062697477994939E-01 a        31     0     2     1     7
 -3.4518296531029630E-01 a        32     0     2     1     8
 -2.5462400656560974E-01 a        33     0     2     1     9
  9.1050426944427457E-02 a        34     0     2     1    10
 -1.8847087395781442E-01 a        35     0     2     1    11
 -4.4269058506889121E-02 a        36     0     2     1    12
  4.7724930041423719E-01 a        37     0     2     1    13
 -2.0744924883496196E-01 a        38     0     2     1    14
  2.1959619901140570E-01 a        39     0     2     1    15
  1.5801916871684299E-01 a        40     0     2     1    16
 -9.6533157295632749E-02 a        41     0     2     1    17
 -2.6356468776153497E-02 a        42     0     2     1    18
  2.2007342007249517E-01 a        43     0     2     1    19
  1.3249315562509803E-01 a        44     0     2     1    20
  1.5459829792679269E-01 a        45     0     2     1    21
  1.2002157397248996E-01 a        46     0     2     1    22
  7.6217824150369529E-01 a        47     0     2     1    23
 -2.7052251373203995E-01 a        48     0     2     1    24
 -2.5285739898816606E-01 a        49     0     3     1     1
 -3.4828942821400005E-01 a        50     0     3     1     2
 -1.5898360097165290E-01 a        51     0     3     1     3
 -9.0948545161346861E-01 a        52     0     3     1     4
  1.8712005265581941E-01 a        53     0     3     1     5
  5.7660128322713367E-01 a        54     0     3     1     6
 -3.8355807135979242E-01 a        55     0     3     1     7
 -1.6727932239874177E-01 a        56     0     3     1     8
 -4.1396747120229516E-01 a        57     0     3     1     9
 -2.6082143382028861E-01 a        58     0     3     1    10
 -7.7222508569520554E-01 a        59     0     3     1    11
  5.1293722311443322E-02 a        60     0     3     1    12
  1.3562765281849901E-01 a        61     0     3     1    13
  5.0040241078032643E-01 a        62     0     3     1    14
  1.1944580842548178E+00 a        63     0     3     1    15
  4.1338259459023313E-01 a        64     0     3     1    16
 -3.6491695970168325E-02 a        65     0     3     1    17
  3.1058465557941234E-01 a        66     0     3     1    18
  2.7193089686513822E-01 a        67     0     3     1    19
  9.9407849394455877E-02 a        68     0     3     1    20
 -3.3336048048793337E-01 a        69     0     3     1    21
  1.0274594421097866E-02 a        70     0     3     1    22
 -5.7733749775897947E-01 a        71     0     3     1    23
 -2.1796489746346875E-01 a        72     0     3     1    24
 -1.2097407695666089E-01 a        73     0     4     1     1
 -1.2823573716873074E-01 a        74     0     4     1     2
 -1.4781146984298602E-01 a        75     0     4     1     3
 -3.3791671256342987E-01 a        76     0     4     1     4
 -3.0941599191433394E-01 a        77     0     4     1     5
  2.3895854117377285E-01 a        78     0     4     1     6
 -4.8812665098357122E-01 a        79     0     4     1     7
 -2.1967620662557136E-01 a        80     0     4     1     8
 -1.5233558395970254E-02 a        81     0     4     1     9
  4.6211032368535682E-01 a        82     0     4     1    10
 -4.5762220204818782E-01 a        83     0     4     1    11
 -2.1866721711789558E-01 a        84     0     4     1    12
  1.5735428783737621E-01 a        85     0     4     1    13
  5.6219632300793680E-02 a        86     0     4     1    14
  1.6048146839022881E-01 a        87     0     4     1    15
  1.9690907751265435E-01 a        88     0     4     1    16
 -3.7691326412258730E-01 a        89     0     4     1    17
  2.0969934427214888E-02 a        90     0     4     1    18
 -2.1478871930785501E-01 a        91     0     4     1    19
  5.7321101364790394E-01 a        92     0     4     1    20
 -1.3449363952252413E-01 a        93     0     4     1    21
 -6.3432785535110325E-01 a        94     0     4     1    22
 -5.1411674881111558E-01 a        95     0     4     1    23
 -7.6613175210504569E-01 a        96     0     4     1    24
  3.7204322766569664E-01 a        97     0     5     1     1
  3.4458215078352755E-01 a        98     0     5     1     2
  3.0077240156751861E-01 a        99     0     5     1     3
  1.4151426333932537E-01 a       100     0     5     1     4
  4.6353648667437714E-01 a       101     0     5     1     5
 -3.6083930076038218E-03 a       102     0     5     1     6
 -9.0971782879913587E-02 a       103     0     5     1     7
 -7.3226669567583147E-01 a       104     0     5     1     8
  8.7343739802591705E-02 a       105     0     5     1     9
 -5.7279932238062617E-02 a       106     0     5     1    10
  6.4115552241758675E-02 a       107     0     5     1    11
 -6.7109922049512521E-02 a       108     0     5     1    12
 -3.0497116028316529E-01 a       109     0     5     1    13
 -1.7024506636671438E-01 a       110     0     5     1    14
  8.5000440970887936E-02 a       111     0     5     1    15
 -3.3438494525187025E-02 a       112     0     5     1    16
  5.9770572525192453E-02 a       113     0     5     1    17
  1.4236376990577077E-01 a       114     0     5     1    18
 -3.7802415421677041E-03 a       115     0     5     1    19
  1.0129950510121030E-01 a       116     0     5     1    20
 -6.8426744082839186E-01 a       117     0     5     1    21
  4.4454560132058768E-01 a       118     0     5     1    22
  3.1904044805640658E-01 a       119     0     5     1    23
 -7.6562537013330711E-02 a       120     0     5     1    24
  5.4968764634416156E-01 a       121     0     6     1     1
  2.6175487125424290E-01 a       122     0     6     1     2
  1.3368808420249098E-01 a       123     0     6     1     3
 -2.6656815256896965E-01 a       124     0     6     1     4
  1.1735476503731748E-01 a       125     0     6     1     5
 -2.0113317730775168E-01 a       126     0     6     1     6
 -2.5341548564022570E-01 a       127     0     6     1     7
 -2.3733854656139389E-01 a       128     0     6     1     8
 -1.8929660182183922E-01 a       129     0     6     1     9
  4.0230686238607855E-01 a       130     0     6     1    10
 -4.5095662607554415E-01 a       131     0     6     1    11
 -2.4524109153934925E-01 a       132     0     6     1    12
  3.5937335763493100E-01 a       133     0     6     1    13
 -1.2379183837015645E-01 a       134     0     6     1    14
 -1.0022353442449944E-01 a       135     0     6     1    15
  5.0298501602413681E-01 a       136     0     6     1    16
  2.5831453076304847E-03 a       137     0     6     1    17
  1.1143334067717631E-01 a       138     0     6     1    18
  4.0564180213123385E-01 a       139     0     6     1    19
 -2.8394847148654950E-01 a       140     0     6     1    20
  2.1289643991547844E-01 a       141     0     6     1    21
  6.2150843025389479E-01 a       142     0     6     1    22
  9.3333637908443165E-02 a       143     0     6     1    23
  8.4149574852806031E-01 a       144     0     6     1    24
 -3.1748072643701719E-01 a       145     0     7     1     1
 -6.9848533976629046E-01 a       146     0     7     1     2
  4.6811735396726110E-02 a       147     0     7     1     3
  3.9462612473481973E-01 a       148     0     7     1     4
  8.8641987118167911E-02 a       149     0     7     1     5
 -5.9608630002364205E-01 a       150     0     7     1     6
  3.2378594069567546E-01 a       151     0     7     1     7
 -1.1919299330609688E-02 a       152     0     7     1     8
 -3.6669696722955797E-01 a       153     0     7     1     9
  1.5425712705557046E-01 a       154     0     7     1    10
 -2.4301523201977177E-02 a       155     0     7     1    11
 -4.8295773506140760E-01 a       156     0     7     1    12
 -9.2884070275388086E-02 a       157     0     7     1    13
  5.6961257415401811E-01 a       158     0     7     1    14
 -3.0316880309561484E-01 a       159     0     7     1    15
 -3.6732375030722536E-01 a       160     0     7     1    16
  1.8866839991238196E-01 a       161     0     7     1    17
  2.6643035586073066E-01 a       162     0     7     1    18
 -5.4080501324990128E-02 a       163     0     7     1    19
 -4.5018608121984861E-02 a       164     0     7     1    20
 -8.0096658560383760E-01 a       165     0     7     1    21
 -4.0229925512762876E-01 a       166     0     7     1    22
  2.5958629282814794E-01 a       167     0     7     1    23
  6.9134037948520499E-01 a       168     0     7     1    24
  8.9521409231829185E-01 a       169     0     8     1     1
 -6.7313664539960427E-01 a       170     0     8     1     2
  4.7286120690875372E-01 a       171     0     8     1     3
  4.4638881980212047E-01 a       172     0     8     1     4
 -4.1228969851105085E-01 a       173     0     8     1     5
 -2.8198080716400470E-01 a       174     0     8     1     6
 -8.5254404599184896E-01 a       175     0     8     1     7
 -6.3926771118288339E-01 a       176     0     8     1     8
 -6.0078511710338200E-01 a       177     0     8     1     9
 -3.2858523697306735E-01 a       178     0     8     1    10
  7.1433079856853532E-01 a       179     0     8     1    11
 -7.3589816662715624E-01 a       180     0     8     1    12
  5.6248055982664702E-01 a       181     0     8     1    13
 -8.4094565505166877E-02 a       182     0     8     1    14
  9.6328002675182023E-01 a       183     0     8     1    15
  1.1406154156097488E-01 a       184     0     8     1    16
 -2.4498168669669429E-01 a       185     0     8     1    17
 -4.7382727820380399E-01 a       186     0     8     1    18
  7.8370395043945565E-02 a       187     0     8     1    19
  6.0904535484913958E-01 a       188     0     8     1    20
  2.5643175593695061E-01 a       189     0     8     1    21
  3.1892646087946136E-01 a       190     0     8     1    22
  2.7651832490484474E-01 a       191     0     8     1    23
  4.6470244345520167E-01 a       192     0     8     1    24
 -1.5865706807995378E-01 a       193     0     9     1     1
 -5.9277247285266614E-02 a       194     0     9     1     2
  5.2986471432533856E-02 a       195     0     9     1     3
  2.1604169890357836E-01 a       196     0     9     1     4
 -4.6456307957518303E-03 a       197     0     9     1     5
  7.3508630004768427E-02 a       198     0     9     1     6
 -1.4839184532381888E-01 a       199     0     9     1     7
  4.1882398554419727E-02 a       200     0     9     1     8
 -6.6899048263582159E-02 a       201     0     9     1     9
 -1.0933045470363940E-01 a       202     0     9     1    10
  1.1766226915792463E-01 a       203     0     9     1    11
 -6.5978635036791800E-02 a       204     0     9     1    12
  3.3535855112021978E-01 a       205     0     9     1    13
  1.3408689293047730E-02 a       206     0     9     1    14
  1.0724383477735258E-01 a       207     0     9     1    15
  5.3488423037810415E-02 a       208     0     9     1    16
 -1.5831216658956487E-01 a       209     0     9     1    17
  1.6463946863973941E-01 a       210     0     9     1    18
  6.6959010060833976E-02 a       211     0     9     1    19
  1.7222708904192269E-01 a       212     0     9     1    20
  8.7236754105130751E-02 a       213     0     9     1    21
  1.5127731076694584E-01 a       214     0     9     1    22
  2.0169625373260155E-01 a       215     0     9     1    23
  3.9006411988902631E-02 a       216     0     9     1    24
  1.1956820184742106E-01 a       217     0    10     1     1
 -1.3215834782117125E-01 a       218     0    10     1     2
  6.7342272003479253E-02 a       219     0    10     1     3
  3.6446348466420246E-02 a       220     0    10     1     4
  1.5739896903801676E-01 a       221     0    10     1     5
 -1.1203810360518214E-02 a       222     0    10     1     6
 -4.7389251685802568E-02 a       223     0    10     1     7
  8.0820633313106929E-03 a       224     0    10     1     8
  3.6564897948027433E-02 a       225     0    10     1     9
 -5.9637831047359799E-02 a       226     0    10     1    10
  1.3462576293792194E-01 a       227     0    10     1    11
 -5.4176923006599310E-03 a       228     0    10     1    12
 -1.7553997643160774E-01 a       229     0    10     1    13
  8.5421874690619307E-02 a       230     0    10     1    14
  1.0456587209331737E-01 a       231     0    10     1    15
  3.8366241996061153E-02 a       232     0    10     1    16
 -1.2082029583885226E-01 a       233     0    10     1    17
 -5.6622080982271464E-02 a       234     0    10     1    18
  1.8769478609728097E-02 a       235     0    10     1    19
  1.5887768024733870E-01 a       236     0    10     1    20
 -2.6322422642356656E-02 a       237     0    10     1    21
  1.7537861883702396E-01 a       238     0    10     1    22
  1.2319614219051512E-03 a       239     0    10     1    23
  2.6700288775869513E-01 a       240     0    10     1    24
  2.1252445669193265E-01 a       241     0    11     1     1
 -3.3673560464663736E-02 a       242     0    11     1     2
 -1.0678720915602319E-01 a       243     0    11     1     3
  1.1463006583184145E-01 a       244     0    11     1     4
 -2.0405486324976485E-01 a       245     0    11     1     5
 -5.4769002973771783E-02 a       246     0    11     1     6
  1.6243071790042994E-02 a       247     0    11     1     7
 -3.1494018409926772E-02 a       248     0    11     1     8
  4.3438095483559230E-02 a       249     0    11     1     9
 -3.6818116959184100E-01 a       250     0    11     1    10
  1.1237236552792468E-01 a       251     0    11     1    11
 -1.4848379677929344E-01 a       252     0    11     1    12
 -1.5755017807809080E-01 a       253     0    11     1    13
 -3.7295174291720068E-01 a       254     0    11     1    14
  1.3562099656424981E-01 a       255     0    11     1    15
  3.2313176276746521E-02 a       256     0    11     1    16
 -9.9667851515809675E-02 a       257     0    11     1    17
 -1.1214486602798431E-01 a       258     0    11     1    18
 -1.4096029189308015E-01 a       259     0    11     1    19
  1.4972711834820757E-01 a       260     0    11     1    20
 -2.1466135142039058E-01 a       261     0    11     1    21
 -5.2124344774544207E-01 a       262     0    11     1    22
 -8.3303608364125089E-03 a       263     0    11     1    23
 -3.3299156087559978E-01 a       264     0    11     1    24
 -1.7620247502021377E-01 a       265     0    12     1     1
 -3.2757783880412805E-01 a       266     0    12     1     2
  1.1813277102775623E+00 a       267     0    12     1     3
  1.5294359832867863E-01 a       268     0    12     1     4
 -1.1586955395099133E-01 a       269     0    12     1     5
 -2.7277199837666760E-01 a       270     0    12     1     6
 -5.0593750656114611E-01 a       271     0    12     1     7
 -7.2496840231926285E-01 a       272     0    12     1     8
  1.4117626437433484E-01 a       273     0    12     1     9
 -1.1718052287810610E+00 a       274     0    12     1    10
  6.8745341706645191E-01 a       275     0    12     1    11
 -2.1749480394044110E-01 a       276     0    12     1    12
 -7.8138279236579933E-01 a       277     0    12     1    13
  6.8214143947894457E-01 a       278     0    12     1    14
  6.3657152151131727E-02 a       279     0    12     1    15
 -7.6778147869011770E-01 a       280     0    12     1    16
 -6.4288526236620802E-01 a       281     0    12     1    17
  2.6744935978995299E-01 a       282     0    12     1    18
 -1.8807624323683727E+00 a       283     0    12     1    19
  8.5854109566457582E-01 a       284     0    12     1    20
 -5.8861333145988071E-01 a       285     0    12     1    21
 -1.3148296441162752E+00 a       286     0    12     1    22
  7.1589354753130563E-01 a       287     0    12     1    23
 -7.5996742921995686E-01 a       288     0    12     1    24
 -1.8554647397808935E-01 a       289     0    13     1     1
  9.4837578605336658E-03 a       290     0    13     1     2
 -4.1238800524212117E-02 a       291     0    13     1     3
  9.8496865918315066E-02 a       292     0    13     1     4
 -1.6750670804796343E-02 a       293     0    13     1     5
  1.0278100569572472E-01 a       294     0    13     1     6
 -1.8283305659704169E-01 a       295     0    13     1     7
 -2.7104617873719833E-01 a       296     0    13     1     8
 -7.2498703612727594E-03 a       297     0    13     1     9
 -7.5680001759135546E-03 a       298     0    13     1    10
  8.4992836091263707E-02 a       299     0    13     1    11
 -9.5772265924638604E-03 a       300     0    13     1    12
 -6.3789601023061374E-02 a       301     0    13     1    13
 -1.2821901855858908E-01 a       302     0    13     1    14
  7.6472124879002359E-02 a       303     0    13     1    15
 -2.0657079618831498E-01 a       304     0    13     1    16
  8.5166627863316691E-02 a       305     0    13     1    17
 -1.0934730224674808E-02 a       306     0    13     1    18
  1.1091161118872829E-01 a       307     0    13     1    19
 -7.0280429880052647E-02 a       308     0    13     1    20
  1.2940961335137444E-01 a       309     0    13     1    21
 -5.7501238073873612E-02 a       310     0    13     1    22
  5.5670095643344242E-01 a       311     0    13     1    23
 -6.9074846238041984E-02 a       312     0    13     1    24
  2.0209022293330817E-01 a       313     0    14     1     1
 -2.1235981287851305E-01 a       314     0    14     1     2
 -6.7922105401741789E-02 a       315     0    14     1     3
 -1.8338248277875654E-02 a       316     0    14     1     4
 -5.6565909520536584E-02 a       317     0    14     1     5
  5.9383421529170560E-02 a       318     0    14     1     6
  3.3873520550273178E-01 a       319     0    14     1     7
  1.6984181807111870E-01 a       320     0    14     1     8
  4.7608533777839350E-02 a       321     0    14     1     9
  1.5986302123193777E-01 a       322     0    14     1    10
  8.0283141898017350E-03 a       323     0    14     1    11
  1.0195182354590300E-01 a       324     0    14     1    12
  1.4030470060120290E-01 a       325     0    14     1    13
 -3.4212484130634269E-02 a       326     0    14     1    14
 -2.6318647825441494E-01 a       327     0    14     1    15
  1.0162593680190596E-01 a       328     0    14     1    16
 -3.7450268111321799E-01 a       329     0    14     1    17
  1.2688634783821159E-01 a       330     0    14     1    18
  7.7866170108045363E-02 a       331     0    14     1    19
  2.7121468473469917E-01 a       332     0    14     1    20
 -1.3072820850575775E-01 a       333     0    14     1    21
  7.6414184851952421E-02 a       334     0    14     1    22
 -8.9669684952969508E-02 a       335     0    14     1    23
  3.0290766471579461E-01 a       336     0    14     1    24
  3.9533194095584140E-01 a       337     0    15     1     1
 -3.7028031771230166E-02 a       338     0    15     1     2
 -1.7566790879172003E-01 a       339     0    15     1     3
 -1.6045560597841449E-01 a       340     0    15     1     4
 -9.3900711786946076E-02 a       341     0    15     1     5
 -1.7441353767628293E-01 a       342     0    15     1     6
  1.1293589946526525E-01 a       343     0    15     1     7
  1.9246940430799045E-01 a       344     0    15     1     8
  8.4451693320788238E-02 a       345     0    15     1     9
 -6.8049719610733476E-03 a       346     0    15     1    10
 -2.8283572734589951E-01 a       347     0    15     1    11
  5.0958677311463851E-01 a       348     0    15     1    12
 -2.5589959918203401E-02 a       349     0    15     1    13
  4.6212115966987911E-02 a       350     0    15     1    14
 -1.3881362618730489E-01 a       351     0    15     1    15
  2.7027477653292670E-01 a       352     0    15     1    16
  9.6806310174287185E-03 a       353     0    15     1    17
 -2.8553150839013336E-01 a       354     0    15     1    18
 -2.0598229431430934E-01 a       355     0    15     1    19
  2.5666760548877399E-02 a       356     0    15     1    20
 -2.5517651714167366E-01 a       357     0    15     1    21
 -1.6101625099259823E-01 a       358     0    15     1    22
 -2.0907896125098990E-01 a       359     0    15     1    23
 -1.4816866275544519E-01 a       360     0    15     1    24
  1.4493202118103660E-01 a       361     0    16     1     1
  1.4241354158325648E-03 a       362     0    16     1     2
  5.6980330510445862E-02 a       363     0    16     1     3
  2.9792928275987066E-02 a       364     0    16     1     4
  8.6446845739222761E-02 a       365     0    16     1     5
 -7.3051134771682250E-02 a       366     0    16     1     6
 -5.7539133414009000E-02 a       367     0    16     1     7
 -2.0112067627677976E-02 a       368     0    16     1     8
  1.8204379991794740E-02 a       369     0    16     1     9
  6.7936916237153103E-02 a       370     0    16     1    10
 -2.0276381325922541E-01 a       371     0    16     1    11
  5.6992991279106786E-02 a       372     0    16     1    12
 -1.5510524279942081E-01 a       373     0    16     1    13
  1.0597052983946867E-01 a       374     0    16     1    14
 -3.9139022743010864E-02 a       375     0    16     1    15
  7.7575428503888863E-02 a       376     0    16     1    16
  7.7527309748562229E-02 a       377     0    16     1    17
 -6.5632123730957642E-02 a       378     0    16     1    18
 -1.2505715537137299E-01 a       379     0    16     1    19
 -1.2747490861457039E-01 a       380     0    16     1    20
 -9.3553267196128508E-03 a       381     0    16     1    21
 -2.4031641787961558E-01 a       382     0    16     1    22
 -1.6115999551533772E-01 a       383     0    16     1    23
 -2.2341001620648768E-01 a       384     0    16     1    24
 -3.6489673731385519E-01 a       385     0    17     1     1
 -1.0103106960804424E-01 a       386     0    17     1     2
 -1.6633338075853801E-01 a       387     0    17     1     3
 -4.5251785519616443E-02 a       388     0    17     1     4
 -3.0196810002200442E-02 a       389     0    17     1     5
  3.9737009080623449E-02 a       390     0    17     1     6
 -2.0989528109102237E-01 a       391     0    17     1     7
 -8.9485286219817082E-03 a       392     0    17     1     8
 -8.2235765138339606E-02 a       393     0    17     1     9
  2.5710583999069052E-02 a       394     0    17     1    10
  1.3758912725083142E-01 a       395     0    17     1    11
 -1.1345377784254002E-01 a       396     0    17     1    12
  2.0278438953554179E-01 a       397     0    17     1    13
  4.5642423014985123E-01 a       398     0    17     1    14
  4.8031096419422226E-01 a       399     0    17     1    15
 -3.3927552773285014E-01 a       400     0    17     1    16
  1.6735382040196731E-03 a       401     0    17     1    17
  1.7919086450961247E-01 a       402     0    17     1    18
 -9.5940153216228174E-02 a       403     0    17     1    19
 -2.9267408172313170E-01 a       404     0    17     1    20
 -2.5393935192692485E-01 a       405     0    17     1    21
  4.2844683325004865E-02 a       406     0    17     1    22
  2.6387065022308848E-01 a       407     0    17     1    23
  1.1030771338692245E-01 a       408     0    17     1    24
  1.3526081353950362E-01 a       409     0    18     1     1
  8.6401751961128051E-02 a       410     0    18     1     2
 -9.9419202518962996E-02 a       411     0    18     1     3
 -3.1698928476838734E-01 a       412     0    18     1     4
 -3.8932150089082178E-02 a       413     0    18     1     5
 -1.4640599169697682E-01 a       414     0    18     1     6
 -6.0849494921123001E-02 a       415     0    18     1     7
  7.8238758136181918E-02 a       416     0    18     1     8
  9.6607073808944816E-02 a       417     0    18     1     9
  2.5402661955026989E-01 a       418     0    18     1    10
 -1.8346926427210658E-01 a       419     0    18     1    11
  4.4955993647837805E-01 a       420     0    18     1    12
  1.3291596217788762E-01 a       421     0    18     1    13
  3.5142063332853735E-01 a       422     0    18     1    14
  1.1181407917939834E-02 a       423     0    18     1    15
  9.5471161276504707E-02 a       424     0    18     1    16
  3.9553916420989023E-02 a       425     0    18     1    17
 -9.2489246933254027E-02 a       426     0    18     1    18
 -7.7984839995839869E-02 a       427     0    18     1    19
  3.4767201334795099E-02 a       428     0    18     1    20
  3.8805357965958936E-02 a       429     0    18     1    21
  1.3876569356049759E-01 a       430     0    18     1    22
 -2.7732217221908428E-01 a       431     0    18     1    23
 -1.2346053413396045E-01 a       432     0    18     1    24
 -4.7495075874892628E-02 a       433     0    19     1     1
  1.9644701768026129E-01 a       434     0    19     1     2
  1.2733235753780617E-01 a       435     0    19     1     3
  1.0630891294610749E-01 a       436     0    19     1     4
 -9.9213411896498668E-02 a       437     0    19     1     5
 -8.0538993631088199E-02 a       438     0    19     1     6
 -5.8509146504208853E-02 a       439     0    19     1     7
 -9.9358194362563435E-02 a       440     0    19     1     8
  8.5962948273470494E-03 a       441     0    19     1     9
 -2.6047227432824094E-01 a       442     0    19     1    10
  2.5502983190490588E-02 a       443     0    19     1    11
  7.2638539084737996E-02 a       444     0    19     1    12
 -1.1757113399269381E-02 a       445     0    19     1    13
 -4.0570561344228588E-02 a       446     0    19     1    14
 -4.5576939999185169E-02 a       447     0    19     1    15
 -2.9915239835688320E-02 a       448     0    19     1    16
  2.4499893940442280E-01 a       449     0    19     1    17
  8.4900384384850369E-02 a       450     0    19     1    18
 -1.0891058744872817E-01 a       451     0    19     1    19
  2.2390329299078852E-02 a       452     0    19     1    20
  1.8419460353666534E-01 a       453     0    19     1    21
  1.7529839013326073E-01 a       454     0    19     1    22
 -2.3524319230153104E-01 a       455     0    19     1    23
 -1.3949426751686339E-01 a       456     0    19     1    24
 -4.7263262128837448E-02 a       457     0    20     1     1
  1.0691157726947308E-01 a       458     0    20     1     2
  1.7709847778472551E-01 a       459     0    20     1     3
  2.2600873698279283E-01 a       460     0    20     1     4
  6.4611157153234969E-02 a       461     0    20     1     5
  2.1401015245890068E-01 a       462     0    20     1     6
 -1.1404421028204205E-01 a       463     0    20     1     7
  1.7282835032068324E-02 a       464     0    20     1     8
  1.8797390010604504E-02 a       465     0    20     1     9
  2.2344351408625121E-01 a       466     0    20     1    10
  3.2722965104881080E-01 a       467     0    20     1    11
 -6.0402888680080015E-02 a       468     0    20     1    12
  1.8475352170498213E-01 a       469     0    20     1    13
 -6.2468129413877020E-02 a       470     0    20     1    14
  4.9584779298992958E-02 a       471     0    20     1    15
 -2.7241231679418632E-01 a       472     0    20     1    16
 -7.0583461166381992E-02 a       473     0    20     1    17
  1.7258159985038643E-01 a       474     0    20     1    18
  2.0076854469704206E-01 a       475     0    20     1    19
 -1.2109283240378467E-01 a       476     0    20     1    20
  4.9248295630917616E-01 a       477     0    20     1    21
  5.6360867539059245E-01 a       478     0    20     1    22
 -1.2670335153551629E-01 a       479     0    20     1    23
 -8.8033554270766770E-02 a       480     0    20     1    24
  2.2524181152008213E-01 a       481     0    21     1     1
 -8.0222388462100960E-02 a       482     0    21     1     2
 -1.1905928431648963E-02 a       483     0    21     1     3
 -2.9237566469836749E-02 a       484     0    21     1     4
  6.1147161758333564E-05 a       485     0    21     1     5
 -1.0759672542600879E-01 a       486     0    21     1     6
  1.7556342781418051E-02 a       487     0    21     1     7
  2.0801801140718121E-01 a       488     0    21     1     8
  1.0786330987240071E-01 a       489     0    21     1     9
 -1.7139708981065674E-01 a       490     0    21     1    10
 -1.2736551219728062E-01 a       491     0    21     1    11
 -2.9162019477829942E-01 a       492     0    21     1    12
 -1.3808113440582812E-01 a       493     0    21     1    13
  9.7165389665729143E-02 a       494     0    21     1    14
  3.2595163044129116E-01 a       495     0    21     1    15
  3.6816282971751030E-01 a       496     0    21     1    16
  1.5727124217355251E-01 a       497     0    21     1    17
  1.1099599458434538E-01 a       498     0    21     1    18
 -4.0470493026893692E-02 a       499     0    21     1    19
 -6.8028846601024290E-02 a       500     0    21     1    20
 -2.6199384552653460E-01 a       501     0    21     1    21
 -5.1786376737516060E-01 a       502     0    21     1    22
 -2.5297281046953202E-01 a       503     0    21     1    23
 -3.6252326166268678E-01 a       504     0    21     1    24
 -1.9570717863219689E-01 a       505     0    22     1     1
  2.8098425606870225E-01 a       506     0    22     1     2
  2.1553126712554004E-02 a       507     0    22     1     3
 -8.5031333134040436E-03 a       508     0    22     1     4
  1.1976420518384479E-01 a       509     0    22     1     5
  6.9545061215386528E-01 a       510     0    22     1     6
 -5.8826471195875518E-01 a       511     0    22     1     7
 -3.8732260581216876E-01 a       512     0    22     1     8
  4.3558767663244435E-01 a       513     0    22     1     9
 -6.1374480961691999E-02 a       514     0    22     1    10
  6.8952537529091099E-02 a       515     0    22     1    11
 -4.1852893824092374E-01 a       516     0    22     1    12
 -4.2843619907517105E-01 a       517     0    22     1    13
 -3.6485085504957504E-01 a       518     0    22     1    14
  1.4032711245452753E-01 a       519     0    22     1    15
 -5.1359222716194974E-02 a       520     0    22     1    16
 -5.6919739428085958E-01 a       521     0    22     1    17
 -3.2832515241487092E-01 a       522     0    22     1    18
 -5.9920880633314644E-01 a       523     0    22     1    19
  9.1605340131272384E-01 a       524     0    22     1    20
 -5.4558081322350616E-01 a       525     0    22     1    21
 -1.0443090598875006E-01 a       526     0    22     1    22
  1.3650860971398501E-01 a       527     0    22     1    23
 -4.9440247654624375E-01 a       528     0    22     1    24
 -5.1428721588430426E-02 a       529     0    23     1     1
  8.0539614264625192E-02 a       530     0    23     1     2
  9.0097745387962974E-03 a       531     0    23     1     3
  7.6277450465398092E-02 a       532     0    23     1     4
  1.3549518657465096E-02 a       533     0    23     1     5
  1.0264362225969893E-01 a       534     0    23     1     6
  3.7118566570890333E-03 a       535     0    23     1     7
  7.4092746298996495E-02 a       536     0    23     1     8
 -1.1525855475541805E-02 a       537     0    23     1     9
 -1.1510031462694929E-01 a       538     0    23     1    10
  5.3977205386234912E-02 a       539     0    23     1    11
  5.0650143062670024E-02 a       540     0    23     1    12
  2.2507672219527033E-01 a       541     0    23     1    13
 -8.0435932146857028E-02 a       542     0    23     1    14
 -4.3112334178213307E-02 a       543     0    23     1    15
  5.6400161348723249E-02 a       544     0    23     1    16
 -1.2584072647410702E-01 a       545     0    23     1    17
  3.8636210081794360E-02 a       546     0    23     1    18
 -2.7476067131476496E-02 a       547     0    23     1    19
  2.3527993013214635E-01 a       548     0    23     1    20
 -6.9670652867788577E-02 a       549     0    23     1    21
  3.0556352783524388E-01 a       550     0    23     1    22
  4.1940571325939563E-02 a       551     0    23     1    23
 -3.1106816028894906E-02 a       552     0    23     1    24
 -7.8202116915861639E-02 a       553     0    24     1     1
 -9.2597096464232337E-02 a       554     0    24     1     2
  5.0724553838321446E-02 a       555     0    24     1     3
  6.6345762075675302E-02 a       556     0    24     1     4
  1.6999252497853903E-01 a       557     0    24     1     5
 -7.8269838802018099E-02 a       558     0    24     1     6
 -1.4039078208483580E-01 a       559     0    24     1     7
  1.3859041502643210E-01 a       560     0    24     1     8
  9.0510254013455079E-03 a       561     0    24     1     9
 -3.2884934909887986E-01 a       562     0    24     1    10
  2.5448990948501567E-02 a       563     0    24     1    11
 -2.0851143396035765E-01 a       564     0    24     1    12
  1.2861390579960653E-02 a       565     0    24     1    13
  2.0217902129177995E-01 a       566     0    24     1    14
  4.7750423938521414E-01 a       567     0    24     1    15
 -5.5132825103618117E-02 a       568     0    24     1    16
 -1.3471374961212867E-01 a       569     0    24     1    17
  1.1753838420017980E-02 a       570     0    24     1    18
 -1.5757356396251562E-01 a       571     0    24     1    19
  1.1219680142259310E-01 a       572     0    24     1    20
 -8.3721751484628071E-02 a       573     0    24     1    21
 -2.7540889247738509E-01 a       574     0    24     1    22
 -2.5495810424158394E-01 a       575     0    24     1    23
  4.1666967318561343E-01 a       576     0    24     1    24
 -1.0174626213443917E-01 a       577     0    25     1     1
 -7.6554318116298453E-02 a       578     0    25     1     2
 -7.0721028807378725E-02 a       579     0    25     1     3
  2.0366779005349087E-01 a       580     0    25     1     4
  4.8469983371925110E-02 a       581     0    25     1     5
  1.4663137604152721E-01 a       582     0    25     1     6
  5.4126225791549111E-02 a       583     0    25     1     7
 -7.9448278373528802E-02 a       584     0    25     1     8
 -8.7385110995178317E-02 a       585     0    25     1     9
  4.0937454594793402E-03 a       586     0    25     1    10
  1.4969360166008683E-02 a       587     0    25     1    11
 -5.4261133368770953E-01 a       588     0    25     1    12
 -5.0056044015039255E-02 a       589     0    25     1    13
 -3.5398172098953873E-01 a       590     0    25     1    14
 -1.0295142730820819E-01 a       591     0    25     1    15
  4.0910496038611507E-02 a       592     0    25     1    16
 -1.7406086003774589E-02 a       593     0    25     1    17
  1.0804789708345081E-02 a       594     0    25     1    18
 -1.3052858748700165E-02 a       595     0    25     1    19
  1.2482908016636088E-01 a       596     0    25     1    20
 -2.3503771365589668E-01 a       597     0    25     1    21
 -4.2921405488431630E-01 a       598     0    25     1    22
  1.0466890232454071E-01 a       599     0    25     1    23
 -1.8352771346541885E-01 a       600     0    25     1    24
 -3.1542447265940993E-01 a       601     0    26     1     1
 -2.1000687654998770E-01 a       602     0    26     1     2
  7.1163642217075593E-02 a       603     0    26     1     3
  8.3345952982195270E-01 a       604     0    26     1     4
 -3.7989238923147289E-02 a       605     0    26     1     5
 -3.8372460984981582E-01 a       606     0    26     1     6
 -2.0078502983005611E-01 a       607     0    26     1     7
  3.4435307952738387E-01 a       608     0    26     1     8
  2.3224846688338968E-01 a       609     0    26     1     9
  3.4597186922296586E-01 a       610     0    26     1    10
 -4.0736063284789653E-01 a       611     0    26     1    11
  1.7160664720402263E-01 a       612     0    26     1    12
  1.0666549381744643E-01 a       613     0    26     1    13
  1.3538766064565505E-01 a       614     0    26     1    14
  3.1613550071720975E-01 a       615     0    26     1    15
 -6.2981664537472393E-01 a       616     0    26     1    16
 -3.3831655319135007E-01 a       617     0    26     1    17
 -2.6889534233097734E-01 a       618     0    26     1    18
 -2.0404148441799097E-01 a       619     0    26     1    19
  2.5022824557833717E-01 a       620     0    26     1    20
 -9.4505431088584291E-01 a       621     0    26     1    21
  2.1998509868857912E-02 a       622     0    26     1    22
  5.7278643724984708E-02 a       623     0    26     1    23
 -2.3827995675925445E-01 a       624     0    26     1    24
  1.8891059708775435E-01 a       625     0    27     1     1
  1.0092684504083400E+00 a       626     0    27     1     2
  3.7465534898707631E-01 a       627     0    27     1     3
  4.6604241531644641E-01 a       628     0    27     1     4
 -3.6647905348400789E-01 a       629     0    27     1     5
 -2.0043579581994123E-01 a       630     0    27     1     6
  1.3061310722716402E+00 a       631     0    27     1     7
  4.4207399216750048E-01 a       632     0    27     1     8
 -1.7840923517508805E-01 a       633     0    27     1     9
 -4.2446488299607893E-01 a       634     0    27     1    10
  6.1618288404409483E-01 a       635     0    27     1    11
 -4.8074917211368368E-01 a       636     0    27     1    12
 -1.9348492721275892E-02 a       637     0    27     1    13
  3.1084439839659633E-01 a       638     0    27     1    14
 -9.2447507704776977E-01 a       639     0    27     1    15
  1.1942537889441440E+00 a       640     0    27     1    16
 -5.5973449826812838E-01 a       641     0    27     1    17
  7.4547525736438885E-02 a       642     0    27     1    18
  5.3063903287717288E-03 a       643     0    27     1    19
 -7.3317999754947505E-01 a       644     0    27     1    20
  1.2516248133233504E-01 a       645     0    27     1    21
 -1.2003324588404871E+00 a       646     0    27     1    22
 -4.1161853261599629E-01 a       647     0    27     1    23
 -4.2904256263490737E-01 a       648     0    27     1    24
 -2.9493167271014718E-02 a       649     0    28     1     1
  7.4860680885775166E-01 a       650     0    28     1     2
  4.2129237861442781E-01 a       651     0    28     1     3
 -1.0049236052592361E-01 a       652     0    28     1     4
  2.7286665962230450E-01 a       653     0    28     1     5
  1.8377527585113632E-01 a       654     0    28     1     6
  1.7926757249877689E-01 a       655     0    28     1     7
 -2.0073284099348493E-01 a       656     0    28     1     8
 -5.5907394923263361E-02 a       657     0    28     1     9
 -5.0596952768065151E-01 a       658     0    28     1    10
 -3.0348417209066247E-01 a       659     0    28     1    11
  2.1713095490897373E-02 a       660     0    28     1    12
 -3.7306757380805794E-01 a       661     0    28     1    13
 -9.3588649384162204E-01 a       662     0    28     1    14
  5.7951560151087400E-01 a       663     0    28     1    15
 -4.5036969936782606E-01 a       664     0    28     1    16
 -2.1610558856747104E-04 a       665     0    28     1    17
 -4.3095435689260786E-01 a       666     0    28     1    18
 -5.8468648329086111E-02 a       667     0    28     1    19
 -5.6960334588759064E-02 a       668     0    28     1    20
  9.0322613124208351E-01 a       669     0    28     1    21
  7.4901609721779436E-02 a       670     0    28     1    22
 -9.7434063319293007E-01 a       671     0    28     1    23
 -6.9975375557998834E-02 a       672     0    28     1    24
 -2.1236997192498208E-01 a       673     0    29     1     1
 -7.8262307325305724E-01 a       674     0    29     1     2
 -4.0247098687043975E-01 a       675     0    29     1     3
 -6.5287247809806170E-01 a       676     0    29     1     4
  9.4068062036462060E-03 a       677     0    29     1     5
  6.9787963233134589E-02 a       678     0    29     1     6
 -7.6807312768867431E-01 a       679     0    29     1     7
 -1.4046452083604416E-01 a       680     0    29     1     8
  2.6981101323107903E-01 a       681     0    29     1     9
 -3.8975513401047762E-01 a       682     0    29     1    10
 -1.7920556686610437E-01 a       683     0    29     1    11
 -4.8533070741044876E-01 a       684     0    29     1    12
  3.6450753008158537E-01 a       685     0    29     1    13
 -8.5829329522081665E-01 a       686     0    29     1    14
  1.6928155645655958E+00 a       687     0    29     1    15
 -4.9255383323930568E-01 a       688     0    29     1    16
 -1.3066671709353970E-04 a       689     0    29     1    17
 -3.6369739541896356E-01 a       690     0    29     1    18
  3.2643890333470850E-02 a       691     0    29     1    19
 -4.6267031169302542E-01 a       692     0    29     1    20
 -4.2680360012379015E-01 a       693     0    29     1    21
 -4.9401273917609240E-01 a       694     0    29     1    22
  2.2545115158345214E-01 a       695     0    29     1    23
 -2.4479081986702393E-02 a       696     0    29     1    24
  2.3798132885086237E-01 a       697     0    30     1     1
  9.6051062191524830E-02 a       698     0    30     1     2
 -2.1906264955814331E-01 a       699     0    30     1     3
 -4.0717477212426406E-01 a       700     0    30     1     4
  6.6319849018800903E-01 a       701     0    30     1     5
  1.9109252442670879E-01 a       702     0    30     1     6
  2.6357854636944872E-01 a       703     0    30     1     7
 -1.0211528377420769E-01 a       704     0    30     1     8
  2.4194692128911405E-01 a       705     0    30     1     9
 -5.1495394993834057E-02 a       706     0    30     1    10
  5.8987851429854710E-01 a       707     0    30     1    11
 -2.9582123478062122E-01 a       708     0    30     1    12
 -6.0704000543298187E-01 a       709     0    30     1    13
  2.4848695600103266E-01 a       710     0    30     1    14
 -4.0405542085523422E-01 a       711     0    30     1    15
  1.8170271539146285E-01 a       712     0    30     1    16
  2.8282060530639613E-01 a       713     0    30     1    17
 -1.0205720245856906E-01 a       714     0    30     1    18
 -5.6242363082317348E-01 a       715     0    30     1    19
 -1.5330128799494899E-01 a       716     0    30     1    20
  1.0322590662123503E+00 a       717     0    30     1    21
  4.9304272801147971E-02 a       718     0    30     1    22
 -2.3895660726663667E-01 a       719     0    30     1    23
  3.9595863649677543E-01 a       720     0    30     1    24
  1.7277375748629387E-01 a       721     0    31     1     1
 -1.5506104063001033E-01 a       722     0    31     1     2
 -2.4948159197738420E-02 a       723     0    31     1     3
  5.6347122703715347E-01 a       724     0    31     1     4
  1.0172208756275031E-01 a       725     0    31     1     5
 -3.1743664936350925E-02 a       726     0    31     1     6
 -7.3185976948332843E-02 a       727     0    31     1     7
  2.7981598353588910E-01 a       728     0    31     1     8
  1.8864785059866443E-01 a       729     0    31     1     9
  6.8564447675138374E-01 a       730     0    31     1    10
 -1.6234830449618801E-01 a       731     0    31     1    11
  7.3670974846295645E-02 a       732     0    31     1    12
 -7.0470295967443919E-01 a       733     0    31     1    13
  5.7465403140025705E-02 a       734     0    31     1    14
  2.4937609002713354E-01 a       735     0    31     1    15
 -5.8587106230487268E-02 a       736     0    31     1    16
  1.0403340272496409E-01 a       737     0    31     1    17
 -1.9962038579389361E-02 a       738     0    31     1    18
  4.0243246349787759E-01 a       739     0    31     1    19
 -2.6885801876335817E-02 a       740     0    31     1    20
 -9.8649705526999809E-01 a       741     0    31     1    21
  1.9184486978315768E-01 a       742     0    31     1    22
  1.4752572903540551E-01 a       743     0    31     1    23
  2.8525778213375313E-01 a       744     0    31     1    24
  5.5478959360286784E-01 a       745     0    32     1     1
 -4.7325743458185127E-01 a       746     0    32     1     2
  4.9604695529418780E-01 a       747     0    32     1     3
 -1.0558531469473287E-01 a       748     0    32     1     4
 -1.0690178387431404E-01 a       749     0    32     1     5
 -3.9020357870473737E-01 a       750     0    32     1     6
 -5.1014054593292357E-01 a       751     0    32     1     7
 -1.5463661711596313E-01 a       752     0    32     1     8
 -2.8673616252745859E-01 a       753     0    32     1     9
  1.7992704604384244E-01 a       754     0    32     1    10
 -4.9087402973213762E-01 a       755     0    32     1    11
  9.0004928757845237E-01 a       756     0    32     1    12
  9.6015102591560431E-01 a       757     0    32     1    13
 -6.7188463570449064E-01 a       758     0    32     1    14
  1.3381790483013711E-01 a       759     0    32     1    15
 -2.0561331731688304E-01 a       760     0    32     1    16
 -2.8031107505847315E-02 a       761     0    32     1    17
 -1.1598959969406150E-01 a       762     0    32     1    18
  5.8916616252378939E-01 a       763     0    32     1    19
  5.4836745588690311E-02 a       764     0    32     1    20
  3.7011250861172257E-01 a       765     0    32     1    21
 -9.5328506508010280E-01 a       766     0    32     1    22
 -4.2981624887007669E-01 a       767     0    32     1    23
 -1.5891542352786694E-01 a       768     0    32     1    24
 -3.1558592971899729E-01 a       769     0    33     1     1
  8.9039868697396463E-01 a       770     0    33     1     2
  1.0398792964492678E+00 a       771     0    33     1     3
  3.0037265088379622E-01 a       772     0    33     1     4
  5.2947548289941837E-01 a       773     0    33     1     5
 -2.3220438083615230E-01 a       774     0    33     1     6
  3.8646917609552844E-01 a       775     0    33     1     7
  4.3886038635881397E-01 a       776     0    33     1     8
  4.4090683751172483E-01 a       777     0    33     1     9
  5.7029408806856907E-01 a       778     0    33     1    10
 -7.2498436001594080E-01 a       779     0    33     1    11
 -3.0220897150244092E-01 a       780     0    33     1    12
 -2.6350909986295562E-01 a       781     0    33     1    13
  4.4872177017357337E-02 a       782     0    33     1    14
 -8.2073631795996371E-01 a       783     0    33     1    15
 -8.6605875803341692E-01 a       784     0    33     1    16
 -2.1104500615566066E-01 a       785     0    33     1    17
  3.1304067378403411E-01 a       786     0    33     1    18
 -3.4944932333244444E-01 a       787     0    33     1    19
 -8.3817329771930726E-01 a       788     0    33     1    20
  5.2385552435019656E-01 a       789     0    33     1    21
  7.5696697131967039E-01 a       790     0    33     1    22
 -6.0795942997812193E-02 a       791     0    33     1    23
  6.4579263033416912E-01 a       792     0    33     1    24
 -7.9272633083318070E-02 a       793     0    34     1     1
 -1.4917766389382947E-01 a       794     0    34     1     2
 -4.8587355192816921E-02 a       795     0    34     1     3
 -6.2752410068270814E-01 a       796     0    34     1     4
 -5.2297451318189192E-01 a       797     0    34     1     5
  3.6641676976318677E-02 a       798     0    34     1     6
  7.6676941075729269E-02 a       799     0    34     1     7
  1.9609526291014284E-01 a       800     0    34     1     8
  6.8862363116554193E-02 a       801     0    34     1     9
  6.4247303169780251E-02 a       802     0    34     1    10
  4.3535225752739820E-01 a       803     0    34     1    11
  2.9603352203763911E-01 a       804     0    34     1    12
  2.0214543580286976E-01 a       805     0    34     1    13
 -1.9842691176644703E-01 a       806     0    34     1    14
  9.9293922853921052E-02 a       807     0    34     1    15
  3.4244869025553026E-01 a       808     0    34     1    16
  5.2388691921336983E-01 a       809     0    34     1    17
  7.2527978641456145E-02 a       810     0    34     1    18
  4.5397729433747092E-01 a       811     0    34     1    19
 -3.9734941080287373E-01 a       812     0    34     1    20
 -1.1117647149524706E-01 a       813     0    34     1    21
  2.3122177152572490E-01 a       814     0    34     1    22
  9.7962214444734841E-01 a       815     0    34     1    23
 -9.6323269685320778E-01 a       816     0    34     1    24
  1.3112207126247361E-01 a       817     0    35     1     1
  1.5084840399764649E-01 a       818     0    35     1     2
  1.1072496581757926E-01 a       819     0    35     1     3
 -2.1521397392166181E-01 a       820     0    35     1     4
  7.9844057335758251E-02 a       821     0    35     1     5
  5.5255827702344627E-02 a       822     0    35     1     6
 -4.2422047604458848E-02 a       823     0    35     1     7
  4.7301151060191310E-01 a       824     0    35     1     8
  1.4874350125764471E-01 a       825     0    35     1     9
  4.7819958664182288E-01 a       826     0    35     1    10
 -1.1181027639699736E-02 a       827     0    35     1    11
 -4.1217793323482355E-02 a       828     0    35     1    12
  4.0200221014505849E-02 a       829     0    35     1    13
 -8.1204785280003078E-02 a       830     0    35     1    14
  2.7669915233870362E-01 a       831     0    35     1    15
 -7.3715237998249515E-03 a       832     0    35     1    16
  4.4034405006575161E-01 a       833     0    35     1    17
 -3.2811482212620993E-02 a       834     0    35     1    18
  3.7854412961295658E-02 a       835     0    35     1    19
 -1.2297109953369836E-01 a       836     0    35     1    20
  4.1930867010510003E-01 a       837     0    35     1    21
  1.4934994088476047E-01 a       838     0    35     1    22
 -1.9429537807531902E-01 a       839     0    35     1    23
 -3.3421612403725687E-01 a       840     0    35     1    24
 -6.9255043425116880E-01 a       841     0    36     1     1
  6.8713528339199081E-02 a       842     0    36     1     2
 -6.1018556820994951E-01 a       843     0    36     1     3
 -8.2349435382898428E-01 a       844     0    36     1     4
 -9.2923386607812730E-01 a       845     0    36     1     5
  5.2493721326934827E-02 a       846     0    36     1     6
  4.2848186777931707E-01 a       847     0    36     1     7
 -4.9075340154880243E-01 a       848     0    36     1     8
  3.8567005251399840E-02 a       849     0    36     1     9
 -8.6021514671226110E-02 a       850     0    36     1    10
 -1.3405840451316925E-01 a       851     0    36     1    11
 -8.0888204412197395E-01 a       852     0    36     1    12
 -5.5923600418919273E-01 a       853     0    36     1    13
  9.9592008208384597E-02 a       854     0    36     1    14
 -1.6622588535555591E-01 a       855     0    36     1    15
  4.9946022665209602E-02 a       856     0    36     1    16
  2.4062955082626797E-01 a       857     0    36     1    17
  9.5421244538593075E-02 a       858     0    36     1    18
 -8.0770343347907392E-01 a       859     0    36     1    19
 -1.3637096333395948E-02 a       860     0    36     1    20
 -9.5554881966743610E-01 a       861     0    36     1    21
 -3.3283902735096116E-01 a       862     0    36     1    22
  5.4247607140277121E-01 a       863     0    36     1    23
 -1.8599596332381760E+00 a       864     0    36     1    24
 -7.4756790721000232E-01 a       865     0    37     1     1
  4.4599188673469392E-01 a       866     0    37     1     2
 -1.1869920358553465E-01 a       867     0    37     1     3
  5.9564435495292278E-01 a       868     0    37     1     4
 -4.1153809115353246E-01 a       869     0    37     1     5
 -5.7981311924060897E-01 a       870     0    37     1     6
 -1.0058517000570997E+00 a       871     0    37     1     7
  2.3133551298223604E-01 a       872     0    37     1     8
  1.5663596574297028E-01 a       873     0    37     1     9
 -4.3886996323750593E-02 a       874     0    37     1    10
  7.6363108375961899E-02 a       875     0    37     1    11
  2.1422627417343351E-01 a       876     0    37     1    12
 -5.5957647019504719E-01 a       877     0    37     1    13
  8.6865561466976174E-02 a       878     0    37     1    14
 -1.8962719500531056E-01 a       879     0    37     1    15
 -2.4638409202251971E-01 a       880     0    37     1    16
  7.1043813256111810E-01 a       881     0    37     1    17
 -2.7795642076817789E-01 a       882     0    37     1    18
  2.2538994016989930E-02 a       883     0    37     1    19
  1.1087870662953185E-02 a       884     0    37     1    20
  1.8994106206434064E-02 a       885     0    37     1    21
  8.2018966952726413E-01 a       886     0    37     1    22
  3.2162977792688668E-01 a       887     0    37     1    23
  8.0676412533881425E-01 a       888     0    37     1    24
 -6.6804962686146038E-03 a       889     0    38     1     1
 -2.6763127569954243E-01 a       890     0    38     1     2
  2.3707018928066845E-01 a       891     0    38     1     3
  7.2988255692999560E-01 a       892     0    38     1     4
 -4.5041049974939823E-01 a       893     0    38     1     5
  7.3170941747690427E-02 a       894     0    38     1     6
 -3.4238633223661125E-01 a       895     0    38     1     7
 -2.4444816309515946E-01 a       896     0    38     1     8
  5.5250444759226372E-02 a       897     0    38     1     9
 -2.2363041294226571E-01 a       898     0    38     1    10
  1.0377863977479593E+00 a       899     0    38     1    11
  5.4261140485612913E-01 a       900     0    38     1    12
 -1.5907138119070068E-02 a       901     0    38     1    13
 -2.5499785812359987E-01 a       902     0    38     1    14
  6.1796660102860834E-01 a       903     0    38     1    15
 -2.5708940893125065E-01 a       904     0    38     1    16
  8.9151569150750343E-02 a       905     0    38     1    17
 -1.3355640962719534E-01 a       906     0    38     1    18
  3.0854432951119592E-01 a       907     0    38     1    19
 -6.2992499107060373E-01 a       908     0    38     1    20
 -8.0379423392432070E-01 a       909     0    38     1    21
  1.6260283234402532E-02 a       910     0    38     1    22
  3.7555941483360161E-01 a       911     0    38     1    23
 -2.4478916023049344E-03 a       912     0    38     1    24
 -2.9348570878698410E-01 a       913     0    39     1     1
 -9.5018278943165757E-01 a       914     0    39     1     2
  1.5962163992943176E-01 a       915     0    39     1     3
 -3.3124729791277263E-01 a       916     0    39     1     4
  2.1632915430078065E-01 a       917     0    39     1     5
 -2.7035481425429347E-01 a       918     0    39     1     6
 -2.9156370855016361E-01 a       919     0    39     1     7
 -3.5587039424892197E-01 a       920     0    39     1     8
 -1.9176037550909419E-01 a       921     0    39     1     9
 -8.1643285789938036E-01 a       922     0    39     1    10
 -1.2117955192732720E-01 a       923     0    39     1    11
  1.0436977093761944E-01 a       924     0    39     1    12
 -4.7941711162532480E-01 a       925     0    39     1    13
  9.0147422365322846E-02 a       926     0    39     1    14
  1.8665558017620432E-01 a       927     0    39     1    15
 -2.2548061444423607E-02 a       928     0    39     1    16
  4.8002989761363452E-01 a       929     0    39     1    17
 -8.6132687842449596E-02 a       930     0    39     1    18
 -7.5139494773276347E-02 a       931     0    39     1    19
  6.3872386065722556E-02 a       932     0    39     1    20
 -4.3891387540442706E-01 a       933     0    39     1    21
  6.1462147632734954E-01 a       934     0    39     1    22
  3.6392048171230923E-01 a       935     0    39     1    23
  1.6886600751845200E+00 a       936     0    39     1    24
  6.6749232161233663E-01 a       937     0    40     1     1
 -2.9161714468142247E-01 a       938     0    40     1     2
  3.9127184895618861E-01 a       939     0    40     1     3
 -1.8268418158324054E-01 a       940     0    40     1     4
  1.3362873639936967E-02 a       941     0    40     1     5
 -1.7163485018582000E-01 a       942     0    40     1     6
  2.4146818828286309E-01 a       943     0    40     1     7
  3.0733133488187359E-01 a       944     0    40     1     8
  1.3624591123662852E-01 a       945     0    40     1     9
  1.8633062664050394E-03 a       946     0    40     1    10
  1.3087340894164790E-02 a       947     0    40     1    11
  1.3076223270465197E-02 a       948     0    40     1    12
 -2.3688177019810794E-01 a       949     0    40     1    13
 -1.9342930588339710E-01 a       950     0    40     1    14
 -1.6855807341543882E-01 a       951     0    40     1    15
 -3.2753489166091898E-01 a       952     0    40     1    16
 -1.2705067454783825E-01 a       953     0    40     1    17
 -1.8418253724548572E-01 a       954     0    40     1    18
 -1.3207306028045473E-01 a       955     0    40     1    19
 -2.0380302215698776E-01 a       956     0    40     1    20
  1.4237989591312086E-01 a       957     0    40     1    21
 -1.4363764429925824E-01 a       958     0    40     1    22
 -2.2882222431136988E-02 a       959     0    40     1    23
  7.4407633155422689E-02 a       960     0    40     1    24
  1.5458391424669241E-01 a       961     0    41     1     1
 -5.7817527125658918E-01 a       962     0    41     1     2
 -1.0393436942439155E-02 a       963     0    41     1     3
  3.6127463484854955E-01 a       964     0    41     1     4
 -1.9994322824150570E-01 a       965     0    41     1     5
 -1.5879700657588629E-02 a       966     0    41     1     6
  2.4721070919171367E-01 a       967     0    41     1     7
 -1.4289045009873466E-01 a       968     0    41     1     8
  1.2340738208384719E-01 a       969     0    41     1     9
 -5.7879150485194009E-01 a       970     0    41     1    10
  1.1505588751647230E-01 a       971     0    41     1    11
  3.1782750586098707E-01 a       972     0    41     1    12
 -5.4765298207952576E-02 a       973     0    41     1    13
 -1.6460079280847786E-01 a       974     0    41     1    14
  1.5804108892079151E-02 a       975     0    41     1    15
  3.8656516524571118E-02 a       976     0    41     1    16
 -2.8642357112730624E-02 a       977     0    41     1    17
  4.5689668599497968E-01 a       978     0    41     1    18
 -2.2938290280653220E-01 a       979     0    41     1    19
  4.6627347185527007E-01 a       980     0    41     1    20
 -5.0450569619459751E-01 a       981     0    41     1    21
 -2.8860342563245900E-01 a       982     0    41     1    22
  7.7550966882417482E-01 a       983     0    41     1    23
  6.0571233735417795E-01 a       984     0    41     1    24
  2.7215733327268754E-01 a       985     0    42     1     1
 -5.7922024609333933E-02 a       986     0    42     1     2
  7.3189354425507461E-02 a       987     0    42     1     3
  4.9341150984199209E-02 a       988     0    42     1     4
  2.4259153998792632E-01 a       989     0    42     1     5
 -5.2800011227303634E-01 a       990     0    42     1     6
 -3.7610136715779854E-02 a       991     0    42     1     7
  8.1815443678994448E-01 a       992     0    42     1     8
  2.9189957511560399E-01 a       993     0    42     1     9
 -6.9223314653398849E-01 a       994     0    42     1    10
 -1.1254073013795957E-01 a       995     0    42     1    11
  2.0296965754385596E-01 a       996     0    42     1    12
  3.7824973658424182E-01 a       997     0    42     1    13
 -6.1971637740751662E-01 a       998     0    42     1    14
  1.0050274131953583E+00 a       999     0    42     1    15
  3.8223891588822681E-02 a      1000     0    42     1    16
  1.2610730355161920E-01 a      1001     0    42     1    17
 -4.7638312356728241E-01 a      1002     0    42     1    18
 -2.3180120879597046E-01 a      1003     0    42     1    19
  5.6222136409352785E-01 a      1004     0    42     1    20
 -3.6837926343835103E-01 a      1005     0    42     1    21
 -9.2790723191676128E-01 a      1006     0    42     1    22
 -4.2936993373691024E-01 a      1007     0    42     1    23
 -5.1295643722672379E-01 a      1008     0    42     1    24
 -6.3846308612858976E-02 a      1009     0    43     1     1
  9.3013697007142304E-01 a      1010     0    43     1     2
  3.0641681196825415E-01 a      1011     0    43     1     3
 -2.8712674744831096E-01 a      1012     0    43     1     4
 -1.4867023988273367E-01 a      1013     0    43     1     5
  4.4104086569508727E-01 a      1014     0    43     1     6
  1.0457005456507646E+00 a      1015     0    43     1     7
  3.3584104203891213E-01 a      1016     0    43     1     8
  4.0834707663738007E-02 a      1017     0    43     1     9
  3.2998270568595128E-01 a      1018     0    43     1    10
  6.8593458583871975E-02 a      1019     0    43     1    11
 -3.1338528184994252E-01 a      1020     0    43     1    12
 -6.5197368540081158E-01 a      1021     0    43     1    13
  6.5341265228978151E-01 a      1022     0    43     1    14
 -8.1550029760187326E-01 a      1023     0    43     1    15
  4.4499919015246653E-01 a      1024     0    43     1    16
 -5.3959285434116533E-01 a      1025     0    43     1    17
  1.2113695823375177E-01 a      1026     0    43     1    18
 -6.1548302886743522E-01 a      1027     0    43     1    19
  8.9237840254598388E-01 a      1028     0    43     1    20
 -7.1220443962613855E-01 a      1029     0    43     1    21
  3.7271537345865502E-01 a      1030     0    43     1    22
 -8.5893421645533663E-01 a      1031     0    43     1    23
 -3.8433462816076777E-02 a      1032     0    43     1    24
  4.6318048238706006E-01 a      1033     0    44     1     1
 -9.1695929184402447E-01 a      1034     0    44     1     2
 -8.1854211364680671E-02 a      1035     0    44     1     3
  9.1426683279108900E-01 a      1036     0    44     1     4
  6.5151187077365036E-01 a      1037     0    44     1     5
 -2.0607733532253317E-01 a      1038     0    44     1     6
 -6.6576744310363500E-01 a      1039     0    44     1     7
 -4.0363490520933337E-01 a      1040     0    44     1     8
 -2.8839549994068847E-01 a      1041     0    44     1     9
 -8.2747449527420647E-01 a      1042     0    44     1    10
  2.1234970577411341E-01 a      1043     0    44     1    11
  2.3069115127073830E-01 a      1044     0    44     1    12
  1.1024376460010589E-01 a      1045     0    44     1    13
  1.7275616721976056E-01 a      1046     0    44     1    14
  9.7137452478404485E-01 a      1047     0    44     1    15
 -5.3867058256118883E-01 a      1048     0    44     1    16
 -6.3797163528193743E-02 a      1049     0    44     1    17
 -4.8882410540086524E-01 a      1050     0    44     1    18
 -2.2604772143435087E-01 a      1051     0    44     1    19
  1.3703975743187952E-01 a      1052     0    44     1    20
  1.5360275654076230E-01 a      1053     0    44     1    21
  4.1800036778484639E-01 a      1054     0    44     1    22
 -1.2336160558427715E-01 a      1055     0    44     1    23
  6.6558695919053423E-01 a      1056     0    44     1    24
  8.9298011839554015E-01 a      1057     0    45     1     1
 -2.7480664869381088E-01 a      1058     0    45     1     2
 -4.5433599432783867E-01 a      1059     0    45     1     3
  3.3634123624530116E-01 a      1060     0    45     1     4
 -1.8989377865368712E-01 a      1061     0    45     1     5
  1.6114175817902709E-01 a      1062     0    45     1     6
 -2.2144147586506824E-01 a      1063     0    45     1     7
 -1.7075251029950864E-01 a      1064     0    45     1     8
  1.2956882360227315E-01 a      1065     0    45     1     9
 -1.2027109009262684E+00 a      1066     0    45     1    10
  7.6143411446109976E-01 a      1067     0    45     1    11
  4.6510209060740954E-01 a      1068     0    45     1    12
 -1.5522602685353312E-01 a      1069     0    45     1    13
  1.7026876992947443E-01 a      1070     0    45     1    14
 -1.1856488178984473E-02 a      1071     0    45     1    15
 -4.4500058082168886E-01 a      1072     0    45     1    16
 -2.3381338496834900E-01 a      1073     0    45     1    17
  3.6422424469121417E-02 a      1074     0    45     1    18
 -5.9994616922992350E-01 a      1075     0    45     1    19
 -4.0873223746345871E-01 a      1076     0    45     1    20
 -5.0404999876380385E-01 a      1077     0    45     1    21
  2.3418193089910014E-02 a      1078     0    45     1    22
  2.1799093216770979E-01 a      1079     0    45     1    23
 -6.3728946158651778E-01 a      1080     0    45     1    24
 -1.9656986409214172E-01 a      1081     0    46     1     1
  2.9745318189419023E-01 a      1082     0    46     1     2
  4.3904456240351053E-02 a      1083     0    46     1     3
 -5.7303931073341052E-01 a      1084     0    46     1     4
  3.3986885713796666E-01 a      1085     0    46     1     5
 -2.6359627805759134E-01 a      1086     0    46     1     6
  1.3238603856562836E+00 a      1087     0    46     1     7
  8.5890532754922422E-01 a      1088     0    46     1     8
  3.3995752582506811E-01 a      1089     0    46     1     9
  4.0555991766992544E-01 a      1090     0    46     1    10
  6.0700236811527997E-01 a      1091     0    46     1    11
  3.3447681930550843E-01 a      1092     0    46     1    12
 -3.5173346484689871E-01 a      1093     0    46     1    13
  7.9302322519832735E-01 a      1094     0    46     1    14
 -2.0738666984567229E+00 a      1095     0    46     1    15
  1.0721543972102463E+00 a      1096     0    46     1    16
 -3.9078062626861654E-01 a      1097     0    46     1    17
 -4.8529507603206640E-01 a      1098     0    46     1    18
 -5.4382055005258301E-01 a      1099     0    46     1    19
 -5.4031670126758580E-01 a      1100     0    46     1    20
  1.1358159313141358E+00 a      1101     0    46     1    21
 -2.8275170126982047E-01 a      1102     0    46     1    22
  9.6913560768083787E-02 a      1103     0    46     1    23
 -4.8402166463654783E-01 a      1104     0    46     1    24
 -1.0607609525246693E-01 a      1105     0    47     1     1
 -3.2300628995342201E-01 a      1106     0    47     1     2
  6.2458878652388350E-01 a      1107     0    47     1     3
 -1.4554913074187539E-01 a      1108     0    47     1     4
 -4.7017881783704168E-02 a      1109     0    47     1     5
 -4.9848069590853250E-02 a      1110     0    47     1     6
 -4.6429709964180797E-02 a      1111     0    47     1     7
 -1.4250221917245373E-01 a      1112     0    47     1     8
 -2.0505658146670655E-01 a      1113     0    47     1     9
 -1.2208727430272040E-01 a      1114     0    47     1    10
  1.5266037689852141E-01 a      1115     0    47     1    11
  1.5638466326482545E-01 a      1116     0    47     1    12
 -5.8508897703368465E-02 a      1117     0    47     1    13
  5.0108805197165297E-02 a      1118     0    47     1    14
 -2.6566159304607551E-01 a      1119     0    47     1    15
  5.7564782871091302E-01 a      1120     0    47     1    16
  1.4591251412842643E-01 a      1121     0    47     1    17
  2.9574606634548395E-01 a      1122     0    47     1    18
  7.7112857955938349E-02 a      1123     0    47     1    19
  3.1058592217790709E-01 a      1124     0    47     1    20
 -1.9773542707614100E-01 a      1125     0    47     1    21
 -1.5864957649122000E-01 a      1126     0    47     1    22
 -1.0430991557934866E-01 a      1127     0    47     1    23
  4.2138104259649622E-01 a      1128     0    47     1    24
 -5.7921446571046198E-01 a      1129     0    48     1     1
  5.0998840520806554E-01 a      1130     0    48     1     2
 -3.5855910086035009E-01 a      1131     0    48     1     3
  2.6287424413105515E-01 a      1132     0    48     1     4
 -1.1938646656603046E-01 a      1133     0    48     1     5
  5.0436183474344871E-03 a      1134     0    48     1     6
 -1.4713854306893542E-01 a      1135     0    48     1     7
 -3.0125161807314595E-02 a      1136     0    48     1     8
 -1.3660829954014816E-01 a      1137     0    48     1     9
  3.4658362281469018E-01 a      1138     0    48     1    10
  2.8543137477288094E-01 a      1139     0    48     1    11
 -4.5970617242662470E-01 a      1140     0    48     1    12
  3.1118878620001555E-01 a      1141     0    48     1    13
  3.1421762795724772E-01 a      1142     0    48     1    14
 -2.6939189414683312E-01 a      1143     0    48     1    15
 -4.0757495688821549E-01 a      1144     0    48     1    16
  2.4834908997565763E-01 a      1145     0    48     1    17
  1.8674620131736319E-01 a      1146     0    48     1    18
 -3.6083107920035939E-02 a      1147     0    48     1    19
 -2.3117574221871948E-01 a      1148     0    48     1    20
  5.8245004387856562E-02 a      1149     0    48     1    21
 -9.3277374118293108E-02 a      1150     0    48     1    22
  2.9935588911138494E-01 a      1151     0    48     1    23
  1.6311350486106144E-01 a      1152     0    48     1    24
  5.7959223137777609E-03 a      1153     0    49     1     1
  2.9160651184058795E-01 a      1154     0    49     1     2
 -3.3110503960701476E-02 a      1155     0    49     1     3
 -3.0561278944039111E-01 a      1156     0    49     1     4
 -3.6100196989590716E-01 a      1157     0    49     1     5
 -1.5979647322696397E-01 a      1158     0    49     1     6
  2.0381930347992130E-01 a      1159     0    49     1     7
  2.8318395628803905E-01 a      1160     0    49     1     8
 -3.4714955351576848E-01 a      1161     0    49     1     9
  5.5283056466407865E-01 a      1162     0    49     1    10
  1.3145526612663297E-01 a      1163     0    49     1    11
 -2.5398742905851002E-01 a      1164     0    49     1    12
  3.2938400146504809E-01 a      1165     0    49     1    13
  4.2487312473113686E-01 a      1166     0    49     1    14
  4.5394471586467439E-01 a      1167     0    49     1    15
 -1.5770931697180156E-02 a      1168     0    49     1    16
 -2.1087580421930416E-01 a      1169     0    49     1    17
  1.4931379413221921E-01 a      1170     0    49     1    18
  4.5069507333392994E-01 a      1171     0    49     1    19
 -5.3772894714592157E-01 a      1172     0    49     1    20
  7.4247809290695921E-01 a      1173     0    49     1    21
 -4.5277346617033914E-01 a      1174     0    49     1    22
  3.4071256740549710E-01 a      1175     0    49     1    23
  1.8217794356483991E-02 a      1176     0    49     1    24
 -6.3445169590435557E-01 a      1177     0    50     1     1
 -1.9473343396681961E-01 a      1178     0    50     1     2
 -4.0219724013181871E-02 a      1179     0    50     1     3
 -2.1441378322085586E-01 a      1180     0    50     1     4
 -3.9574117706838413E-01 a      1181     0    50     1     5
 -3.0979703863335839E-01 a      1182     0    50     1     6
 -1.7739562174471657E-01 a      1183     0    50     1     7
  2.9750944796934575E-01 a      1184     0    50     1     8
  1.4151791500253111E-01 a      1185     0    50     1     9
  2.4047395829716692E-01 a      1186     0    50     1    10
 -1.7883847717680543E-01 a      1187     0    50     1    11
 -1.1706727621605816E-01 a      1188     0    50     1    12
  1.1470375059522443E-01 a      1189     0    50     1    13
  3.0574726604101245E-02 a      1190     0    50     1    14
 -2.4546864038954088E-02 a      1191     0    50     1    15
 -5.7635419281288215E-02 a      1192     0    50     1    16
 -4.7895078357960037E-03 a      1193     0    50     1    17
 -1.3272635030985715E-02 a      1194     0    50     1    18
 -8.7286274574858005E-02 a      1195     0    50     1    19
  2.8705696191267160E-01 a      1196     0    50     1    20
 -1.1248709660025868E+00 a      1197     0    50     1    21
 -5.3955965179321541E-01 a      1198     0    50     1    22
  1.2211847004314718E+00 a      1199     0    50     1    23
 -1.5327130893439134E+00 a      1200     0    50     1    24
  4.9661405787980123E-01 a      1201     0    51     1     1
  7.8120004386254716E-01 a      1202     0    51     1     2
 -4.7227622861470187E-01 a      1203     0    51     1     3
 -7.2558855508853626E-01 a      1204     0    51     1     4
  6.4338033903407366E-01 a      1205     0    51     1     5
  3.0787889977849375E-01 a      1206     0    51     1     6
  4.7027880028475233E-01 a      1207     0    51     1     7
 -2.5635772783047334E-01 a      1208     0    51     1     8
  1.2421781963209054E-01 a      1209     0    51     1     9
 -5.1336244498942041E-01 a      1210     0    51     1    10
 -5.5255685173119951E-01 a      1211     0    51     1    11
 -1.2323511957942768E-01 a      1212     0    51     1    12
 -2.5595897556577091E-01 a      1213     0    51     1    13
  4.8038574183439639E-02 a      1214     0    51     1    14
 -9.8393109941540491E-01 a      1215     0    51     1    15
  1.9572588661936413E-01 a      1216     0    51     1    16
  3.7606306831859454E-01 a      1217     0    51     1    17
  1.9641412733556771E-01 a      1218     0    51     1    18
 -5.8281988784367855E-01 a      1219     0    51     1    19
  4.4755746030736017E-02 a      1220     0    51     1    20
  1.1710937782791646E+00 a      1221     0    51     1    21
  3.0045361120687925E-01 a      1222     0    51     1    22
 -4.3767228295359933E-01 a      1223     0    51     1    23
  3.4851969472895716E-01 a      1224     0    51     1    24
  3.3956230408629007E-01 a      1225     0    52     1     1
  6.5016136398416080E-01 a      1226     0    52     1     2
 -1.3293762788119523E+00 a      1227     0    52     1     3
 -2.7406054876435588E+00 a      1228     0    52     1     4
 -9.9284840115153428E-01 a      1229     0    52     1     5
 -1.4911723513597401E+00 a      1230     0    52     1     6
  9.7358622384880106E-02 a      1231     0    52     1     7
 -1.0148215643823133E+00 a      1232     0    52     1     8
 -9.4784427389011064E-02 a      1233     0    52     1     9
 -2.6562985436096331E-01 a      1234     0    52     1    10
 -1.5229484001982224E-01 a      1235     0    52     1    11
  7.5993388184807897E-01 a      1236     0    52     1    12
  1.3751420589971459E+00 a      1237     0    52     1    13
 -6.2802874582404178E-01 a      1238     0    52     1    14
  8.2978672637360995E-01 a      1239     0    52     1    15
 -3.2288321546310927E-01 a      1240     0    52     1    16
  6.8885993599302686E-01 a      1241     0    52     1    17
 -5.1542605236601990E-01 a      1242     0    52     1    18
  9.1698946641453760E-01 a      1243     0    52     1    19
 -2.4737247151593547E-01 a      1244     0    52     1    20
  6.9568710169655490E-01 a      1245     0    52     1    21
 -5.6981929147036670E-01 a      1246     0    52     1    22
 -2.9174557251959310E-01 a      1247     0    52     1    23
  1.3482141910286332E+00 a      1248     0    52     1    24
  6.3982811640383308E-01 a      1249     0    53     1     1
 -2.1218829095829092E-01 a      1250     0    53     1     2
 -6.0961796354255116E-01 a      1251     0    53     1     3
  6.6474191117658810E-01 a      1252     0    53     1     4
  1.0441381501400901E+00 a      1253     0    53     1     5
 -7.4930646011480001E-02 a      1254     0    53     1     6
 -7.2941829962312399E-01 a      1255     0    53     1     7
 -7.9034254102465651E-01 a      1256     0    53     1     8
 -5.9109716711327420E-01 a      1257     0    53     1     9
  5.5943726497467212E-02 a      1258     0    53     1    10
  4.1010066094720560E-01 a      1259     0    53     1    11
 -7.6655854924436995E-01 a      1260     0    53     1    12
  6.9917971512158716E-01 a      1261     0    53     1    13
  1.5980029193277350E+00 a      1262     0    53     1    14
  2.0147307803601805E-01 a      1263     0    53     1    15
  6.4850786407222683E-01 a      1264     0    53     1    16
  1.3750530113422652E-01 a      1265     0    53     1    17
  6.5190780139745763E-01 a      1266     0    53     1    18
  4.0786307462213284E-01 a      1267     0    53     1    19
  1.2056124327576110E+00 a      1268     0    53     1    20
 -1.1683762737099015E+00 a      1269     0    53     1    21
 -1.0787295841664317E+00 a      1270     0    53     1    22
  1.9178003230436391E+00 a      1271     0    53     1    23
  7.6826654067327332E-02 a      1272     0    53     1    24
  1.1985248920738452E+00 a      1273     0    54     1     1
 -2.2631156481574738E-01 a      1274     0    54     1     2
 -8.1399512986019995E-02 a      1275     0    54     1     3
 -5.0529154397695475E-01 a      1276     0    54     1     4
  4.6580719555769173E-01 a      1277     0    54     1     5
  4.4534108805721057E-01 a      1278     0    54     1     6
  6.6286925489385473E-01 a      1279     0    54     1     7
 -1.6612655774474508E-01 a      1280     0    54     1     8
 -1.1572578445289954E-01 a      1281     0    54     1     9
  2.0329418467738669E-01 a      1282     0    54     1    10
 -1.9765314628234812E-01 a      1283     0    54     1    11
  3.5266868006807273E-01 a      1284     0    54     1    12
  6.7157382198047688E-01 a      1285     0    54     1    13
 -5.3016955959188580E-02 a      1286     0    54     1    14
 -5.3904473721620561E-01 a      1287     0    54     1    15
  9.9499438253988215E-03 a      1288     0    54     1    16
 -8.0002780237124604E-01 a      1289     0    54     1    17
  4.5274176209810987E-02 a      1290     0    54     1    18
  3.4666733694616956E-03 a      1291     0    54     1    19
 -1.0206163618344172E-01 a      1292     0    54     1    20
  3.7109873317315878E-01 a      1293     0    54     1    21
 -2.7144565516791735E-01 a      1294     0    54     1    22
 -8.5837344114655578E-01 a      1295     0    54     1    23
  9.4848685251604337E-02 a      1296     0    54     1    24
  8.4755747249970412E-02 a      1297     0    55     1     1
 -1.1756793445021527E+00 a      1298     0    55     1     2
 -2.0575554191732381E-01 a      1299     0    55     1     3
 -2.2699643758715030E-01 a      1300     0    55     1     4
  5.5878035806166670E-01 a      1301     0    55     1     5
  4.8147872341412462E-01 a      1302     0    55     1     6
 -8.1116703785439626E-01 a      1303     0    55     1     7
 -8.2202103576308624E-02 a      1304     0    55     1     8
 -1.4761104339123565E-01 a      1305     0    55     1     9
 -3.9186215185560769E-01 a      1306     0    55     1    10
 -1.3343808162166948E+00 a      1307     0    55     1    11
  3.2138253374665199E-01 a      1308     0    55     1    12
 -2.1009578304406200E+00 a      1309     0    55     1    13
 -7.2154402329779332E-01 a      1310     0    55     1    14
  2.9035077672693999E-01 a      1311     0    55     1    15
 -1.1046608107104401E+00 a      1312     0    55     1    16
  9.5861756829817879E-01 a      1313     0    55     1    17
  4.3878981554131874E-01 a      1314     0    55     1    18
  3.6407931875315064E-01 a      1315     0    55     1    19
  3.4826516719184891E-01 a      1316     0    55     1    20
  9.3688570558165374E-01 a      1317     0    55     1    21
  1.8058830019116563E+00 a      1318     0    55     1    22
  9.6745172482758868E-01 a      1319     0    55     1    23
  3.5579566855513695E-01 a      1320     0    55     1    24
 -8.3520251962522829E-02 a      1321     0    56     1     1
  1.9386103139439398E-01 a      1322     0    56     1     2
 -4.4000913619912424E-01 a      1323     0    56     1     3
  5.9902081572554333E-01 a      1324     0    56     1     4
  1.2475669636373440E-01 a      1325     0    56     1     5
 -5.7464956326292083E-01 a      1326     0    56     1     6
 -2.7990136533145665E-01 a      1327     0    56     1     7
  4.3386741955391778E-01 a      1328     0    56     1     8
 -4.4560917432195535E-01 a      1329     0    56     1     9
  2.8263980416342077E-01 a      1330     0    56     1    10
 -6.3259363148830161E-01 a      1331     0    56     1    11
 -7.6121587786344772E-02 a      1332     0    56     1    12
 -1.1994896404151947E-01 a      1333     0    56     1    13
  7.8548320188568688E-01 a      1334     0    56     1    14
 -6.3547847257809820E-01 a      1335     0    56     1    15
  1.6098681710337043E-01 a      1336     0    56     1    16
  9.5140560800984120E-01 a      1337     0    56     1    17
  4.6440757021550522E-01 a      1338     0    56     1    18
  3.5370240587525043E-01 a      1339     0    56     1    19
  8.3451202626523657E-01 a      1340     0    56     1    20
 -3.3615104788865419E-01 a      1341     0    56     1    21
  2.3861028397843201E-01 a      1342     0    56     1    22
 -2.0489801965632118E-01 a      1343     0    56     1    23
  5.8852913952648578E-01 a      1344     0    56     1    24
 -2.1302505973480368E-01 a      1345     0    57     1     1
  1.5968729080521413E-01 a      1346     0    57     1     2
  2.2239497625360413E-01 a      1347     0    57     1     3
  1.2256593820042021E-01 a      1348     0    57     1     4
 -1.6536452554703592E-02 a      1349     0    57     1     5
  4.0677560319092559E-01 a      1350     0    57     1     6
  8.5604504020951391E-02 a      1351     0    57     1     7
 -5.5132182418173255E-02 a      1352     0    57     1     8
 -2.8402971248981501E-01 a      1353     0    57     1     9
 -3.8536401551458870E-02 a      1354     0    57     1    10
  1.8225041625216234E-01 a      1355     0    57     1    11
 -2.8837379837261423E-01 a      1356     0    57     1    12
 -3.6004461428827989E-02 a      1357     0    57     1    13
 -2.2171231662441362E-02 a      1358     0    57     1    14
  1.6972135159267138E-01 a      1359     0    57     1    15
  2.6283361343607953E-01 a      1360     0    57     1    16
  4.4556029365269978E-01 a      1361     0    57     1    17
  4.2158157577056093E-01 a      1362     0    57     1    18
  1.4562750929049337E-01 a      1363     0    57     1    19
  2.5662264439322668E-01 a      1364     0    57     1    20
 -4.5754796239100454E-01 a      1365     0    57     1    21
  3.2218712463668037E-01 a      1366     0    57     1    22
 -3.4198204652035533E-02 a      1367     0    57     1    23
  3.2822239474224324E-01 a      1368     0    57     1    24
  1.6045228988579846E-01 a      1369     0    58     1     1
  1.8283750035772348E-01 a      1370     0    58     1     2
 -4.5978312406923660E-01 a      1371     0    58     1     3
 -2.3475524813675858E-01 a      1372     0    58     1     4
 -7.2462803944466109E-02 a      1373     0    58     1     5
 -3.3322338172654592E-01 a      1374     0    58     1     6
  1.0407501422526937E-01 a      1375     0    58     1     7
  8.3330012590905514E-02 a      1376     0    58     1     8
 -2.2625245466698429E-01 a      1377     0    58     1     9
 -4.3132952102806343E-01 a      1378     0    58     1    10
  3.2518332296859453E-01 a      1379     0    58     1    11
  2.4501177303978619E-01 a      1380     0    58     1    12
 -7.2135883536657616E-03 a      1381     0    58     1    13
  2.3266483376172095E-01 a      1382     0    58     1    14
 -1.8036150008033852E-02 a      1383     0    58     1    15
 -3.1108087373255139E-01 a      1384     0    58     1    16
  3.6475702840660246E-01 a      1385     0    58     1    17
 -2.9807350546001787E-01 a      1386     0    58     1    18
  1.3946010044939527E-01 a      1387     0    58     1    19
 -1.0940450627956111E-01 a      1388     0    58     1    20
 -1.1456763256760764E-01 a      1389     0    58     1    21
  7.5441158179566625E-01 a      1390     0    58     1    22
 -4.6639142181552934E-01 a      1391     0    58     1    23
 -1.5915814448962567E-01 a      1392     0    58     1    24
  6.9033798731724405E-01 a      1393     0    59     1     1
  7.0368402498781735E-01 a      1394     0    59     1     2
 -9.7671097234473717E-02 a      1395     0    59     1     3
 -5.3987818306744295E-01 a      1396     0    59     1     4
 -1.5217532917041781E+00 a      1397     0    59     1     5
  3.2678260815648408E-01 a      1398     0    59     1     6
  2.1077137390706685E-01 a      1399     0    59     1     7
 -1.3154504754353280E-01 a      1400     0    59     1     8
  2.7536716882285472E-01 a      1401     0    59     1     9
  6.8010415214152664E-01 a      1402     0    59     1    10
  2.4263794000869063E-01 a      1403     0    59     1    11
  4.5793581257212845E-01 a      1404     0    59     1    12
  2.0194508975393502E-02 a      1405     0    59     1    13
 -2.8179479001775454E-01 a      1406     0    59     1    14
 -1.6791675140440920E+00 a      1407     0    59     1    15
 -1.0543616978603340E-01 a      1408     0    59     1    16
 -2.4864881359102717E-01 a      1409     0    59     1    17
  7.8022771683317149E-01 a      1410     0    59     1    18
  1.9739835096680824E-01 a      1411     0    59     1    19
 -8.4831207379117723E-01 a      1412     0    59     1    20
  5.8856919557004339E-01 a      1413     0    59     1    21
  1.0215442897102840E+00 a      1414     0    59     1    22
 -4.3633742234936317E-02 a      1415     0    59     1    23
  3.8984733958955525E-01 a      1416     0    59     1    24
 -1.2115621776622990E-01 a      1417     0    60     1     1
  1.7133471849432704E+00 a      1418     0    60     1     2
  1.6855511547599439E-01 a      1419     0    60     1     3
  1.0521125973094818E+00 a      1420     0    60     1     4
  7.2376324707870854E-01 a      1421     0    60     1     5
 -2.6893605902447626E-01 a      1422     0    60     1     6
  1.3183525896488207E-01 a      1423     0    60     1     7
 -9.0823413699533451E-02 a      1424     0    60     1     8
 -3.4089873245811803E-01 a      1425     0    60     1     9
 -3.3585106972857220E-01 a      1426     0    60     1    10
  2.0056340317150853E-02 a      1427     0    60     1    11
  3.2708713971615444E-01 a      1428     0    60     1    12
 -1.6186392368853358E-01 a      1429     0    60     1    13
  6.2744153216444221E-01 a      1430     0    60     1    14
 -1.3566706656998191E+00 a      1431     0    60     1    15
  3.1889914652123902E-01 a      1432     0    60     1    16
  5.4591514876289249E-01 a      1433     0    60     1    17
  6.9607888505556625E-01 a      1434     0    60     1    18
 -3.0251497549836893E-02 a      1435     0    60     1    19
  5.5875117505602268E-01 a      1436     0    60     1    20
  1.8783144349150651E+00 a      1437     0    60     1    21
 -9.7955367930522508E-01 a      1438     0    60     1    22
  9.2104778877041427E-01 a      1439     0    60     1    23
  1.1676954147082528E+00 a      1440     0    60     1    24
 -5.3347470522679574E-01 a      1441     0    61     1     1
 -5.2466624868336453E-01 a      1442     0    61     1     2
  3.5668663286721863E-01 a      1443     0    61     1     3
 -3.8345620376624162E-01 a      1444     0    61     1     4
 -3.8573997599339366E-01 a      1445     0    61     1     5
 -8.0867345155724146E-03 a      1446     0    61     1     6
 -3.6943749849968910E-01 a      1447     0    61     1     7
  3.1184473191405143E-01 a      1448     0    61     1     8
 -1.3091794807866969E-01 a      1449     0    61     1     9
 -1.3070094341711583E-01 a      1450     0    61     1    10
 -1.8600035788513239E-01 a      1451     0    61     1    11
  4.4041020504030148E-01 a      1452     0    61     1    12
 -5.4709299700315173E-01 a      1453     0    61     1    13
  3.5863050166647292E-01 a      1454     0    61     1    14
 -9.0701761174742865E-03 a      1455     0    61     1    15
 -7.6937939452250151E-02 a      1456     0    61     1    16
  6.9112151784961134E-02 a      1457     0    61     1    17
  9.1106008779288400E-02 a      1458     0    61     1    18
 -1.6272120186081590E-01 a      1459     0    61     1    19
 -3.9211702406027414E-02 a      1460     0    61     1    20
  1.4111527726091985E-01 a      1461     0    61     1    21
 -2.6040275660556422E-01 a      1462     0    61     1    22
  2.2525305644144564E-01 a      1463     0    61     1    23
  8.3846262050465448E-01 a      1464     0    61     1    24
  1.7559629669467980E-01 a      1465     0    62     1     1
  1.9534082135067904E-01 a      1466     0    62     1     2
 -4.0818109712865669E-01 a      1467     0    62     1     3
  8.0500153065098043E-02 a      1468     0    62     1     4
 -2.7134014806814782E-01 a      1469     0    62     1     5
  8.3653077752643586E-03 a      1470     0    62     1     6
  4.1252965224501574E-03 a      1471     0    62     1     7
 -1.7892948138017506E-01 a      1472     0    62     1     8
 -2.3864181108054217E-01 a      1473     0    62     1     9
 -8.3035902791692123E-02 a      1474     0    62     1    10
 -2.9962370473094024E-01 a      1475     0    62     1    11
  2.9425557013793580E-01 a      1476     0    62     1    12
  4.4205230767442028E-01 a      1477     0    62     1    13
 -1.4511619028757314E-01 a      1478     0    62     1    14
  2.6211432528869699E-01 a      1479     0    62     1    15
 -4.5082642837552214E-02 a      1480     0    62     1    16
 -1.0593087814892774E-01 a      1481     0    62     1    17
  1.6544396717455119E-02 a      1482     0    62     1    18
  4.3215426975454385E-01 a      1483     0    62     1    19
  1.1517751564907058E-01 a      1484     0    62     1    20
 -1.2786617940811335E-01 a      1485     0    62     1    21
  1.3934935567108603E-01 a      1486     0    62     1    22
  2.1152521579484984E-01 a      1487     0    62     1    23
 -4.0009135133199469E-01 a      1488     0    62     1    24
  4.3507880688882344E-01 a      1489     0    63     1     1
 -2.0257101457524690E-01 a      1490     0    63     1     2
  2.8130854038146635E-01 a      1491     0    63     1     3
 -9.3853863363137813E-01 a      1492     0    63     1     4
 -7.6833800625896109E-01 a      1493     0    63     1     5
  5.0176019335476008E-01 a      1494     0    63     1     6
  1.7066766097803213E-01 a      1495     0    63     1     7
 -5.0959933714928951E-01 a      1496     0    63     1     8
  1.8661677234982926E-01 a      1497     0    63     1     9
 -5.5812939951475626E-02 a      1498     0    63     1    10
  4.0866707823658927E-01 a      1499     0    63     1    11
  2.5716955059135832E-01 a      1500     0    63     1    12
  3.8667407902797352E-01 a      1501     0    63     1    13
 -5.7986018357519642E-01 a      1502     0    63     1    14
  5.7814220469409448E-02 a      1503     0    63     1    15
 -2.6247432843295854E-01 a      1504     0    63     1    16
 -5.4252585357775007E-01 a      1505     0    63     1    17
 -9.9709239828744148E-02 a      1506     0    63     1    18
 -3.2560217114278983E-01 a      1507     0    63     1    19
 -6.3683865839210863E-01 a      1508     0    63     1    20
  1.4077027676321410E+00 a      1509     0    63     1    21
  8.3659688741820781E-01 a      1510     0    63     1    22
  2.8037209325855156E-01 a      1511     0    63     1    23
  6.2374615255623023E-01 a      1512     0    63     1    24
  6.4467414925618260E-01 a      1513     0    64     1     1
 -1.3831575032351788E+00 a      1514     0    64     1     2
  5.3272104567511844E-02 a      1515     0    64     1     3
  2.5642787790605787E-01 a      1516     0    64     1     4
 -1.8894505060237773E-01 a      1517     0    64     1     5
 -6.7460449608384110E-01 a      1518     0    64     1     6
  2.0657210234034740E-01 a      1519     0    64     1     7
 -4.5161968570895428E-01 a      1520     0    64     1     8
 -1.2385017165265165E-01 a      1521     0    64     1     9
  5.4518401335162670E-03 a      1522     0    64     1    10
 -1.9848958245615498E+00 a      1523     0    64     1    11
  1.8003595521372734E-01 a      1524     0    64     1    12
 -2.6158589880912098E-01 a      1525     0    64     1    13
 -5.9969075019694962E-01 a      1526     0    64     1    14
 -8.4250027042518028E-01 a      1527     0    64     1    15
  6.6580440821089404E-01 a      1528     0    64     1    16
 -8.9219794911395944E-01 a      1529     0    64     1    17
 -3.7277977267869600E-01 a      1530     0    64     1    18
 -4.6219987742148283E-01 a      1531     0    64     1    19
  5.0534104448831907E-01 a      1532     0    64     1    20
  8.8123141374113934E-01 a      1533     0    64     1    21
 -3.5838959834412965E-01 a      1534     0    64     1    22
 -1.6442452687023730E+00 a      1535     0    64     1    23
  1.3611856880202737E+00 a      1536     0    64     1    24
 -2.0438834090983589E+00 a      1537     0    65     1     1
 -3.0056958971397990E-01 a      1538     0    65     1     2
 -9.2961695288827847E-02 a      1539     0    65     1     3
 -2.0199691977724774E-01 a      1540     0    65     1     4
  6.7488728207846815E-01 a      1541     0    65     1     5
 -2.9747844742153035E-01 a      1542     0    65     1     6
 -2.7032075458439397E-01 a      1543     0    65     1     7
 -6.4337122696041016E-01 a      1544     0    65     1     8
 -1.8693969771138910E-01 a      1545     0    65     1     9
  7.8774591327639243E-01 a      1546     0    65     1    10
 -7.6265611562559743E-01 a      1547     0    65     1    11
 -9.4327100082134419E-01 a      1548     0    65     1    12
 -2.8022730209729657E-01 a      1549     0    65     1    13
  4.8743640291185858E-01 a      1550     0    65     1    14
  2.0604898846645295E-01 a      1551     0    65     1    15
  4.0845984561904158E-01 a      1552     0    65     1    16
 -1.0874385833497477E+00 a      1553     0    65     1    17
 -2.5149691697547183E-01 a      1554     0    65     1    18
  1.2171108714153438E+00 a      1555     0    65     1    19
  7.1904464829980541E-01 a      1556     0    65     1    20
  4.5678088918708165E-01 a      1557     0    65     1    21
  1.3013603380767227E+00 a      1558     0    65     1    22
 -5.2404624750952189E-01 a      1559     0    65     1    23
  9.2513286220404056E-01 a      1560     0    65     1    24
 -1.0162374291673921E+00 a      1561     0    66     1     1
  2.0687335759101902E-01 a      1562     0    66     1     2
  8.6124283116506184E-01 a      1563     0    66     1     3
 -6.2177250827689035E-01 a      1564     0    66     1     4
 -1.4654969521027867E+00 a      1565     0    66     1     5
 -3.0269121655359543E-01 a      1566     0    66     1     6
 -5.5201916269711804E-01 a      1567     0    66     1     7
  7.8036069572827116E-01 a      1568     0    66     1     8
  7.5648775784985145E-01 a      1569     0    66     1     9
  3.5362623671873761E-01 a      1570     0    66     1    10
 -2.2950622193612705E-01 a      1571     0    66     1    11
  6.0930127390721589E-01 a      1572     0    66     1    12
  4.2553819900475431E-01 a      1573     0    66     1    13
 -1.1422379686697324E+00 a      1574     0    66     1    14
 -6.6416746642121349E-01 a      1575     0    66     1    15
 -1.2436622862784100E-01 a      1576     0    66     1    16
 -3.5926046293994096E-01 a      1577     0    66     1    17
 -5.7805432001633250E-01 a      1578     0    66     1    18
 -4.1184371324477909E-01 a      1579     0    66     1    19
 -9.6321492383859020E-01 a      1580     0    66     1    20
  5.4079386296175558E-01 a      1581     0    66     1    21
 -5.9471637833165714E-03 a      1582     0    66     1    22
 -1.4544810604269134E+00 a      1583     0    66     1    23
  3.4341103646348597E-01 a      1584     0    66     1    24
 -5.2156963717156435E-01 a      1585     0    67     1     1
  7.8320370264630568E-01 a      1586     0    67     1     2
 -1.1037513828162474E-01 a      1587     0    67     1     3
  8.4746795780151235E-02 a      1588     0    67     1     4
  3.6606221589598992E-01 a      1589     0    67     1     5
  4.9891567788318081E-01 a      1590     0    67     1     6
 -4.7674346055100325E-01 a      1591     0    67     1     7
 -5.8160063042216392E-01 a      1592     0    67     1     8
  3.9748200212629681E-01 a      1593     0    67     1     9
  7.0960530926346210E-01 a      1594     0    67     1    10
 -5.3532267075621620E-01 a      1595     0    67     1    11
 -4.9507554886170396E-01 a      1596     0    67     1    12
 -7.1710896497152610E-01 a      1597     0    67     1    13
 -1.6387768979020850E-01 a      1598     0    67     1    14
  8.4683611849548779E-01 a      1599     0    67     1    15
 -8.6889959475942125E-01 a      1600     0    67     1    16
  1.1143529650585959E-01 a      1601     0    67     1    17
  4.0298525005181957E-01 a      1602     0    67     1    18
  1.6073178001288660E-01 a      1603     0    67     1    19
 -5.2096615032175844E-02 a      1604     0    67     1    20
 -1.3522961817619734E+00 a      1605     0    67     1    21
  1.0033301867809181E-01 a      1606     0    67     1    22
  1.5270060541768618E-01 a      1607     0    67     1    23
 -6.8174345388288837E-01 a      1608     0    67     1    24
 -1.9305056976840157E-01 a      1609     0    68     1     1
 -1.0192993181607195E-01 a      1610     0    68     1     2
  2.6747390503145851E-01 a      1611     0    68     1     3
  5.3713620575030241E-01 a      1612     0    68     1     4
 -1.7171260134837607E-01 a      1613     0    68     1     5
  5.4135338173535541E-01 a      1614     0    68     1     6
  1.9328590244404656E-03 a      1615     0    68     1     7
 -1.4225942778652653E-01 a      1616     0    68     1     8
  1.9384957168663636E-01 a      1617     0    68     1     9
  3.1811222446907006E-01 a      1618     0    68     1    10
  6.7327023267761443E-01 a      1619     0    68     1    11
 -1.4433850453437838E-01 a      1620     0    68     1    12
  4.3033390365039248E-01 a      1621     0    68     1    13
 -3.0701993397682131E-01 a      1622     0    68     1    14
 -1.3844137336681753E-01 a      1623     0    68     1    15
