################################################################################
# Neural network connection values (weights and biases).
################################################################################
# Col  Name       Description
################################################################################
# 1    connection Neural network connection value.
# 2    t          Connection type (a = weight, b = bias).
# 3    index      Index enumerating weights.
# 4    l_s        Starting point layer (end point layer for biases).
# 5    n_s        Starting point neuron in starting layer (end point neuron for biases).
# 6    l_e        End point layer.
# 7    n_e        End point neuron in end layer.
################################################################################
#                      1 2         3     4     5     6     7
#             connection t     index   l_s   n_s   l_e   n_e
############################################################
  2.1370737753659319E-01 a         1     0     1     1     1
  3.8325991680105892E-01 a         2     0     1     1     2
  1.7163244148546519E-01 a         3     0     1     1     3
 -6.8933374991657886E-02 a         4     0     1     1     4
  3.8663387801120092E-01 a         5     0     1     1     5
 -8.9550393898644040E-02 a         6     0     1     1     6
 -9.8761129333512887E-02 a         7     0     1     1     7
  6.1845391492236883E-02 a         8     0     1     1     8
  8.6759874593917347E-02 a         9     0     1     1     9
 -1.1165316251220503E-01 a        10     0     1     1    10
  2.5000352040438834E-01 a        11     0     1     1    11
 -2.5123771254396843E-01 a        12     0     1     1    12
  2.3843581432616723E-01 a        13     0     1     1    13
  3.0462564067334980E-01 a        14     0     1     1    14
 -7.1713406097740545E-02 a        15     0     1     1    15
 -1.0947523450260838E-01 a        16     0     1     1    16
  4.7918567969199199E-01 a        17     0     1     1    17
 -1.3188076543052554E-01 a        18     0     1     1    18
 -5.7304630671445686E-02 a        19     0     1     1    19
 -1.6829231763858640E-01 a        20     0     1     1    20
 -1.1479396055502866E-01 a        21     0     1     1    21
 -1.8090130919304462E-01 a        22     0     1     1    22
  7.7510285481581509E-02 a        23     0     1     1    23
 -1.1377574845103565E-01 a        24     0     1     1    24
  1.4293428421774304E-01 a        25     0     2     1     1
 -7.7603872567199635E-03 a        26     0     2     1     2
 -1.0109535117291529E-01 a        27     0     2     1     3
 -1.1992495008766352E-01 a        28     0     2     1     4
 -2.8979864380447318E-01 a        29     0     2     1     5
  1.6976662814633911E-01 a        30     0     2     1     6
 -5.4038269674662853E-02 a        31     0     2     1     7
  2.9125029391003521E-01 a        32     0     2     1     8
 -1.2698353988823080E-01 a        33     0     2     1     9
 -1.5258778409924914E-02 a        34     0     2     1    10
 -5.4791839858850139E-02 a        35     0     2     1    11
  3.9123109707228421E-01 a        36     0     2     1    12
  7.1984060749694198E-02 a        37     0     2     1    13
  7.7774980386006970E-02 a        38     0     2     1    14
  1.2565635125515351E-01 a        39     0     2     1    15
 -4.3723429237930031E-02 a        40     0     2     1    16
  2.8415149206602600E-02 a        41     0     2     1    17
  6.9882339814684891E-02 a        42     0     2     1    18
 -1.4696498090115867E-01 a        43     0     2     1    19
  3.6448983096985299E-02 a        44     0     2     1    20
  1.6919138357245261E-01 a        45     0     2     1    21
  2.0857061611339903E-01 a        46     0     2     1    22
 -4.9513003951864323E-02 a        47     0     2     1    23
 -7.7978365377945877E-02 a        48     0     2     1    24
 -7.3411311864554712E-02 a        49     0     3     1     1
  7.8765188784460413E-02 a        50     0     3     1     2
 -2.5405613328700852E-02 a        51     0     3     1     3
 -3.2107281514724174E-02 a        52     0     3     1     4
  8.7010921703964170E-02 a        53     0     3     1     5
 -2.1755300405657113E-01 a        54     0     3     1     6
  2.4860878785785215E-01 a        55     0     3     1     7
 -6.1815378690930081E-02 a        56     0     3     1     8
 -7.0898337577843196E-02 a        57     0     3     1     9
  4.4027833153901985E-01 a        58     0     3     1    10
  7.0450051030092387E-02 a        59     0     3     1    11
  1.4222609403834663E-01 a        60     0     3     1    12
  1.7757498789339374E-01 a        61     0     3     1    13
 -2.3483969821694356E-01 a        62     0     3     1    14
 -4.1604782721148460E-02 a        63     0     3     1    15
  2.4943280872840864E-01 a        64     0     3     1    16
 -1.9571925925592262E-01 a        65     0     3     1    17
 -1.6668833369239694E-01 a        66     0     3     1    18
 -2.3302191295165690E-04 a        67     0     3     1    19
  6.4140685698373640E-02 a        68     0     3     1    20
  1.5065449372421835E-01 a        69     0     3     1    21
 -1.9419590957622498E-01 a        70     0     3     1    22
 -2.7068538704733097E-01 a        71     0     3     1    23
 -1.7137949222550622E-01 a        72     0     3     1    24
  3.7695451826748938E-02 a        73     0     4     1     1
 -1.3905585754320968E-01 a        74     0     4     1     2
  7.1880613238082258E-02 a        75     0     4     1     3
  2.5797516782528427E-03 a        76     0     4     1     4
  7.4408463276810569E-02 a        77     0     4     1     5
 -6.1360786464361314E-02 a        78     0     4     1     6
 -1.3357621717508281E-01 a        79     0     4     1     7
  2.9277533230755930E-02 a        80     0     4     1     8
  1.4472073864432713E-01 a        81     0     4     1     9
  2.9947589197348329E-01 a        82     0     4     1    10
 -2.1874068862303617E-02 a        83     0     4     1    11
  3.9350582818768014E-02 a        84     0     4     1    12
 -1.1396625263348567E-01 a        85     0     4     1    13
  1.5614562525104972E-01 a        86     0     4     1    14
 -9.3297379697058869E-02 a        87     0     4     1    15
  6.3526413082271790E-03 a        88     0     4     1    16
 -2.8956872953022520E-02 a        89     0     4     1    17
 -7.6221168131071063E-02 a        90     0     4     1    18
 -1.1533334679376654E-01 a        91     0     4     1    19
  2.1570202047534304E-01 a        92     0     4     1    20
 -1.8673972135756373E-01 a        93     0     4     1    21
  2.1730930213794807E-03 a        94     0     4     1    22
 -9.1800012009090409E-02 a        95     0     4     1    23
  2.0169906703296236E-01 a        96     0     4     1    24
  1.3250398551517792E-01 a        97     0     5     1     1
 -3.1460927948266615E-01 a        98     0     5     1     2
  4.5292598313508292E-02 a        99     0     5     1     3
 -2.4218954700265985E-01 a       100     0     5     1     4
 -3.6706833831207930E-02 a       101     0     5     1     5
 -1.2500549608506450E-01 a       102     0     5     1     6
 -4.1214358775111967E-02 a       103     0     5     1     7
 -1.3702117205859268E-01 a       104     0     5     1     8
  1.3090187257235145E-01 a       105     0     5     1     9
 -9.3780239852256045E-02 a       106     0     5     1    10
 -2.1049552739449923E-01 a       107     0     5     1    11
 -2.9209760968626008E-01 a       108     0     5     1    12
 -2.2660948001819695E-01 a       109     0     5     1    13
 -1.5852840486989891E-01 a       110     0     5     1    14
  4.0816515140115694E-02 a       111     0     5     1    15
 -2.7391879404099151E-02 a       112     0     5     1    16
  3.5770913968739250E-02 a       113     0     5     1    17
  2.4584287699521637E-01 a       114     0     5     1    18
 -4.7061012882974027E-02 a       115     0     5     1    19
  1.0749827745180353E-01 a       116     0     5     1    20
  8.1799764249237392E-02 a       117     0     5     1    21
  1.8115370788716174E-02 a       118     0     5     1    22
  2.9156711564465571E-01 a       119     0     5     1    23
  4.2455420514926942E-02 a       120     0     5     1    24
 -1.0601788730027510E-01 a       121     0     6     1     1
 -1.1241717971202876E-01 a       122     0     6     1     2
 -1.2925528609667597E-01 a       123     0     6     1     3
  9.4858539956226798E-02 a       124     0     6     1     4
 -9.8745287765569248E-02 a       125     0     6     1     5
 -1.0840451305139821E-01 a       126     0     6     1     6
 -1.8644148489745957E-01 a       127     0     6     1     7
 -2.9727452772751552E-02 a       128     0     6     1     8
  1.4387241726551836E-01 a       129     0     6     1     9
 -6.8148608319170800E-02 a       130     0     6     1    10
 -6.0869572483452081E-02 a       131     0     6     1    11
 -8.3247966834546244E-02 a       132     0     6     1    12
  2.6212834705353346E-02 a       133     0     6     1    13
  1.4710382240091158E-01 a       134     0     6     1    14
  3.1595337339081049E-02 a       135     0     6     1    15
 -1.0492693472399419E-03 a       136     0     6     1    16
  2.0723702644188199E-01 a       137     0     6     1    17
  2.8682060027218740E-02 a       138     0     6     1    18
 -1.2027553048858039E-01 a       139     0     6     1    19
 -8.0543388730594412E-02 a       140     0     6     1    20
 -9.2077589624672176E-02 a       141     0     6     1    21
  7.1695227602439288E-03 a       142     0     6     1    22
 -5.0919838542297285E-02 a       143     0     6     1    23
  6.1019895750089696E-02 a       144     0     6     1    24
  4.6463869499251846E-02 a       145     0     7     1     1
 -3.0263839739821687E-02 a       146     0     7     1     2
  1.4305549102027533E-02 a       147     0     7     1     3
 -2.1930468817425539E-01 a       148     0     7     1     4
  1.0345040796081237E-01 a       149     0     7     1     5
 -3.2711568880744682E-02 a       150     0     7     1     6
 -2.4010560346918227E-02 a       151     0     7     1     7
  6.8464123281111802E-02 a       152     0     7     1     8
 -5.2729759584401917E-02 a       153     0     7     1     9
  5.7961430960355997E-02 a       154     0     7     1    10
  3.1095442388723388E-02 a       155     0     7     1    11
 -9.2648658317891180E-02 a       156     0     7     1    12
 -4.6736514051011037E-03 a       157     0     7     1    13
  7.8027781565349258E-02 a       158     0     7     1    14
 -1.1050260923383237E-01 a       159     0     7     1    15
 -2.2001388299517373E-02 a       160     0     7     1    16
  1.8836696999720007E-01 a       161     0     7     1    17
  1.1575884859404388E-02 a       162     0     7     1    18
 -2.4798676684742338E-02 a       163     0     7     1    19
 -2.6160587336554125E-01 a       164     0     7     1    20
 -6.1574054774081399E-02 a       165     0     7     1    21
 -9.5659239869256119E-02 a       166     0     7     1    22
  7.1211124369123219E-02 a       167     0     7     1    23
  1.2671485758634179E-01 a       168     0     7     1    24
 -1.3393914558807596E-01 a       169     0     8     1     1
  1.0100331176978197E-02 a       170     0     8     1     2
  2.0666711844356641E-02 a       171     0     8     1     3
 -2.6619002500430267E-01 a       172     0     8     1     4
  2.0901932369829085E-01 a       173     0     8     1     5
  2.9885041028064979E-01 a       174     0     8     1     6
 -1.1220498788861241E-01 a       175     0     8     1     7
 -2.7453178957620750E-01 a       176     0     8     1     8
  9.7741694066643597E-02 a       177     0     8     1     9
 -1.9808576604312000E-01 a       178     0     8     1    10
 -2.0346658250661642E-01 a       179     0     8     1    11
 -1.2255600062059832E-01 a       180     0     8     1    12
 -2.4524356122776614E-01 a       181     0     8     1    13
  7.1171921634248392E-03 a       182     0     8     1    14
  8.3167504600764011E-02 a       183     0     8     1    15
  9.5872490490752110E-02 a       184     0     8     1    16
 -1.5666746237640417E-01 a       185     0     8     1    17
 -1.1592267613629684E-01 a       186     0     8     1    18
 -1.0337708878263629E-01 a       187     0     8     1    19
  4.6236261803618200E-02 a       188     0     8     1    20
 -8.5076692241413676E-02 a       189     0     8     1    21
  2.9269611779998800E-01 a       190     0     8     1    22
 -1.0797278079813302E-01 a       191     0     8     1    23
  1.1904292156745146E-01 a       192     0     8     1    24
 -4.0971507060887515E-02 a       193     0     9     1     1
 -2.0695917947492697E-02 a       194     0     9     1     2
  8.7406027529535260E-02 a       195     0     9     1     3
  1.5731625924934753E-01 a       196     0     9     1     4
 -1.6816898175893835E-01 a       197     0     9     1     5
 -1.7524289725315456E-01 a       198     0     9     1     6
  9.2829272178448469E-02 a       199     0     9     1     7
 -1.1013270640300526E-01 a       200     0     9     1     8
 -8.0053282663041916E-02 a       201     0     9     1     9
 -2.4763150368778894E-02 a       202     0     9     1    10
  2.4377998364576124E-02 a       203     0     9     1    11
  1.9192169544548457E-01 a       204     0     9     1    12
  5.6226182444503843E-02 a       205     0     9     1    13
  6.6340006335365700E-02 a       206     0     9     1    14
  1.4034209576314821E-02 a       207     0     9     1    15
  8.6228132796638698E-02 a       208     0     9     1    16
 -1.6046245253997508E-02 a       209     0     9     1    17
 -1.6329769993296075E-01 a       210     0     9     1    18
  6.5005328886219932E-02 a       211     0     9     1    19
  1.0000019514506749E-01 a       212     0     9     1    20
 -1.8741064066986307E-02 a       213     0     9     1    21
 -3.2789938422950769E-02 a       214     0     9     1    22
  1.0244182739723730E-01 a       215     0     9     1    23
 -1.4995581762645085E-01 a       216     0     9     1    24
 -2.3180630446664652E-01 a       217     0    10     1     1
 -1.8518714071448536E-01 a       218     0    10     1     2
  7.5716828455404339E-02 a       219     0    10     1     3
 -1.1474419943115581E-01 a       220     0    10     1     4
 -3.0406938123397641E-02 a       221     0    10     1     5
  1.0516332923281312E-01 a       222     0    10     1     6
 -4.2667085119077894E-02 a       223     0    10     1     7
  6.0281452079720427E-03 a       224     0    10     1     8
  1.7621191421231511E-01 a       225     0    10     1     9
  4.3772014643845267E-02 a       226     0    10     1    10
 -2.3402711146633285E-02 a       227     0    10     1    11
 -6.3125749095326228E-02 a       228     0    10     1    12
  2.1733519336389576E-01 a       229     0    10     1    13
 -1.5407891475788490E-01 a       230     0    10     1    14
 -7.2315761182092264E-02 a       231     0    10     1    15
 -2.5853128109475133E-02 a       232     0    10     1    16
 -5.3560189207691863E-03 a       233     0    10     1    17
  8.8899249323776394E-02 a       234     0    10     1    18
 -2.1552592460072698E-04 a       235     0    10     1    19
  3.9242008900193748E-02 a       236     0    10     1    20
  3.4940447912382919E-02 a       237     0    10     1    21
 -6.7029435403237712E-03 a       238     0    10     1    22
 -1.4808337059016441E-01 a       239     0    10     1    23
 -4.5471087635085512E-02 a       240     0    10     1    24
 -9.0488356662550729E-02 a       241     0    11     1     1
  1.5632123391382685E-01 a       242     0    11     1     2
  3.9758744415599720E-02 a       243     0    11     1     3
 -6.7749133165722480E-03 a       244     0    11     1     4
 -6.2719883315890290E-02 a       245     0    11     1     5
 -3.5320319616021709E-02 a       246     0    11     1     6
 -6.2802426592763567E-03 a       247     0    11     1     7
 -1.1963609293201785E-01 a       248     0    11     1     8
 -7.8136867547631703E-02 a       249     0    11     1     9
  6.4605829588873578E-02 a       250     0    11     1    10
 -1.5613212483021371E-01 a       251     0    11     1    11
  1.6990772485096609E-01 a       252     0    11     1    12
 -5.0894807608140247E-02 a       253     0    11     1    13
  5.9098573873918862E-02 a       254     0    11     1    14
 -1.5605347933136229E-01 a       255     0    11     1    15
 -7.1869454157140147E-02 a       256     0    11     1    16
  1.8734328709839394E-02 a       257     0    11     1    17
 -4.3748809029489445E-02 a       258     0    11     1    18
  1.9827180919211172E-02 a       259     0    11     1    19
  7.7117101592726583E-02 a       260     0    11     1    20
 -5.6832326360575718E-02 a       261     0    11     1    21
 -3.7234709562330749E-02 a       262     0    11     1    22
  6.2775001845535375E-02 a       263     0    11     1    23
  5.1039907409799315E-02 a       264     0    11     1    24
  9.4523454821080877E-02 a       265     0    12     1     1
  1.2568629856210906E-01 a       266     0    12     1     2
 -1.9093362808136252E-01 a       267     0    12     1     3
  3.2964060247730867E-02 a       268     0    12     1     4
 -4.6899956823737831E-03 a       269     0    12     1     5
 -3.9556967785102884E-02 a       270     0    12     1     6
  9.2614855469263055E-02 a       271     0    12     1     7
 -1.2778703404727382E-02 a       272     0    12     1     8
 -1.9308333096554825E-01 a       273     0    12     1     9
  7.6423195621910953E-02 a       274     0    12     1    10
 -2.8360362004700566E-02 a       275     0    12     1    11
  1.1225648618391136E-01 a       276     0    12     1    12
 -9.5971993693721266E-02 a       277     0    12     1    13
  9.9555811878700301E-02 a       278     0    12     1    14
 -2.5804846124031128E-01 a       279     0    12     1    15
 -1.4014218758018731E-02 a       280     0    12     1    16
 -1.2518763317696138E-01 a       281     0    12     1    17
  1.0945703846722092E-01 a       282     0    12     1    18
 -6.3620133934912199E-02 a       283     0    12     1    19
  1.9799627811621068E-01 a       284     0    12     1    20
 -8.1422335146847963E-02 a       285     0    12     1    21
 -3.7422686434258104E-03 a       286     0    12     1    22
 -7.5415489731809948E-02 a       287     0    12     1    23
  1.4897916384023011E-01 a       288     0    12     1    24
 -9.0346592655438263E-02 a       289     0    13     1     1
 -1.6848473082695145E-01 a       290     0    13     1     2
  8.0605303375541393E-02 a       291     0    13     1     3
  2.7289199855493423E-01 a       292     0    13     1     4
 -9.9862032373945780E-02 a       293     0    13     1     5
 -5.1226458535269997E-02 a       294     0    13     1     6
 -8.7333790888296861E-03 a       295     0    13     1     7
  2.1018577470936473E-01 a       296     0    13     1     8
 -1.0540934598110516E-01 a       297     0    13     1     9
  2.0205768674978239E-02 a       298     0    13     1    10
  6.1173717747174519E-02 a       299     0    13     1    11
 -2.1429403582837177E-02 a       300     0    13     1    12
 -7.9218761929993942E-02 a       301     0    13     1    13
 -9.8089078670806018E-02 a       302     0    13     1    14
 -2.3708609282904644E-01 a       303     0    13     1    15
  6.7342211101899654E-02 a       304     0    13     1    16
  3.2163013656062339E-01 a       305     0    13     1    17
  9.5566458358116432E-02 a       306     0    13     1    18
 -3.7229647260204363E-02 a       307     0    13     1    19
  5.9241092350038049E-02 a       308     0    13     1    20
  7.3666790043295738E-02 a       309     0    13     1    21
 -2.0717818893566819E-01 a       310     0    13     1    22
  1.4757473869511384E-01 a       311     0    13     1    23
 -4.0633295617783637E-02 a       312     0    13     1    24
  2.3773593115195665E-02 a       313     0    14     1     1
 -4.8257240436207507E-02 a       314     0    14     1     2
  1.1459248160688010E-02 a       315     0    14     1     3
  5.6378342143474092E-02 a       316     0    14     1     4
  7.8722987785399184E-02 a       317     0    14     1     5
  7.9922306205826733E-03 a       318     0    14     1     6
 -1.9943964260124319E-02 a       319     0    14     1     7
 -1.2931126885884164E-02 a       320     0    14     1     8
  1.8637866482886588E-02 a       321     0    14     1     9
 -4.5915012186252102E-02 a       322     0    14     1    10
 -5.1717196524143388E-02 a       323     0    14     1    11
  6.5984048075343249E-02 a       324     0    14     1    12
  1.2467368730943020E-01 a       325     0    14     1    13
  2.6485782068534934E-02 a       326     0    14     1    14
 -4.0684198214827889E-02 a       327     0    14     1    15
 -1.0320843212244440E-02 a       328     0    14     1    16
 -2.1904439716145845E-02 a       329     0    14     1    17
 -1.4138232202237148E-02 a       330     0    14     1    18
  3.0004626889045288E-02 a       331     0    14     1    19
 -1.6185199516634226E-02 a       332     0    14     1    20
  1.6600958494016776E-01 a       333     0    14     1    21
  9.0536207884768849E-02 a       334     0    14     1    22
 -8.2439235751679787E-02 a       335     0    14     1    23
 -3.7659816884872264E-02 a       336     0    14     1    24
  5.5545586760091004E-01 a       337     0    15     1     1
 -1.3494633669183815E-02 a       338     0    15     1     2
 -1.0163283219999375E-01 a       339     0    15     1     3
  2.9461401045683976E-02 a       340     0    15     1     4
  2.0978877023370995E-01 a       341     0    15     1     5
  1.7371264995124751E-03 a       342     0    15     1     6
  1.1442840653014467E-01 a       343     0    15     1     7
  1.6294435639259436E-01 a       344     0    15     1     8
 -5.5795533501140041E-02 a       345     0    15     1     9
 -2.7626879183427603E-02 a       346     0    15     1    10
 -1.1809386931730916E-02 a       347     0    15     1    11
  9.5471135137659598E-03 a       348     0    15     1    12
 -2.4431688255825763E-02 a       349     0    15     1    13
 -4.0762272206142078E-02 a       350     0    15     1    14
  2.8313065120145319E-02 a       351     0    15     1    15
  1.7707583738443524E-02 a       352     0    15     1    16
 -6.3010588286833633E-02 a       353     0    15     1    17
  2.1503182443899085E-01 a       354     0    15     1    18
  7.0591571659873689E-02 a       355     0    15     1    19
  1.8356268466797970E-01 a       356     0    15     1    20
 -2.8914043514784233E-02 a       357     0    15     1    21
 -4.0652908491178245E-02 a       358     0    15     1    22
 -1.2059433128290573E-01 a       359     0    15     1    23
 -1.0767718578813826E-01 a       360     0    15     1    24
  2.2871399292121494E-02 a       361     0    16     1     1
 -7.1875886000026146E-02 a       362     0    16     1     2
 -2.7111583270712038E-02 a       363     0    16     1     3
  1.1520322469480386E-01 a       364     0    16     1     4
 -3.0313241286136453E-02 a       365     0    16     1     5
  5.6244990054576966E-03 a       366     0    16     1     6
 -2.3191431265193846E-01 a       367     0    16     1     7
 -1.3342339821992866E-01 a       368     0    16     1     8
 -1.2812257837191229E-01 a       369     0    16     1     9
  2.5287140554711851E-01 a       370     0    16     1    10
 -2.6591001285634738E-02 a       371     0    16     1    11
  1.1982510495184323E-01 a       372     0    16     1    12
  1.2645243901911693E-01 a       373     0    16     1    13
 -8.4860230917638960E-02 a       374     0    16     1    14
  1.6908391802829192E-01 a       375     0    16     1    15
 -2.7257271044229292E-01 a       376     0    16     1    16
 -1.0122894765740974E-01 a       377     0    16     1    17
  2.1969904764281636E-01 a       378     0    16     1    18
  6.0916209528927283E-02 a       379     0    16     1    19
 -1.0540435628898734E-01 a       380     0    16     1    20
  1.6796406592346400E-01 a       381     0    16     1    21
 -3.6578578038251777E-02 a       382     0    16     1    22
  4.4293347398944076E-02 a       383     0    16     1    23
 -9.9092274047001230E-02 a       384     0    16     1    24
  1.4106708612724544E-02 a       385     0    17     1     1
  6.5744229431353066E-02 a       386     0    17     1     2
 -6.6401358489553593E-03 a       387     0    17     1     3
 -1.3718841705677712E-01 a       388     0    17     1     4
 -2.1700138687042797E-03 a       389     0    17     1     5
 -5.8705273561326501E-02 a       390     0    17     1     6
  1.1599219261192896E-01 a       391     0    17     1     7
  1.5184191716395851E-01 a       392     0    17     1     8
  2.1500508147635471E-02 a       393     0    17     1     9
 -1.7925377087015157E-01 a       394     0    17     1    10
  1.1195966054289576E-01 a       395     0    17     1    11
  7.0066452352786038E-02 a       396     0    17     1    12
 -4.0093408650704432E-02 a       397     0    17     1    13
  1.2071811651580473E-01 a       398     0    17     1    14
 -9.3374680576705699E-02 a       399     0    17     1    15
  1.4630545502058365E-02 a       400     0    17     1    16
 -1.9097656970288862E-01 a       401     0    17     1    17
 -7.7239997785336564E-02 a       402     0    17     1    18
  5.3406380358347258E-02 a       403     0    17     1    19
 -6.0819853817724971E-02 a       404     0    17     1    20
  4.3913401507438547E-02 a       405     0    17     1    21
  3.6224653796389082E-02 a       406     0    17     1    22
 -3.9740950418609269E-02 a       407     0    17     1    23
  1.6130388583646588E-01 a       408     0    17     1    24
 -1.9157792145371486E-02 a       409     0    18     1     1
 -5.7603510058647660E-02 a       410     0    18     1     2
  1.7419270959025113E-01 a       411     0    18     1     3
 -1.4292351198464226E-02 a       412     0    18     1     4
  1.6576163133144711E-01 a       413     0    18     1     5
  7.7543089799114687E-02 a       414     0    18     1     6
  1.9202015573095541E-01 a       415     0    18     1     7
 -3.0281241885428148E-02 a       416     0    18     1     8
  7.3041703009441808E-02 a       417     0    18     1     9
  1.0819830594020199E-01 a       418     0    18     1    10
  9.3013379488463832E-02 a       419     0    18     1    11
 -8.6280058713249785E-02 a       420     0    18     1    12
  1.7289032726980208E-01 a       421     0    18     1    13
 -1.3830521892288930E-01 a       422     0    18     1    14
 -1.6920952535648059E-01 a       423     0    18     1    15
  1.6284319487115565E-02 a       424     0    18     1    16
  3.2097191765188479E-03 a       425     0    18     1    17
 -6.3700482249859205E-02 a       426     0    18     1    18
  4.5785235013851830E-02 a       427     0    18     1    19
  6.8573542245116664E-02 a       428     0    18     1    20
 -6.9283275338564224E-02 a       429     0    18     1    21
 -4.1971939559322810E-02 a       430     0    18     1    22
 -1.1855959640179702E-01 a       431     0    18     1    23
  2.3034457020016004E-03 a       432     0    18     1    24
  7.1941822369100683E-02 a       433     0    19     1     1
  6.5240401238573276E-02 a       434     0    19     1     2
 -2.0844025946004030E-01 a       435     0    19     1     3
 -2.8181549233216729E-01 a       436     0    19     1     4
  4.7512867407830499E-03 a       437     0    19     1     5
  6.4605661102181994E-02 a       438     0    19     1     6
 -3.2068114078866686E-02 a       439     0    19     1     7
 -9.6352095987869549E-02 a       440     0    19     1     8
  2.2883787117552792E-01 a       441     0    19     1     9
 -1.0550044170113157E-01 a       442     0    19     1    10
 -9.0325574326548946E-02 a       443     0    19     1    11
 -5.6812182879744370E-02 a       444     0    19     1    12
 -2.6437313918822578E-02 a       445     0    19     1    13
  1.1209926544589882E-03 a       446     0    19     1    14
 -8.0297822217015410E-02 a       447     0    19     1    15
  1.3680235597085516E-01 a       448     0    19     1    16
  7.2598466569544579E-02 a       449     0    19     1    17
 -4.9509999275482552E-02 a       450     0    19     1    18
  5.8238978579224686E-02 a       451     0    19     1    19
 -4.7168737841755251E-02 a       452     0    19     1    20
 -1.1056667153875631E-01 a       453     0    19     1    21
 -5.4288226740443313E-02 a       454     0    19     1    22
  1.1472721906625771E-01 a       455     0    19     1    23
  1.0968162249533336E-01 a       456     0    19     1    24
 -7.1146294560441428E-02 a       457     0    20     1     1
 -3.4508670703041151E-02 a       458     0    20     1     2
  1.2924794416731153E-01 a       459     0    20     1     3
 -1.4000888067381628E-01 a       460     0    20     1     4
  1.0660018126764124E-01 a       461     0    20     1     5
  1.2554079661751766E-01 a       462     0    20     1     6
  5.5136597610125682E-02 a       463     0    20     1     7
 -1.7226754283281687E-01 a       464     0    20     1     8
 -1.9417977184079994E-02 a       465     0    20     1     9
  1.6339631512356750E-01 a       466     0    20     1    10
  1.4307165132744695E-01 a       467     0    20     1    11
  6.6867486231118420E-02 a       468     0    20     1    12
  7.0360558197773496E-02 a       469     0    20     1    13
 -1.3908017507841401E-02 a       470     0    20     1    14
  4.9533399378996992E-02 a       471     0    20     1    15
 -1.9251667620489476E-02 a       472     0    20     1    16
  8.1257408088675598E-02 a       473     0    20     1    17
  1.7077578253577672E-01 a       474     0    20     1    18
  2.2715611599419001E-02 a       475     0    20     1    19
 -1.3314667669924363E-01 a       476     0    20     1    20
 -6.0849993359064235E-02 a       477     0    20     1    21
  4.3093947651968159E-03 a       478     0    20     1    22
 -2.1327566371966672E-02 a       479     0    20     1    23
  5.3973231835407275E-02 a       480     0    20     1    24
  1.2535361291142907E-01 a       481     0    21     1     1
  2.1369271363875481E-01 a       482     0    21     1     2
  3.4541372397855201E-02 a       483     0    21     1     3
 -1.8304352121365239E-01 a       484     0    21     1     4
 -1.0681883371571561E-01 a       485     0    21     1     5
 -2.4279178798035106E-01 a       486     0    21     1     6
 -9.9284102389042506E-02 a       487     0    21     1     7
  1.6456395029798818E-01 a       488     0    21     1     8
 -1.4090628963105256E-02 a       489     0    21     1     9
 -1.4041909806339434E-01 a       490     0    21     1    10
  1.3072774900849007E-02 a       491     0    21     1    11
 -9.0640023781931381E-02 a       492     0    21     1    12
  2.2988780388087621E-02 a       493     0    21     1    13
  2.7161435123893263E-01 a       494     0    21     1    14
 -8.7982697863756620E-02 a       495     0    21     1    15
  9.4068939525202757E-03 a       496     0    21     1    16
 -1.3031992175758428E-01 a       497     0    21     1    17
  2.8671369502299218E-02 a       498     0    21     1    18
 -2.4792996276774135E-01 a       499     0    21     1    19
 -1.2188836560825921E-01 a       500     0    21     1    20
 -2.5516036430628630E-01 a       501     0    21     1    21
  1.0816373006674899E-01 a       502     0    21     1    22
 -1.4610608426993283E-02 a       503     0    21     1    23
 -4.7177330417436228E-02 a       504     0    21     1    24
 -7.0891430885002341E-02 a       505     0    22     1     1
  6.3287254175294932E-02 a       506     0    22     1     2
 -7.2989860916867003E-02 a       507     0    22     1     3
 -3.1112309057317086E-02 a       508     0    22     1     4
 -3.6469929666618210E-02 a       509     0    22     1     5
  5.4104370423004970E-03 a       510     0    22     1     6
 -1.0584715091231370E-01 a       511     0    22     1     7
  8.8043359933192469E-02 a       512     0    22     1     8
 -2.8111748579311688E-02 a       513     0    22     1     9
  5.5499050363058966E-03 a       514     0    22     1    10
 -3.1131463813596202E-02 a       515     0    22     1    11
 -1.4911064649845246E-01 a       516     0    22     1    12
 -1.4951602847774084E-01 a       517     0    22     1    13
 -1.2263945127461358E-01 a       518     0    22     1    14
 -8.0573608764952898E-02 a       519     0    22     1    15
 -1.9402185620140389E-02 a       520     0    22     1    16
 -3.7967117489853486E-02 a       521     0    22     1    17
 -9.1741514704710966E-02 a       522     0    22     1    18
 -6.4168515288844499E-02 a       523     0    22     1    19
  1.0637219931306773E-01 a       524     0    22     1    20
  5.0150180158121380E-02 a       525     0    22     1    21
 -3.1329597750373896E-02 a       526     0    22     1    22
 -1.6834451307645777E-02 a       527     0    22     1    23
  2.7040935670343547E-02 a       528     0    22     1    24
  7.5947712307296189E-02 a       529     0    23     1     1
 -6.1831523929620942E-02 a       530     0    23     1     2
 -2.2187740997097999E-01 a       531     0    23     1     3
  8.2924376507197251E-02 a       532     0    23     1     4
  8.2790868706220429E-03 a       533     0    23     1     5
  6.1034099015215532E-02 a       534     0    23     1     6
 -1.4301237378506904E-01 a       535     0    23     1     7
  3.4926307376741039E-01 a       536     0    23     1     8
  2.1992895342486832E-01 a       537     0    23     1     9
 -1.8117469328615252E-01 a       538     0    23     1    10
  3.3024921070995077E-02 a       539     0    23     1    11
 -1.4086230391113608E-01 a       540     0    23     1    12
 -1.0186008988518579E-02 a       541     0    23     1    13
  7.2795722229601345E-02 a       542     0    23     1    14
  2.3584963844389092E-01 a       543     0    23     1    15
 -4.5970940382643655E-02 a       544     0    23     1    16
 -8.0496823843695595E-03 a       545     0    23     1    17
 -1.1592916882207842E-01 a       546     0    23     1    18
  7.8945413020210284E-02 a       547     0    23     1    19
 -5.1360440484600603E-02 a       548     0    23     1    20
  1.6269373556988406E-01 a       549     0    23     1    21
  1.6053316686063364E-02 a       550     0    23     1    22
 -3.9026409703875847E-03 a       551     0    23     1    23
  1.8235470948763285E-01 a       552     0    23     1    24
  1.2711242887927765E-01 a       553     0    24     1     1
  1.6734799825966679E-02 a       554     0    24     1     2
  1.7244500080609360E-01 a       555     0    24     1     3
 -8.9624178674574465E-02 a       556     0    24     1     4
 -1.5537265007833870E-01 a       557     0    24     1     5
  8.9011375935802040E-03 a       558     0    24     1     6
 -2.2776538092070012E-01 a       559     0    24     1     7
 -1.2450024081955210E-02 a       560     0    24     1     8
 -8.3774927281703125E-03 a       561     0    24     1     9
  1.0576245480113204E-01 a       562     0    24     1    10
  1.6554852638334797E-01 a       563     0    24     1    11
 -1.2904746210727644E-01 a       564     0    24     1    12
  9.4694709965103055E-02 a       565     0    24     1    13
 -1.2690557620455215E-01 a       566     0    24     1    14
 -1.3374625439369914E-01 a       567     0    24     1    15
 -8.9298799729545297E-02 a       568     0    24     1    16
  1.4536291501395765E-01 a       569     0    24     1    17
  1.4443468150815314E-02 a       570     0    24     1    18
  1.3355132339289072E-01 a       571     0    24     1    19
  1.1175241703240826E-01 a       572     0    24     1    20
  1.4554283102349946E-01 a       573     0    24     1    21
 -1.5920034585791271E-01 a       574     0    24     1    22
  2.8487460671477324E-02 a       575     0    24     1    23
 -1.9414291019046057E-02 a       576     0    24     1    24
 -1.6112173739345453E-01 a       577     0    25     1     1
  1.2425525114087607E-01 a       578     0    25     1     2
 -2.5756220934669560E-01 a       579     0    25     1     3
  8.2805226694984288E-02 a       580     0    25     1     4
  1.8030355762762518E-02 a       581     0    25     1     5
  1.9588726412509780E-01 a       582     0    25     1     6
 -2.3997185836357696E-01 a       583     0    25     1     7
  8.5234149044525909E-03 a       584     0    25     1     8
  1.4732642228199028E-01 a       585     0    25     1     9
  2.0239801754611386E-03 a       586     0    25     1    10
 -1.9519330774763566E-01 a       587     0    25     1    11
  1.2344812912644683E-01 a       588     0    25     1    12
  2.7941617943042108E-03 a       589     0    25     1    13
  1.4351098221254049E-01 a       590     0    25     1    14
  4.6615038164527250E-02 a       591     0    25     1    15
 -1.8400028194944663E-02 a       592     0    25     1    16
 -8.7006101613541026E-02 a       593     0    25     1    17
 -1.8055581457935810E-01 a       594     0    25     1    18
  1.2209559788070534E-01 a       595     0    25     1    19
 -2.5437812084989847E-01 a       596     0    25     1    20
  1.8349408097082515E-01 a       597     0    25     1    21
 -3.3380041850898567E-01 a       598     0    25     1    22
  3.4874972533113008E-01 a       599     0    25     1    23
 -9.3657406038076783E-03 a       600     0    25     1    24
  1.4671980717328215E-02 a       601     0    26     1     1
  1.3154886555063577E-01 a       602     0    26     1     2
 -2.9673380484811829E-01 a       603     0    26     1     3
 -1.8610076314332583E-01 a       604     0    26     1     4
  7.2889025094691768E-03 a       605     0    26     1     5
 -1.6862390230986526E-02 a       606     0    26     1     6
  1.1517171131433133E-01 a       607     0    26     1     7
 -2.6720145259934130E-01 a       608     0    26     1     8
 -5.6243235552624324E-02 a       609     0    26     1     9
  9.5036632680043486E-03 a       610     0    26     1    10
  7.7239781326326779E-02 a       611     0    26     1    11
  6.2263934794251935E-02 a       612     0    26     1    12
 -1.7783985396621682E-02 a       613     0    26     1    13
 -1.5127808910061886E-02 a       614     0    26     1    14
  2.3539409276562465E-01 a       615     0    26     1    15
  6.2689293687248071E-02 a       616     0    26     1    16
 -2.8396182379637469E-01 a       617     0    26     1    17
 -1.5454764965270859E-01 a       618     0    26     1    18
  9.7922692576920239E-02 a       619     0    26     1    19
 -1.4561481086961464E-01 a       620     0    26     1    20
  6.2140036976326647E-02 a       621     0    26     1    21
 -3.6620805379631270E-03 a       622     0    26     1    22
  2.8904430745964188E-03 a       623     0    26     1    23
 -1.5992717624241558E-02 a       624     0    26     1    24
  1.6072744969143817E-02 a       625     0    27     1     1
 -1.5172480989880369E-01 a       626     0    27     1     2
 -6.4172775984973646E-02 a       627     0    27     1     3
  3.1575995009452740E-02 a       628     0    27     1     4
  9.1162464694910673E-03 a       629     0    27     1     5
  1.0774339707298844E-01 a       630     0    27     1     6
 -3.4028563681088994E-03 a       631     0    27     1     7
  2.6370502939002598E-02 a       632     0    27     1     8
 -6.5621975070413396E-02 a       633     0    27     1     9
 -6.4038647592791088E-03 a       634     0    27     1    10
 -4.4396064536593102E-02 a       635     0    27     1    11
  4.5076060685895529E-02 a       636     0    27     1    12
 -1.7368429558278570E-01 a       637     0    27     1    13
  7.4984903035218820E-02 a       638     0    27     1    14
  8.6187899603003160E-02 a       639     0    27     1    15
 -5.2060072412106216E-02 a       640     0    27     1    16
  4.1654463907381471E-02 a       641     0    27     1    17
  1.7379026752875698E-01 a       642     0    27     1    18
 -7.0949303584529388E-02 a       643     0    27     1    19
  8.8439862080268050E-02 a       644     0    27     1    20
  1.3126386474992496E-01 a       645     0    27     1    21
  7.5250056947200033E-03 a       646     0    27     1    22
  1.3467601090121517E-02 a       647     0    27     1    23
  3.8334832792391721E-02 a       648     0    27     1    24
  4.6119624928407897E-02 a       649     0    28     1     1
  2.1335212520672861E-01 a       650     0    28     1     2
  1.7441021896289467E-02 a       651     0    28     1     3
  3.8387612483317755E-02 a       652     0    28     1     4
  3.4525044456429593E-02 a       653     0    28     1     5
  6.8667376006188663E-02 a       654     0    28     1     6
 -8.0775993044111039E-02 a       655     0    28     1     7
 -1.5712009223366016E-01 a       656     0    28     1     8
 -1.3457089907917555E-01 a       657     0    28     1     9
 -2.5749085743671585E-01 a       658     0    28     1    10
  5.7049940435141909E-02 a       659     0    28     1    11
 -1.0078719367101306E-01 a       660     0    28     1    12
 -3.0307681393656266E-01 a       661     0    28     1    13
 -7.7486817016609352E-02 a       662     0    28     1    14
 -2.7141350294041258E-02 a       663     0    28     1    15
  2.2557886411116515E-01 a       664     0    28     1    16
 -2.0134937949430526E-01 a       665     0    28     1    17
 -2.3582242024551194E-02 a       666     0    28     1    18
 -1.1916812206616577E-01 a       667     0    28     1    19
 -7.3036872688568236E-03 a       668     0    28     1    20
  1.7163750475821907E-01 a       669     0    28     1    21
  5.4786150044476498E-02 a       670     0    28     1    22
 -4.0120824708243116E-02 a       671     0    28     1    23
 -1.7513672339123829E-01 a       672     0    28     1    24
 -2.7778962631036996E-01 a       673     0    29     1     1
  4.1689396527955945E-03 a       674     0    29     1     2
 -5.7853034927211645E-03 a       675     0    29     1     3
 -3.1053565285926208E-02 a       676     0    29     1     4
 -2.4443109081297282E-01 a       677     0    29     1     5
 -1.2513220570510167E-01 a       678     0    29     1     6
  5.4865382735407468E-02 a       679     0    29     1     7
 -3.3177819112518492E-01 a       680     0    29     1     8
  1.6079285002887397E-01 a       681     0    29     1     9
 -3.6412470962673582E-02 a       682     0    29     1    10
 -1.2685368522817994E-01 a       683     0    29     1    11
 -1.1671227580816873E-01 a       684     0    29     1    12
  2.1623642048725142E-01 a       685     0    29     1    13
 -3.6551106728102481E-02 a       686     0    29     1    14
 -3.3276219485399626E-02 a       687     0    29     1    15
  1.1471583573083846E-01 a       688     0    29     1    16
 -3.7034718598784755E-01 a       689     0    29     1    17
  1.4730666452625201E-02 a       690     0    29     1    18
 -1.4726814718706122E-01 a       691     0    29     1    19
  9.5547893623701974E-02 a       692     0    29     1    20
 -1.0644070814346512E-02 a       693     0    29     1    21
  4.9920737347304990E-02 a       694     0    29     1    22
 -1.2269660440772687E-01 a       695     0    29     1    23
  1.1974640620507167E-01 a       696     0    29     1    24
 -5.5717167719847652E-02 a       697     0    30     1     1
 -2.2143828215918461E-02 a       698     0    30     1     2
  3.2352551508726679E-01 a       699     0    30     1     3
 -5.2009393833173143E-02 a       700     0    30     1     4
  1.2672113148550515E-01 a       701     0    30     1     5
  4.4499926994804297E-02 a       702     0    30     1     6
  1.2946905984044363E-01 a       703     0    30     1     7
 -1.9234277566484748E-01 a       704     0    30     1     8
  1.1093597086735646E-01 a       705     0    30     1     9
 -2.4416213421083979E-02 a       706     0    30     1    10
 -2.4779232110896521E-01 a       707     0    30     1    11
 -5.0293214166968234E-02 a       708     0    30     1    12
  1.3509006192601158E-01 a       709     0    30     1    13
  1.9869204326866063E-02 a       710     0    30     1    14
  1.6561796106243787E-01 a       711     0    30     1    15
  1.6384309651322090E-01 a       712     0    30     1    16
  1.2153061764551257E-01 a       713     0    30     1    17
 -6.7537778714353486E-02 a       714     0    30     1    18
 -3.2115347566071553E-02 a       715     0    30     1    19
  1.8876935547061387E-02 a       716     0    30     1    20
  1.6050248207273632E-02 a       717     0    30     1    21
  1.2148089453573090E-01 a       718     0    30     1    22
 -1.8480053425689236E-01 a       719     0    30     1    23
 -1.5555059097717516E-01 a       720     0    30     1    24
 -8.3875671589411741E-02 a       721     0    31     1     1
 -5.1048275461531352E-02 a       722     0    31     1     2
  5.1118043963628353E-02 a       723     0    31     1     3
  1.6922556395636723E-02 a       724     0    31     1     4
 -1.8624544079745109E-01 a       725     0    31     1     5
 -5.1876001005907533E-03 a       726     0    31     1     6
  2.3910075133222193E-02 a       727     0    31     1     7
 -2.0328596836674637E-02 a       728     0    31     1     8
  6.8831722431163637E-03 a       729     0    31     1     9
 -1.7789927406067085E-01 a       730     0    31     1    10
  3.7159580727500946E-02 a       731     0    31     1    11
  2.4708632478584833E-01 a       732     0    31     1    12
 -2.2549449307104563E-01 a       733     0    31     1    13
  6.8930036766160524E-02 a       734     0    31     1    14
  1.7183794984882081E-01 a       735     0    31     1    15
  5.8617100926366697E-02 a       736     0    31     1    16
  3.9912297316443041E-01 a       737     0    31     1    17
 -1.5062867430055155E-01 a       738     0    31     1    18
  1.0999578994919430E-01 a       739     0    31     1    19
 -2.1001282871423343E-01 a       740     0    31     1    20
  1.4891291708824297E-01 a       741     0    31     1    21
  1.4070174162749957E-02 a       742     0    31     1    22
  2.3036740920851365E-01 a       743     0    31     1    23
  3.9354386496376126E-02 a       744     0    31     1    24
  5.9952994582911250E-02 a       745     0    32     1     1
 -1.1933267318462784E-01 a       746     0    32     1     2
  8.6087307380500480E-02 a       747     0    32     1     3
  1.0507203520728713E-01 a       748     0    32     1     4
  3.5289005491939827E-02 a       749     0    32     1     5
 -9.9430795621601203E-02 a       750     0    32     1     6
 -2.0232600049442032E-01 a       751     0    32     1     7
  2.1319504271164461E-01 a       752     0    32     1     8
  3.1506893731261498E-01 a       753     0    32     1     9
  2.1325690106650019E-01 a       754     0    32     1    10
 -6.7816978243756834E-02 a       755     0    32     1    11
 -1.1674022795799106E-01 a       756     0    32     1    12
  1.6922855571620976E-01 a       757     0    32     1    13
 -3.7131701926278515E-02 a       758     0    32     1    14
 -9.3283912853519196E-02 a       759     0    32     1    15
 -1.0162377536690358E-01 a       760     0    32     1    16
  2.6663388082299733E-02 a       761     0    32     1    17
  9.6164116561693450E-02 a       762     0    32     1    18
 -2.3844044672254955E-02 a       763     0    32     1    19
  7.4358754663788551E-02 a       764     0    32     1    20
 -2.1314305783343476E-02 a       765     0    32     1    21
  1.5190462729530163E-01 a       766     0    32     1    22
  8.4821981349949158E-02 a       767     0    32     1    23
  1.3736193781201683E-01 a       768     0    32     1    24
  5.7042391271634948E-02 a       769     0    33     1     1
  1.5653021378121545E-01 a       770     0    33     1     2
  1.4828928129369079E-01 a       771     0    33     1     3
 -1.5346016699998186E-01 a       772     0    33     1     4
  2.5972800481702599E-05 a       773     0    33     1     5
 -1.5977889957092335E-02 a       774     0    33     1     6
 -1.0939280346306890E-01 a       775     0    33     1     7
 -6.1321387490996901E-02 a       776     0    33     1     8
  1.0063349157718403E-01 a       777     0    33     1     9
 -4.4605784475427887E-02 a       778     0    33     1    10
  6.2349617127852051E-02 a       779     0    33     1    11
  1.3285472729128289E-01 a       780     0    33     1    12
 -5.8908043422384218E-02 a       781     0    33     1    13
  9.5675877764290082E-02 a       782     0    33     1    14
  2.0440217359953206E-01 a       783     0    33     1    15
 -2.1171133285374427E-01 a       784     0    33     1    16
  3.2566072638157979E-02 a       785     0    33     1    17
  9.4748670900834206E-02 a       786     0    33     1    18
 -9.5347883980962916E-02 a       787     0    33     1    19
 -1.3636810563942567E-01 a       788     0    33     1    20
  2.1810050036937995E-01 a       789     0    33     1    21
  1.1606712746474507E-01 a       790     0    33     1    22
 -1.4526686778405440E-01 a       791     0    33     1    23
 -1.4299733214784066E-01 a       792     0    33     1    24
  2.9358792907439163E-01 a       793     0    34     1     1
 -9.4619201244973999E-02 a       794     0    34     1     2
  1.3834919558548414E-01 a       795     0    34     1     3
  3.2232641400300033E-01 a       796     0    34     1     4
 -1.7605865526484038E-01 a       797     0    34     1     5
 -8.4304244583980767E-02 a       798     0    34     1     6
 -6.6022931401552645E-02 a       799     0    34     1     7
 -4.8316615315654857E-02 a       800     0    34     1     8
 -2.4426583979767899E-01 a       801     0    34     1     9
 -3.5825509467223918E-02 a       802     0    34     1    10
 -1.0357107243877753E-01 a       803     0    34     1    11
 -2.5784273690747256E-01 a       804     0    34     1    12
  1.8167277101166687E-01 a       805     0    34     1    13
 -3.7756464066863046E-02 a       806     0    34     1    14
  3.8472758950389163E-01 a       807     0    34     1    15
  9.1655374646044382E-02 a       808     0    34     1    16
 -3.7237161646245819E-03 a       809     0    34     1    17
  1.8391470935426710E-01 a       810     0    34     1    18
  5.6930099715232600E-02 a       811     0    34     1    19
  2.6333070292788106E-02 a       812     0    34     1    20
  8.4948145835441857E-02 a       813     0    34     1    21
 -1.3730257550912334E-01 a       814     0    34     1    22
 -1.5336582146133459E-01 a       815     0    34     1    23
  6.1404136952598137E-02 a       816     0    34     1    24
  6.4076244498023288E-03 a       817     0    35     1     1
 -2.2086297426368598E-01 a       818     0    35     1     2
 -9.0700070656528908E-02 a       819     0    35     1     3
  1.0304893825127819E-02 a       820     0    35     1     4
  1.0992468452198695E-01 a       821     0    35     1     5
 -1.2735268218029702E-01 a       822     0    35     1     6
  4.3494170771459562E-02 a       823     0    35     1     7
  9.2074280697370201E-03 a       824     0    35     1     8
 -2.1247778883737342E-02 a       825     0    35     1     9
 -2.4405304062292150E-03 a       826     0    35     1    10
 -5.7970670885399062E-02 a       827     0    35     1    11
 -1.2374537391418609E-01 a       828     0    35     1    12
  8.1751185993429766E-03 a       829     0    35     1    13
  1.0557274624016014E-01 a       830     0    35     1    14
 -1.6193060693576275E-01 a       831     0    35     1    15
 -1.6648069621330366E-01 a       832     0    35     1    16
 -3.0267951679674238E-01 a       833     0    35     1    17
  7.8358359618801152E-02 a       834     0    35     1    18
  1.2922366537555313E-01 a       835     0    35     1    19
  7.7297078771428149E-02 a       836     0    35     1    20
 -2.4963393426869412E-01 a       837     0    35     1    21
 -6.5317354943071768E-02 a       838     0    35     1    22
  3.6990997768139729E-03 a       839     0    35     1    23
  2.2253077459409148E-01 a       840     0    35     1    24
  6.8179709537966107E-02 a       841     0    36     1     1
 -4.8292747338848835E-02 a       842     0    36     1     2
  8.2820749600853519E-03 a       843     0    36     1     3
  6.4394622459580039E-02 a       844     0    36     1     4
 -5.9097403004786608E-02 a       845     0    36     1     5
  2.5913552221917512E-02 a       846     0    36     1     6
 -1.2731543898998621E-01 a       847     0    36     1     7
 -1.2254465858531811E-02 a       848     0    36     1     8
  7.2449675575293457E-02 a       849     0    36     1     9
  1.9733604048639278E-01 a       850     0    36     1    10
  1.6689137986924025E-02 a       851     0    36     1    11
  8.0615270430866220E-02 a       852     0    36     1    12
  3.3064721280471238E-01 a       853     0    36     1    13
  8.7804965482707678E-04 a       854     0    36     1    14
 -1.2039368446657199E-01 a       855     0    36     1    15
 -1.2256883124806184E-01 a       856     0    36     1    16
 -1.6558602237257769E-01 a       857     0    36     1    17
  4.6445407206710546E-02 a       858     0    36     1    18
  1.0644083521054643E-01 a       859     0    36     1    19
  2.8243001214039276E-01 a       860     0    36     1    20
 -7.7253139273356225E-02 a       861     0    36     1    21
  1.1563327288888045E-01 a       862     0    36     1    22
 -2.0096675931928532E-02 a       863     0    36     1    23
  1.8250352394157984E-01 a       864     0    36     1    24
 -7.6007627639450751E-02 a       865     0    37     1     1
 -2.4108533505610633E-01 a       866     0    37     1     2
 -1.3167013943581624E-01 a       867     0    37     1     3
  5.4453328717566273E-02 a       868     0    37     1     4
  2.0922179645827843E-01 a       869     0    37     1     5
 -1.8486943308274026E-01 a       870     0    37     1     6
 -7.0472147644975391E-02 a       871     0    37     1     7
  2.7150489417253856E-02 a       872     0    37     1     8
  2.5779376756540412E-01 a       873     0    37     1     9
  2.2239430223718715E-02 a       874     0    37     1    10
 -9.4812026592735354E-02 a       875     0    37     1    11
 -3.1538449396338687E-02 a       876     0    37     1    12
 -9.5005618264899325E-02 a       877     0    37     1    13
  1.2397549689687823E-01 a       878     0    37     1    14
  1.7571100503729770E-01 a       879     0    37     1    15
  3.0358768532192628E-02 a       880     0    37     1    16
  1.2373906911180214E-01 a       881     0    37     1    17
 -2.4545044600811355E-01 a       882     0    37     1    18
 -6.4014447335797808E-02 a       883     0    37     1    19
  1.4641169466599784E-02 a       884     0    37     1    20
 -5.4190242973395239E-02 a       885     0    37     1    21
  2.8534190881090177E-01 a       886     0    37     1    22
  2.7754374519473257E-01 a       887     0    37     1    23
  3.3716174482541925E-02 a       888     0    37     1    24
  2.1056370595672788E-01 a       889     0    38     1     1
  1.4234898034645822E-02 a       890     0    38     1     2
 -5.0350830200988669E-02 a       891     0    38     1     3
 -1.6050357040688565E-01 a       892     0    38     1     4
  5.2703221507216624E-02 a       893     0    38     1     5
 -4.6867767541860464E-02 a       894     0    38     1     6
  6.9447050936708984E-02 a       895     0    38     1     7
  2.6035583211757935E-02 a       896     0    38     1     8
 -1.4690131672793795E-03 a       897     0    38     1     9
 -8.5021166694370556E-02 a       898     0    38     1    10
 -8.3696508307780915E-02 a       899     0    38     1    11
  6.3838997781995310E-02 a       900     0    38     1    12
  1.8149933040408767E-01 a       901     0    38     1    13
  2.3797468204845812E-01 a       902     0    38     1    14
 -5.0890447370213421E-02 a       903     0    38     1    15
 -1.9731474111459615E-01 a       904     0    38     1    16
 -1.8716741511463919E-01 a       905     0    38     1    17
  2.5165404769538564E-02 a       906     0    38     1    18
 -4.8097084585412363E-02 a       907     0    38     1    19
 -2.0157892502928054E-01 a       908     0    38     1    20
  3.8251208760288542E-02 a       909     0    38     1    21
  1.7973215272881493E-01 a       910     0    38     1    22
 -1.6875202617444093E-01 a       911     0    38     1    23
  8.5335734709921826E-02 a       912     0    38     1    24
  5.9140096554916949E-02 a       913     0    39     1     1
  1.7640865268368799E-01 a       914     0    39     1     2
  3.8448080373716144E-02 a       915     0    39     1     3
 -1.4438562524791862E-01 a       916     0    39     1     4
 -1.8146391097741657E-01 a       917     0    39     1     5
 -1.3823015838245040E-01 a       918     0    39     1     6
  5.4408386562510812E-03 a       919     0    39     1     7
  5.6516894009829927E-02 a       920     0    39     1     8
  3.3948077848034108E-02 a       921     0    39     1     9
 -2.5518284085273450E-02 a       922     0    39     1    10
 -1.5124832151662077E-01 a       923     0    39     1    11
  2.0291931017488185E-01 a       924     0    39     1    12
 -3.0581155455548958E-02 a       925     0    39     1    13
  8.7354514208233591E-02 a       926     0    39     1    14
 -1.4438151105025643E-01 a       927     0    39     1    15
  1.1108581470961848E-01 a       928     0    39     1    16
  2.1580583015286561E-01 a       929     0    39     1    17
  6.1384604394612359E-02 a       930     0    39     1    18
  6.7280523378966867E-02 a       931     0    39     1    19
 -1.3354159583726588E-01 a       932     0    39     1    20
  5.9285883745233525E-02 a       933     0    39     1    21
 -1.5175386071250169E-01 a       934     0    39     1    22
  1.8656597618447679E-01 a       935     0    39     1    23
  5.6799922626490071E-02 a       936     0    39     1    24
 -3.4415513779326820E-02 a       937     0    40     1     1
  4.0792518319174534E-02 a       938     0    40     1     2
 -1.1752195539535441E-01 a       939     0    40     1     3
  6.8728813631227847E-02 a       940     0    40     1     4
 -2.5938476751436668E-01 a       941     0    40     1     5
  1.7761108862462016E-01 a       942     0    40     1     6
 -1.8865491666081910E-02 a       943     0    40     1     7
  9.4339839505479847E-02 a       944     0    40     1     8
 -9.4391737459811942E-02 a       945     0    40     1     9
 -2.2285915886968494E-01 a       946     0    40     1    10
 -2.3556872947103480E-01 a       947     0    40     1    11
  1.1296941315156175E-01 a       948     0    40     1    12
  2.7724194209572584E-01 a       949     0    40     1    13
 -5.9105217786848852E-02 a       950     0    40     1    14
 -1.3677363883917948E-01 a       951     0    40     1    15
  1.7473824105788799E-01 a       952     0    40     1    16
 -9.1526742072561229E-02 a       953     0    40     1    17
 -1.6447523896445207E-01 a       954     0    40     1    18
  4.0488625566075784E-02 a       955     0    40     1    19
  8.3559567485743058E-02 a       956     0    40     1    20
 -4.1193439742065775E-03 a       957     0    40     1    21
 -1.8379792570429063E-01 a       958     0    40     1    22
  3.1785373171937648E-01 a       959     0    40     1    23
 -1.0686653308875922E-01 a       960     0    40     1    24
  1.0137639501766448E-02 a       961     0    41     1     1
  1.1684278110572281E-01 a       962     0    41     1     2
  3.0028190786265258E-02 a       963     0    41     1     3
  4.3290176996067443E-02 a       964     0    41     1     4
 -2.5442781320621340E-02 a       965     0    41     1     5
  1.3762907105428673E-01 a       966     0    41     1     6
 -4.7895937532764422E-02 a       967     0    41     1     7
 -1.0563121868467963E-01 a       968     0    41     1     8
  3.6344927077536157E-02 a       969     0    41     1     9
 -1.3485523978330777E-02 a       970     0    41     1    10
  6.5624702400262067E-02 a       971     0    41     1    11
 -1.4005578939969049E-01 a       972     0    41     1    12
 -1.6761971503383485E-01 a       973     0    41     1    13
 -2.5700049814905129E-01 a       974     0    41     1    14
 -1.5258294252017679E-01 a       975     0    41     1    15
  2.1147209654218280E-01 a       976     0    41     1    16
  1.2667784276854535E-01 a       977     0    41     1    17
 -2.6068004886503026E-02 a       978     0    41     1    18
 -2.0144575610526825E-03 a       979     0    41     1    19
  3.1736144658657948E-02 a       980     0    41     1    20
 -7.0220298818034585E-02 a       981     0    41     1    21
 -5.2022162846174058E-02 a       982     0    41     1    22
 -1.4816871787463820E-01 a       983     0    41     1    23
  6.0749770514764601E-02 a       984     0    41     1    24
  2.7569692996538248E-02 a       985     0    42     1     1
  3.7897568539512053E-02 a       986     0    42     1     2
 -2.9728605743677017E-01 a       987     0    42     1     3
 -1.5090191606800960E-01 a       988     0    42     1     4
  4.8456283134641627E-02 a       989     0    42     1     5
  5.4755584900606571E-03 a       990     0    42     1     6
 -2.5206817970152756E-01 a       991     0    42     1     7
 -2.0823706029476519E-02 a       992     0    42     1     8
  6.4619878181158288E-02 a       993     0    42     1     9
 -1.2817217140490411E-01 a       994     0    42     1    10
  1.4085435907153228E-02 a       995     0    42     1    11
  7.9131852955385440E-02 a       996     0    42     1    12
 -1.7284541655047386E-01 a       997     0    42     1    13
  1.4244774477292807E-01 a       998     0    42     1    14
 -7.0213154877239239E-02 a       999     0    42     1    15
 -1.3104289211807951E-01 a      1000     0    42     1    16
  1.1813481172490367E-01 a      1001     0    42     1    17
  9.0157099282134306E-02 a      1002     0    42     1    18
 -5.8075359677381609E-02 a      1003     0    42     1    19
 -4.9129979640541832E-02 a      1004     0    42     1    20
  8.8258340301583776E-02 a      1005     0    42     1    21
 -2.2176017348406870E-03 a      1006     0    42     1    22
 -2.2363975332802450E-02 a      1007     0    42     1    23
 -3.3052282127418992E-01 a      1008     0    42     1    24
 -2.3097226386654734E-01 a      1009     0    43     1     1
 -1.0725835880381061E-02 a      1010     0    43     1     2
  6.3219576768724264E-02 a      1011     0    43     1     3
  1.4135791675768203E-01 a      1012     0    43     1     4
  1.8462230037779140E-01 a      1013     0    43     1     5
  1.5563772667893724E-01 a      1014     0    43     1     6
 -1.2258485116374557E-02 a      1015     0    43     1     7
 -2.8526612566297471E-01 a      1016     0    43     1     8
  3.2388228747328268E-01 a      1017     0    43     1     9
  2.9198329895093814E-03 a      1018     0    43     1    10
 -4.7164419076824823E-02 a      1019     0    43     1    11
  5.6460031852201900E-02 a      1020     0    43     1    12
  1.0845877318905087E-01 a      1021     0    43     1    13
 -1.0314338152489100E-03 a      1022     0    43     1    14
 -1.3286074965144404E-01 a      1023     0    43     1    15
  9.3387003295815785E-02 a      1024     0    43     1    16
 -5.6487063781233207E-03 a      1025     0    43     1    17
  1.2284350490558749E-01 a      1026     0    43     1    18
 -3.1397846598502011E-01 a      1027     0    43     1    19
  1.7924198660838514E-01 a      1028     0    43     1    20
 -2.3687407959228543E-01 a      1029     0    43     1    21
 -4.5675271798278051E-02 a      1030     0    43     1    22
  2.9454600946750820E-01 a      1031     0    43     1    23
 -2.9880399129512880E-01 a      1032     0    43     1    24
 -5.2501678993120061E-02 a      1033     0    44     1     1
 -1.5251109171538151E-02 a      1034     0    44     1     2
 -1.3137624233950285E-01 a      1035     0    44     1     3
  2.4729488408132948E-02 a      1036     0    44     1     4
 -1.3623747214271939E-02 a      1037     0    44     1     5
  9.9350362107540807E-02 a      1038     0    44     1     6
  3.1254472822410395E-01 a      1039     0    44     1     7
  1.8795215277867920E-02 a      1040     0    44     1     8
 -1.7839346934641803E-01 a      1041     0    44     1     9
 -1.1467546172542974E-01 a      1042     0    44     1    10
  5.5230150238033106E-02 a      1043     0    44     1    11
  2.6642974014389958E-01 a      1044     0    44     1    12
 -9.8352739146212662E-02 a      1045     0    44     1    13
  1.2113677003679360E-01 a      1046     0    44     1    14
 -1.1334345867560956E-02 a      1047     0    44     1    15
 -7.1365833770198131E-02 a      1048     0    44     1    16
  3.2813137051806281E-02 a      1049     0    44     1    17
 -2.7376890236388018E-01 a      1050     0    44     1    18
  9.3683389645899090E-02 a      1051     0    44     1    19
 -7.4319522549378209E-02 a      1052     0    44     1    20
 -8.2953063075140276E-02 a      1053     0    44     1    21
 -9.0648206965059958E-02 a      1054     0    44     1    22
  4.2078357745022978E-02 a      1055     0    44     1    23
 -1.9771695182858665E-01 a      1056     0    44     1    24
 -1.2355179654148708E-01 a      1057     0    45     1     1
 -2.4950993246700186E-02 a      1058     0    45     1     2
 -8.3352300541594135E-02 a      1059     0    45     1     3
  1.6719976111371221E-01 a      1060     0    45     1     4
  4.0216560969348857E-02 a      1061     0    45     1     5
 -2.0622934635636936E-01 a      1062     0    45     1     6
  1.3399026002589376E-01 a      1063     0    45     1     7
 -5.4598461114866187E-02 a      1064     0    45     1     8
  2.2060418920108077E-01 a      1065     0    45     1     9
 -1.9893480298732317E-03 a      1066     0    45     1    10
 -1.8652568308656214E-01 a      1067     0    45     1    11
 -2.3782869962274322E-01 a      1068     0    45     1    12
  2.0861373587746057E-01 a      1069     0    45     1    13
 -6.1741668736711844E-02 a      1070     0    45     1    14
  1.0461243849202391E-01 a      1071     0    45     1    15
  7.5911791487774091E-02 a      1072     0    45     1    16
 -3.9662073576121358E-02 a      1073     0    45     1    17
 -1.9836864781548511E-01 a      1074     0    45     1    18
  4.8463036551742368E-02 a      1075     0    45     1    19
  2.2172184500792347E-01 a      1076     0    45     1    20
 -1.3684097410722793E-01 a      1077     0    45     1    21
 -1.2083295368490286E-02 a      1078     0    45     1    22
  2.4141816194357688E-01 a      1079     0    45     1    23
  2.7661569889482418E-01 a      1080     0    45     1    24
  8.2706105402670149E-02 a      1081     0    46     1     1
  6.9353881627549574E-02 a      1082     0    46     1     2
  1.6034936755005319E-01 a      1083     0    46     1     3
  1.7870077340347013E-01 a      1084     0    46     1     4
 -3.5289212864754234E-02 a      1085     0    46     1     5
 -2.9611030651468626E-02 a      1086     0    46     1     6
  3.8704463699269137E-02 a      1087     0    46     1     7
 -5.0832558171000179E-02 a      1088     0    46     1     8
  1.6257484713562637E-01 a      1089     0    46     1     9
 -8.4309529963978488E-02 a      1090     0    46     1    10
 -1.0297513064699673E-01 a      1091     0    46     1    11
 -2.5321411036225816E-01 a      1092     0    46     1    12
 -3.3965116940751222E-01 a      1093     0    46     1    13
 -2.6157607805647803E-01 a      1094     0    46     1    14
  1.7147683399635974E-02 a      1095     0    46     1    15
 -2.5064706210668114E-01 a      1096     0    46     1    16
  8.8543403462544523E-02 a      1097     0    46     1    17
 -9.8768241690681789E-03 a      1098     0    46     1    18
  1.5540643588163222E-01 a      1099     0    46     1    19
  4.1087196770357597E-02 a      1100     0    46     1    20
 -2.4099939180022251E-02 a      1101     0    46     1    21
  8.6820690492204602E-02 a      1102     0    46     1    22
 -1.4716620004370276E-01 a      1103     0    46     1    23
 -4.1261422130613526E-03 a      1104     0    46     1    24
  7.8375829358822466E-02 a      1105     0    47     1     1
 -2.6998385842969746E-02 a      1106     0    47     1     2
 -2.5757264884418526E-02 a      1107     0    47     1     3
 -1.3957528404929062E-01 a      1108     0    47     1     4
 -9.6166104066229149E-02 a      1109     0    47     1     5
 -9.2538780171149623E-03 a      1110     0    47     1     6
  5.4376712974504492E-02 a      1111     0    47     1     7
 -1.0869939439051851E-01 a      1112     0    47     1     8
 -2.9361321844993512E-02 a      1113     0    47     1     9
 -2.1741405598418170E-01 a      1114     0    47     1    10
 -1.7142247069075620E-01 a      1115     0    47     1    11
  3.6132701811042583E-02 a      1116     0    47     1    12
  1.3693171799223983E-01 a      1117     0    47     1    13
  2.1141699922904926E-02 a      1118     0    47     1    14
 -1.9822065105039663E-01 a      1119     0    47     1    15
 -4.6369077245608972E-02 a      1120     0    47     1    16
 -1.0994321722225647E-02 a      1121     0    47     1    17
  7.6474246908225338E-02 a      1122     0    47     1    18
  2.1870782441927381E-01 a      1123     0    47     1    19
  3.2814651438909839E-02 a      1124     0    47     1    20
  3.4926371445532935E-02 a      1125     0    47     1    21
 -3.6334238474247174E-02 a      1126     0    47     1    22
 -3.3857810024831977E-03 a      1127     0    47     1    23
  1.0239320651188215E-01 a      1128     0    47     1    24
  1.5990563268495814E-01 a      1129     0    48     1     1
  4.7358778477391714E-02 a      1130     0    48     1     2
  6.5693571760037067E-02 a      1131     0    48     1     3
 -4.8715373206683781E-02 a      1132     0    48     1     4
  1.8266419265713676E-01 a      1133     0    48     1     5
  1.4901588150133388E-01 a      1134     0    48     1     6
 -6.8529622780339153E-02 a      1135     0    48     1     7
  1.8728397467279723E-01 a      1136     0    48     1     8
  5.8330772019977523E-02 a      1137     0    48     1     9
 -6.8378748970431752E-02 a      1138     0    48     1    10
  4.9836510846540352E-02 a      1139     0    48     1    11
 -6.0574563307946326E-02 a      1140     0    48     1    12
 -1.1722598243999253E-01 a      1141     0    48     1    13
 -1.2306042506971629E-01 a      1142     0    48     1    14
  2.7182164035515509E-02 a      1143     0    48     1    15
  6.9577276226420917E-02 a      1144     0    48     1    16
  9.9034221556655117E-02 a      1145     0    48     1    17
  1.6344415352930741E-01 a      1146     0    48     1    18
 -1.9486070801997595E-02 a      1147     0    48     1    19
  8.1293162234662333E-02 a      1148     0    48     1    20
  4.0155995978652145E-02 a      1149     0    48     1    21
  1.1399058280401717E-01 a      1150     0    48     1    22
 -4.0040235643273719E-02 a      1151     0    48     1    23
  2.6133984779778623E-02 a      1152     0    48     1    24
  2.8367871122543355E-03 a      1153     0    49     1     1
 -2.7635147963688697E-02 a      1154     0    49     1     2
  1.5972169366542534E-02 a      1155     0    49     1     3
 -1.6871686556019796E-01 a      1156     0    49     1     4
 -2.1826887089793359E-01 a      1157     0    49     1     5
  2.0064725016607034E-02 a      1158     0    49     1     6
 -1.4305495088982564E-01 a      1159     0    49     1     7
 -3.5798241032566805E-02 a      1160     0    49     1     8
  4.1269715966715768E-02 a      1161     0    49     1     9
  1.8119998056250078E-01 a      1162     0    49     1    10
 -2.3164524231639178E-01 a      1163     0    49     1    11
 -9.7443905646221851E-02 a      1164     0    49     1    12
  8.5122216323052696E-02 a      1165     0    49     1    13
 -9.6754028296515537E-03 a      1166     0    49     1    14
  1.2221208857575325E-01 a      1167     0    49     1    15
  1.1022269856116344E-02 a      1168     0    49     1    16
  8.9846074703778728E-02 a      1169     0    49     1    17
  5.1158663323879396E-02 a      1170     0    49     1    18
 -7.2806179566027987E-02 a      1171     0    49     1    19
 -1.2833569696888061E-01 a      1172     0    49     1    20
  1.6931211026790866E-01 a      1173     0    49     1    21
 -8.8930027196739619E-02 a      1174     0    49     1    22
  1.3542977084890465E-01 a      1175     0    49     1    23
 -1.9823004412406922E-01 a      1176     0    49     1    24
  2.0448614227574827E-01 a      1177     0    50     1     1
  1.0214194285944521E-02 a      1178     0    50     1     2
 -4.1381252594407537E-02 a      1179     0    50     1     3
  4.5934037066492378E-02 a      1180     0    50     1     4
 -7.1161502607290997E-02 a      1181     0    50     1     5
 -1.7119335965587584E-01 a      1182     0    50     1     6
  5.3203087411076391E-02 a      1183     0    50     1     7
  1.5035430128905314E-01 a      1184     0    50     1     8
  1.4988908689186867E-01 a      1185     0    50     1     9
  1.8190984965527868E-01 a      1186     0    50     1    10
 -1.7168623625541229E-01 a      1187     0    50     1    11
  3.8848381412999788E-02 a      1188     0    50     1    12
  3.3848642395860379E-01 a      1189     0    50     1    13
 -1.4581491178113202E-02 a      1190     0    50     1    14
  1.2265463935086694E-01 a      1191     0    50     1    15
 -1.4360145638632619E-03 a      1192     0    50     1    16
 -1.6942797434069873E-02 a      1193     0    50     1    17
 -1.2826295983382353E-02 a      1194     0    50     1    18
 -6.3688169384805288E-02 a      1195     0    50     1    19
  7.5133538314996043E-02 a      1196     0    50     1    20
  8.3845023174437247E-02 a      1197     0    50     1    21
  1.3273469522312856E-01 a      1198     0    50     1    22
  1.2237256260521696E-02 a      1199     0    50     1    23
 -3.8796895673314562E-02 a      1200     0    50     1    24
  4.4647157429769851E-02 a      1201     0    51     1     1
 -9.7000419082959324E-02 a      1202     0    51     1     2
  3.4592908728792185E-02 a      1203     0    51     1     3
  9.9392601670275277E-02 a      1204     0    51     1     4
 -2.3585113039153241E-02 a      1205     0    51     1     5
 -9.3917596299606942E-02 a      1206     0    51     1     6
  3.0884684305787841E-01 a      1207     0    51     1     7
  7.0243589740320743E-03 a      1208     0    51     1     8
 -1.6089604023180820E-01 a      1209     0    51     1     9
  5.3476698352891865E-02 a      1210     0    51     1    10
 -3.3140637447900837E-03 a      1211     0    51     1    11
  4.4954722892388221E-01 a      1212     0    51     1    12
  2.0529242172107268E-01 a      1213     0    51     1    13
  1.3465007274206270E-01 a      1214     0    51     1    14
  2.0111998168013007E-01 a      1215     0    51     1    15
 -7.2261417131581282E-02 a      1216     0    51     1    16
 -3.4764208833266869E-01 a      1217     0    51     1    17
 -2.7022752907717956E-01 a      1218     0    51     1    18
  3.2761626928172732E-01 a      1219     0    51     1    19
  9.7916489218583522E-02 a      1220     0    51     1    20
 -4.2566180633665865E-02 a      1221     0    51     1    21
 -5.6897946526056190E-02 a      1222     0    51     1    22
 -3.4997518660077012E-02 a      1223     0    51     1    23
 -1.3038443458210672E-01 a      1224     0    51     1    24
  1.4286287927851998E-01 a      1225     0    52     1     1
  2.6909994202280241E-02 a      1226     0    52     1     2
 -4.5511298672926456E-02 a      1227     0    52     1     3
  1.3640012085006492E-01 a      1228     0    52     1     4
  1.2709320824793549E-01 a      1229     0    52     1     5
 -1.0695040763895000E-01 a      1230     0    52     1     6
  9.4148401564370238E-02 a      1231     0    52     1     7
 -3.3640204989976774E-02 a      1232     0    52     1     8
  2.2568508365906140E-02 a      1233     0    52     1     9
 -2.5942403287829638E-02 a      1234     0    52     1    10
  1.0658828839782990E-01 a      1235     0    52     1    11
  5.7685012494175160E-02 a      1236     0    52     1    12
 -1.2440475955135719E-01 a      1237     0    52     1    13
  1.2490107594755914E-01 a      1238     0    52     1    14
 -1.2381868313161717E-01 a      1239     0    52     1    15
 -5.7934075393598468E-02 a      1240     0    52     1    16
 -1.0333208473541729E-01 a      1241     0    52     1    17
  3.1646913296159138E-02 a      1242     0    52     1    18
  2.6944985931045759E-02 a      1243     0    52     1    19
  3.8412701831127757E-02 a      1244     0    52     1    20
 -1.5345985440355878E-01 a      1245     0    52     1    21
 -7.7484202128512744E-02 a      1246     0    52     1    22
 -6.3750826983002412E-02 a      1247     0    52     1    23
 -4.4228463953885168E-02 a      1248     0    52     1    24
  1.9409739408167997E-01 a      1249     0    53     1     1
 -1.5972779234166345E-02 a      1250     0    53     1     2
  5.8113330424827345E-02 a      1251     0    53     1     3
  1.3726661827928743E-01 a      1252     0    53     1     4
  3.3118655251658663E-01 a      1253     0    53     1     5
 -2.7081622499086305E-01 a      1254     0    53     1     6
 -4.0774268429829577E-02 a      1255     0    53     1     7
  3.1729857702856079E-01 a      1256     0    53     1     8
 -2.0261550882491133E-01 a      1257     0    53     1     9
 -1.0294451664707002E-01 a      1258     0    53     1    10
  9.7234421623587891E-02 a      1259     0    53     1    11
  7.3341989922166603E-02 a      1260     0    53     1    12
 -6.1573207884606927E-02 a      1261     0    53     1    13
  1.5533712879314140E-01 a      1262     0    53     1    14
  1.1069281191062740E-01 a      1263     0    53     1    15
 -8.9035048941017256E-02 a      1264     0    53     1    16
 -4.0242897580098358E-02 a      1265     0    53     1    17
 -1.6283668970755319E-01 a      1266     0    53     1    18
  2.6162563603561156E-01 a      1267     0    53     1    19
 -1.8438663648974915E-01 a      1268     0    53     1    20
 -3.1148881273283999E-02 a      1269     0    53     1    21
  3.5016289747014581E-02 a      1270     0    53     1    22
 -5.5005888992331768E-02 a      1271     0    53     1    23
 -1.8288404638904000E-02 a      1272     0    53     1    24
 -1.9963310445368085E-01 a      1273     0    54     1     1
 -1.1067473019498286E-01 a      1274     0    54     1     2
 -9.5426304481339971E-02 a      1275     0    54     1     3
  7.2199776160204288E-02 a      1276     0    54     1     4
 -6.2775300324295763E-02 a      1277     0    54     1     5
 -1.7302702500045200E-01 a      1278     0    54     1     6
  2.1893795854979228E-01 a      1279     0    54     1     7
  1.5155163133368418E-01 a      1280     0    54     1     8
  1.2785451355471170E-01 a      1281     0    54     1     9
  2.1143452731150539E-01 a      1282     0    54     1    10
 -1.8335548548387925E-01 a      1283     0    54     1    11
  3.0044849432112469E-02 a      1284     0    54     1    12
  1.7728690893197024E-01 a      1285     0    54     1    13
  3.5452345126781457E-02 a      1286     0    54     1    14
  1.7470644081623679E-01 a      1287     0    54     1    15
 -1.5001071840093361E-03 a      1288     0    54     1    16
  7.1526885706383769E-02 a      1289     0    54     1    17
  9.7872660306324508E-02 a      1290     0    54     1    18
 -8.5689694716591006E-02 a      1291     0    54     1    19
 -3.8553413932277091E-02 a      1292     0    54     1    20
 -2.5644494748322921E-01 a      1293     0    54     1    21
 -1.2437190579810603E-01 a      1294     0    54     1    22
 -6.7352593024901944E-02 a      1295     0    54     1    23
  1.0948033044884357E-01 a      1296     0    54     1    24
  5.8501144648023647E-02 a      1297     0    55     1     1
  4.4484423932527488E-02 a      1298     0    55     1     2
  1.3147038333229211E-01 a      1299     0    55     1     3
 -9.2086612847536248E-02 a      1300     0    55     1     4
 -1.5357741162674710E-01 a      1301     0    55     1     5
  1.1481048185287887E-01 a      1302     0    55     1     6
  2.5981009961818297E-01 a      1303     0    55     1     7
  2.3360641847220887E-01 a      1304     0    55     1     8
 -1.1136837503032793E-01 a      1305     0    55     1     9
  1.0965056054250588E-01 a      1306     0    55     1    10
  1.6797927743571939E-01 a      1307     0    55     1    11
  1.6181804764227015E-01 a      1308     0    55     1    12
  2.5521923572874250E-01 a      1309     0    55     1    13
 -1.7001077689899091E-01 a      1310     0    55     1    14
  5.6749798181735041E-02 a      1311     0    55     1    15
 -3.9204073700829789E-02 a      1312     0    55     1    16
  2.7647160888864541E-02 a      1313     0    55     1    17
  2.0605155931547114E-01 a      1314     0    55     1    18
  1.5306253026861050E-01 a      1315     0    55     1    19
 -1.0067488045542292E-01 a      1316     0    55     1    20
  3.2271326182915103E-02 a      1317     0    55     1    21
 -3.3337467637911383E-01 a      1318     0    55     1    22
 -1.8310169300432869E-01 a      1319     0    55     1    23
 -1.8883085372047240E-01 a      1320     0    55     1    24
 -4.2597803540304020E-02 a      1321     0    56     1     1
 -1.5456077252045752E-01 a      1322     0    56     1     2
  9.8462421055430419E-02 a      1323     0    56     1     3
 -7.6591508472484346E-02 a      1324     0    56     1     4
  1.2060342753422414E-01 a      1325     0    56     1     5
 -4.0731759062062695E-02 a      1326     0    56     1     6
  9.5327442922605060E-02 a      1327     0    56     1     7
 -4.6988982383798415E-02 a      1328     0    56     1     8
 -2.0183447716870814E-01 a      1329     0    56     1     9
  1.8148699089354303E-01 a      1330     0    56     1    10
  1.3268800136777867E-01 a      1331     0    56     1    11
 -5.2617012727876701E-02 a      1332     0    56     1    12
 -3.0181368083913723E-01 a      1333     0    56     1    13
 -5.1298160534176823E-02 a      1334     0    56     1    14
 -6.8320407665567823E-02 a      1335     0    56     1    15
 -1.3226991931766047E-01 a      1336     0    56     1    16
 -1.5812719535173461E-01 a      1337     0    56     1    17
 -2.8945625273318770E-02 a      1338     0    56     1    18
 -4.0517897623006435E-02 a      1339     0    56     1    19
 -1.4259168799882344E-01 a      1340     0    56     1    20
  7.6991690639446927E-02 a      1341     0    56     1    21
  7.2754576351529876E-02 a      1342     0    56     1    22
  2.2683688744781466E-02 a      1343     0    56     1    23
  7.7576146514730229E-02 a      1344     0    56     1    24
  1.2920838139120452E-01 a      1345     0    57     1     1
 -2.1365766388890209E-01 a      1346     0    57     1     2
 -5.6664013276637198E-02 a      1347     0    57     1     3
  5.9789317589963670E-02 a      1348     0    57     1     4
 -3.8717621029841477E-02 a      1349     0    57     1     5
  2.1988611519314971E-02 a      1350     0    57     1     6
  2.2496390726652635E-01 a      1351     0    57     1     7
  2.2332944538710368E-02 a      1352     0    57     1     8
 -1.2750363373161036E-01 a      1353     0    57     1     9
  2.8207319787011342E-01 a      1354     0    57     1    10
 -3.8601155599252424E-01 a      1355     0    57     1    11
 -2.8264288371085813E-02 a      1356     0    57     1    12
  5.1004604669418613E-02 a      1357     0    57     1    13
 -7.0959470827380355E-02 a      1358     0    57     1    14
  3.1876197578012327E-02 a      1359     0    57     1    15
  2.3568325926251113E-01 a      1360     0    57     1    16
 -8.2600110434359383E-03 a      1361     0    57     1    17
  6.3939806601590737E-02 a      1362     0    57     1    18
 -6.7988013349466137E-02 a      1363     0    57     1    19
  7.0846087811043693E-02 a      1364     0    57     1    20
  7.9473902617182332E-02 a      1365     0    57     1    21
 -1.4972882828481821E-01 a      1366     0    57     1    22
  2.8259835163652977E-02 a      1367     0    57     1    23
  3.4383149526348206E-01 a      1368     0    57     1    24
  1.9087943353637712E-01 a      1369     0    58     1     1
 -2.1220111806399869E-01 a      1370     0    58     1     2
 -1.1736179952725036E-01 a      1371     0    58     1     3
 -9.5423795680058293E-02 a      1372     0    58     1     4
  1.4840146567695423E-01 a      1373     0    58     1     5
 -1.1410368327858190E-01 a      1374     0    58     1     6
 -3.6710229892984031E-04 a      1375     0    58     1     7
 -1.2657260394783879E-02 a      1376     0    58     1     8
  1.3787669630134330E-01 a      1377     0    58     1     9
 -1.6748817774008901E-01 a      1378     0    58     1    10
 -1.5706581484651500E-01 a      1379     0    58     1    11
  1.5379308757312954E-01 a      1380     0    58     1    12
  7.5898443394899859E-02 a      1381     0    58     1    13
  1.5772069043634501E-01 a      1382     0    58     1    14
 -5.9727726918925382E-02 a      1383     0    58     1    15
  1.3857417194880400E-01 a      1384     0    58     1    16
  1.2977350575756993E-01 a      1385     0    58     1    17
  3.6342685861931345E-02 a      1386     0    58     1    18
  4.5543493674625318E-02 a      1387     0    58     1    19
  9.3035584825943610E-02 a      1388     0    58     1    20
 -3.7236898847646686E-02 a      1389     0    58     1    21
  1.9870047084529874E-02 a      1390     0    58     1    22
  6.0165407178692745E-02 a      1391     0    58     1    23
  8.4978722072429486E-02 a      1392     0    58     1    24
  1.8168493636605368E-01 a      1393     0    59     1     1
  5.3368283014337978E-02 a      1394     0    59     1     2
  1.6839630411588652E-01 a      1395     0    59     1     3
 -2.0660302519826501E-01 a      1396     0    59     1     4
  5.4892073730526944E-02 a      1397     0    59     1     5
  1.7758002706635329E-01 a      1398     0    59     1     6
 -3.5574328223900199E-02 a      1399     0    59     1     7
 -3.7879260912291268E-02 a      1400     0    59     1     8
 -4.9179564150778433E-02 a      1401     0    59     1     9
 -6.2858832134451217E-02 a      1402     0    59     1    10
  6.5598567504897801E-02 a      1403     0    59     1    11
  2.6923320665571744E-02 a      1404     0    59     1    12
 -2.9017957579195813E-01 a      1405     0    59     1    13
 -1.0709453553327390E-01 a      1406     0    59     1    14
 -8.3922709899531545E-03 a      1407     0    59     1    15
  4.3169492417425813E-03 a      1408     0    59     1    16
  5.3256633317767983E-02 a      1409     0    59     1    17
 -5.6005805339445595E-03 a      1410     0    59     1    18
  1.3828233168099813E-01 a      1411     0    59     1    19
 -2.7199136750021213E-01 a      1412     0    59     1    20
 -6.5500760949580725E-02 a      1413     0    59     1    21
 -6.4173527203990791E-02 a      1414     0    59     1    22
 -2.1075318854482501E-02 a      1415     0    59     1    23
  8.9229152560732522E-02 a      1416     0    59     1    24
  1.2136281493009451E-01 a      1417     0    60     1     1
  4.6795215267895471E-02 a      1418     0    60     1     2
 -1.0808521027571702E-01 a      1419     0    60     1     3
 -7.7189370801354039E-03 a      1420     0    60     1     4
  2.7254295508166926E-01 a      1421     0    60     1     5
 -4.1828893638396820E-02 a      1422     0    60     1     6
 -1.5966468650906757E-01 a      1423     0    60     1     7
 -2.7294822813717798E-02 a      1424     0    60     1     8
 -1.8516708359768017E-02 a      1425     0    60     1     9
  2.7253047753674881E-01 a      1426     0    60     1    10
 -1.1749291364312424E-01 a      1427     0    60     1    11
 -3.7066283895567563E-02 a      1428     0    60     1    12
 -8.0012056726462708E-02 a      1429     0    60     1    13
 -1.3057530272689938E-01 a      1430     0    60     1    14
 -2.7078874001574821E-01 a      1431     0    60     1    15
  2.0135498227751406E-01 a      1432     0    60     1    16
 -1.3949556826498702E-01 a      1433     0    60     1    17
 -6.7415668098847290E-02 a      1434     0    60     1    18
 -2.6531636421763826E-02 a      1435     0    60     1    19
  6.7755094529701909E-02 a      1436     0    60     1    20
 -1.4964402836759239E-01 a      1437     0    60     1    21
  4.5704093949240958E-02 a      1438     0    60     1    22
  9.8886171446556495E-02 a      1439     0    60     1    23
  1.1120030520912864E-01 a      1440     0    60     1    24
 -1.2295580164208532E-01 a      1441     0    61     1     1
  6.9694325174019842E-02 a      1442     0    61     1     2
  1.3387177657913757E-01 a      1443     0    61     1     3
 -6.2358790960291885E-02 a      1444     0    61     1     4
 -1.4779750054323512E-02 a      1445     0    61     1     5
  6.5170312245129119E-02 a      1446     0    61     1     6
  1.3352058191162089E-01 a      1447     0    61     1     7
 -4.2914259463467934E-02 a      1448     0    61     1     8
  1.4381415542679499E-01 a      1449     0    61     1     9
 -2.2291538780413547E-01 a      1450     0    61     1    10
  1.4577751052116267E-01 a      1451     0    61     1    11
  5.1236082993314065E-02 a      1452     0    61     1    12
  7.8985480795549651E-02 a      1453     0    61     1    13
  4.8287388074562138E-03 a      1454     0    61     1    14
 -1.2536039641677119E-01 a      1455     0    61     1    15
  5.8569537936833317E-02 a      1456     0    61     1    16
  3.8221325864644956E-01 a      1457     0    61     1    17
  1.5327903567090370E-01 a      1458     0    61     1    18
  6.3866534933068334E-02 a      1459     0    61     1    19
  1.1224957684827715E-01 a      1460     0    61     1    20
 -4.1556678085548984E-02 a      1461     0    61     1    21
  9.2639509387320448E-02 a      1462     0    61     1    22
  1.5085903698422920E-01 a      1463     0    61     1    23
  1.7439117478771507E-01 a      1464     0    61     1    24
 -5.1360908865184587E-02 a      1465     0    62     1     1
  1.4203347759535037E-01 a      1466     0    62     1     2
  1.9958259670820828E-02 a      1467     0    62     1     3
  5.5188102707346802E-02 a      1468     0    62     1     4
 -5.5870180664411233E-02 a      1469     0    62     1     5
  6.0698061802695505E-02 a      1470     0    62     1     6
 -4.8325851500019557E-02 a      1471     0    62     1     7
 -1.9150318978762615E-01 a      1472     0    62     1     8
 -1.7000935582279106E-01 a      1473     0    62     1     9
 -1.2415466669393936E-01 a      1474     0    62     1    10
  2.3185936030434859E-01 a      1475     0    62     1    11
  2.1806657334036222E-01 a      1476     0    62     1    12
 -1.6062551394954711E-01 a      1477     0    62     1    13
  1.1096685765363704E-01 a      1478     0    62     1    14
 -1.2955006238038122E-01 a      1479     0    62     1    15
  2.6577332794650993E-01 a      1480     0    62     1    16
  6.4580126850373523E-02 a      1481     0    62     1    17
  2.4829995512221906E-01 a      1482     0    62     1    18
 -4.5936741219082415E-02 a      1483     0    62     1    19
  1.7862154630220495E-01 a      1484     0    62     1    20
 -5.7351606656112691E-02 a      1485     0    62     1    21
  2.9788459703395533E-02 a      1486     0    62     1    22
 -1.4189238623521827E-01 a      1487     0    62     1    23
  9.8296240801636250E-02 a      1488     0    62     1    24
 -1.5737821277355835E-02 a      1489     0    63     1     1
 -1.7328519529337588E-01 a      1490     0    63     1     2
 -5.4311470765120433E-02 a      1491     0    63     1     3
 -1.3541328880815137E-01 a      1492     0    63     1     4
  8.9284162144490420E-02 a      1493     0    63     1     5
  7.0155434340629680E-02 a      1494     0    63     1     6
 -2.3982333841635575E-01 a      1495     0    63     1     7
  1.8221302514281842E-01 a      1496     0    63     1     8
  2.8737068220688059E-02 a      1497     0    63     1     9
  1.9294482649346197E-02 a      1498     0    63     1    10
  1.4604493478720748E-01 a      1499     0    63     1    11
 -1.4588895680984348E-01 a      1500     0    63     1    12
 -1.6168141324162215E-02 a      1501     0    63     1    13
 -1.5209666222409274E-01 a      1502     0    63     1    14
  1.8136551890117342E-01 a      1503     0    63     1    15
  2.3141388102836710E-02 a      1504     0    63     1    16
 -7.9608169438006221E-02 a      1505     0    63     1    17
 -9.5309590265099151E-02 a      1506     0    63     1    18
  1.0513965436659162E-01 a      1507     0    63     1    19
  1.9125633880790160E-01 a      1508     0    63     1    20
 -2.5429415433557982E-02 a      1509     0    63     1    21
  1.0636769248488900E-01 a      1510     0    63     1    22
 -2.0057427811437458E-02 a      1511     0    63     1    23
  9.9330784349808798E-02 a      1512     0    63     1    24
 -9.2324772332235183E-02 a      1513     0    64     1     1
 -2.2196459764998092E-01 a      1514     0    64     1     2
 -3.2287711837870053E-01 a      1515     0    64     1     3
 -6.2838029756148564E-02 a      1516     0    64     1     4
  9.0355140751854690E-02 a      1517     0    64     1     5
  1.4663554033988979E-01 a      1518     0    64     1     6
 -6.5023909338057767E-02 a      1519     0    64     1     7
  1.0424906750050170E-01 a      1520     0    64     1     8
  3.9607114506863328E-02 a      1521     0    64     1     9
  3.5995227906737537E-02 a      1522     0    64     1    10
  1.6588716227069086E-01 a      1523     0    64     1    11
 -1.9518772815140500E-01 a      1524     0    64     1    12
  1.7269930548460058E-01 a      1525     0    64     1    13
  2.8902167061555923E-02 a      1526     0    64     1    14
 -6.2775002200084043E-02 a      1527     0    64     1    15
 -2.8686475543647533E-02 a      1528     0    64     1    16
  1.4877519089779398E-01 a      1529     0    64     1    17
 -3.1220078480161079E-01 a      1530     0    64     1    18
  6.3728693879370017E-03 a      1531     0    64     1    19
 -1.1744930772694126E-01 a      1532     0    64     1    20
  1.2632520210403650E-01 a      1533     0    64     1    21
 -1.0852696672339125E-01 a      1534     0    64     1    22
  1.6180385846645315E-02 a      1535     0    64     1    23
  1.0599846545685376E-01 a      1536     0    64     1    24
 -2.6129534239653646E-01 a      1537     0    65     1     1
 -1.6332448044905429E-01 a      1538     0    65     1     2
 -3.9261473910649630E-02 a      1539     0    65     1     3
 -5.9735672160909123E-02 a      1540     0    65     1     4
  8.8926379802920355E-02 a      1541     0    65     1     5
 -3.0487155829539404E-02 a      1542     0    65     1     6
 -5.2747005405639376E-02 a      1543     0    65     1     7
  3.1920977855839333E-02 a      1544     0    65     1     8
 -9.7667999683328913E-02 a      1545     0    65     1     9
 -4.1963838191533771E-02 a      1546     0    65     1    10
 -6.8519013710948859E-02 a      1547     0    65     1    11
  1.2081180912063864E-01 a      1548     0    65     1    12
  4.2249375213870240E-02 a      1549     0    65     1    13
  9.5353575938362217E-02 a      1550     0    65     1    14
  1.8448257462601342E-01 a      1551     0    65     1    15
  6.9139639991307122E-02 a      1552     0    65     1    16
  1.6547247249958003E-01 a      1553     0    65     1    17
 -1.7091085041432713E-01 a      1554     0    65     1    18
  6.0759654461977425E-02 a      1555     0    65     1    19
  1.5820437439290516E-01 a      1556     0    65     1    20
  1.4612299499514786E-01 a      1557     0    65     1    21
  2.2902529896652407E-01 a      1558     0    65     1    22
  1.4778355555302558E-01 a      1559     0    65     1    23
  5.3956758342732836E-02 a      1560     0    65     1    24
  4.8175482373357968E-02 a      1561     0    66     1     1
 -2.4859551422577059E-01 a      1562     0    66     1     2
 -8.5199214983390240E-02 a      1563     0    66     1     3
 -4.9664034772413525E-02 a      1564     0    66     1     4
  1.1388442579131898E-01 a      1565     0    66     1     5
 -2.1373128052656082E-01 a      1566     0    66     1     6
  2.1750027000677094E-01 a      1567     0    66     1     7
 -9.3569940450452749E-02 a      1568     0    66     1     8
  2.1598298511055913E-01 a      1569     0    66     1     9
  2.7179552395860818E-01 a      1570     0    66     1    10
 -6.0478770259350757E-02 a      1571     0    66     1    11
  5.8484463020859974E-02 a      1572     0    66     1    12
  2.6583110015218714E-01 a      1573     0    66     1    13
  1.5117075872620933E-01 a      1574     0    66     1    14
  3.3673537740490367E-01 a      1575     0    66     1    15
  1.2623541425779045E-01 a      1576     0    66     1    16
 -1.5403824845236647E-01 a      1577     0    66     1    17
 -3.0901419821285470E-01 a      1578     0    66     1    18
 -4.0273809250486146E-02 a      1579     0    66     1    19
 -5.5982246234163868E-02 a      1580     0    66     1    20
  9.1464518160663671E-03 a      1581     0    66     1    21
  1.7334217956216005E-01 a      1582     0    66     1    22
  1.5623663952853915E-02 a      1583     0    66     1    23
  4.6871333644323492E-02 a      1584     0    66     1    24
  1.8314177221529816E-02 a      1585     0    67     1     1
 -2.2622392529957527E-01 a      1586     0    67     1     2
 -2.1272435365771938E-01 a      1587     0    67     1     3
  2.4741478055337474E-01 a      1588     0    67     1     4
  3.1216469082346243E-01 a      1589     0    67     1     5
  4.1708644269228226E-02 a      1590     0    67     1     6
 -2.3515736697407336E-02 a      1591     0    67     1     7
  4.5805256352052626E-02 a      1592     0    67     1     8
  6.3466307303500294E-02 a      1593     0    67     1     9
 -2.7210536112599239E-02 a      1594     0    67     1    10
 -1.7424506390120847E-01 a      1595     0    67     1    11
  2.1087077251893324E-01 a      1596     0    67     1    12
 -2.5038438987501625E-02 a      1597     0    67     1    13
  7.5899709381862066E-02 a      1598     0    67     1    14
  1.3340530505224310E-01 a      1599     0    67     1    15
  5.9399160449693747E-02 a      1600     0    67     1    16
  2.0632546868783342E-02 a      1601     0    67     1    17
  3.3287038717074480E-01 a      1602     0    67     1    18
 -1.7458272004670799E-02 a      1603     0    67     1    19
 -2.1951568695348589E-01 a      1604     0    67     1    20
 -3.9582191075993547E-02 a      1605     0    67     1    21
  4.1475912269348891E-01 a      1606     0    67     1    22
 -1.7778540631971473E-01 a      1607     0    67     1    23
  1.7462756971027696E-01 a      1608     0    67     1    24
  1.9330090885452447E-01 a      1609     0    68     1     1
  1.0647810247932081E-01 a      1610     0    68     1     2
  2.1111909951612978E-01 a      1611     0    68     1     3
 -1.1691508490394834E-01 a      1612     0    68     1     4
  4.6396584579456279E-02 a      1613     0    68     1     5
 -6.9892577609555084E-02 a      1614     0    68     1     6
  6.4674491770543061E-02 a      1615     0    68     1     7
 -1.3152208282597420E-02 a      1616     0    68     1     8
  8.5170627381005809E-02 a      1617     0    68     1     9
 -2.4055723476717354E-02 a      1618     0    68     1    10
 -1.2870681741054454E-01 a      1619     0    68     1    11
  2.5761432527511879E-01 a      1620     0    68     1    12
 -1.2966666818989370E-01 a      1621     0    68     1    13
  1.9526591322039652E-01 a      1622     0    68     1    14
 -1.4240235036760035E-01 a      1623     0    68     1    15
