################################################################################
# Neural network connection values (weights and biases).
################################################################################
# Col  Name       Description
################################################################################
# 1    connection Neural network connection value.
# 2    t          Connection type (a = weight, b = bias).
# 3    index      Index enumerating weights.
# 4    l_s        Starting point layer (end point layer for biases).
# 5    n_s        Starting point neuron in starting layer (end point neuron for biases).
# 6    l_e        End point layer.
# 7    n_e        End point neuron in end layer.
################################################################################
#                      1 2         3     4     5     6     7
#             connection t     index   l_s   n_s   l_e   n_e
############################################################
  3.5339855433328647E-02 a         1     0     1     1     1
  1.4618312383566842E-01 a         2     0     1     1     2
 -2.9269737732315178E-02 a         3     0     1     1     3
 -9.9627463367996577E-02 a         4     0     1     1     4
  5.7279380681932369E-02 a         5     0     1     1     5
 -1.3448142567480614E-02 a         6     0     1     1     6
 -6.9634151829843741E-02 a         7     0     1     1     7
 -1.2297995134467227E-01 a         8     0     1     1     8
  1.8159231650020317E-03 a         9     0     1     1     9
 -2.7578561272668485E-03 a        10     0     1     1    10
 -3.9228532658316780E-02 a        11     0     1     1    11
 -5.3472742056154217E-02 a        12     0     1     1    12
 -1.4819844092054296E-01 a        13     0     1     1    13
  5.6459250613769317E-03 a        14     0     1     1    14
 -1.8850618380222492E-02 a        15     0     1     1    15
  3.3262634004613975E-02 a        16     0     1     1    16
  4.8257441288265514E-02 a        17     0     1     1    17
 -2.0132964121750360E-01 a        18     0     1     1    18
 -6.6248631977429168E-02 a        19     0     1     1    19
  3.5594672037265372E-02 a        20     0     1     1    20
 -1.1666781385836286E-01 a        21     0     1     1    21
  3.1803667366746217E-02 a        22     0     1     1    22
 -5.2278770179879763E-03 a        23     0     1     1    23
 -3.1792492668471839E-02 a        24     0     1     1    24
  4.4087401489521139E-01 a        25     0     2     1     1
 -4.3109088538442815E-02 a        26     0     2     1     2
  1.9361371541134426E-01 a        27     0     2     1     3
  5.3531505765659779E-02 a        28     0     2     1     4
 -4.1734884235954378E-01 a        29     0     2     1     5
 -3.9418723378693850E-02 a        30     0     2     1     6
  8.6145325465900133E-02 a        31     0     2     1     7
  2.4453329394860376E-02 a        32     0     2     1     8
 -2.5906188906304078E-01 a        33     0     2     1     9
  3.3884912567235068E-02 a        34     0     2     1    10
  1.3293263989968845E-01 a        35     0     2     1    11
 -1.5409277163140606E-01 a        36     0     2     1    12
  1.3112213534230821E-01 a        37     0     2     1    13
 -1.2471576177457956E-02 a        38     0     2     1    14
 -1.1336055490149832E-02 a        39     0     2     1    15
 -1.9255552469787729E-01 a        40     0     2     1    16
  3.4403324300191290E-01 a        41     0     2     1    17
  2.3834369798273594E-01 a        42     0     2     1    18
 -1.5211154093981427E-01 a        43     0     2     1    19
 -1.1774118022838391E-01 a        44     0     2     1    20
  1.5773471366740552E-01 a        45     0     2     1    21
 -2.7190181507105260E-01 a        46     0     2     1    22
  1.1164464700870715E-02 a        47     0     2     1    23
 -8.8573330027530862E-03 a        48     0     2     1    24
  3.1729039160770545E-01 a        49     0     3     1     1
  1.7816299072635287E-02 a        50     0     3     1     2
  3.4180929083681322E-01 a        51     0     3     1     3
 -4.7890136655230529E-02 a        52     0     3     1     4
 -4.8881603322927236E-02 a        53     0     3     1     5
 -1.7882191740084638E-01 a        54     0     3     1     6
  8.6073253682919557E-02 a        55     0     3     1     7
 -1.3575261876636216E-01 a        56     0     3     1     8
 -1.2632260236763421E-01 a        57     0     3     1     9
 -7.8672914800726010E-02 a        58     0     3     1    10
 -2.2484844001692511E-01 a        59     0     3     1    11
 -9.8696984784648237E-02 a        60     0     3     1    12
  8.6867974595048109E-02 a        61     0     3     1    13
 -2.1229678771638480E-01 a        62     0     3     1    14
  1.3925014840561389E-01 a        63     0     3     1    15
 -2.7498534413932108E-01 a        64     0     3     1    16
  1.6449600744165166E-01 a        65     0     3     1    17
 -1.6463681569635076E-02 a        66     0     3     1    18
 -1.2961958405179322E-01 a        67     0     3     1    19
 -3.5341828505238565E-02 a        68     0     3     1    20
  2.0173256867072065E-01 a        69     0     3     1    21
 -1.4126209976592863E-01 a        70     0     3     1    22
 -2.7828870687630020E-01 a        71     0     3     1    23
  4.8174015194137512E-02 a        72     0     3     1    24
  2.5896118375054844E-02 a        73     0     4     1     1
 -1.4998721168758319E-01 a        74     0     4     1     2
 -1.3613521478620405E-01 a        75     0     4     1     3
 -9.2422829593163655E-02 a        76     0     4     1     4
  3.6801755760663185E-01 a        77     0     4     1     5
  2.7216637972495555E-01 a        78     0     4     1     6
  1.4697059359648407E-01 a        79     0     4     1     7
  1.2011486931676381E-01 a        80     0     4     1     8
 -1.0331236122502642E-01 a        81     0     4     1     9
  1.7352930859578994E-01 a        82     0     4     1    10
 -2.5408868574125049E-01 a        83     0     4     1    11
 -7.4707531641355046E-02 a        84     0     4     1    12
  5.1632512017219960E-02 a        85     0     4     1    13
  2.3709013410693758E-01 a        86     0     4     1    14
  5.0087783198417030E-02 a        87     0     4     1    15
 -1.0740564479156919E-01 a        88     0     4     1    16
 -3.5628496206374827E-01 a        89     0     4     1    17
  4.3532483878693214E-03 a        90     0     4     1    18
 -3.8939737386100653E-01 a        91     0     4     1    19
  1.2654715720367635E-01 a        92     0     4     1    20
 -1.7529336751197561E-01 a        93     0     4     1    21
 -2.6890265869868230E-02 a        94     0     4     1    22
 -9.9224793967150449E-02 a        95     0     4     1    23
 -1.0422851739673941E-01 a        96     0     4     1    24
  7.5558928633487316E-02 a        97     0     5     1     1
 -1.7698388024889544E-01 a        98     0     5     1     2
  1.1603407153727015E-02 a        99     0     5     1     3
 -4.9378350004949556E-02 a       100     0     5     1     4
  5.8014133910361004E-02 a       101     0     5     1     5
 -1.1935070470092277E-01 a       102     0     5     1     6
 -1.0118670452638710E-01 a       103     0     5     1     7
  5.7306059779138101E-02 a       104     0     5     1     8
 -5.1548914012667091E-02 a       105     0     5     1     9
 -6.4569307166778958E-02 a       106     0     5     1    10
 -7.2594935860731791E-02 a       107     0     5     1    11
  6.7300238568767882E-03 a       108     0     5     1    12
  6.4123245646466154E-02 a       109     0     5     1    13
 -3.0878546381510701E-02 a       110     0     5     1    14
 -1.9960788357417270E-02 a       111     0     5     1    15
 -8.0193789497365747E-03 a       112     0     5     1    16
  3.9874135828630426E-02 a       113     0     5     1    17
 -9.4412489627026780E-02 a       114     0     5     1    18
  3.4310519804923597E-03 a       115     0     5     1    19
 -1.6148257635208577E-01 a       116     0     5     1    20
  1.7095027902618094E-02 a       117     0     5     1    21
 -2.7171798723443899E-02 a       118     0     5     1    22
 -7.3047006006106800E-03 a       119     0     5     1    23
  1.0161800144095319E-01 a       120     0     5     1    24
  3.7530258947796651E-02 a       121     0     6     1     1
  5.5938832856054645E-02 a       122     0     6     1     2
 -6.5275313515631775E-02 a       123     0     6     1     3
 -9.0055314706808234E-02 a       124     0     6     1     4
  3.1273364676134296E-01 a       125     0     6     1     5
 -2.1172860877665154E-02 a       126     0     6     1     6
  1.2862155527683561E-01 a       127     0     6     1     7
  3.5711168404257414E-02 a       128     0     6     1     8
  1.3963924079274898E-02 a       129     0     6     1     9
  8.0698354451541096E-02 a       130     0     6     1    10
 -7.7018135165047054E-03 a       131     0     6     1    11
  1.4659176112404987E-01 a       132     0     6     1    12
 -1.0878345365220018E-01 a       133     0     6     1    13
  4.6346967811276236E-02 a       134     0     6     1    14
 -8.0492559800648969E-02 a       135     0     6     1    15
  2.4244465378503011E-01 a       136     0     6     1    16
 -3.2895229543581134E-01 a       137     0     6     1    17
 -8.8980868258293502E-02 a       138     0     6     1    18
  6.1063521802773614E-02 a       139     0     6     1    19
  1.4623388907629120E-01 a       140     0     6     1    20
 -2.1457159258543834E-01 a       141     0     6     1    21
  1.7339145987467341E-01 a       142     0     6     1    22
  1.0043731077784777E-01 a       143     0     6     1    23
  8.4158845584808309E-02 a       144     0     6     1    24
  2.4476792229211161E-02 a       145     0     7     1     1
  3.9927316781807071E-03 a       146     0     7     1     2
 -9.0742169939277029E-02 a       147     0     7     1     3
 -5.7087472136949952E-02 a       148     0     7     1     4
 -1.1176324843938355E-01 a       149     0     7     1     5
  5.3075323974497032E-02 a       150     0     7     1     6
  9.3001824591044377E-02 a       151     0     7     1     7
  3.2357843384814994E-01 a       152     0     7     1     8
  1.0920671005374387E-02 a       153     0     7     1     9
  2.1585478856561591E-02 a       154     0     7     1    10
 -1.8435644559862328E-02 a       155     0     7     1    11
  1.4200253989733212E-02 a       156     0     7     1    12
 -3.7270027803157080E-02 a       157     0     7     1    13
  4.9145656647255391E-02 a       158     0     7     1    14
 -7.8603726012340516E-02 a       159     0     7     1    15
  1.5699335936874664E-01 a       160     0     7     1    16
 -2.1539813813708956E-02 a       161     0     7     1    17
 -9.0722987615369136E-02 a       162     0     7     1    18
  8.9792745041130051E-02 a       163     0     7     1    19
  1.4681006609209533E-02 a       164     0     7     1    20
 -8.7902226949056819E-02 a       165     0     7     1    21
 -1.2271005007690644E-01 a       166     0     7     1    22
  1.2046529428393475E-01 a       167     0     7     1    23
 -1.1657149174117731E-02 a       168     0     7     1    24
  1.3974225578406316E-01 a       169     0     8     1     1
  1.0473218240284357E-01 a       170     0     8     1     2
  1.2409313428977065E-01 a       171     0     8     1     3
 -7.7773386798829572E-02 a       172     0     8     1     4
 -2.9257220542519835E-02 a       173     0     8     1     5
  1.3784054325401568E-01 a       174     0     8     1     6
 -3.3302166871402146E-02 a       175     0     8     1     7
 -7.7109608443057059E-02 a       176     0     8     1     8
  8.7364247631034481E-02 a       177     0     8     1     9
  1.1883566873468321E-01 a       178     0     8     1    10
 -3.2633247610141372E-02 a       179     0     8     1    11
  3.0117061068144751E-02 a       180     0     8     1    12
  6.5463325988804166E-02 a       181     0     8     1    13
 -1.0908018209837035E-02 a       182     0     8     1    14
 -1.3844165872409510E-02 a       183     0     8     1    15
  2.7950497689904368E-02 a       184     0     8     1    16
 -2.1586486459330624E-02 a       185     0     8     1    17
 -1.1470021529401835E-01 a       186     0     8     1    18
  2.4363491543413690E-02 a       187     0     8     1    19
  7.5862588523640417E-02 a       188     0     8     1    20
  2.9319564267654063E-03 a       189     0     8     1    21
 -2.1114286409982508E-01 a       190     0     8     1    22
 -2.7878291287536511E-02 a       191     0     8     1    23
  2.7906833310246026E-02 a       192     0     8     1    24
 -1.0408218291897837E-01 a       193     0     9     1     1
 -4.6463992659755551E-02 a       194     0     9     1     2
  5.9804902126085149E-02 a       195     0     9     1     3
  1.2991342601219319E-02 a       196     0     9     1     4
 -4.8349079592072852E-01 a       197     0     9     1     5
  4.6775257809029143E-02 a       198     0     9     1     6
 -9.2982862391306015E-02 a       199     0     9     1     7
 -6.0987292552422717E-02 a       200     0     9     1     8
  5.4281461592311911E-02 a       201     0     9     1     9
  2.8338563301515296E-02 a       202     0     9     1    10
 -6.5257771138911666E-02 a       203     0     9     1    11
 -2.8950457664975671E-01 a       204     0     9     1    12
 -8.1127914084819147E-02 a       205     0     9     1    13
  6.7535428105943832E-02 a       206     0     9     1    14
  1.6867836196646763E-01 a       207     0     9     1    15
 -1.5258437860796650E-01 a       208     0     9     1    16
  4.6431244464361154E-01 a       209     0     9     1    17
  1.3665946414845334E-01 a       210     0     9     1    18
 -2.0617212169983606E-01 a       211     0     9     1    19
  7.9745624013276867E-02 a       212     0     9     1    20
 -1.0661983165825667E-01 a       213     0     9     1    21
 -1.5544619876565852E-01 a       214     0     9     1    22
 -1.0565162500691033E-01 a       215     0     9     1    23
 -2.0987300592813604E-01 a       216     0     9     1    24
  2.5606876948157751E-03 a       217     0    10     1     1
 -2.3116026510508349E-02 a       218     0    10     1     2
  3.3091050155386943E-02 a       219     0    10     1     3
  1.9027118602552911E-03 a       220     0    10     1     4
 -1.4701899652618389E-01 a       221     0    10     1     5
 -5.3644590515981125E-02 a       222     0    10     1     6
  3.3410885171116823E-02 a       223     0    10     1     7
  1.7748010726704469E-02 a       224     0    10     1     8
 -1.3591424066387101E-01 a       225     0    10     1     9
  7.6637109090075733E-02 a       226     0    10     1    10
  2.3567902666025847E-03 a       227     0    10     1    11
 -1.6547680599347925E-01 a       228     0    10     1    12
  1.6161851637571642E-01 a       229     0    10     1    13
  3.1837077604976220E-02 a       230     0    10     1    14
  1.9629945049764999E-01 a       231     0    10     1    15
  1.1830497066158979E-01 a       232     0    10     1    16
  4.4161336404090243E-02 a       233     0    10     1    17
 -1.9365763837412980E-01 a       234     0    10     1    18
  1.1715636184294270E-01 a       235     0    10     1    19
 -3.7065538788268446E-02 a       236     0    10     1    20
  1.2688319722810995E-01 a       237     0    10     1    21
  5.3196855546137983E-02 a       238     0    10     1    22
  2.0655714775283426E-02 a       239     0    10     1    23
 -4.8370538042189611E-02 a       240     0    10     1    24
  1.5216814831917272E-01 a       241     0    11     1     1
  7.8865935345915308E-02 a       242     0    11     1     2
  4.6141738504258067E-02 a       243     0    11     1     3
 -5.6024936348218132E-02 a       244     0    11     1     4
 -2.4648322293659422E-01 a       245     0    11     1     5
 -1.6927520858536801E-01 a       246     0    11     1     6
 -2.0762671348998257E-02 a       247     0    11     1     7
 -2.7552130952883103E-02 a       248     0    11     1     8
 -5.4352051560549432E-02 a       249     0    11     1     9
  3.2148350059802669E-02 a       250     0    11     1    10
  1.7287125782422963E-01 a       251     0    11     1    11
  2.9767726438284736E-02 a       252     0    11     1    12
 -1.1278589836693290E-01 a       253     0    11     1    13
  3.2083955992959559E-02 a       254     0    11     1    14
  2.4178870288297835E-02 a       255     0    11     1    15
  7.8069737778950724E-02 a       256     0    11     1    16
  4.8520753093834031E-02 a       257     0    11     1    17
 -1.0362613484001913E-01 a       258     0    11     1    18
  2.8210519271226937E-02 a       259     0    11     1    19
  1.7887591599104943E-01 a       260     0    11     1    20
 -1.5744487467733459E-01 a       261     0    11     1    21
 -1.2019658365390319E-01 a       262     0    11     1    22
  1.0514722955115610E-01 a       263     0    11     1    23
 -3.6809153628278380E-03 a       264     0    11     1    24
  1.5144297201647364E-01 a       265     0    12     1     1
 -2.4244665961824136E-02 a       266     0    12     1     2
 -2.0192447119448211E-02 a       267     0    12     1     3
 -3.2812955569786556E-02 a       268     0    12     1     4
  1.0557782751741046E-02 a       269     0    12     1     5
 -1.5509793860863233E-01 a       270     0    12     1     6
 -6.0149925955913154E-02 a       271     0    12     1     7
 -6.4078182773503911E-02 a       272     0    12     1     8
 -5.4186480582896511E-02 a       273     0    12     1     9
 -6.3184979210719902E-02 a       274     0    12     1    10
 -2.1082293539451477E-01 a       275     0    12     1    11
 -1.9133597988874873E-02 a       276     0    12     1    12
  9.9447760348144024E-02 a       277     0    12     1    13
  1.2572235913104980E-02 a       278     0    12     1    14
  4.2571084148204395E-02 a       279     0    12     1    15
 -2.0216077395696672E-01 a       280     0    12     1    16
  1.1015761033865083E-02 a       281     0    12     1    17
  7.5411420333143742E-02 a       282     0    12     1    18
 -7.8383786330668156E-02 a       283     0    12     1    19
 -3.5374003464602760E-02 a       284     0    12     1    20
  5.7932455760628880E-02 a       285     0    12     1    21
  8.8138247803323730E-02 a       286     0    12     1    22
 -1.7236360986509150E-01 a       287     0    12     1    23
 -7.5005448492700494E-02 a       288     0    12     1    24
  1.8248779103440618E-01 a       289     0    13     1     1
  3.5347213524682251E-02 a       290     0    13     1     2
  3.1113852340001930E-02 a       291     0    13     1     3
  1.3179948040150262E-02 a       292     0    13     1     4
  3.1169247168954962E-02 a       293     0    13     1     5
  9.7881963277806211E-02 a       294     0    13     1     6
 -8.6306992936575778E-03 a       295     0    13     1     7
  1.9592403820970543E-02 a       296     0    13     1     8
  3.7302926518944672E-02 a       297     0    13     1     9
 -2.6722730357950912E-02 a       298     0    13     1    10
 -1.3394240392219064E-01 a       299     0    13     1    11
  8.8428979517430492E-02 a       300     0    13     1    12
 -2.3329320306659429E-01 a       301     0    13     1    13
 -5.4144523513194473E-02 a       302     0    13     1    14
 -3.7411636398485930E-02 a       303     0    13     1    15
  7.6295560310176064E-02 a       304     0    13     1    16
  2.9872966031821935E-02 a       305     0    13     1    17
 -3.3572864273546721E-02 a       306     0    13     1    18
 -6.5892144629835447E-02 a       307     0    13     1    19
 -1.4334768628127520E-01 a       308     0    13     1    20
 -4.4528873032129483E-02 a       309     0    13     1    21
 -1.0946829691306262E-01 a       310     0    13     1    22
  2.4211514562523330E-02 a       311     0    13     1    23
  5.3145871090532169E-03 a       312     0    13     1    24
 -5.6896145858436581E-02 a       313     0    14     1     1
  7.8164984835333670E-02 a       314     0    14     1     2
 -1.5975311079275895E-01 a       315     0    14     1     3
 -1.2192741894366119E-02 a       316     0    14     1     4
  1.0465901291182811E-01 a       317     0    14     1     5
 -1.2428968438997193E-01 a       318     0    14     1     6
  1.0165062139889368E-01 a       319     0    14     1     7
  2.7851860061965505E-01 a       320     0    14     1     8
 -2.7201962184592011E-02 a       321     0    14     1     9
 -8.4491587362503062E-02 a       322     0    14     1    10
 -8.1121978409514364E-02 a       323     0    14     1    11
  5.1293900901271020E-02 a       324     0    14     1    12
  4.4714872092916315E-03 a       325     0    14     1    13
  1.4537101049417710E-03 a       326     0    14     1    14
 -1.1714697199982579E-01 a       327     0    14     1    15
  1.6259279401630125E-01 a       328     0    14     1    16
 -8.1419721594641212E-02 a       329     0    14     1    17
 -2.4622309256697089E-02 a       330     0    14     1    18
  8.2190139298796323E-03 a       331     0    14     1    19
 -1.0942928502272506E-01 a       332     0    14     1    20
 -1.0672544864943049E-02 a       333     0    14     1    21
  9.5338120033966944E-04 a       334     0    14     1    22
  1.8420757529221864E-02 a       335     0    14     1    23
 -4.3135293847577576E-02 a       336     0    14     1    24
  1.1404904196497759E-01 a       337     0    15     1     1
 -2.0886422993850226E-01 a       338     0    15     1     2
 -7.2773570179693430E-03 a       339     0    15     1     3
 -8.7930820433283936E-04 a       340     0    15     1     4
 -2.5319674369786240E-02 a       341     0    15     1     5
  1.0890413834383487E-02 a       342     0    15     1     6
 -7.3967956765247214E-02 a       343     0    15     1     7
 -1.6661844998414596E-01 a       344     0    15     1     8
 -5.5845710683327509E-03 a       345     0    15     1     9
  2.9989640256769888E-02 a       346     0    15     1    10
 -1.2481380396680719E-01 a       347     0    15     1    11
 -5.9945502606279623E-03 a       348     0    15     1    12
  8.6371886368964396E-02 a       349     0    15     1    13
  7.4076939244951290E-02 a       350     0    15     1    14
  4.4854952483955671E-02 a       351     0    15     1    15
  2.5124548277307202E-02 a       352     0    15     1    16
  3.6406586200163078E-02 a       353     0    15     1    17
 -2.1527401364734766E-01 a       354     0    15     1    18
  5.4074464022388261E-02 a       355     0    15     1    19
  2.0140587813574418E-02 a       356     0    15     1    20
 -6.9007546070638498E-02 a       357     0    15     1    21
 -1.2066447901966709E-01 a       358     0    15     1    22
 -1.2741701619983078E-01 a       359     0    15     1    23
  2.4108847262848669E-02 a       360     0    15     1    24
  4.1219058887933514E-02 a       361     0    16     1     1
  3.3834406552682834E-02 a       362     0    16     1     2
  9.3809808615579651E-02 a       363     0    16     1     3
 -2.8861420549512004E-02 a       364     0    16     1     4
  5.3582247724373915E-02 a       365     0    16     1     5
  8.2648135697185862E-02 a       366     0    16     1     6
  4.8856875542034599E-02 a       367     0    16     1     7
 -4.0092669134847519E-02 a       368     0    16     1     8
  4.0135217101741810E-02 a       369     0    16     1     9
 -8.5343766339742652E-02 a       370     0    16     1    10
 -9.7956793997779540E-02 a       371     0    16     1    11
 -1.2253352286069319E-01 a       372     0    16     1    12
  2.8218509737414871E-01 a       373     0    16     1    13
 -7.4293323949198686E-02 a       374     0    16     1    14
 -7.0686372512448109E-02 a       375     0    16     1    15
 -1.9642551164516242E-01 a       376     0    16     1    16
 -8.6665651720383194E-02 a       377     0    16     1    17
  2.0187891111429068E-01 a       378     0    16     1    18
 -3.1056184607647055E-02 a       379     0    16     1    19
  7.0909620488554301E-02 a       380     0    16     1    20
  2.2125277008409105E-01 a       381     0    16     1    21
 -1.4430203814762553E-02 a       382     0    16     1    22
 -2.8240819594589189E-01 a       383     0    16     1    23
 -5.3011729535819507E-02 a       384     0    16     1    24
  1.0805854564130563E-01 a       385     0    17     1     1
 -6.5253874630383055E-02 a       386     0    17     1     2
  5.9409329620235575E-02 a       387     0    17     1     3
 -1.7541218035746123E-01 a       388     0    17     1     4
 -4.5462658272973716E-02 a       389     0    17     1     5
  1.6670104914214270E-01 a       390     0    17     1     6
 -1.7756574961671456E-01 a       391     0    17     1     7
  4.2614340367058065E-03 a       392     0    17     1     8
 -1.3511919827428201E-01 a       393     0    17     1     9
 -2.1502063681681616E-01 a       394     0    17     1    10
  7.3733387778464485E-02 a       395     0    17     1    11
  1.3135881936672719E-01 a       396     0    17     1    12
  1.1477780258755874E-01 a       397     0    17     1    13
 -2.0225252550685699E-01 a       398     0    17     1    14
  2.5507574204994432E-01 a       399     0    17     1    15
  3.6182087757456391E-02 a       400     0    17     1    16
  3.2740292733038981E-02 a       401     0    17     1    17
  1.2809398865730345E-01 a       402     0    17     1    18
  2.5642654313331692E-01 a       403     0    17     1    19
 -2.2423788181802123E-01 a       404     0    17     1    20
 -1.8395446246883609E-01 a       405     0    17     1    21
  1.6672624689231252E-01 a       406     0    17     1    22
  5.5349345534446294E-02 a       407     0    17     1    23
 -7.0479947648665782E-03 a       408     0    17     1    24
  6.1131637402124496E-02 a       409     0    18     1     1
  1.1662132887456851E-02 a       410     0    18     1     2
  1.6300203250255679E-01 a       411     0    18     1     3
  7.4941891492984747E-02 a       412     0    18     1     4
  1.3531049047975066E-01 a       413     0    18     1     5
 -1.0876715972852274E-01 a       414     0    18     1     6
  8.8859301611182787E-02 a       415     0    18     1     7
 -2.7521084952747105E-01 a       416     0    18     1     8
  7.0479393103211704E-02 a       417     0    18     1     9
 -2.0165108677884747E-01 a       418     0    18     1    10
 -1.5143736611864997E-01 a       419     0    18     1    11
 -8.8811036555853484E-02 a       420     0    18     1    12
  1.0781778766356177E-01 a       421     0    18     1    13
 -9.2459147390963128E-02 a       422     0    18     1    14
 -1.8281873950881513E-02 a       423     0    18     1    15
 -1.1227330307077980E-01 a       424     0    18     1    16
 -4.8117767672043940E-02 a       425     0    18     1    17
 -9.6474994820843818E-02 a       426     0    18     1    18
 -7.3745408869892878E-02 a       427     0    18     1    19
 -4.8906299745089997E-02 a       428     0    18     1    20
  3.7903244296606360E-02 a       429     0    18     1    21
  6.0595480831506107E-02 a       430     0    18     1    22
 -1.0471583523811170E-01 a       431     0    18     1    23
 -1.5757246145822303E-03 a       432     0    18     1    24
  2.1733988059602319E-01 a       433     0    19     1     1
 -6.9240006493796080E-02 a       434     0    19     1     2
 -2.4810237435554158E-01 a       435     0    19     1     3
 -4.8332542816356981E-02 a       436     0    19     1     4
  7.2032350963696687E-02 a       437     0    19     1     5
 -4.9047966866868138E-02 a       438     0    19     1     6
  9.6557621271632366E-02 a       439     0    19     1     7
 -1.0054885854398141E-01 a       440     0    19     1     8
  8.1018479969645757E-02 a       441     0    19     1     9
  9.0274501708348127E-03 a       442     0    19     1    10
 -1.4083814772552256E-01 a       443     0    19     1    11
 -1.1115534204406516E-01 a       444     0    19     1    12
 -8.2891444372524492E-02 a       445     0    19     1    13
  3.3780944705106668E-02 a       446     0    19     1    14
  1.6194805224711692E-01 a       447     0    19     1    15
 -1.3602934619834153E-01 a       448     0    19     1    16
  8.9632298536787322E-02 a       449     0    19     1    17
  1.6172401450215801E-01 a       450     0    19     1    18
  1.8093977248461016E-01 a       451     0    19     1    19
 -3.0502180451361960E-01 a       452     0    19     1    20
  2.3005957794652279E-01 a       453     0    19     1    21
  3.8978105878013952E-02 a       454     0    19     1    22
 -9.6151126592875807E-02 a       455     0    19     1    23
  2.6229997376527819E-01 a       456     0    19     1    24
  2.0909428205075375E-01 a       457     0    20     1     1
  1.0597120009699972E-01 a       458     0    20     1     2
  1.7335720982537348E-01 a       459     0    20     1     3
 -4.6314918926181420E-02 a       460     0    20     1     4
  2.2089449617409454E-02 a       461     0    20     1     5
 -2.1465614675027792E-01 a       462     0    20     1     6
 -6.5651944787105843E-02 a       463     0    20     1     7
  1.6080363072288419E-02 a       464     0    20     1     8
  1.1175973432939741E-01 a       465     0    20     1     9
 -2.1008013705047623E-01 a       466     0    20     1    10
 -4.8781089807276613E-02 a       467     0    20     1    11
  5.4832585061777659E-03 a       468     0    20     1    12
  3.8825725880283136E-02 a       469     0    20     1    13
 -1.4267748147812789E-01 a       470     0    20     1    14
 -7.1457321300930146E-02 a       471     0    20     1    15
 -1.4074908254885288E-01 a       472     0    20     1    16
 -1.5458330003439449E-01 a       473     0    20     1    17
 -1.4489750708069515E-01 a       474     0    20     1    18
 -2.1549472867338583E-02 a       475     0    20     1    19
  1.3583977440889791E-01 a       476     0    20     1    20
 -1.9218289744057163E-02 a       477     0    20     1    21
  8.0348472717885998E-03 a       478     0    20     1    22
 -1.1592565511745398E-01 a       479     0    20     1    23
  6.1977864327490008E-02 a       480     0    20     1    24
 -9.9823843472490723E-02 a       481     0    21     1     1
 -1.1817512858757308E-01 a       482     0    21     1     2
  2.8255672318880959E-01 a       483     0    21     1     3
  5.0461362119267232E-03 a       484     0    21     1     4
  2.1338339219798962E-02 a       485     0    21     1     5
 -9.7501013943919121E-02 a       486     0    21     1     6
  1.0098715329674676E-01 a       487     0    21     1     7
 -5.3163663290281007E-02 a       488     0    21     1     8
  4.5707262571259899E-02 a       489     0    21     1     9
 -1.1741954702525786E-01 a       490     0    21     1    10
 -4.7715179325630741E-02 a       491     0    21     1    11
 -2.1796807012768635E-01 a       492     0    21     1    12
  2.1981777776184463E-01 a       493     0    21     1    13
 -8.8194301462650851E-02 a       494     0    21     1    14
 -5.9814549979880033E-02 a       495     0    21     1    15
 -1.7648622231452898E-01 a       496     0    21     1    16
 -1.2612426758702687E-02 a       497     0    21     1    17
 -1.5527845356797199E-01 a       498     0    21     1    18
 -9.5435756049497139E-02 a       499     0    21     1    19
  1.2503134143465613E-01 a       500     0    21     1    20
  4.8892721875723785E-02 a       501     0    21     1    21
  5.1133555284387691E-02 a       502     0    21     1    22
 -1.1497608756935440E-01 a       503     0    21     1    23
 -9.2794842946273701E-02 a       504     0    21     1    24
 -1.6895566713995433E-02 a       505     0    22     1     1
  8.4853559648297786E-02 a       506     0    22     1     2
 -8.9269169283506828E-03 a       507     0    22     1     3
  1.1122732753821507E-01 a       508     0    22     1     4
  1.7437204875152942E-01 a       509     0    22     1     5
  5.5592097027111757E-02 a       510     0    22     1     6
  3.7679354579356228E-02 a       511     0    22     1     7
  1.8274385214756855E-01 a       512     0    22     1     8
  1.6395235958778620E-01 a       513     0    22     1     9
 -1.0116237837359092E-01 a       514     0    22     1    10
  2.8214262798211091E-03 a       515     0    22     1    11
  9.1296327022671001E-02 a       516     0    22     1    12
  1.8524207921934180E-01 a       517     0    22     1    13
 -6.8042968724837158E-02 a       518     0    22     1    14
 -8.5957098144554461E-02 a       519     0    22     1    15
  5.8005092456092221E-02 a       520     0    22     1    16
 -1.0611018603134154E-01 a       521     0    22     1    17
  1.7374169304255838E-01 a       522     0    22     1    18
  2.7879788159581611E-02 a       523     0    22     1    19
  4.3518479648946368E-02 a       524     0    22     1    20
 -2.4662872869422890E-02 a       525     0    22     1    21
 -7.8483781953156154E-02 a       526     0    22     1    22
  1.1859133760482658E-01 a       527     0    22     1    23
  1.6507423375932068E-01 a       528     0    22     1    24
 -1.7567295001933944E-01 a       529     0    23     1     1
 -5.6881446832280018E-02 a       530     0    23     1     2
 -3.4035319103828107E-02 a       531     0    23     1     3
  5.5664260349034093E-02 a       532     0    23     1     4
  2.2708005449778551E-02 a       533     0    23     1     5
  1.2015029073180902E-01 a       534     0    23     1     6
  3.6836747907963407E-01 a       535     0    23     1     7
 -1.7276766366846300E-01 a       536     0    23     1     8
  5.5530184887147643E-02 a       537     0    23     1     9
  9.8276810403828768E-02 a       538     0    23     1    10
 -1.1947188167186429E-01 a       539     0    23     1    11
 -1.9648499751839815E-01 a       540     0    23     1    12
  1.0216743058255032E-01 a       541     0    23     1    13
  4.8560804479126793E-02 a       542     0    23     1    14
  7.9763593455596291E-02 a       543     0    23     1    15
 -1.3498402413386146E-01 a       544     0    23     1    16
  4.4554212464236048E-02 a       545     0    23     1    17
  9.3650172560292885E-02 a       546     0    23     1    18
 -7.0682102183348722E-02 a       547     0    23     1    19
 -4.4758040777050270E-02 a       548     0    23     1    20
  7.2515572334528822E-02 a       549     0    23     1    21
  1.6762888522470815E-01 a       550     0    23     1    22
 -1.2094770567905352E-01 a       551     0    23     1    23
 -3.0300962037118873E-01 a       552     0    23     1    24
 -1.9857655619615297E-01 a       553     0    24     1     1
  1.3658226224480877E-01 a       554     0    24     1     2
 -1.3724845181236497E-02 a       555     0    24     1     3
  9.5167755244074545E-02 a       556     0    24     1     4
  1.1348007555169405E-01 a       557     0    24     1     5
  1.3648449717460120E-01 a       558     0    24     1     6
 -1.1194639240033652E-01 a       559     0    24     1     7
 -1.1753869047275020E-01 a       560     0    24     1     8
 -1.8447962840335333E-01 a       561     0    24     1     9
  1.6593240144423663E-02 a       562     0    24     1    10
  3.3407495047325791E-02 a       563     0    24     1    11
  2.5878465212364105E-01 a       564     0    24     1    12
 -5.3539961983827530E-02 a       565     0    24     1    13
  1.1471638393308297E-02 a       566     0    24     1    14
 -6.0029859103987386E-02 a       567     0    24     1    15
  2.4957288183919592E-02 a       568     0    24     1    16
  4.5133079428267164E-02 a       569     0    24     1    17
  7.4438501992243056E-02 a       570     0    24     1    18
 -2.4891817925175329E-02 a       571     0    24     1    19
  1.0873060557461328E-01 a       572     0    24     1    20
 -1.5849854558982882E-01 a       573     0    24     1    21
  8.7389311216901827E-02 a       574     0    24     1    22
  3.4109902924679705E-02 a       575     0    24     1    23
  1.4147089853988926E-02 a       576     0    24     1    24
 -1.5015190290141589E-01 a       577     0    25     1     1
 -1.7988374473240867E-01 a       578     0    25     1     2
 -9.9122212742581053E-02 a       579     0    25     1     3
  1.4693840802855726E-02 a       580     0    25     1     4
  4.3976932962411086E-01 a       581     0    25     1     5
 -2.6135886703433475E-01 a       582     0    25     1     6
  4.0024632614028138E-02 a       583     0    25     1     7
 -5.9731381704613347E-02 a       584     0    25     1     8
  2.4016175763530492E-01 a       585     0    25     1     9
 -1.4280734454012243E-02 a       586     0    25     1    10
 -1.1734230496557273E-01 a       587     0    25     1    11
  3.5719865899586693E-02 a       588     0    25     1    12
 -5.3826554541652645E-02 a       589     0    25     1    13
 -6.1809118397480073E-02 a       590     0    25     1    14
 -8.4702604519474631E-02 a       591     0    25     1    15
 -1.9607403642246328E-02 a       592     0    25     1    16
 -3.9592288549058186E-01 a       593     0    25     1    17
  1.0853098462641356E-01 a       594     0    25     1    18
  2.0034617443889829E-02 a       595     0    25     1    19
 -3.5018719039967672E-01 a       596     0    25     1    20
  2.1611205736239281E-01 a       597     0    25     1    21
  2.5229967966823003E-01 a       598     0    25     1    22
 -2.5670372191520338E-02 a       599     0    25     1    23
  1.2509961453506066E-01 a       600     0    25     1    24
  4.6447648799006175E-02 a       601     0    26     1     1
  1.1530564007062134E-02 a       602     0    26     1     2
  1.5791589251765284E-01 a       603     0    26     1     3
 -6.1673055598197704E-02 a       604     0    26     1     4
 -4.0747495716266700E-02 a       605     0    26     1     5
 -2.0757020453982100E-01 a       606     0    26     1     6
  7.4446360378804061E-02 a       607     0    26     1     7
 -1.5985882577271091E-01 a       608     0    26     1     8
  1.4893963390806619E-01 a       609     0    26     1     9
 -3.0688594644956185E-02 a       610     0    26     1    10
 -3.4586493711262732E-02 a       611     0    26     1    11
  1.5244703454004227E-01 a       612     0    26     1    12
  1.7497565542906224E-01 a       613     0    26     1    13
  2.6836507413755137E-02 a       614     0    26     1    14
 -2.2960937515321533E-01 a       615     0    26     1    15
 -5.2179699602536683E-02 a       616     0    26     1    16
  1.1049162630124118E-01 a       617     0    26     1    17
 -9.0127921789516313E-02 a       618     0    26     1    18
  5.5773329016909678E-01 a       619     0    26     1    19
  4.7965279869035211E-02 a       620     0    26     1    20
  1.6169369252527260E-01 a       621     0    26     1    21
 -2.5558715389722991E-01 a       622     0    26     1    22
 -8.4100362632544418E-02 a       623     0    26     1    23
  3.5008916711251642E-02 a       624     0    26     1    24
 -1.8314712908159669E-01 a       625     0    27     1     1
  7.9373373714771628E-02 a       626     0    27     1     2
  2.8923467004749695E-02 a       627     0    27     1     3
 -6.3811332064141107E-02 a       628     0    27     1     4
  1.1522169203313419E-02 a       629     0    27     1     5
 -7.5331449924321253E-02 a       630     0    27     1     6
 -5.3728804255330866E-02 a       631     0    27     1     7
  2.1468419323129992E-01 a       632     0    27     1     8
  6.7195394280885223E-02 a       633     0    27     1     9
  5.4039739176002320E-02 a       634     0    27     1    10
  2.1140547053746314E-01 a       635     0    27     1    11
 -7.0410877977775038E-02 a       636     0    27     1    12
 -3.0666614885242510E-01 a       637     0    27     1    13
 -6.8809902767483430E-02 a       638     0    27     1    14
  1.8933552024350983E-01 a       639     0    27     1    15
  4.9662864848039140E-02 a       640     0    27     1    16
 -3.6718965273419071E-03 a       641     0    27     1    17
 -7.6498049101084584E-02 a       642     0    27     1    18
 -9.4794570444742959E-02 a       643     0    27     1    19
  1.3619628694656843E-01 a       644     0    27     1    20
  3.6417341160102611E-02 a       645     0    27     1    21
 -2.0974447711146177E-02 a       646     0    27     1    22
 -1.0369066128414779E-01 a       647     0    27     1    23
 -8.1919755906934719E-02 a       648     0    27     1    24
  7.1452138825047876E-02 a       649     0    28     1     1
 -9.5528540517900121E-02 a       650     0    28     1     2
 -1.7015440087743539E-01 a       651     0    28     1     3
  2.8975722474713236E-02 a       652     0    28     1     4
  2.0663297720947110E-01 a       653     0    28     1     5
 -1.5348827447080231E-02 a       654     0    28     1     6
 -2.5313741553362287E-02 a       655     0    28     1     7
  1.6361252709329321E-02 a       656     0    28     1     8
  3.0177644522299013E-02 a       657     0    28     1     9
  7.9978802101143692E-02 a       658     0    28     1    10
  3.5565100818496065E-02 a       659     0    28     1    11
  1.7610901992808856E-01 a       660     0    28     1    12
 -1.4217188002269654E-01 a       661     0    28     1    13
  2.1910321761004656E-01 a       662     0    28     1    14
  3.1567221111903555E-02 a       663     0    28     1    15
  1.3251428266245843E-01 a       664     0    28     1    16
 -2.4131939491328308E-01 a       665     0    28     1    17
 -6.2994519643969044E-02 a       666     0    28     1    18
 -1.6542395929021567E-01 a       667     0    28     1    19
  8.4936522809948047E-03 a       668     0    28     1    20
 -1.5174049358943856E-01 a       669     0    28     1    21
 -4.5967147609670633E-01 a       670     0    28     1    22
 -1.1631197318206011E-02 a       671     0    28     1    23
  1.2688715728693295E-01 a       672     0    28     1    24
  2.9179405948067755E-02 a       673     0    29     1     1
  8.0067952716032148E-02 a       674     0    29     1     2
  9.7042711227631070E-02 a       675     0    29     1     3
  7.5390603005992568E-02 a       676     0    29     1     4
 -3.2092893656815523E-02 a       677     0    29     1     5
  5.4224914809492146E-02 a       678     0    29     1     6
  1.8751802402647721E-01 a       679     0    29     1     7
 -1.3323295148677181E-01 a       680     0    29     1     8
 -2.1940759811372272E-02 a       681     0    29     1     9
 -8.9933701512929301E-02 a       682     0    29     1    10
 -1.3552159964890079E-01 a       683     0    29     1    11
 -8.5715778258328046E-02 a       684     0    29     1    12
 -5.3163610322699258E-03 a       685     0    29     1    13
 -4.4613420129934814E-02 a       686     0    29     1    14
  3.9157450132094450E-02 a       687     0    29     1    15
 -3.3996515845259473E-01 a       688     0    29     1    16
 -1.2631512996302027E-01 a       689     0    29     1    17
  2.5897897779943283E-02 a       690     0    29     1    18
 -8.5852580218117966E-02 a       691     0    29     1    19
 -1.7269631203593280E-01 a       692     0    29     1    20
  1.5225764043059586E-01 a       693     0    29     1    21
  9.4790429045542995E-02 a       694     0    29     1    22
 -3.2427472478419039E-05 a       695     0    29     1    23
  2.8387471704112210E-02 a       696     0    29     1    24
 -4.2610821938868559E-02 a       697     0    30     1     1
 -1.8201583965503154E-01 a       698     0    30     1     2
  4.1880788906754424E-02 a       699     0    30     1     3
 -1.3452546329486098E-01 a       700     0    30     1     4
  2.7641844831784435E-01 a       701     0    30     1     5
 -4.4597790585156519E-02 a       702     0    30     1     6
 -2.1988148766799664E-01 a       703     0    30     1     7
 -7.6258675642205273E-02 a       704     0    30     1     8
  9.4525047196998613E-02 a       705     0    30     1     9
  7.2852715330224652E-02 a       706     0    30     1    10
  2.3171768703307834E-02 a       707     0    30     1    11
 -1.5301344997210897E-01 a       708     0    30     1    12
  2.3359422366260232E-01 a       709     0    30     1    13
  1.2393288020322876E-01 a       710     0    30     1    14
 -2.2174964625268703E-01 a       711     0    30     1    15
 -1.6418026326314394E-01 a       712     0    30     1    16
 -5.6613163936229359E-03 a       713     0    30     1    17
 -1.6915161172812085E-01 a       714     0    30     1    18
  9.1592355645958301E-03 a       715     0    30     1    19
  7.1939298952166750E-03 a       716     0    30     1    20
  2.2167853674286639E-01 a       717     0    30     1    21
 -8.6612006281425763E-02 a       718     0    30     1    22
 -9.4110090270324645E-02 a       719     0    30     1    23
 -5.3399992198002899E-02 a       720     0    30     1    24
 -1.0435816264341935E-01 a       721     0    31     1     1
 -2.2768656432021447E-01 a       722     0    31     1     2
 -5.6107457499455095E-02 a       723     0    31     1     3
  7.3715078640140513E-02 a       724     0    31     1     4
  1.6832749713123188E-01 a       725     0    31     1     5
 -9.6138268603174495E-02 a       726     0    31     1     6
 -1.9066673692765354E-01 a       727     0    31     1     7
 -1.9273454540497797E-01 a       728     0    31     1     8
  1.6954765824362758E-01 a       729     0    31     1     9
 -5.4670360680060336E-02 a       730     0    31     1    10
 -1.4102586837459293E-02 a       731     0    31     1    11
  4.7873334474730071E-02 a       732     0    31     1    12
  3.9851850349023124E-03 a       733     0    31     1    13
 -1.8539538604962894E-02 a       734     0    31     1    14
 -1.1482124680732346E-01 a       735     0    31     1    15
  2.9465637947338968E-01 a       736     0    31     1    16
 -3.3406135907442666E-02 a       737     0    31     1    17
  1.6134498592940394E-01 a       738     0    31     1    18
 -7.5428943919160718E-02 a       739     0    31     1    19
 -1.0366959000675108E-02 a       740     0    31     1    20
  1.2586313519172870E-01 a       741     0    31     1    21
 -6.3102071733719803E-02 a       742     0    31     1    22
  1.1759610970974615E-01 a       743     0    31     1    23
  1.3382158442016420E-01 a       744     0    31     1    24
  1.9554390835352967E-01 a       745     0    32     1     1
 -2.9949652517574161E-02 a       746     0    32     1     2
 -4.0538636393986444E-02 a       747     0    32     1     3
 -1.0005435129136498E-02 a       748     0    32     1     4
 -3.0574233318596111E-02 a       749     0    32     1     5
  4.9698360902549220E-02 a       750     0    32     1     6
  9.0841763303625964E-02 a       751     0    32     1     7
  4.9166831234819887E-02 a       752     0    32     1     8
 -1.4732232625108524E-01 a       753     0    32     1     9
  8.7012965440061735E-02 a       754     0    32     1    10
 -3.8706408066293330E-02 a       755     0    32     1    11
 -1.4604304162369444E-01 a       756     0    32     1    12
 -1.7847773680517148E-01 a       757     0    32     1    13
  2.0308863766860280E-01 a       758     0    32     1    14
  4.4514899772288022E-02 a       759     0    32     1    15
 -4.6242930383943018E-02 a       760     0    32     1    16
  2.9088384887237795E-01 a       761     0    32     1    17
  7.0394270003968626E-02 a       762     0    32     1    18
 -5.8876481400254040E-02 a       763     0    32     1    19
  7.7230556345275078E-02 a       764     0    32     1    20
 -1.9057126340716671E-01 a       765     0    32     1    21
  2.7709481350011288E-03 a       766     0    32     1    22
  5.1355870823380813E-03 a       767     0    32     1    23
  8.6291384922990266E-02 a       768     0    32     1    24
 -2.8132169619536745E-01 a       769     0    33     1     1
  1.1140188910654569E-01 a       770     0    33     1     2
  7.1897329099812446E-02 a       771     0    33     1     3
 -9.3917569877294868E-02 a       772     0    33     1     4
 -1.4853361418734906E-01 a       773     0    33     1     5
  4.1642005761786845E-03 a       774     0    33     1     6
  5.1335016491067469E-02 a       775     0    33     1     7
 -1.2560026453505038E-01 a       776     0    33     1     8
 -1.0353100180010433E-01 a       777     0    33     1     9
  5.3500261722772549E-03 a       778     0    33     1    10
  2.1657612456251416E-01 a       779     0    33     1    11
 -3.7831214963838095E-02 a       780     0    33     1    12
  1.0619323846429501E-01 a       781     0    33     1    13
 -3.5136965852533300E-02 a       782     0    33     1    14
 -1.0066001625019820E-01 a       783     0    33     1    15
 -1.4776108857084910E-01 a       784     0    33     1    16
  1.0128958420211848E-01 a       785     0    33     1    17
  2.3473223849053001E-03 a       786     0    33     1    18
  1.4613605552095435E-01 a       787     0    33     1    19
 -2.3224136905121540E-02 a       788     0    33     1    20
  1.3767742978078051E-01 a       789     0    33     1    21
  1.7104946199767872E-02 a       790     0    33     1    22
  1.6652538693742534E-03 a       791     0    33     1    23
 -5.2815107536626806E-02 a       792     0    33     1    24
 -1.9220564335623597E-01 a       793     0    34     1     1
  1.7221050959791311E-02 a       794     0    34     1     2
  8.9729559709455980E-02 a       795     0    34     1     3
 -2.1527987569565266E-01 a       796     0    34     1     4
 -8.2076514846947252E-02 a       797     0    34     1     5
 -4.3409027498349372E-02 a       798     0    34     1     6
  2.7161507246400898E-02 a       799     0    34     1     7
  9.5235688418560550E-03 a       800     0    34     1     8
  4.8206179680633905E-02 a       801     0    34     1     9
  3.0151166473769819E-01 a       802     0    34     1    10
 -1.0011613114477072E-01 a       803     0    34     1    11
 -1.2725498036933228E-01 a       804     0    34     1    12
 -4.9320131069187784E-02 a       805     0    34     1    13
  1.2566380788352139E-02 a       806     0    34     1    14
 -3.6706204393338548E-02 a       807     0    34     1    15
 -2.3531270684886293E-02 a       808     0    34     1    16
  9.2723092574236617E-03 a       809     0    34     1    17
 -5.3614898900186975E-02 a       810     0    34     1    18
 -1.5511806027885838E-01 a       811     0    34     1    19
  8.1564303820184758E-02 a       812     0    34     1    20
 -3.7938649011352749E-01 a       813     0    34     1    21
 -6.8013043632033560E-02 a       814     0    34     1    22
  5.8753270441962720E-02 a       815     0    34     1    23
  1.7082163894309590E-01 a       816     0    34     1    24
  7.1997618034513947E-02 a       817     0    35     1     1
  5.6213683101940345E-02 a       818     0    35     1     2
  5.1179089070763142E-02 a       819     0    35     1     3
  3.9914513813465724E-03 a       820     0    35     1     4
 -2.2590032486231959E-01 a       821     0    35     1     5
  1.3911243968837672E-01 a       822     0    35     1     6
 -4.3574834867123090E-04 a       823     0    35     1     7
 -1.2001079236752478E-01 a       824     0    35     1     8
 -1.3711752653814077E-01 a       825     0    35     1     9
  4.0895432990925858E-02 a       826     0    35     1    10
  3.8362019021823630E-02 a       827     0    35     1    11
 -1.5672559589138893E-01 a       828     0    35     1    12
  2.0094784394530932E-01 a       829     0    35     1    13
  1.0249380745205502E-01 a       830     0    35     1    14
  1.7118837129876482E-01 a       831     0    35     1    15
  2.4124811298548748E-01 a       832     0    35     1    16
 -6.7222587824111113E-02 a       833     0    35     1    17
 -3.3544829908983137E-02 a       834     0    35     1    18
  2.8482383785249452E-02 a       835     0    35     1    19
  7.2552497986840395E-02 a       836     0    35     1    20
  2.7903434627872703E-01 a       837     0    35     1    21
  1.5583421812120872E-02 a       838     0    35     1    22
  2.7496374470307766E-01 a       839     0    35     1    23
 -1.0355726931311385E-01 a       840     0    35     1    24
 -9.8573600484862106E-02 a       841     0    36     1     1
 -1.9895167018375244E-02 a       842     0    36     1     2
 -1.7076485075075809E-01 a       843     0    36     1     3
 -8.5966950413545615E-02 a       844     0    36     1     4
  8.0308848524565199E-02 a       845     0    36     1     5
  1.5214183172388862E-01 a       846     0    36     1     6
  5.8201426340909732E-02 a       847     0    36     1     7
 -6.6199578248633706E-02 a       848     0    36     1     8
  1.1103900389430470E-02 a       849     0    36     1     9
 -1.0949454727769106E-01 a       850     0    36     1    10
 -1.6035729391949760E-01 a       851     0    36     1    11
 -1.5654013366632141E-01 a       852     0    36     1    12
  6.2880313940206892E-02 a       853     0    36     1    13
 -2.7167791355829578E-02 a       854     0    36     1    14
 -1.1052889000662518E-01 a       855     0    36     1    15
  2.2990714262811909E-01 a       856     0    36     1    16
 -4.6110178078408962E-02 a       857     0    36     1    17
  1.9103502624231931E-02 a       858     0    36     1    18
  7.2352317462737875E-02 a       859     0    36     1    19
 -1.0707497167590502E-01 a       860     0    36     1    20
  8.3779020712873520E-02 a       861     0    36     1    21
 -1.1765705341511257E-01 a       862     0    36     1    22
 -1.0313376864715418E-01 a       863     0    36     1    23
  2.0674882479734122E-01 a       864     0    36     1    24
 -5.3714925916528128E-02 a       865     0    37     1     1
  1.1117112616443717E-01 a       866     0    37     1     2
 -7.1793092083854829E-02 a       867     0    37     1     3
  1.9138422086015699E-01 a       868     0    37     1     4
  4.5144552009335266E-02 a       869     0    37     1     5
  1.2459003599717085E-02 a       870     0    37     1     6
  1.3269413396284385E-01 a       871     0    37     1     7
 -1.9042990840990237E-01 a       872     0    37     1     8
  5.1544473470456653E-02 a       873     0    37     1     9
  6.3717758727291685E-02 a       874     0    37     1    10
  1.4033634805735587E-01 a       875     0    37     1    11
  5.2154979749795598E-02 a       876     0    37     1    12
  1.3169550263428381E-01 a       877     0    37     1    13
  3.8069317911864992E-02 a       878     0    37     1    14
 -1.9487636859406463E-01 a       879     0    37     1    15
 -7.3176986175069694E-02 a       880     0    37     1    16
  7.2018552048617235E-02 a       881     0    37     1    17
 -8.0204498156116064E-02 a       882     0    37     1    18
  2.8833566497108446E-02 a       883     0    37     1    19
  1.1478964990703482E-03 a       884     0    37     1    20
 -1.2048702223219698E-01 a       885     0    37     1    21
  1.0767353594869115E-01 a       886     0    37     1    22
  1.9455281535520084E-02 a       887     0    37     1    23
  3.1737716817962565E-02 a       888     0    37     1    24
 -2.4720165316745116E-01 a       889     0    38     1     1
  8.7712490818316058E-02 a       890     0    38     1     2
  9.6178460013228136E-04 a       891     0    38     1     3
  1.1070659029229180E-01 a       892     0    38     1     4
 -1.3780101763079688E-01 a       893     0    38     1     5
 -2.3062922321352274E-03 a       894     0    38     1     6
  3.3358991006529226E-02 a       895     0    38     1     7
 -1.1407917757445557E-01 a       896     0    38     1     8
  3.9341606864363977E-02 a       897     0    38     1     9
  1.7630099042791580E-01 a       898     0    38     1    10
  1.1966622473480228E-01 a       899     0    38     1    11
 -1.1575019664822580E-03 a       900     0    38     1    12
 -1.7014418431383477E-01 a       901     0    38     1    13
 -3.5135567364810933E-04 a       902     0    38     1    14
 -3.2322335092727417E-01 a       903     0    38     1    15
 -1.1625806211191357E-01 a       904     0    38     1    16
  2.5151564570158530E-01 a       905     0    38     1    17
 -6.8012088417349903E-02 a       906     0    38     1    18
 -3.4365996712177195E-02 a       907     0    38     1    19
  1.2620578365275403E-01 a       908     0    38     1    20
  5.2654456923566746E-02 a       909     0    38     1    21
  1.5839307760952648E-01 a       910     0    38     1    22
 -4.1445104637556893E-02 a       911     0    38     1    23
 -2.0763665472563551E-02 a       912     0    38     1    24
  1.0103619214251576E-01 a       913     0    39     1     1
  4.1013026435419639E-03 a       914     0    39     1     2
 -4.2675905366153996E-02 a       915     0    39     1     3
 -6.8366557465992780E-02 a       916     0    39     1     4
  7.3950399645204848E-02 a       917     0    39     1     5
 -3.4556345331331298E-02 a       918     0    39     1     6
 -7.7829264368376422E-02 a       919     0    39     1     7
  1.8894135084958202E-01 a       920     0    39     1     8
  6.4240281804169699E-02 a       921     0    39     1     9
 -2.5221154927497880E-01 a       922     0    39     1    10
  2.1518703621608548E-01 a       923     0    39     1    11
  1.0630320608132486E-01 a       924     0    39     1    12
 -5.2331384545249555E-02 a       925     0    39     1    13
 -2.2529910505739570E-01 a       926     0    39     1    14
 -1.0989581248520872E-01 a       927     0    39     1    15
 -1.1038489867188329E-01 a       928     0    39     1    16
  1.5713685226666618E-01 a       929     0    39     1    17
  8.1989168631480480E-02 a       930     0    39     1    18
 -2.2544368681276954E-02 a       931     0    39     1    19
  6.3866855375170950E-02 a       932     0    39     1    20
 -3.3228035878668872E-03 a       933     0    39     1    21
 -1.0799809665393720E-01 a       934     0    39     1    22
 -3.3566561571262488E-01 a       935     0    39     1    23
 -3.5499823022108710E-02 a       936     0    39     1    24
  4.8960962184016830E-03 a       937     0    40     1     1
  2.1397030339096294E-02 a       938     0    40     1     2
 -1.1693703577998020E-01 a       939     0    40     1     3
 -3.4810983781644912E-02 a       940     0    40     1     4
  1.5177513516350585E-01 a       941     0    40     1     5
 -2.4904180581769148E-02 a       942     0    40     1     6
 -1.8506385293121838E-01 a       943     0    40     1     7
  1.2136541907824332E-02 a       944     0    40     1     8
  4.8374361728642304E-02 a       945     0    40     1     9
  4.7530311722543475E-02 a       946     0    40     1    10
  6.4691321426757348E-02 a       947     0    40     1    11
  1.9706744320694100E-01 a       948     0    40     1    12
 -2.6858609497141570E-02 a       949     0    40     1    13
  1.0859494712232953E-01 a       950     0    40     1    14
  5.1693663398211714E-02 a       951     0    40     1    15
  3.7437837761114923E-02 a       952     0    40     1    16
  6.2447533637256782E-02 a       953     0    40     1    17
  2.2350113283538291E-02 a       954     0    40     1    18
 -1.0887503643163698E-01 a       955     0    40     1    19
 -3.8623145057594038E-02 a       956     0    40     1    20
 -1.3906688128968833E-01 a       957     0    40     1    21
 -8.2449864411668350E-02 a       958     0    40     1    22
  2.0665726629208359E-01 a       959     0    40     1    23
 -1.0348667874374136E-01 a       960     0    40     1    24
 -3.0803796803601413E-01 a       961     0    41     1     1
 -1.5647169772765665E-01 a       962     0    41     1     2
  9.2043998172097671E-02 a       963     0    41     1     3
  2.2421789151469462E-01 a       964     0    41     1     4
 -7.5068548587341924E-02 a       965     0    41     1     5
 -3.4523095878635141E-02 a       966     0    41     1     6
 -1.5227988390871991E-01 a       967     0    41     1     7
  8.3400940598070752E-04 a       968     0    41     1     8
  1.2901109140841702E-01 a       969     0    41     1     9
  1.0427222238541120E-01 a       970     0    41     1    10
  2.2124685452885601E-01 a       971     0    41     1    11
 -2.1324591201650098E-01 a       972     0    41     1    12
  1.9580300504024034E-01 a       973     0    41     1    13
  8.1497325807652607E-02 a       974     0    41     1    14
  8.4575503652834907E-02 a       975     0    41     1    15
  5.9816274797804450E-02 a       976     0    41     1    16
 -9.9419355435440365E-02 a       977     0    41     1    17
 -1.6688832675148943E-01 a       978     0    41     1    18
 -2.7708522389366369E-01 a       979     0    41     1    19
 -2.6188097388249371E-01 a       980     0    41     1    20
  3.4872637981646970E-01 a       981     0    41     1    21
 -1.2974046873473763E-01 a       982     0    41     1    22
  5.2351712722969945E-01 a       983     0    41     1    23
 -3.3858183018556400E-02 a       984     0    41     1    24
  4.1861617076981483E-01 a       985     0    42     1     1
  1.2228978478618768E-03 a       986     0    42     1     2
 -4.4572136365583444E-02 a       987     0    42     1     3
  3.3037221272681480E-02 a       988     0    42     1     4
  2.6430788659601484E-01 a       989     0    42     1     5
  1.2969299331516528E-03 a       990     0    42     1     6
  9.5736281605509690E-02 a       991     0    42     1     7
 -5.8747935400515178E-02 a       992     0    42     1     8
 -2.2526800944329822E-01 a       993     0    42     1     9
  6.5798613152167229E-02 a       994     0    42     1    10
  9.1865846883082164E-02 a       995     0    42     1    11
 -2.5885726029846193E-02 a       996     0    42     1    12
 -2.2958577263884816E-01 a       997     0    42     1    13
  1.0130602419191032E-01 a       998     0    42     1    14
 -7.5621778750958796E-02 a       999     0    42     1    15
  2.3696987097862560E-01 a      1000     0    42     1    16
 -4.8654818550827711E-01 a      1001     0    42     1    17
  1.1592776586497808E-01 a      1002     0    42     1    18
  1.3019247851430235E-01 a      1003     0    42     1    19
  1.7976168509894591E-01 a      1004     0    42     1    20
 -1.1178049776189808E-01 a      1005     0    42     1    21
  1.5186818099851251E-01 a      1006     0    42     1    22
 -2.0920553403018727E-01 a      1007     0    42     1    23
  3.9686789668947936E-01 a      1008     0    42     1    24
  3.1346336477086650E-02 a      1009     0    43     1     1
  1.9970502241726980E-03 a      1010     0    43     1     2
 -2.7076545455263449E-02 a      1011     0    43     1     3
  1.7572142990052775E-02 a      1012     0    43     1     4
 -4.9603439520739909E-02 a      1013     0    43     1     5
  8.1441603470108523E-02 a      1014     0    43     1     6
 -3.4218505411256338E-02 a      1015     0    43     1     7
 -1.3996927491020336E-01 a      1016     0    43     1     8
 -2.0235913348048740E-01 a      1017     0    43     1     9
 -2.3003775540356156E-02 a      1018     0    43     1    10
  4.6531415265117768E-02 a      1019     0    43     1    11
  2.4077537016517672E-01 a      1020     0    43     1    12
  2.0927048616550667E-01 a      1021     0    43     1    13
  1.2277242869286628E-01 a      1022     0    43     1    14
 -9.9162938514185200E-02 a      1023     0    43     1    15
 -8.9398820108088084E-02 a      1024     0    43     1    16
 -1.1621202330224438E-01 a      1025     0    43     1    17
 -1.9476964604918198E-01 a      1026     0    43     1    18
  5.2080813212485814E-03 a      1027     0    43     1    19
  1.2768517710683247E-01 a      1028     0    43     1    20
 -1.6938325521898212E-01 a      1029     0    43     1    21
 -1.5990468561710164E-01 a      1030     0    43     1    22
  4.6869945511589399E-02 a      1031     0    43     1    23
 -3.7604782545610935E-02 a      1032     0    43     1    24
  9.3999562725000027E-02 a      1033     0    44     1     1
  7.8212689134464133E-03 a      1034     0    44     1     2
 -2.2747346409996427E-01 a      1035     0    44     1     3
  8.8087075917471416E-04 a      1036     0    44     1     4
  1.7907344415056450E-01 a      1037     0    44     1     5
  8.6829967037553732E-02 a      1038     0    44     1     6
 -1.3386569881057939E-01 a      1039     0    44     1     7
 -3.5089160941636562E-02 a      1040     0    44     1     8
  3.5521716491560246E-02 a      1041     0    44     1     9
  5.9690553655146840E-02 a      1042     0    44     1    10
  2.4893990203526489E-01 a      1043     0    44     1    11
  2.2065045330101490E-01 a      1044     0    44     1    12
 -2.3566394200929988E-01 a      1045     0    44     1    13
 -4.4030495450750967E-02 a      1046     0    44     1    14
  4.9194965878280310E-02 a      1047     0    44     1    15
  1.6356959720908090E-01 a      1048     0    44     1    16
  1.1775357229531533E-02 a      1049     0    44     1    17
  1.7290969091732791E-01 a      1050     0    44     1    18
 -1.1677605471316493E-01 a      1051     0    44     1    19
  1.4545752903664788E-01 a      1052     0    44     1    20
 -2.4788571050557781E-01 a      1053     0    44     1    21
  1.7666291942616735E-01 a      1054     0    44     1    22
  1.7525816218227647E-01 a      1055     0    44     1    23
  1.2745528337391981E-01 a      1056     0    44     1    24
  1.7230837562632650E-01 a      1057     0    45     1     1
 -4.7611833965989718E-02 a      1058     0    45     1     2
  1.1225338806767239E-01 a      1059     0    45     1     3
  1.1312641629917138E-03 a      1060     0    45     1     4
 -1.8072028876900514E-02 a      1061     0    45     1     5
 -5.4779106436549241E-01 a      1062     0    45     1     6
 -1.8512234465529032E-01 a      1063     0    45     1     7
  1.5660187064179149E-01 a      1064     0    45     1     8
 -2.2726505449828217E-02 a      1065     0    45     1     9
 -1.2799610263935374E-01 a      1066     0    45     1    10
  1.2008908564250143E-01 a      1067     0    45     1    11
 -6.4532549516202131E-02 a      1068     0    45     1    12
 -8.7719367659374617E-02 a      1069     0    45     1    13
  1.5472219722447982E-02 a      1070     0    45     1    14
 -1.1149404225574217E-01 a      1071     0    45     1    15
 -1.5956097324217658E-01 a      1072     0    45     1    16
  8.3980048311943181E-02 a      1073     0    45     1    17
 -3.3024884968874824E-01 a      1074     0    45     1    18
  1.8560381620254057E-01 a      1075     0    45     1    19
 -6.6907891803681049E-03 a      1076     0    45     1    20
  1.9956497454594666E-01 a      1077     0    45     1    21
  7.1463876055345266E-02 a      1078     0    45     1    22
 -1.8247820031995171E-01 a      1079     0    45     1    23
 -3.8741137597646989E-02 a      1080     0    45     1    24
  1.5956796022503614E-01 a      1081     0    46     1     1
 -4.9765296680072152E-02 a      1082     0    46     1     2
  2.1155790459345786E-01 a      1083     0    46     1     3
 -4.2808373894496744E-02 a      1084     0    46     1     4
  1.1609199936213477E-01 a      1085     0    46     1     5
 -9.6116073623599849E-02 a      1086     0    46     1     6
  1.6009223236081943E-01 a      1087     0    46     1     7
  4.6047967591554134E-02 a      1088     0    46     1     8
 -1.3912556149284538E-01 a      1089     0    46     1     9
  3.0889131153228628E-03 a      1090     0    46     1    10
 -1.3008621120073055E-01 a      1091     0    46     1    11
  6.3220623241727086E-02 a      1092     0    46     1    12
 -2.6128631284227666E-01 a      1093     0    46     1    13
 -3.7520046351723825E-02 a      1094     0    46     1    14
  1.3363463845822049E-01 a      1095     0    46     1    15
  3.8029724390685513E-02 a      1096     0    46     1    16
 -1.2513583533778743E-02 a      1097     0    46     1    17
 -7.0760623263281530E-04 a      1098     0    46     1    18
  2.3766457068543598E-01 a      1099     0    46     1    19
 -1.2980555000274988E-02 a      1100     0    46     1    20
  1.0594450039025430E-01 a      1101     0    46     1    21
 -4.6574412742374158E-02 a      1102     0    46     1    22
 -1.3245242644241384E-01 a      1103     0    46     1    23
  1.7432832140015564E-01 a      1104     0    46     1    24
  2.1873045118038564E-01 a      1105     0    47     1     1
  1.0278518194818612E-01 a      1106     0    47     1     2
 -2.2518027060747137E-01 a      1107     0    47     1     3
  6.3491065967564431E-03 a      1108     0    47     1     4
 -1.8479807337008259E-02 a      1109     0    47     1     5
 -6.8780872929564293E-02 a      1110     0    47     1     6
  3.2952598762464015E-02 a      1111     0    47     1     7
 -2.6032552841746624E-02 a      1112     0    47     1     8
  9.0964118893215318E-02 a      1113     0    47     1     9
  5.3431257918615686E-02 a      1114     0    47     1    10
 -1.5399006733935064E-01 a      1115     0    47     1    11
  1.2742783139464423E-01 a      1116     0    47     1    12
 -3.6549115510419158E-02 a      1117     0    47     1    13
 -4.3899728008695543E-02 a      1118     0    47     1    14
  6.8085986616582994E-02 a      1119     0    47     1    15
  4.4019955704481473E-02 a      1120     0    47     1    16
 -4.2177172466655491E-02 a      1121     0    47     1    17
  4.1311822508685876E-02 a      1122     0    47     1    18
 -9.1825067973428362E-02 a      1123     0    47     1    19
  6.5103832170789147E-02 a      1124     0    47     1    20
  1.5587026740670329E-01 a      1125     0    47     1    21
  1.2325525794227152E-01 a      1126     0    47     1    22
  4.7690400209938477E-02 a      1127     0    47     1    23
 -3.3674614105927675E-02 a      1128     0    47     1    24
 -1.3872951677716575E-01 a      1129     0    48     1     1
 -1.0066977598137146E-01 a      1130     0    48     1     2
 -3.1503382494253565E-02 a      1131     0    48     1     3
  1.5265473200612906E-01 a      1132     0    48     1     4
 -3.1576049183570820E-01 a      1133     0    48     1     5
  6.1862709185949549E-02 a      1134     0    48     1     6
  2.1184708693756112E-02 a      1135     0    48     1     7
  1.6488034769697202E-01 a      1136     0    48     1     8
  2.1963726924233909E-01 a      1137     0    48     1     9
 -6.3165614614154819E-02 a      1138     0    48     1    10
  1.3875096813487706E-01 a      1139     0    48     1    11
  1.9199275642301813E-01 a      1140     0    48     1    12
  2.0867013027773973E-01 a      1141     0    48     1    13
 -2.8428666668095237E-01 a      1142     0    48     1    14
 -1.9597166523972978E-01 a      1143     0    48     1    15
 -2.1705034045103929E-02 a      1144     0    48     1    16
  2.8608819680160571E-04 a      1145     0    48     1    17
  3.0131219525420569E-02 a      1146     0    48     1    18
  1.4789447652746879E-01 a      1147     0    48     1    19
  7.0654166102853966E-02 a      1148     0    48     1    20
  3.3969786289978876E-02 a      1149     0    48     1    21
  2.0432873573066684E-01 a      1150     0    48     1    22
 -7.3942677869984971E-02 a      1151     0    48     1    23
 -1.6399897347024656E-01 a      1152     0    48     1    24
  1.1036052411934862E-02 a      1153     0    49     1     1
 -1.2413025575512096E-02 a      1154     0    49     1     2
 -1.1796752791428369E-01 a      1155     0    49     1     3
 -1.5906085428390915E-01 a      1156     0    49     1     4
  2.0278536003340571E-02 a      1157     0    49     1     5
 -3.2673727843073694E-02 a      1158     0    49     1     6
 -1.9830341678270713E-01 a      1159     0    49     1     7
  2.4469716255168771E-03 a      1160     0    49     1     8
 -3.0786140543561846E-01 a      1161     0    49     1     9
 -4.4258421612266230E-02 a      1162     0    49     1    10
 -8.2783833509753935E-02 a      1163     0    49     1    11
  1.2084570493157923E-01 a      1164     0    49     1    12
  9.9662522129523146E-02 a      1165     0    49     1    13
  1.6890160143594658E-02 a      1166     0    49     1    14
 -3.4838959997848147E-02 a      1167     0    49     1    15
  6.0564106156164088E-02 a      1168     0    49     1    16
  3.2928854540956098E-03 a      1169     0    49     1    17
 -9.5173853059404998E-02 a      1170     0    49     1    18
 -7.7655689631259649E-03 a      1171     0    49     1    19
 -1.5219043112594227E-01 a      1172     0    49     1    20
 -5.5766841981026841E-02 a      1173     0    49     1    21
  2.7192915606546027E-02 a      1174     0    49     1    22
  1.8281736561615336E-01 a      1175     0    49     1    23
 -3.7132463267320982E-02 a      1176     0    49     1    24
  3.3453648716593828E-02 a      1177     0    50     1     1
  1.5405592984873048E-01 a      1178     0    50     1     2
  2.2800533489365993E-01 a      1179     0    50     1     3
  5.4455800780555425E-02 a      1180     0    50     1     4
 -3.8706272940799624E-01 a      1181     0    50     1     5
 -4.9559582529644562E-02 a      1182     0    50     1     6
  9.5284859270179573E-02 a      1183     0    50     1     7
 -1.3681480474601296E-01 a      1184     0    50     1     8
 -1.3498120904270763E-01 a      1185     0    50     1     9
 -4.8909378880888650E-02 a      1186     0    50     1    10
 -1.7723098017259942E-01 a      1187     0    50     1    11
 -2.1313441580830972E-01 a      1188     0    50     1    12
 -8.8122333241181086E-02 a      1189     0    50     1    13
 -3.7359867068307767E-02 a      1190     0    50     1    14
 -7.6632097709497513E-02 a      1191     0    50     1    15
  1.3545049187952690E-01 a      1192     0    50     1    16
 -1.2543717940944821E-01 a      1193     0    50     1    17
  7.7830329080136637E-02 a      1194     0    50     1    18
  5.4572556942078868E-04 a      1195     0    50     1    19
  7.7973989999118004E-02 a      1196     0    50     1    20
 -3.6854969863064505E-03 a      1197     0    50     1    21
  4.2368733168906519E-02 a      1198     0    50     1    22
 -5.9523661936922663E-02 a      1199     0    50     1    23
  6.7572804791633828E-02 a      1200     0    50     1    24
  7.7507289375745563E-03 a      1201     0    51     1     1
  1.8875071524873960E-03 a      1202     0    51     1     2
 -2.0657991246027918E-01 a      1203     0    51     1     3
 -2.9921001991323769E-02 a      1204     0    51     1     4
 -1.1251554594140663E-01 a      1205     0    51     1     5
 -3.7949087534484498E-02 a      1206     0    51     1     6
  2.2365636375585479E-01 a      1207     0    51     1     7
  1.6434325049523674E-01 a      1208     0    51     1     8
 -2.4474035655675225E-01 a      1209     0    51     1     9
 -8.8099957872649504E-03 a      1210     0    51     1    10
 -3.5393026665102173E-01 a      1211     0    51     1    11
 -4.1188818747625892E-03 a      1212     0    51     1    12
  8.3220820734065976E-02 a      1213     0    51     1    13
  1.1782748790379577E-02 a      1214     0    51     1    14
 -1.1525853354218077E-01 a      1215     0    51     1    15
  2.3254794478349672E-01 a      1216     0    51     1    16
  6.7387809725778874E-02 a      1217     0    51     1    17
  9.6223553667425885E-03 a      1218     0    51     1    18
 -6.5704624240486828E-02 a      1219     0    51     1    19
 -5.3014252243574561E-02 a      1220     0    51     1    20
  1.4171331738737511E-02 a      1221     0    51     1    21
 -1.2935697120247736E-01 a      1222     0    51     1    22
 -1.1187830792284785E-01 a      1223     0    51     1    23
  1.5674976156057358E-03 a      1224     0    51     1    24
  1.2096911911497087E-01 a      1225     0    52     1     1
 -4.2329307957907056E-02 a      1226     0    52     1     2
  2.2140867864121644E-01 a      1227     0    52     1     3
 -7.0439822567416308E-02 a      1228     0    52     1     4
  2.1046124698046303E-01 a      1229     0    52     1     5
  8.9690606097492156E-03 a      1230     0    52     1     6
 -3.1460408714850910E-02 a      1231     0    52     1     7
 -8.0882983889054988E-03 a      1232     0    52     1     8
 -4.2348047096821789E-01 a      1233     0    52     1     9
 -1.0888249932612923E-01 a      1234     0    52     1    10
  2.5149488852443475E-01 a      1235     0    52     1    11
  2.5559792924543451E-01 a      1236     0    52     1    12
  1.2755645260310092E-01 a      1237     0    52     1    13
 -1.0271581392477515E-01 a      1238     0    52     1    14
 -7.1551637098658284E-03 a      1239     0    52     1    15
  3.1048874303375401E-01 a      1240     0    52     1    16
  2.1584872319908618E-02 a      1241     0    52     1    17
 -2.1987451587689985E-02 a      1242     0    52     1    18
  4.5455455999601838E-02 a      1243     0    52     1    19
 -2.6578245890607383E-01 a      1244     0    52     1    20
  1.8969255532205870E-02 a      1245     0    52     1    21
  1.2804169168884055E-01 a      1246     0    52     1    22
  2.3774871557412949E-01 a      1247     0    52     1    23
 -1.0942283544476000E-01 a      1248     0    52     1    24
  1.3521630275232394E-01 a      1249     0    53     1     1
 -5.9987657601620184E-02 a      1250     0    53     1     2
 -5.2001443813794110E-03 a      1251     0    53     1     3
 -1.3613727419228930E-01 a      1252     0    53     1     4
  8.9411818917139146E-02 a      1253     0    53     1     5
  1.2214744133964164E-01 a      1254     0    53     1     6
  9.4778788816895124E-02 a      1255     0    53     1     7
  3.8878362655292618E-02 a      1256     0    53     1     8
 -1.4677921238986086E-01 a      1257     0    53     1     9
 -1.0419907514467742E-01 a      1258     0    53     1    10
 -1.2964011181454738E-01 a      1259     0    53     1    11
  1.4009696949520700E-01 a      1260     0    53     1    12
  3.8636446526294901E-02 a      1261     0    53     1    13
 -6.2614700513601795E-02 a      1262     0    53     1    14
  1.8101334307867006E-01 a      1263     0    53     1    15
  1.5072021759581528E-01 a      1264     0    53     1    16
 -6.7842656035736901E-02 a      1265     0    53     1    17
  2.4275677340270023E-02 a      1266     0    53     1    18
  9.1072903880782125E-03 a      1267     0    53     1    19
 -6.6177015200516425E-03 a      1268     0    53     1    20
 -1.5916126687558332E-01 a      1269     0    53     1    21
  1.5129228491258653E-02 a      1270     0    53     1    22
  1.6686590660114353E-01 a      1271     0    53     1    23
  7.4823552165755716E-02 a      1272     0    53     1    24
  1.0312610373975034E-01 a      1273     0    54     1     1
  6.6691292187293777E-02 a      1274     0    54     1     2
  1.0284941038193847E-01 a      1275     0    54     1     3
  2.4006601391778884E-01 a      1276     0    54     1     4
 -2.5626869366537543E-03 a      1277     0    54     1     5
  4.6637593740202744E-02 a      1278     0    54     1     6
  5.7951793750644069E-02 a      1279     0    54     1     7
  3.8164433775731077E-01 a      1280     0    54     1     8
  7.2144826223696050E-03 a      1281     0    54     1     9
  2.3171941427530671E-01 a      1282     0    54     1    10
 -1.1059413386854580E-01 a      1283     0    54     1    11
  1.1045293351162232E-01 a      1284     0    54     1    12
  6.6919188342049768E-02 a      1285     0    54     1    13
  1.1234425317617497E-01 a      1286     0    54     1    14
  1.6297723035040745E-01 a      1287     0    54     1    15
 -1.4497191322972386E-01 a      1288     0    54     1    16
  5.1097546637566736E-02 a      1289     0    54     1    17
 -1.0715587075368137E-01 a      1290     0    54     1    18
  1.7018944173383643E-01 a      1291     0    54     1    19
  1.5005624539027260E-01 a      1292     0    54     1    20
  6.3086289661306860E-02 a      1293     0    54     1    21
 -8.4222889174492485E-02 a      1294     0    54     1    22
 -2.0243037082105941E-01 a      1295     0    54     1    23
  9.6809393164388649E-02 a      1296     0    54     1    24
  1.4449415821865824E-01 a      1297     0    55     1     1
 -2.4758668739011463E-01 a      1298     0    55     1     2
  1.3190342999564858E-01 a      1299     0    55     1     3
 -1.0386778603827432E-01 a      1300     0    55     1     4
 -2.4977784402616340E-01 a      1301     0    55     1     5
 -1.6217096044237062E-01 a      1302     0    55     1     6
 -1.4468885864736702E-01 a      1303     0    55     1     7
  5.1872422049435783E-02 a      1304     0    55     1     8
  4.8549186140817401E-02 a      1305     0    55     1     9
 -2.8055079481384092E-02 a      1306     0    55     1    10
  9.6683705073691006E-03 a      1307     0    55     1    11
 -1.8149565401051757E-01 a      1308     0    55     1    12
  1.3665876103521196E-01 a      1309     0    55     1    13
 -1.5281695775940279E-01 a      1310     0    55     1    14
  7.1841495033906674E-02 a      1311     0    55     1    15
 -1.1191037651252173E-01 a      1312     0    55     1    16
 -8.0020135854935420E-02 a      1313     0    55     1    17
  1.4956760125910457E-01 a      1314     0    55     1    18
  1.1523002174120209E-01 a      1315     0    55     1    19
 -2.2626659323795147E-02 a      1316     0    55     1    20
  4.7708783260230356E-02 a      1317     0    55     1    21
  1.8538545752722807E-01 a      1318     0    55     1    22
 -2.8342870884674905E-02 a      1319     0    55     1    23
  1.0114279714664683E-01 a      1320     0    55     1    24
 -7.3339011152390530E-03 a      1321     0    56     1     1
 -1.7935363607780395E-02 a      1322     0    56     1     2
 -5.4221123891165478E-03 a      1323     0    56     1     3
  2.1766749279840095E-01 a      1324     0    56     1     4
 -6.4658108016996937E-02 a      1325     0    56     1     5
 -3.0380080483313776E-01 a      1326     0    56     1     6
  3.9741203725178462E-02 a      1327     0    56     1     7
 -2.8058983788573344E-01 a      1328     0    56     1     8
 -1.4667362240347936E-01 a      1329     0    56     1     9
 -2.2747444889634788E-02 a      1330     0    56     1    10
 -2.0476561130308155E-01 a      1331     0    56     1    11
  2.1905871204721558E-01 a      1332     0    56     1    12
  6.1733256555491028E-02 a      1333     0    56     1    13
  2.2555269500142067E-01 a      1334     0    56     1    14
 -5.7273783503303088E-02 a      1335     0    56     1    15
 -1.7388841591367910E-01 a      1336     0    56     1    16
  4.7118565329587525E-01 a      1337     0    56     1    17
  1.5143589018503620E-01 a      1338     0    56     1    18
  1.3511038376847689E-01 a      1339     0    56     1    19
 -1.5875908224404789E-01 a      1340     0    56     1    20
 -1.4010566436728394E-01 a      1341     0    56     1    21
  8.4746947500154185E-02 a      1342     0    56     1    22
 -7.9886296658777403E-02 a      1343     0    56     1    23
 -1.5764167251751648E-01 a      1344     0    56     1    24
 -1.1980438542146857E-01 a      1345     0    57     1     1
  6.6365084011760396E-03 a      1346     0    57     1     2
  2.2789796174725138E-01 a      1347     0    57     1     3
  8.7704017435562734E-02 a      1348     0    57     1     4
  1.1178900391576939E-01 a      1349     0    57     1     5
  1.4103847192022265E-01 a      1350     0    57     1     6
  1.0170587023361029E-01 a      1351     0    57     1     7
 -6.3066713876501534E-02 a      1352     0    57     1     8
  7.6031319225559502E-02 a      1353     0    57     1     9
 -4.1290635034076761E-02 a      1354     0    57     1    10
 -1.8423934237166176E-01 a      1355     0    57     1    11
 -1.2693481815241783E-01 a      1356     0    57     1    12
  1.3351765872790095E-01 a      1357     0    57     1    13
  1.1036017214060852E-01 a      1358     0    57     1    14
  2.0481914146929493E-02 a      1359     0    57     1    15
 -3.2179631021689514E-01 a      1360     0    57     1    16
  7.5888004925087710E-02 a      1361     0    57     1    17
 -5.4820440094882517E-02 a      1362     0    57     1    18
  1.2649255421379202E-01 a      1363     0    57     1    19
 -2.7287538137144607E-01 a      1364     0    57     1    20
 -4.5807791293999305E-02 a      1365     0    57     1    21
  7.4002705468862603E-02 a      1366     0    57     1    22
  7.6992225512786755E-02 a      1367     0    57     1    23
 -6.2178971821844703E-02 a      1368     0    57     1    24
 -4.3826698676894649E-02 a      1369     0    58     1     1
 -3.2486560759961119E-02 a      1370     0    58     1     2
 -9.5990260060209665E-02 a      1371     0    58     1     3
  1.2220768414221071E-01 a      1372     0    58     1     4
 -1.8203449091974871E-01 a      1373     0    58     1     5
  2.8645118396336527E-01 a      1374     0    58     1     6
 -1.8587363602963342E-02 a      1375     0    58     1     7
 -1.2511550688557330E-01 a      1376     0    58     1     8
 -7.4179494451684092E-02 a      1377     0    58     1     9
  4.4688639046729976E-02 a      1378     0    58     1    10
 -7.3684729445820996E-02 a      1379     0    58     1    11
  2.0125273518005493E-01 a      1380     0    58     1    12
  1.9098737930284992E-01 a      1381     0    58     1    13
 -1.9770951880195599E-02 a      1382     0    58     1    14
  1.4470907235820984E-01 a      1383     0    58     1    15
 -6.5891326633570904E-02 a      1384     0    58     1    16
 -7.8278408128871213E-02 a      1385     0    58     1    17
 -6.5381086888057285E-04 a      1386     0    58     1    18
  2.1540220318730738E-01 a      1387     0    58     1    19
 -8.3368873621947434E-02 a      1388     0    58     1    20
 -4.2885053915529894E-02 a      1389     0    58     1    21
 -1.6133743490839660E-02 a      1390     0    58     1    22
 -2.9663345044346819E-02 a      1391     0    58     1    23
 -1.1792201452180426E-01 a      1392     0    58     1    24
 -1.7370787713943012E-01 a      1393     0    59     1     1
  1.4834216627171465E-01 a      1394     0    59     1     2
  1.7218777919272851E-01 a      1395     0    59     1     3
 -8.7577105483677684E-02 a      1396     0    59     1     4
  1.9225801328531048E-01 a      1397     0    59     1     5
  1.6478412720371768E-01 a      1398     0    59     1     6
  3.3564769476973490E-02 a      1399     0    59     1     7
  8.3506156842647880E-02 a      1400     0    59     1     8
  6.6182083034013642E-02 a      1401     0    59     1     9
 -9.4286486772655574E-03 a      1402     0    59     1    10
  1.0337339107382372E-01 a      1403     0    59     1    11
  8.8525088562786805E-02 a      1404     0    59     1    12
  1.4348027790591442E-01 a      1405     0    59     1    13
 -7.1888840314575944E-02 a      1406     0    59     1    14
  2.6099676972422575E-01 a      1407     0    59     1    15
 -5.6880328739946882E-03 a      1408     0    59     1    16
 -2.1148052264298830E-02 a      1409     0    59     1    17
 -1.4347770195233306E-01 a      1410     0    59     1    18
 -8.4251206967919837E-02 a      1411     0    59     1    19
 -3.7311956778578528E-02 a      1412     0    59     1    20
 -2.1112058169617112E-02 a      1413     0    59     1    21
 -1.3734310701214131E-01 a      1414     0    59     1    22
  1.3067025046114492E-01 a      1415     0    59     1    23
 -2.4221868696505455E-01 a      1416     0    59     1    24
  1.1696924741853305E-01 a      1417     0    60     1     1
  3.1275491833725139E-01 a      1418     0    60     1     2
  1.5929104649333187E-01 a      1419     0    60     1     3
  2.9856642206431738E-01 a      1420     0    60     1     4
  1.3446603630194842E-01 a      1421     0    60     1     5
 -3.3318280935374513E-02 a      1422     0    60     1     6
  9.4033955248133863E-02 a      1423     0    60     1     7
  1.8627449533813450E-01 a      1424     0    60     1     8
 -1.0467007458703104E-02 a      1425     0    60     1     9
  1.7255242386162850E-01 a      1426     0    60     1    10
  2.2837212443759410E-02 a      1427     0    60     1    11
  2.2937862446143006E-01 a      1428     0    60     1    12
  1.9893361599102685E-01 a      1429     0    60     1    13
  9.8791109277122105E-02 a      1430     0    60     1    14
 -3.8954292421384956E-02 a      1431     0    60     1    15
  4.2217048256887504E-02 a      1432     0    60     1    16
  1.7230521362532331E-01 a      1433     0    60     1    17
  5.6651001835276348E-02 a      1434     0    60     1    18
 -3.0909750195901982E-02 a      1435     0    60     1    19
 -9.7096918445148922E-02 a      1436     0    60     1    20
 -3.5027854646549818E-02 a      1437     0    60     1    21
 -4.5496658051588319E-02 a      1438     0    60     1    22
  1.6648208666902026E-01 a      1439     0    60     1    23
 -3.3039072849378665E-01 a      1440     0    60     1    24
  1.6736925264254267E-02 a      1441     0    61     1     1
 -1.1018143437109345E-02 a      1442     0    61     1     2
  1.7115710894371247E-01 a      1443     0    61     1     3
 -7.6198547955031698E-02 a      1444     0    61     1     4
  1.8308077682727245E-02 a      1445     0    61     1     5
 -1.0115080284311766E-01 a      1446     0    61     1     6
  2.3557694973046087E-03 a      1447     0    61     1     7
  2.1791844488002313E-01 a      1448     0    61     1     8
 -2.4570700834446450E-02 a      1449     0    61     1     9
  2.0246991329364641E-01 a      1450     0    61     1    10
  5.9111839662879521E-02 a      1451     0    61     1    11
 -1.5853070545655021E-01 a      1452     0    61     1    12
  2.4755357538892572E-01 a      1453     0    61     1    13
  5.7593004124338390E-02 a      1454     0    61     1    14
  1.6383628040530032E-01 a      1455     0    61     1    15
  9.2469301206178953E-02 a      1456     0    61     1    16
 -9.7455923719035831E-02 a      1457     0    61     1    17
 -1.1477561036124671E-01 a      1458     0    61     1    18
  2.3849320968640925E-02 a      1459     0    61     1    19
 -6.8896052883464912E-02 a      1460     0    61     1    20
  9.6812437973942594E-02 a      1461     0    61     1    21
  4.5530096412188942E-02 a      1462     0    61     1    22
  2.1852388567138309E-01 a      1463     0    61     1    23
 -1.0579583962350826E-01 a      1464     0    61     1    24
 -1.5647363799235250E-01 a      1465     0    62     1     1
 -1.4181086063223375E-01 a      1466     0    62     1     2
 -2.2923969351920842E-01 a      1467     0    62     1     3
  5.3724945648850782E-02 a      1468     0    62     1     4
 -4.0224339166338823E-03 a      1469     0    62     1     5
  1.3248491952955416E-01 a      1470     0    62     1     6
  1.5081039239254565E-01 a      1471     0    62     1     7
  1.0605399912231242E-01 a      1472     0    62     1     8
 -1.4502159251430516E-01 a      1473     0    62     1     9
 -1.5029726765055296E-01 a      1474     0    62     1    10
 -2.3848108333857676E-01 a      1475     0    62     1    11
 -9.8887503007498906E-02 a      1476     0    62     1    12
 -1.3202307906771163E-01 a      1477     0    62     1    13
  2.2839810826132195E-01 a      1478     0    62     1    14
 -6.6191345589611095E-02 a      1479     0    62     1    15
  5.4587396483900465E-02 a      1480     0    62     1    16
  1.4328129180529678E-01 a      1481     0    62     1    17
  2.2118489813153602E-02 a      1482     0    62     1    18
 -7.2083314742314664E-02 a      1483     0    62     1    19
  3.4279315147234601E-01 a      1484     0    62     1    20
 -1.8420220471229201E-01 a      1485     0    62     1    21
 -4.9792330306604113E-02 a      1486     0    62     1    22
  5.3334023392010779E-02 a      1487     0    62     1    23
  3.1321198556662627E-02 a      1488     0    62     1    24
  1.1605596328547862E-01 a      1489     0    63     1     1
 -2.9964849218325557E-01 a      1490     0    63     1     2
 -1.9064519698227542E-01 a      1491     0    63     1     3
 -3.2103949803991408E-02 a      1492     0    63     1     4
 -1.7124611574643445E-01 a      1493     0    63     1     5
  7.6477395855455668E-02 a      1494     0    63     1     6
 -2.1694188269690734E-01 a      1495     0    63     1     7
  2.2649016147206938E-01 a      1496     0    63     1     8
  1.5219314216417446E-01 a      1497     0    63     1     9
 -1.5308726774943393E-01 a      1498     0    63     1    10
  2.4916341260118085E-02 a      1499     0    63     1    11
  1.0500969937301881E-01 a      1500     0    63     1    12
  9.5042935315033071E-03 a      1501     0    63     1    13
  8.8876459255471121E-02 a      1502     0    63     1    14
 -1.0371240136883642E-01 a      1503     0    63     1    15
 -1.2666545575524327E-01 a      1504     0    63     1    16
 -8.2420576335170206E-02 a      1505     0    63     1    17
 -6.2117173156485878E-02 a      1506     0    63     1    18
  1.6890222206811484E-01 a      1507     0    63     1    19
 -5.6126687523414681E-02 a      1508     0    63     1    20
 -1.8661811922882596E-01 a      1509     0    63     1    21
 -6.2751307514857080E-02 a      1510     0    63     1    22
 -8.9858488737622741E-02 a      1511     0    63     1    23
 -7.9368371254566278E-02 a      1512     0    63     1    24
 -9.7332053596995177E-02 a      1513     0    64     1     1
  1.3337020541544742E-01 a      1514     0    64     1     2
 -6.7989865957281542E-02 a      1515     0    64     1     3
  5.6616775563035890E-02 a      1516     0    64     1     4
 -2.5683569184495991E-01 a      1517     0    64     1     5
  7.7351742983023761E-02 a      1518     0    64     1     6
 -2.5532962848346857E-01 a      1519     0    64     1     7
  2.1366202105103785E-01 a      1520     0    64     1     8
  4.5481902330598421E-02 a      1521     0    64     1     9
  5.4846634190066544E-02 a      1522     0    64     1    10
 -1.4041307927790795E-02 a      1523     0    64     1    11
  9.2542340939600565E-02 a      1524     0    64     1    12
  6.8437592712040654E-02 a      1525     0    64     1    13
 -8.2283075740565946E-03 a      1526     0    64     1    14
 -1.3834324537882658E-01 a      1527     0    64     1    15
  1.3175668108010211E-01 a      1528     0    64     1    16
  1.2311732571179305E-01 a      1529     0    64     1    17
  3.0908551466566320E-01 a      1530     0    64     1    18
  2.2053830162736623E-01 a      1531     0    64     1    19
  4.3480389970348220E-02 a      1532     0    64     1    20
 -2.2689062332807569E-01 a      1533     0    64     1    21
  6.2244246383242607E-02 a      1534     0    64     1    22
 -7.3186095469235699E-02 a      1535     0    64     1    23
  7.4714658562029510E-02 a      1536     0    64     1    24
 -1.5410741871182828E-02 a      1537     0    65     1     1
  1.3204042057849119E-01 a      1538     0    65     1     2
 -1.1076482514056708E-01 a      1539     0    65     1     3
  6.4032539822688028E-02 a      1540     0    65     1     4
  1.5878156865427656E-01 a      1541     0    65     1     5
  2.1049448918539682E-01 a      1542     0    65     1     6
  1.2405012743767112E-01 a      1543     0    65     1     7
 -9.0460679942937106E-02 a      1544     0    65     1     8
 -7.1935972941431725E-02 a      1545     0    65     1     9
  8.2812349833770432E-03 a      1546     0    65     1    10
 -9.0077671594347597E-02 a      1547     0    65     1    11
  3.8318587486649194E-02 a      1548     0    65     1    12
  1.7613456280204662E-01 a      1549     0    65     1    13
  1.5730291714421854E-01 a      1550     0    65     1    14
 -4.6375780665709715E-02 a      1551     0    65     1    15
 -2.2442677895119095E-01 a      1552     0    65     1    16
 -4.1144477219824303E-02 a      1553     0    65     1    17
  3.2631258845845640E-01 a      1554     0    65     1    18
 -1.9984003284327018E-01 a      1555     0    65     1    19
 -4.3039440217129521E-02 a      1556     0    65     1    20
 -2.0175226340413810E-01 a      1557     0    65     1    21
  1.5478429671932578E-01 a      1558     0    65     1    22
  3.5803124676412607E-01 a      1559     0    65     1    23
  1.3838314339966728E-02 a      1560     0    65     1    24
 -1.5518311240208366E-01 a      1561     0    66     1     1
  3.7273447773356123E-02 a      1562     0    66     1     2
 -1.5513042235932131E-01 a      1563     0    66     1     3
 -8.3897105884892631E-02 a      1564     0    66     1     4
  9.9212836871647142E-02 a      1565     0    66     1     5
  8.1950060181806672E-02 a      1566     0    66     1     6
 -8.1782008775438758E-02 a      1567     0    66     1     7
 -2.5943178529098956E-02 a      1568     0    66     1     8
 -2.4438281369323779E-02 a      1569     0    66     1     9
 -1.9101338909942814E-02 a      1570     0    66     1    10
 -2.7645935758067525E-01 a      1571     0    66     1    11
 -3.9452594532350907E-02 a      1572     0    66     1    12
 -9.4945151401820235E-02 a      1573     0    66     1    13
  4.0378319235158062E-02 a      1574     0    66     1    14
 -2.9521785304734349E-01 a      1575     0    66     1    15
  1.4303831406125186E-01 a      1576     0    66     1    16
 -5.3568611523082975E-02 a      1577     0    66     1    17
  8.4275145296187261E-03 a      1578     0    66     1    18
 -2.3751411176669509E-02 a      1579     0    66     1    19
  1.9081129887386986E-03 a      1580     0    66     1    20
  2.2456910032708916E-01 a      1581     0    66     1    21
  1.0742194073286473E-01 a      1582     0    66     1    22
  1.6839992209951066E-01 a      1583     0    66     1    23
 -1.5741435848207028E-01 a      1584     0    66     1    24
  1.0140886482657607E-01 a      1585     0    67     1     1
  2.5326098507568379E-01 a      1586     0    67     1     2
 -5.9743665999900268E-02 a      1587     0    67     1     3
 -2.9163218206112375E-02 a      1588     0    67     1     4
 -2.1393211398417883E-01 a      1589     0    67     1     5
  2.0327415991191623E-02 a      1590     0    67     1     6
 -1.3728950960705973E-02 a      1591     0    67     1     7
  1.6874121153552904E-01 a      1592     0    67     1     8
  2.1930686564908067E-01 a      1593     0    67     1     9
  2.1533740813557756E-01 a      1594     0    67     1    10
  1.1654048374014429E-01 a      1595     0    67     1    11
 -1.1080914345125012E-01 a      1596     0    67     1    12
  1.6604668638888928E-01 a      1597     0    67     1    13
 -3.6879798282328943E-02 a      1598     0    67     1    14
  7.5116360696718509E-02 a      1599     0    67     1    15
 -9.3443128162991385E-02 a      1600     0    67     1    16
  1.1741912740284592E-02 a      1601     0    67     1    17
 -8.0638385718584157E-02 a      1602     0    67     1    18
 -2.1060196015771218E-01 a      1603     0    67     1    19
 -1.6344297060805224E-01 a      1604     0    67     1    20
 -1.9998543329898702E-01 a      1605     0    67     1    21
 -1.1792085189468912E-01 a      1606     0    67     1    22
  2.4105452289463805E-01 a      1607     0    67     1    23
 -1.2762323564567829E-01 a      1608     0    67     1    24
 -1.5253433658078677E-01 a      1609     0    68     1     1
  1.3847562916190227E-02 a      1610     0    68     1     2
  4.9565237100630974E-02 a      1611     0    68     1     3
  1.1955912824406915E-01 a      1612     0    68     1     4
  2.8094304323928964E-02 a      1613     0    68     1     5
 -2.6766251957776072E-01 a      1614     0    68     1     6
  3.3669526546728751E-02 a      1615     0    68     1     7
 -1.5599191689727845E-01 a      1616     0    68     1     8
 -1.9071053606612121E-01 a      1617     0    68     1     9
 -3.1620107820481767E-02 a      1618     0    68     1    10
  1.5109688624054529E-01 a      1619     0    68     1    11
 -2.9655659716529371E-02 a      1620     0    68     1    12
 -1.3810693640875471E-01 a      1621     0    68     1    13
  7.0482153380716089E-02 a      1622     0    68     1    14
 -7.5359859566617227E-02 a      1623     0    68     1    15
