################################################################################
# Neural network connection values (weights and biases).
################################################################################
# Col  Name       Description
################################################################################
# 1    connection Neural network connection value.
# 2    t          Connection type (a = weight, b = bias).
# 3    index      Index enumerating weights.
# 4    l_s        Starting point layer (end point layer for biases).
# 5    n_s        Starting point neuron in starting layer (end point neuron for biases).
# 6    l_e        End point layer.
# 7    n_e        End point neuron in end layer.
################################################################################
#                      1 2         3     4     5     6     7
#             connection t     index   l_s   n_s   l_e   n_e
############################################################
  1.5894481241476116E-01 a         1     0     1     1     1
 -1.1930892509866911E-01 a         2     0     1     1     2
 -1.3911637298108800E-01 a         3     0     1     1     3
  6.7459808002042029E-02 a         4     0     1     1     4
  1.1393187797641940E-01 a         5     0     1     1     5
  2.4945892277772309E-02 a         6     0     1     1     6
  3.6564788811970887E-02 a         7     0     1     1     7
 -7.0352466755029278E-02 a         8     0     1     1     8
 -1.6492671496034600E-01 a         9     0     1     1     9
  1.4230004096365972E-01 a        10     0     1     1    10
 -2.5740511164017810E-01 a        11     0     1     1    11
 -4.6319405685976957E-02 a        12     0     1     1    12
 -9.8178453920561445E-02 a        13     0     1     1    13
  1.1164608844296636E-01 a        14     0     1     1    14
 -2.8004200896054188E-01 a        15     0     1     1    15
  1.0886996072352130E-01 a        16     0     1     1    16
 -7.6878895245730758E-02 a        17     0     1     1    17
  8.7867176976159242E-02 a        18     0     1     1    18
 -4.1405726905953261E-03 a        19     0     1     1    19
  4.6142496875497575E-02 a        20     0     1     1    20
  1.5626465784412136E-01 a        21     0     1     1    21
 -1.4307695991281508E-01 a        22     0     1     1    22
 -5.2817533386478821E-02 a        23     0     1     1    23
 -1.0631753944066930E-02 a        24     0     1     1    24
  4.9885861204841214E-01 a        25     0     2     1     1
 -2.5951800445018647E-01 a        26     0     2     1     2
 -5.6062772072828171E-02 a        27     0     2     1     3
 -1.4387683427256021E-01 a        28     0     2     1     4
 -3.3748887843279465E-02 a        29     0     2     1     5
 -5.7189677577108766E-01 a        30     0     2     1     6
  1.4414048885447678E-01 a        31     0     2     1     7
 -3.0960319153780774E-01 a        32     0     2     1     8
  2.6119445035900574E-01 a        33     0     2     1     9
  1.4068263945552448E-01 a        34     0     2     1    10
  2.0562646035290760E-03 a        35     0     2     1    11
  7.3150327477838825E-02 a        36     0     2     1    12
  6.0739321995724981E-02 a        37     0     2     1    13
  6.2577134745594354E-01 a        38     0     2     1    14
  2.2759886137261923E-01 a        39     0     2     1    15
  2.0145339645745254E-02 a        40     0     2     1    16
 -3.0843975679320484E-02 a        41     0     2     1    17
  4.3643298192687502E-01 a        42     0     2     1    18
 -3.9734409058965553E-01 a        43     0     2     1    19
 -2.2588038071508482E-01 a        44     0     2     1    20
  5.4994392161602519E-02 a        45     0     2     1    21
 -1.5404936720533946E-01 a        46     0     2     1    22
  1.3184248424494738E-01 a        47     0     2     1    23
  1.7633953743611414E-01 a        48     0     2     1    24
 -4.6089942670363809E-01 a        49     0     3     1     1
  2.9515252763450323E-01 a        50     0     3     1     2
  3.5024705192436938E-02 a        51     0     3     1     3
  3.8489641463431895E-02 a        52     0     3     1     4
  1.8030355697971778E-01 a        53     0     3     1     5
  1.1029222349550689E-01 a        54     0     3     1     6
 -2.4951578568291077E-01 a        55     0     3     1     7
  1.4114509347710003E-01 a        56     0     3     1     8
 -1.6716845913261469E-01 a        57     0     3     1     9
 -3.6544555682279056E-01 a        58     0     3     1    10
  3.8819389869257731E-02 a        59     0     3     1    11
  4.1564857242321601E-01 a        60     0     3     1    12
 -6.8699247148739151E-02 a        61     0     3     1    13
 -6.4063944892905200E-01 a        62     0     3     1    14
 -4.3045246979859564E-01 a        63     0     3     1    15
  2.4801113619437032E-01 a        64     0     3     1    16
  2.2595393537529199E-01 a        65     0     3     1    17
 -1.7431414978167653E-01 a        66     0     3     1    18
  5.7042948627856049E-01 a        67     0     3     1    19
 -5.1031828772012670E-02 a        68     0     3     1    20
 -1.9379223320862568E-01 a        69     0     3     1    21
  2.4351490710242125E-02 a        70     0     3     1    22
 -1.1474797873536988E-01 a        71     0     3     1    23
 -5.4902596731861694E-02 a        72     0     3     1    24
  2.4734624751965012E-01 a        73     0     4     1     1
 -1.4388327748839427E-01 a        74     0     4     1     2
  3.9674539758779737E-01 a        75     0     4     1     3
  2.9715930280634767E-01 a        76     0     4     1     4
  2.6388521306466173E-01 a        77     0     4     1     5
 -2.8973438847496802E-01 a        78     0     4     1     6
  3.5797971633814055E-02 a        79     0     4     1     7
  1.1154830826055377E-01 a        80     0     4     1     8
 -3.6888892977150906E-01 a        81     0     4     1     9
 -2.3440548596060073E-01 a        82     0     4     1    10
 -2.3006631108912778E-01 a        83     0     4     1    11
  1.8259536216978448E-01 a        84     0     4     1    12
 -9.6469190552770978E-02 a        85     0     4     1    13
 -1.3788424381002215E-01 a        86     0     4     1    14
 -1.6133460202538458E-01 a        87     0     4     1    15
  2.0298265037937482E-01 a        88     0     4     1    16
 -1.7639947781107629E-01 a        89     0     4     1    17
 -4.0290005399038507E-02 a        90     0     4     1    18
  2.2256205286827224E-01 a        91     0     4     1    19
  4.6381809947906749E-01 a        92     0     4     1    20
 -1.7870786944571526E-01 a        93     0     4     1    21
  5.9713098251953246E-03 a        94     0     4     1    22
  3.2173317133115242E-01 a        95     0     4     1    23
  4.9494395080762768E-02 a        96     0     4     1    24
 -1.0936419938664574E-01 a        97     0     5     1     1
  3.1756733904824880E-01 a        98     0     5     1     2
 -4.2770914759446572E-03 a        99     0     5     1     3
 -2.2353262193091344E-01 a       100     0     5     1     4
  1.8458786607176661E-01 a       101     0     5     1     5
  8.1885216319017975E-02 a       102     0     5     1     6
  2.5199804615340082E-01 a       103     0     5     1     7
 -2.2114597693326306E-02 a       104     0     5     1     8
  6.6874278788854963E-02 a       105     0     5     1     9
  2.9661105943166892E-02 a       106     0     5     1    10
 -4.6725820701924638E-02 a       107     0     5     1    11
  2.8660353914420306E-01 a       108     0     5     1    12
 -1.2757684205652589E-01 a       109     0     5     1    13
 -6.4893888584797568E-02 a       110     0     5     1    14
 -9.3123737598687001E-02 a       111     0     5     1    15
  2.1465322957912525E-01 a       112     0     5     1    16
  1.7584730326196327E-01 a       113     0     5     1    17
  2.6187265147583716E-01 a       114     0     5     1    18
  2.0544591532740228E-01 a       115     0     5     1    19
  1.2214578797518139E-03 a       116     0     5     1    20
 -1.2442966832947447E-01 a       117     0     5     1    21
  1.6005487385649037E-01 a       118     0     5     1    22
 -1.1291163793705691E-01 a       119     0     5     1    23
  3.7822692736045288E-01 a       120     0     5     1    24
 -3.5963254449227679E-03 a       121     0     6     1     1
 -7.6690872289053025E-02 a       122     0     6     1     2
  3.8042287685676240E-01 a       123     0     6     1     3
 -1.8793982800397915E-01 a       124     0     6     1     4
 -7.2152061319097516E-02 a       125     0     6     1     5
  1.1268123900827862E-01 a       126     0     6     1     6
  3.9665087758819384E-01 a       127     0     6     1     7
 -8.8004308737305345E-02 a       128     0     6     1     8
  3.9932835388137811E-01 a       129     0     6     1     9
 -6.6924214033042259E-02 a       130     0     6     1    10
 -2.4203389700048117E-01 a       131     0     6     1    11
  3.8456208420967608E-01 a       132     0     6     1    12
 -1.0633901409995331E-01 a       133     0     6     1    13
 -1.7218943717918111E-02 a       134     0     6     1    14
 -2.2283635096608029E-01 a       135     0     6     1    15
 -1.8859625772614674E-01 a       136     0     6     1    16
 -2.2240418522101219E-01 a       137     0     6     1    17
 -7.6666738071949278E-02 a       138     0     6     1    18
 -2.4012115853480506E-01 a       139     0     6     1    19
  1.8866162180393781E-01 a       140     0     6     1    20
  4.0348855575826299E-02 a       141     0     6     1    21
  3.7756394601733601E-01 a       142     0     6     1    22
  2.3303747312128427E-02 a       143     0     6     1    23
  8.7207208353236074E-02 a       144     0     6     1    24
 -2.4004879228988665E-01 a       145     0     7     1     1
  3.5593216897792483E-02 a       146     0     7     1     2
 -5.1907463584382946E-02 a       147     0     7     1     3
  5.6997233710865083E-02 a       148     0     7     1     4
  3.8269152603861017E-02 a       149     0     7     1     5
  1.0716184594676706E-01 a       150     0     7     1     6
 -3.7940765620857478E-02 a       151     0     7     1     7
  3.2574627810977315E-02 a       152     0     7     1     8
 -8.7228340643296168E-02 a       153     0     7     1     9
 -2.7025533434947405E-02 a       154     0     7     1    10
  1.6646622993347328E-02 a       155     0     7     1    11
  2.9852563591116023E-02 a       156     0     7     1    12
 -1.1097740613573640E-01 a       157     0     7     1    13
 -2.6566300465894221E-01 a       158     0     7     1    14
 -4.0948795623194445E-03 a       159     0     7     1    15
 -1.8820919881880938E-01 a       160     0     7     1    16
 -8.7160414872839861E-02 a       161     0     7     1    17
 -1.1110566631735112E-01 a       162     0     7     1    18
  1.0264748935195332E-01 a       163     0     7     1    19
  1.7947828768742313E-01 a       164     0     7     1    20
 -1.2734963104942015E-01 a       165     0     7     1    21
  1.8007840141734338E-01 a       166     0     7     1    22
  3.1761529836396567E-02 a       167     0     7     1    23
 -1.2650476577006040E-01 a       168     0     7     1    24
  1.5186876027227916E-01 a       169     0     8     1     1
  7.6187142026559407E-02 a       170     0     8     1     2
  6.8871287480685647E-03 a       171     0     8     1     3
  1.8756183377600577E-01 a       172     0     8     1     4
  1.9288345116895234E-01 a       173     0     8     1     5
 -3.2335731500824161E-01 a       174     0     8     1     6
  2.3878467005637591E-01 a       175     0     8     1     7
  3.7615738670827348E-02 a       176     0     8     1     8
  2.3646329227371241E-02 a       177     0     8     1     9
 -3.6321877990713555E-02 a       178     0     8     1    10
 -2.0414804872382933E-01 a       179     0     8     1    11
  2.5992399983050989E-03 a       180     0     8     1    12
 -1.3608501366872131E-01 a       181     0     8     1    13
  9.2028641991633631E-02 a       182     0     8     1    14
  1.4984700395306391E-01 a       183     0     8     1    15
  1.9290853096364108E-02 a       184     0     8     1    16
  1.3442475612028340E-02 a       185     0     8     1    17
 -1.2532027642246135E-01 a       186     0     8     1    18
 -2.9877075089021887E-01 a       187     0     8     1    19
  3.4082632977770416E-01 a       188     0     8     1    20
  9.5300316522234446E-02 a       189     0     8     1    21
  3.0148130527509077E-02 a       190     0     8     1    22
  1.0313530094883972E-02 a       191     0     8     1    23
 -2.0659815679392723E-01 a       192     0     8     1    24
  2.6730209148471261E-02 a       193     0     9     1     1
 -1.4615425713100844E-01 a       194     0     9     1     2
 -5.9307555243306768E-02 a       195     0     9     1     3
  1.9355906927475547E-01 a       196     0     9     1     4
  9.4574270164382815E-02 a       197     0     9     1     5
  1.0645626719544876E-01 a       198     0     9     1     6
  5.8324976139313797E-02 a       199     0     9     1     7
  3.8397106000805384E-02 a       200     0     9     1     8
  1.1437903806446499E-01 a       201     0     9     1     9
 -4.5916644074360011E-02 a       202     0     9     1    10
  6.2699407048297517E-02 a       203     0     9     1    11
  9.6892387892015507E-03 a       204     0     9     1    12
 -2.7766462888350864E-02 a       205     0     9     1    13
  5.2031034816829745E-03 a       206     0     9     1    14
  1.6795987960719825E-02 a       207     0     9     1    15
  7.0770654753797263E-02 a       208     0     9     1    16
 -1.5246745460223457E-01 a       209     0     9     1    17
  4.2515948508253666E-02 a       210     0     9     1    18
  5.7774278534573183E-02 a       211     0     9     1    19
 -3.2322661078784426E-02 a       212     0     9     1    20
 -1.0069551508838477E-01 a       213     0     9     1    21
  1.8528867588822559E-01 a       214     0     9     1    22
  5.7168981592029343E-02 a       215     0     9     1    23
 -8.4609580632365233E-02 a       216     0     9     1    24
 -3.7680910040110670E-03 a       217     0    10     1     1
 -9.7940969435663064E-02 a       218     0    10     1     2
 -1.0048665728815405E-01 a       219     0    10     1     3
 -4.3093986244303689E-02 a       220     0    10     1     4
 -1.6190239185368976E-02 a       221     0    10     1     5
 -8.4498586272564610E-02 a       222     0    10     1     6
  1.8596781222303466E-01 a       223     0    10     1     7
 -6.8091489792276800E-03 a       224     0    10     1     8
 -8.1529737942749439E-02 a       225     0    10     1     9
  1.9769544431863978E-01 a       226     0    10     1    10
  8.8862108486031863E-03 a       227     0    10     1    11
  2.5769457011811159E-01 a       228     0    10     1    12
 -9.2823002828034795E-02 a       229     0    10     1    13
  1.9964768968510186E-02 a       230     0    10     1    14
  1.1610791218747667E-01 a       231     0    10     1    15
 -2.1319912210099687E-01 a       232     0    10     1    16
 -2.0253028334287104E-01 a       233     0    10     1    17
  9.5947500297118252E-02 a       234     0    10     1    18
 -2.5703767434162722E-01 a       235     0    10     1    19
 -1.2338976511989701E-01 a       236     0    10     1    20
  8.9616164529834202E-02 a       237     0    10     1    21
  1.7355020120534675E-01 a       238     0    10     1    22
  4.2806070467917380E-02 a       239     0    10     1    23
  1.4675781209502935E-02 a       240     0    10     1    24
 -2.7075889336802328E-02 a       241     0    11     1     1
 -7.2742889848883057E-03 a       242     0    11     1     2
  3.7317659765122795E-02 a       243     0    11     1     3
  2.0058020351278464E-02 a       244     0    11     1     4
  5.7000968274802485E-02 a       245     0    11     1     5
 -6.9833422965567188E-02 a       246     0    11     1     6
 -1.4380340561501941E-02 a       247     0    11     1     7
  9.9563682009722251E-02 a       248     0    11     1     8
  1.1304819074256527E-01 a       249     0    11     1     9
 -1.0899303261940085E-02 a       250     0    11     1    10
 -8.2931282919627619E-02 a       251     0    11     1    11
 -1.3121391322305104E-01 a       252     0    11     1    12
  2.1237815109762376E-02 a       253     0    11     1    13
  3.1748541658525989E-02 a       254     0    11     1    14
  1.2473649263120611E-01 a       255     0    11     1    15
  1.9181261808071604E-01 a       256     0    11     1    16
 -2.2338048531984359E-02 a       257     0    11     1    17
  1.4842898234931126E-01 a       258     0    11     1    18
  6.4160268961139660E-02 a       259     0    11     1    19
 -2.3864801629855645E-02 a       260     0    11     1    20
  1.1168789723959324E-01 a       261     0    11     1    21
  3.2676173378019424E-02 a       262     0    11     1    22
 -2.6682758955884844E-02 a       263     0    11     1    23
 -3.0537602960947121E-02 a       264     0    11     1    24
 -2.5076335464708287E-02 a       265     0    12     1     1
 -4.2384484698433852E-02 a       266     0    12     1     2
  1.7160146148701572E-01 a       267     0    12     1     3
  1.4977244013978522E-01 a       268     0    12     1     4
  6.3598812311279243E-02 a       269     0    12     1     5
  2.5668530302054068E-03 a       270     0    12     1     6
  2.0887711913181300E-01 a       271     0    12     1     7
 -3.6652349197687215E-02 a       272     0    12     1     8
 -9.0538758506492734E-02 a       273     0    12     1     9
  1.6345669661107932E-02 a       274     0    12     1    10
  3.3056162093055552E-01 a       275     0    12     1    11
  7.6308110537739657E-02 a       276     0    12     1    12
 -1.6120177506420133E-01 a       277     0    12     1    13
  3.8358377422180824E-02 a       278     0    12     1    14
 -2.1366886258144882E-01 a       279     0    12     1    15
  5.4919181890944795E-02 a       280     0    12     1    16
 -3.7911639194168623E-02 a       281     0    12     1    17
  1.3385882999856444E-01 a       282     0    12     1    18
  9.9585273263274425E-03 a       283     0    12     1    19
 -7.7111642452308088E-02 a       284     0    12     1    20
  6.1881567623234901E-03 a       285     0    12     1    21
 -2.0827976993915056E-02 a       286     0    12     1    22
  1.8678836821024072E-01 a       287     0    12     1    23
 -1.4914766157368231E-02 a       288     0    12     1    24
  1.2515654301840484E-01 a       289     0    13     1     1
  4.3234282135384090E-04 a       290     0    13     1     2
  6.2958215271067208E-02 a       291     0    13     1     3
 -1.7739199024852073E-01 a       292     0    13     1     4
 -1.3231284679714919E-01 a       293     0    13     1     5
 -7.8378912970582831E-02 a       294     0    13     1     6
  5.5210538506806739E-02 a       295     0    13     1     7
 -8.0919420326032776E-02 a       296     0    13     1     8
 -5.7499810902322437E-02 a       297     0    13     1     9
  4.8548568587749245E-02 a       298     0    13     1    10
  7.4752151255382024E-02 a       299     0    13     1    11
  6.8003343424149515E-02 a       300     0    13     1    12
 -3.8850348521092849E-02 a       301     0    13     1    13
  1.7068962847664859E-01 a       302     0    13     1    14
 -2.3982703480493580E-02 a       303     0    13     1    15
 -5.1056693453056133E-03 a       304     0    13     1    16
 -9.6159105690611882E-02 a       305     0    13     1    17
 -5.8511472105145686E-03 a       306     0    13     1    18
 -5.2864770592062696E-02 a       307     0    13     1    19
  1.3499399179378851E-01 a       308     0    13     1    20
 -7.1647151767154735E-02 a       309     0    13     1    21
 -1.9797140592311641E-01 a       310     0    13     1    22
 -2.0100769894509055E-02 a       311     0    13     1    23
 -1.6641781953211621E-01 a       312     0    13     1    24
  3.2877566300284653E-03 a       313     0    14     1     1
 -3.3132260895161032E-02 a       314     0    14     1     2
 -3.2215301637967909E-02 a       315     0    14     1     3
  9.9555863171963105E-02 a       316     0    14     1     4
  1.4944934164721130E-01 a       317     0    14     1     5
 -5.1679203630026330E-02 a       318     0    14     1     6
  6.8128124654158781E-02 a       319     0    14     1     7
 -2.2420996755210358E-02 a       320     0    14     1     8
 -6.9827027632882899E-02 a       321     0    14     1     9
  6.5574303697748582E-02 a       322     0    14     1    10
 -6.6404433978970778E-02 a       323     0    14     1    11
  3.7084932379517759E-02 a       324     0    14     1    12
 -3.7667462038377071E-02 a       325     0    14     1    13
 -4.7209301231699273E-02 a       326     0    14     1    14
 -7.3201518652902392E-02 a       327     0    14     1    15
 -1.3811283070248143E-01 a       328     0    14     1    16
 -1.2791013094214532E-01 a       329     0    14     1    17
 -3.2686043872761403E-02 a       330     0    14     1    18
  3.4528827030298692E-02 a       331     0    14     1    19
 -6.2289278806202296E-02 a       332     0    14     1    20
 -3.5478124885523505E-03 a       333     0    14     1    21
  3.2737953855328607E-02 a       334     0    14     1    22
  1.3751361576745608E-01 a       335     0    14     1    23
 -1.2975189408858365E-01 a       336     0    14     1    24
  1.0839830186274747E-01 a       337     0    15     1     1
  7.5936894967662842E-03 a       338     0    15     1     2
 -9.7723005828066936E-02 a       339     0    15     1     3
 -2.5173359679666288E-02 a       340     0    15     1     4
  1.5070143481226717E-01 a       341     0    15     1     5
 -1.3045795135888294E-01 a       342     0    15     1     6
 -7.2118165251770283E-02 a       343     0    15     1     7
 -1.2112673847421267E-01 a       344     0    15     1     8
  2.3414496490545461E-01 a       345     0    15     1     9
 -1.2240798474266334E-01 a       346     0    15     1    10
  2.1346541812555217E-01 a       347     0    15     1    11
  8.6271262518874514E-02 a       348     0    15     1    12
 -6.5331076536163171E-02 a       349     0    15     1    13
  2.1701758559023010E-02 a       350     0    15     1    14
  1.7227779751088976E-01 a       351     0    15     1    15
  6.2528718232905692E-02 a       352     0    15     1    16
  7.7463348823569284E-02 a       353     0    15     1    17
  2.6128048552904148E-01 a       354     0    15     1    18
 -9.2110207291306603E-02 a       355     0    15     1    19
  1.7737445671618047E-02 a       356     0    15     1    20
 -1.3372310682110582E-02 a       357     0    15     1    21
 -3.4272785784736956E-02 a       358     0    15     1    22
  1.0555836914423987E-01 a       359     0    15     1    23
 -1.7093323643686105E-02 a       360     0    15     1    24
 -2.8036120947341997E-01 a       361     0    16     1     1
  6.3952129456175080E-02 a       362     0    16     1     2
 -1.3972708759460344E-02 a       363     0    16     1     3
 -1.3739684343817163E-01 a       364     0    16     1     4
 -2.5242391641439432E-01 a       365     0    16     1     5
 -1.0396885252932728E-02 a       366     0    16     1     6
 -9.8477973420915119E-02 a       367     0    16     1     7
  1.1110580262358198E-01 a       368     0    16     1     8
 -1.5452788469406570E-01 a       369     0    16     1     9
  3.4312263735994646E-03 a       370     0    16     1    10
  1.1753485579456288E-01 a       371     0    16     1    11
  4.3896033100246833E-02 a       372     0    16     1    12
 -8.8474994051981282E-02 a       373     0    16     1    13
  2.7544577684151059E-03 a       374     0    16     1    14
 -1.7205269425529865E-01 a       375     0    16     1    15
  1.6604691496118296E-01 a       376     0    16     1    16
 -4.1317711792576726E-02 a       377     0    16     1    17
 -8.0326503505391333E-02 a       378     0    16     1    18
  1.8995462981127607E-02 a       379     0    16     1    19
  1.0116310147405266E-01 a       380     0    16     1    20
 -2.5017479248102114E-02 a       381     0    16     1    21
  1.6237443034017249E-01 a       382     0    16     1    22
  1.0444464304018242E-02 a       383     0    16     1    23
 -6.6679346531718989E-02 a       384     0    16     1    24
 -3.8689169195914830E-01 a       385     0    17     1     1
 -2.2208755156599361E-01 a       386     0    17     1     2
  1.6486352882087821E-01 a       387     0    17     1     3
 -3.5085978336107798E-01 a       388     0    17     1     4
 -2.5364861337283090E-01 a       389     0    17     1     5
  5.0425980364678262E-02 a       390     0    17     1     6
 -1.2266851099557848E-01 a       391     0    17     1     7
  1.2546632511682090E-01 a       392     0    17     1     8
 -3.7694837618949990E-04 a       393     0    17     1     9
 -1.6249121600918820E-01 a       394     0    17     1    10
  1.3821079904343525E-01 a       395     0    17     1    11
 -1.0586318012051261E-01 a       396     0    17     1    12
  9.8022104067194873E-02 a       397     0    17     1    13
 -1.1315547773024327E-01 a       398     0    17     1    14
  1.5821924416304212E-01 a       399     0    17     1    15
  6.4846264114952722E-03 a       400     0    17     1    16
 -1.4647613195451697E-01 a       401     0    17     1    17
  2.1518017971504771E-01 a       402     0    17     1    18
  8.2673430554563873E-02 a       403     0    17     1    19
 -1.4002110963715311E-01 a       404     0    17     1    20
  3.6760748782937558E-01 a       405     0    17     1    21
  3.8044078794881572E-02 a       406     0    17     1    22
 -9.6618303485788995E-02 a       407     0    17     1    23
  3.1067233415847373E-01 a       408     0    17     1    24
  1.4973599668811274E-01 a       409     0    18     1     1
 -1.0486953588233563E-01 a       410     0    18     1     2
 -1.6807405999276209E-01 a       411     0    18     1     3
 -1.6021328188656363E-02 a       412     0    18     1     4
  3.0090251558213776E-02 a       413     0    18     1     5
 -7.7790843553054004E-02 a       414     0    18     1     6
  1.7800350704474655E-01 a       415     0    18     1     7
  2.1762133680927151E-02 a       416     0    18     1     8
  4.3952329230055015E-02 a       417     0    18     1     9
  1.9594772118273870E-01 a       418     0    18     1    10
 -1.3529236949322482E-01 a       419     0    18     1    11
  1.6931055874916284E-01 a       420     0    18     1    12
 -1.6109038825247207E-01 a       421     0    18     1    13
  1.3489020700262561E-01 a       422     0    18     1    14
  8.4255723741398683E-02 a       423     0    18     1    15
 -1.4555741655235479E-02 a       424     0    18     1    16
 -4.3390655005975963E-02 a       425     0    18     1    17
  2.1712630844159067E-01 a       426     0    18     1    18
 -1.6945061683120186E-01 a       427     0    18     1    19
 -3.2274392254477435E-01 a       428     0    18     1    20
  1.5199166968119676E-01 a       429     0    18     1    21
  8.3136884031808606E-02 a       430     0    18     1    22
 -8.1041111034213173E-02 a       431     0    18     1    23
 -7.9790120614029528E-02 a       432     0    18     1    24
  1.4742793621200906E-01 a       433     0    19     1     1
 -2.7460808282960414E-01 a       434     0    19     1     2
  5.1804913127787171E-02 a       435     0    19     1     3
  2.7844890521640198E-01 a       436     0    19     1     4
 -4.2520228328496772E-02 a       437     0    19     1     5
 -8.7654388674299217E-03 a       438     0    19     1     6
  6.8648513316532603E-03 a       439     0    19     1     7
  7.9374660216135220E-02 a       440     0    19     1     8
 -1.4603740778280416E-01 a       441     0    19     1     9
  7.4787515586171333E-02 a       442     0    19     1    10
  1.3879047031267244E-01 a       443     0    19     1    11
  2.0734893305449581E-01 a       444     0    19     1    12
 -6.6836861350582699E-02 a       445     0    19     1    13
  1.0129671945516938E-01 a       446     0    19     1    14
  1.7253527400452242E-03 a       447     0    19     1    15
  5.1668914811088665E-02 a       448     0    19     1    16
 -1.7706169977988290E-01 a       449     0    19     1    17
 -7.4683299843206735E-02 a       450     0    19     1    18
 -2.2182535099317269E-01 a       451     0    19     1    19
  5.6968630328939951E-02 a       452     0    19     1    20
  9.3440978257635348E-03 a       453     0    19     1    21
  3.4087030109462617E-02 a       454     0    19     1    22
 -1.0569973203353475E-01 a       455     0    19     1    23
  1.2407895233805055E-01 a       456     0    19     1    24
  1.4346992349634326E-02 a       457     0    20     1     1
  1.0696909402606650E-01 a       458     0    20     1     2
  5.7716004501428532E-02 a       459     0    20     1     3
  4.3725237312599710E-02 a       460     0    20     1     4
  1.1616538864230742E-01 a       461     0    20     1     5
 -6.1515940026389403E-02 a       462     0    20     1     6
 -1.5292634703061192E-01 a       463     0    20     1     7
  5.6724889390649964E-02 a       464     0    20     1     8
  1.5318127155287597E-01 a       465     0    20     1     9
  1.7512828672716009E-02 a       466     0    20     1    10
  1.5227524880790233E-01 a       467     0    20     1    11
  1.3455281958683420E-02 a       468     0    20     1    12
  1.3650171194033701E-02 a       469     0    20     1    13
 -5.9511916731390786E-02 a       470     0    20     1    14
  8.3062342731267919E-02 a       471     0    20     1    15
 -1.1755234233872675E-01 a       472     0    20     1    16
 -1.3621663183119054E-01 a       473     0    20     1    17
 -1.7683940303406634E-01 a       474     0    20     1    18
 -5.0574592896018379E-02 a       475     0    20     1    19
  4.0714788216946085E-01 a       476     0    20     1    20
  8.7348404792057938E-02 a       477     0    20     1    21
  3.4866462526558319E-02 a       478     0    20     1    22
  4.3562109682836525E-02 a       479     0    20     1    23
 -1.0970572562324699E-01 a       480     0    20     1    24
 -3.2093479012074624E-03 a       481     0    21     1     1
  1.3509299944945312E-02 a       482     0    21     1     2
 -5.1564346295402075E-02 a       483     0    21     1     3
 -1.7712987777340605E-02 a       484     0    21     1     4
 -2.2423877901034411E-01 a       485     0    21     1     5
  5.1498383665429873E-02 a       486     0    21     1     6
 -1.8444697104330368E-01 a       487     0    21     1     7
 -1.0644455054021662E-01 a       488     0    21     1     8
  2.4980589220649413E-01 a       489     0    21     1     9
  1.1588331853393955E-02 a       490     0    21     1    10
  2.2554204361815255E-01 a       491     0    21     1    11
  2.1156585447573747E-01 a       492     0    21     1    12
 -3.1970921773572095E-02 a       493     0    21     1    13
 -4.7940577302795929E-03 a       494     0    21     1    14
 -2.0618821928333773E-02 a       495     0    21     1    15
  1.0786347003982852E-01 a       496     0    21     1    16
  1.0393371200904797E-01 a       497     0    21     1    17
 -5.5059188451036106E-02 a       498     0    21     1    18
 -9.6570014552730711E-03 a       499     0    21     1    19
  1.5421624860413707E-01 a       500     0    21     1    20
  2.4686554047262457E-02 a       501     0    21     1    21
  1.0020419412866599E-01 a       502     0    21     1    22
 -3.0673752864158778E-02 a       503     0    21     1    23
  2.1764142560968242E-01 a       504     0    21     1    24
 -1.1662754082671845E-01 a       505     0    22     1     1
  2.0346810384040299E-02 a       506     0    22     1     2
 -2.5495968245965273E-02 a       507     0    22     1     3
  8.2540880230209911E-03 a       508     0    22     1     4
 -1.5215905716205200E-01 a       509     0    22     1     5
 -9.9705591469150937E-02 a       510     0    22     1     6
 -5.2016126367393403E-02 a       511     0    22     1     7
  1.7623184076599419E-01 a       512     0    22     1     8
 -2.3815634353438855E-01 a       513     0    22     1     9
 -1.3468917754979043E-01 a       514     0    22     1    10
  6.1207116251010933E-03 a       515     0    22     1    11
  1.2531000693438326E-02 a       516     0    22     1    12
  1.1521492662967989E-01 a       517     0    22     1    13
 -6.2665367408965403E-02 a       518     0    22     1    14
 -8.2691915678944922E-03 a       519     0    22     1    15
  2.5672172259115883E-01 a       520     0    22     1    16
  1.2202388346109591E-01 a       521     0    22     1    17
 -1.1050978851655550E-01 a       522     0    22     1    18
 -1.5692678417793998E-01 a       523     0    22     1    19
  9.9106867749316208E-02 a       524     0    22     1    20
 -7.8110086628316727E-02 a       525     0    22     1    21
  4.1359076265195083E-02 a       526     0    22     1    22
  2.0598628343734111E-02 a       527     0    22     1    23
  1.0917658899762039E-01 a       528     0    22     1    24
  2.7038725527251184E-01 a       529     0    23     1     1
  6.0402965680115481E-02 a       530     0    23     1     2
 -8.2605324076701236E-02 a       531     0    23     1     3
  3.9221467422959577E-01 a       532     0    23     1     4
  1.1151291016562352E-01 a       533     0    23     1     5
 -2.0793229190954551E-01 a       534     0    23     1     6
  3.2322766000902753E-02 a       535     0    23     1     7
  2.1413531205013429E-02 a       536     0    23     1     8
  1.0627240493037912E-01 a       537     0    23     1     9
  1.4042850723691183E-01 a       538     0    23     1    10
 -2.6558471129404310E-01 a       539     0    23     1    11
  1.3461830527353857E-01 a       540     0    23     1    12
  2.4504256684055821E-02 a       541     0    23     1    13
 -1.7424788188912932E-01 a       542     0    23     1    14
  1.8783569366539252E-01 a       543     0    23     1    15
  5.1955045007742874E-02 a       544     0    23     1    16
  1.6482525434509274E-01 a       545     0    23     1    17
  1.2153553973793141E-02 a       546     0    23     1    18
 -1.4842442797852107E-01 a       547     0    23     1    19
  1.2656692271188272E-01 a       548     0    23     1    20
  3.1491946875610910E-02 a       549     0    23     1    21
  5.7311730514856114E-02 a       550     0    23     1    22
  1.1671068984588361E-01 a       551     0    23     1    23
 -4.5955943567231039E-03 a       552     0    23     1    24
  2.7690236300686739E-02 a       553     0    24     1     1
 -1.0517568000130859E-02 a       554     0    24     1     2
  1.4027830648152897E-01 a       555     0    24     1     3
  2.9015153154525800E-02 a       556     0    24     1     4
  9.1887006548556721E-02 a       557     0    24     1     5
  2.5948823184972786E-02 a       558     0    24     1     6
 -1.2998072134692737E-01 a       559     0    24     1     7
  1.4139701466295607E-02 a       560     0    24     1     8
 -1.1577607948079241E-01 a       561     0    24     1     9
 -1.2885455828103343E-01 a       562     0    24     1    10
 -7.7450156690721710E-03 a       563     0    24     1    11
  5.2503951732591841E-02 a       564     0    24     1    12
  1.1058843271825831E-01 a       565     0    24     1    13
  6.1883358071219932E-02 a       566     0    24     1    14
  2.2477365252026420E-02 a       567     0    24     1    15
  1.1840157136231239E-02 a       568     0    24     1    16
 -1.3288100893911563E-02 a       569     0    24     1    17
 -1.4981318643061112E-01 a       570     0    24     1    18
 -1.6354474133223904E-01 a       571     0    24     1    19
  8.9536737639119603E-03 a       572     0    24     1    20
 -5.0083043892984382E-02 a       573     0    24     1    21
  8.6022862189433599E-02 a       574     0    24     1    22
 -6.2403011745329209E-02 a       575     0    24     1    23
  1.4375360013744262E-01 a       576     0    24     1    24
  2.3380886617621874E-01 a       577     0    25     1     1
  5.4227865711927101E-02 a       578     0    25     1     2
  3.8680872359145130E-01 a       579     0    25     1     3
 -1.9175455334417940E-01 a       580     0    25     1     4
 -1.0611244267879376E-01 a       581     0    25     1     5
 -1.4999037496984743E-01 a       582     0    25     1     6
 -1.1827096400637090E-01 a       583     0    25     1     7
 -3.9495916484537608E-01 a       584     0    25     1     8
 -2.5999492990390016E-01 a       585     0    25     1     9
  6.7050994661914304E-02 a       586     0    25     1    10
 -2.2146508528004016E-01 a       587     0    25     1    11
 -3.5648361511530696E-02 a       588     0    25     1    12
  4.4034595186146157E-02 a       589     0    25     1    13
  2.4511891139645725E-01 a       590     0    25     1    14
 -3.0268026300733854E-02 a       591     0    25     1    15
 -1.1307618901440082E-01 a       592     0    25     1    16
 -2.2807053295233906E-01 a       593     0    25     1    17
  1.0247583661197569E-01 a       594     0    25     1    18
 -2.7045212278594932E-01 a       595     0    25     1    19
 -7.7008549776333424E-02 a       596     0    25     1    20
 -2.2980790413408517E-01 a       597     0    25     1    21
 -3.8938141011860439E-02 a       598     0    25     1    22
  2.6965723544959158E-01 a       599     0    25     1    23
  1.3638327205733380E-02 a       600     0    25     1    24
  1.7748362835522560E-01 a       601     0    26     1     1
 -8.1110770329203677E-02 a       602     0    26     1     2
 -2.4619060904076215E-01 a       603     0    26     1     3
  2.1214256694706582E-01 a       604     0    26     1     4
  8.7071687635271788E-02 a       605     0    26     1     5
  4.6601320554913207E-02 a       606     0    26     1     6
  5.4455761551074101E-02 a       607     0    26     1     7
  2.4811185718922768E-01 a       608     0    26     1     8
 -6.2691423299951074E-02 a       609     0    26     1     9
 -2.5255235467622528E-01 a       610     0    26     1    10
  2.1078157051288010E-01 a       611     0    26     1    11
 -5.5189130850060109E-02 a       612     0    26     1    12
  2.0450387313879564E-01 a       613     0    26     1    13
 -2.2253529286561674E-01 a       614     0    26     1    14
  1.4912272843316071E-01 a       615     0    26     1    15
  7.4801379716476823E-02 a       616     0    26     1    16
 -3.6248294841944662E-01 a       617     0    26     1    17
 -1.2246302463162384E-01 a       618     0    26     1    18
  1.6101047096246357E-01 a       619     0    26     1    19
 -8.4793820939022602E-02 a       620     0    26     1    20
  1.2698413143435747E-01 a       621     0    26     1    21
 -1.7088853324902939E-01 a       622     0    26     1    22
  4.9708731643860887E-02 a       623     0    26     1    23
 -2.6608012761335820E-01 a       624     0    26     1    24
  7.5717020519874417E-02 a       625     0    27     1     1
 -1.1402631366881810E-01 a       626     0    27     1     2
 -7.4468707353609068E-02 a       627     0    27     1     3
  6.6743340153874550E-02 a       628     0    27     1     4
  4.7939230808820975E-02 a       629     0    27     1     5
  1.5262973949619885E-01 a       630     0    27     1     6
  1.1929346528149881E-01 a       631     0    27     1     7
  3.4481838304736066E-03 a       632     0    27     1     8
 -1.3164657554816722E-01 a       633     0    27     1     9
  1.6146062101000547E-01 a       634     0    27     1    10
 -3.1733995364929174E-01 a       635     0    27     1    11
  1.4596273910079888E-01 a       636     0    27     1    12
  5.6481677621216628E-02 a       637     0    27     1    13
  1.5629813365700149E-01 a       638     0    27     1    14
 -2.3159430223166549E-02 a       639     0    27     1    15
  1.1460370140748743E-01 a       640     0    27     1    16
 -5.2204889641849800E-02 a       641     0    27     1    17
  4.7316749909314573E-02 a       642     0    27     1    18
 -3.1111244150135148E-01 a       643     0    27     1    19
 -2.1873627367827317E-02 a       644     0    27     1    20
 -1.0020451881962682E-01 a       645     0    27     1    21
 -5.5261907314714323E-02 a       646     0    27     1    22
 -1.0046870570406630E-01 a       647     0    27     1    23
  1.5451099884536110E-01 a       648     0    27     1    24
 -4.3799810208746688E-02 a       649     0    28     1     1
  2.1984934578583158E-02 a       650     0    28     1     2
 -3.9245983012626294E-02 a       651     0    28     1     3
  2.9030258578692666E-02 a       652     0    28     1     4
 -1.9189710928841797E-02 a       653     0    28     1     5
  6.0251819036672379E-02 a       654     0    28     1     6
  1.4351492266792681E-01 a       655     0    28     1     7
  1.3863834997890653E-01 a       656     0    28     1     8
  1.0846741296237848E-01 a       657     0    28     1     9
  3.7244268276306802E-01 a       658     0    28     1    10
 -1.0801843870112078E-01 a       659     0    28     1    11
  1.4163828666827000E-01 a       660     0    28     1    12
 -9.8476054642851002E-02 a       661     0    28     1    13
 -9.0242373280732174E-02 a       662     0    28     1    14
 -5.1898997529996438E-02 a       663     0    28     1    15
  3.5522107605454760E-02 a       664     0    28     1    16
  2.9304708666498518E-02 a       665     0    28     1    17
  1.3740317940670893E-01 a       666     0    28     1    18
  2.0674504779930672E-02 a       667     0    28     1    19
  2.0339989438474797E-02 a       668     0    28     1    20
 -3.0319618278853572E-02 a       669     0    28     1    21
 -5.2667196342741217E-02 a       670     0    28     1    22
 -5.1083263167591882E-02 a       671     0    28     1    23
  2.9418794831185015E-03 a       672     0    28     1    24
 -1.4115850065714841E-01 a       673     0    29     1     1
 -2.7895664025914069E-01 a       674     0    29     1     2
 -9.1350849402229053E-02 a       675     0    29     1     3
  3.1386683938517651E-01 a       676     0    29     1     4
  3.0345589243157112E-01 a       677     0    29     1     5
  2.1925710887860347E-01 a       678     0    29     1     6
  9.2309820667661316E-02 a       679     0    29     1     7
  2.7235513701344910E-01 a       680     0    29     1     8
  1.4827622525709719E-01 a       681     0    29     1     9
 -5.1030112389683538E-02 a       682     0    29     1    10
 -1.5384290354365177E-01 a       683     0    29     1    11
 -7.1549274304013616E-02 a       684     0    29     1    12
  1.5105705651578611E-02 a       685     0    29     1    13
 -4.1209116039526233E-01 a       686     0    29     1    14
  7.3311653751524888E-02 a       687     0    29     1    15
  6.0018424880009941E-02 a       688     0    29     1    16
 -2.7289500226182123E-02 a       689     0    29     1    17
 -2.4164581873546220E-01 a       690     0    29     1    18
 -1.1024198083684569E-01 a       691     0    29     1    19
  3.1851696666388235E-02 a       692     0    29     1    20
  2.4985579140206429E-01 a       693     0    29     1    21
 -1.5767589989053053E-02 a       694     0    29     1    22
  2.2537239109230858E-01 a       695     0    29     1    23
 -2.3523421520006677E-01 a       696     0    29     1    24
 -3.2636883033017661E-01 a       697     0    30     1     1
 -2.2039695868658779E-01 a       698     0    30     1     2
  3.0835667231624325E-02 a       699     0    30     1     3
  1.6312091244357532E-01 a       700     0    30     1     4
 -2.8638410578520979E-01 a       701     0    30     1     5
 -5.9805087356744280E-02 a       702     0    30     1     6
 -2.7351943976226695E-01 a       703     0    30     1     7
  1.3644290918101051E-01 a       704     0    30     1     8
 -9.5636523844790641E-02 a       705     0    30     1     9
  1.1251334805287612E-01 a       706     0    30     1    10
  1.7096316370060488E-01 a       707     0    30     1    11
  2.1543539717843321E-01 a       708     0    30     1    12
  1.9150442203057066E-01 a       709     0    30     1    13
  2.6334222748612768E-01 a       710     0    30     1    14
  1.6478967760722128E-02 a       711     0    30     1    15
 -5.1020447812419607E-02 a       712     0    30     1    16
 -1.4275147145146003E-01 a       713     0    30     1    17
 -9.3324650930287592E-02 a       714     0    30     1    18
 -2.4048078411317778E-01 a       715     0    30     1    19
 -2.4482689552693193E-01 a       716     0    30     1    20
  2.1004728304259571E-01 a       717     0    30     1    21
  3.4406568287634637E-02 a       718     0    30     1    22
 -1.9880467652427788E-01 a       719     0    30     1    23
  8.4241445562812101E-02 a       720     0    30     1    24
  2.2192829863903785E-01 a       721     0    31     1     1
  5.5865113367698685E-02 a       722     0    31     1     2
  2.8084445720614505E-02 a       723     0    31     1     3
 -1.7082326907254503E-01 a       724     0    31     1     4
  5.6484729287022938E-02 a       725     0    31     1     5
  4.2482603585112653E-02 a       726     0    31     1     6
  1.3742661141837806E-01 a       727     0    31     1     7
 -4.5758934644594756E-01 a       728     0    31     1     8
  1.1740844334398989E-01 a       729     0    31     1     9
 -1.3533601802627857E-01 a       730     0    31     1    10
 -4.4406184164225468E-02 a       731     0    31     1    11
  1.7689569412357494E-02 a       732     0    31     1    12
 -1.5018837457398523E-01 a       733     0    31     1    13
  1.7608474910158980E-01 a       734     0    31     1    14
 -6.6447893674294288E-03 a       735     0    31     1    15
 -2.5741025771178441E-02 a       736     0    31     1    16
 -3.2714355639741788E-01 a       737     0    31     1    17
 -4.6068231676556951E-02 a       738     0    31     1    18
 -8.5769793437975791E-02 a       739     0    31     1    19
  4.2970587448815112E-01 a       740     0    31     1    20
  1.4253505227066386E-02 a       741     0    31     1    21
  2.2988024767684492E-01 a       742     0    31     1    22
  4.6951653917697463E-02 a       743     0    31     1    23
 -9.2390617847600248E-02 a       744     0    31     1    24
  4.3753298869562807E-02 a       745     0    32     1     1
  1.8620144596844146E-01 a       746     0    32     1     2
 -4.3349057496499044E-01 a       747     0    32     1     3
 -2.2383492599047969E-02 a       748     0    32     1     4
  1.4469328724628583E-01 a       749     0    32     1     5
  3.6149192842346814E-02 a       750     0    32     1     6
  3.8819342496909687E-01 a       751     0    32     1     7
  1.1174778989097111E-02 a       752     0    32     1     8
 -1.0056772767620822E-01 a       753     0    32     1     9
  2.0875402934019911E-02 a       754     0    32     1    10
 -1.8969086199980065E-01 a       755     0    32     1    11
  6.8649083389569793E-02 a       756     0    32     1    12
 -1.1872203468059359E-01 a       757     0    32     1    13
 -3.4281293078449976E-01 a       758     0    32     1    14
  8.8893862665755677E-02 a       759     0    32     1    15
  9.3368183557106021E-02 a       760     0    32     1    16
  1.4450700168945724E-01 a       761     0    32     1    17
 -1.0487952515278014E-01 a       762     0    32     1    18
 -6.3977754487423676E-03 a       763     0    32     1    19
 -1.9709946991739377E-01 a       764     0    32     1    20
  2.1152114884905907E-01 a       765     0    32     1    21
  3.1300396832820787E-01 a       766     0    32     1    22
 -2.4404768950751479E-01 a       767     0    32     1    23
  2.6391469400295520E-01 a       768     0    32     1    24
 -1.4084476665403303E-01 a       769     0    33     1     1
  2.2597486422519261E-01 a       770     0    33     1     2
  1.0123291401602189E-02 a       771     0    33     1     3
 -3.7431864841068307E-02 a       772     0    33     1     4
  2.0975986270992045E-01 a       773     0    33     1     5
  2.4571803324244718E-01 a       774     0    33     1     6
  3.0128609298662506E-01 a       775     0    33     1     7
 -7.2800039142450965E-02 a       776     0    33     1     8
 -4.4155750718993102E-02 a       777     0    33     1     9
  9.8391666969554370E-02 a       778     0    33     1    10
  1.3907065266911200E-01 a       779     0    33     1    11
  1.3987640170472293E-01 a       780     0    33     1    12
 -6.4603923205856159E-02 a       781     0    33     1    13
 -1.7480666323999160E-02 a       782     0    33     1    14
 -2.6721990313464596E-02 a       783     0    33     1    15
  1.8613641495435090E-01 a       784     0    33     1    16
  9.5865357672957424E-02 a       785     0    33     1    17
  8.4198247403560189E-02 a       786     0    33     1    18
  1.3939260071542503E-01 a       787     0    33     1    19
  9.0052858944025829E-02 a       788     0    33     1    20
  7.5365492255744154E-02 a       789     0    33     1    21
  2.0466148503974518E-01 a       790     0    33     1    22
  2.9827130596361562E-01 a       791     0    33     1    23
  3.7320385477179491E-01 a       792     0    33     1    24
 -2.2898298867695632E-01 a       793     0    34     1     1
 -3.2984910905963706E-02 a       794     0    34     1     2
 -2.0899070062627290E-01 a       795     0    34     1     3
  1.6279893523034802E-01 a       796     0    34     1     4
  2.2130884139272705E-01 a       797     0    34     1     5
 -1.2477776573416974E-01 a       798     0    34     1     6
  2.6615837437960380E-02 a       799     0    34     1     7
  5.5627094882144200E-02 a       800     0    34     1     8
 -4.8770899070895617E-03 a       801     0    34     1     9
 -2.4406860249044829E-01 a       802     0    34     1    10
  2.0474768548926656E-01 a       803     0    34     1    11
 -2.4033905826154847E-01 a       804     0    34     1    12
 -2.4117687014851402E-01 a       805     0    34     1    13
 -1.9309403543742673E-01 a       806     0    34     1    14
  9.1758353311123891E-02 a       807     0    34     1    15
 -1.2311769430714482E-01 a       808     0    34     1    16
 -2.9750643534348872E-03 a       809     0    34     1    17
  3.9614510392424718E-01 a       810     0    34     1    18
  2.4716172122152025E-01 a       811     0    34     1    19
  4.0040943413358387E-01 a       812     0    34     1    20
  1.3379321834868443E-01 a       813     0    34     1    21
  1.4334952084043667E-01 a       814     0    34     1    22
  1.7409062813466505E-01 a       815     0    34     1    23
 -7.8716998394383134E-02 a       816     0    34     1    24
 -3.7456748109823701E-01 a       817     0    35     1     1
  1.9870710803126368E-01 a       818     0    35     1     2
  4.6724332027791388E-01 a       819     0    35     1     3
  3.4794559941868575E-01 a       820     0    35     1     4
  4.6108694184680510E-01 a       821     0    35     1     5
 -3.9294649328197925E-03 a       822     0    35     1     6
 -1.5152384280869069E-01 a       823     0    35     1     7
  1.9794758113911676E-01 a       824     0    35     1     8
 -1.2972491454951807E-01 a       825     0    35     1     9
  5.7890465953372647E-02 a       826     0    35     1    10
  1.9403725540087438E-01 a       827     0    35     1    11
  1.1985767556549316E-01 a       828     0    35     1    12
 -4.1690003664107533E-01 a       829     0    35     1    13
 -3.8976267126590358E-01 a       830     0    35     1    14
  1.5253635960988560E-01 a       831     0    35     1    15
 -3.6661968880034507E-01 a       832     0    35     1    16
  3.1617435817994838E-01 a       833     0    35     1    17
 -1.0498933517212269E-01 a       834     0    35     1    18
  4.0741018204525742E-01 a       835     0    35     1    19
  2.1080862903762412E-01 a       836     0    35     1    20
 -1.2540083642727068E-01 a       837     0    35     1    21
 -2.3941073484640599E-01 a       838     0    35     1    22
  1.6952824878964240E-01 a       839     0    35     1    23
 -2.2421267069881409E-01 a       840     0    35     1    24
 -3.5819096135318035E-01 a       841     0    36     1     1
  4.6020313770956078E-01 a       842     0    36     1     2
  1.7501364696657701E-01 a       843     0    36     1     3
  4.5478696683130682E-01 a       844     0    36     1     4
  2.5288640882342722E-01 a       845     0    36     1     5
 -1.9266505867475162E-01 a       846     0    36     1     6
  3.5096790727967819E-01 a       847     0    36     1     7
 -1.8342632112969964E-02 a       848     0    36     1     8
 -5.4696172206283381E-02 a       849     0    36     1     9
  5.6091342908525643E-01 a       850     0    36     1    10
 -1.0559739884186638E-01 a       851     0    36     1    11
  7.9158379501576663E-03 a       852     0    36     1    12
 -1.4411057310692477E-01 a       853     0    36     1    13
  1.1340463220364443E-01 a       854     0    36     1    14
 -6.1415420947709159E-02 a       855     0    36     1    15
  8.2597711550671374E-02 a       856     0    36     1    16
 -1.6352839567371588E-01 a       857     0    36     1    17
 -7.7160677597420083E-02 a       858     0    36     1    18
 -1.5458469052317406E-01 a       859     0    36     1    19
  4.4206983007221826E-02 a       860     0    36     1    20
 -1.6622345470893157E-01 a       861     0    36     1    21
  1.1733910563373719E-01 a       862     0    36     1    22
  1.1304150177944185E-01 a       863     0    36     1    23
 -3.4792096404821138E-01 a       864     0    36     1    24
  3.1969456336608043E-01 a       865     0    37     1     1
 -1.0206720506778358E-02 a       866     0    37     1     2
  9.9626429796334945E-02 a       867     0    37     1     3
 -1.0295041064132228E-01 a       868     0    37     1     4
  1.4582828375963802E-01 a       869     0    37     1     5
  2.0550540990612737E-02 a       870     0    37     1     6
  1.7542169258948984E-01 a       871     0    37     1     7
  3.8470577190969281E-02 a       872     0    37     1     8
 -2.6339181024802993E-01 a       873     0    37     1     9
 -7.5823481774744586E-02 a       874     0    37     1    10
 -1.1401936137124288E-01 a       875     0    37     1    11
 -2.2693635074454589E-02 a       876     0    37     1    12
 -3.2610381004733358E-01 a       877     0    37     1    13
 -3.2699725434432803E-01 a       878     0    37     1    14
  7.1284736615806504E-02 a       879     0    37     1    15
 -1.3355053422489294E-01 a       880     0    37     1    16
 -1.0845898979095762E-01 a       881     0    37     1    17
 -1.2238563415157196E-01 a       882     0    37     1    18
 -6.5987400104337873E-02 a       883     0    37     1    19
  9.0797944416192780E-02 a       884     0    37     1    20
 -5.6799032598031637E-02 a       885     0    37     1    21
 -2.7316047330926485E-03 a       886     0    37     1    22
  1.6117876138551440E-01 a       887     0    37     1    23
 -6.8637623943878179E-02 a       888     0    37     1    24
 -1.1917222079819328E-01 a       889     0    38     1     1
 -3.2374104374643158E-02 a       890     0    38     1     2
 -2.3623910020400427E-01 a       891     0    38     1     3
  4.3814899803442789E-02 a       892     0    38     1     4
 -5.3351478106685279E-02 a       893     0    38     1     5
  2.8321691153220391E-01 a       894     0    38     1     6
 -1.2488723359148780E-01 a       895     0    38     1     7
 -3.2486327435162811E-03 a       896     0    38     1     8
 -3.0688538997902758E-02 a       897     0    38     1     9
  1.3564571841876297E-01 a       898     0    38     1    10
 -1.2735101724297104E-01 a       899     0    38     1    11
 -7.0021604443066821E-02 a       900     0    38     1    12
 -2.7620429583998835E-01 a       901     0    38     1    13
 -3.2922066478854983E-02 a       902     0    38     1    14
  4.4100274289694041E-02 a       903     0    38     1    15
 -1.7151136287357767E-02 a       904     0    38     1    16
 -1.3144020349199448E-02 a       905     0    38     1    17
 -1.1025277532781740E-01 a       906     0    38     1    18
 -3.1835126424547022E-01 a       907     0    38     1    19
 -6.5854386706475615E-02 a       908     0    38     1    20
 -7.5727846712362976E-02 a       909     0    38     1    21
 -2.1839539366109142E-01 a       910     0    38     1    22
  1.1450132131927611E-01 a       911     0    38     1    23
 -1.1028900597030093E-01 a       912     0    38     1    24
 -1.5367308541224900E-01 a       913     0    39     1     1
 -2.8707685617582690E-01 a       914     0    39     1     2
 -8.5520943229218244E-02 a       915     0    39     1     3
  3.1906599493027724E-02 a       916     0    39     1     4
 -8.8411532508783960E-02 a       917     0    39     1     5
  4.0032090299056244E-02 a       918     0    39     1     6
  2.1231757166142062E-01 a       919     0    39     1     7
 -1.8034760425639740E-01 a       920     0    39     1     8
 -2.9989956860180324E-02 a       921     0    39     1     9
 -7.7517710992678276E-02 a       922     0    39     1    10
  1.2330689033169508E-01 a       923     0    39     1    11
 -3.6919648703452226E-02 a       924     0    39     1    12
 -1.6062495964289397E-01 a       925     0    39     1    13
  2.3684447595465291E-01 a       926     0    39     1    14
 -1.3955346762733375E-01 a       927     0    39     1    15
  3.4515951785186925E-02 a       928     0    39     1    16
 -4.6112491855686805E-02 a       929     0    39     1    17
 -9.1678088835368626E-02 a       930     0    39     1    18
 -4.2908694529219922E-02 a       931     0    39     1    19
 -4.1690998407089608E-01 a       932     0    39     1    20
  1.8545485071367498E-01 a       933     0    39     1    21
 -1.4306130355524491E-01 a       934     0    39     1    22
 -6.1997100428696050E-02 a       935     0    39     1    23
  1.9551067756919790E-01 a       936     0    39     1    24
 -3.6524853770961957E-01 a       937     0    40     1     1
 -6.0594804612777983E-02 a       938     0    40     1     2
 -3.9243502925926460E-02 a       939     0    40     1     3
 -1.2646256771394196E-01 a       940     0    40     1     4
  7.6644195600612489E-02 a       941     0    40     1     5
  8.1207592402565587E-02 a       942     0    40     1     6
 -6.3196258334989389E-03 a       943     0    40     1     7
  1.5997683268335972E-01 a       944     0    40     1     8
  1.5594991288425767E-02 a       945     0    40     1     9
 -7.7579401481449373E-02 a       946     0    40     1    10
  2.3701654318949425E-02 a       947     0    40     1    11
 -1.9041068144706286E-02 a       948     0    40     1    12
  1.4142573372502165E-01 a       949     0    40     1    13
  1.7480600244881812E-02 a       950     0    40     1    14
  1.7114497852041100E-01 a       951     0    40     1    15
 -1.2382286714427564E-01 a       952     0    40     1    16
  9.3384796846144105E-02 a       953     0    40     1    17
  4.1616118015360082E-02 a       954     0    40     1    18
  2.6571414080905544E-03 a       955     0    40     1    19
 -1.4495324525748773E-01 a       956     0    40     1    20
 -6.0241913530046862E-02 a       957     0    40     1    21
  2.9092511053192838E-01 a       958     0    40     1    22
 -7.3083065428290503E-02 a       959     0    40     1    23
 -6.6316251388410657E-02 a       960     0    40     1    24
 -2.3546094836291806E-01 a       961     0    41     1     1
 -1.3020732307915278E-01 a       962     0    41     1     2
  2.3173897273114558E-01 a       963     0    41     1     3
 -1.1678082183458146E-02 a       964     0    41     1     4
 -2.1862427273286758E-01 a       965     0    41     1     5
 -2.2417094384429567E-01 a       966     0    41     1     6
  1.2368420104714650E-01 a       967     0    41     1     7
  1.5199304627017193E-01 a       968     0    41     1     8
 -1.2780673846676369E-01 a       969     0    41     1     9
 -1.7033301843609383E-01 a       970     0    41     1    10
 -2.0202206833412717E-01 a       971     0    41     1    11
 -3.2758561651272050E-01 a       972     0    41     1    12
 -1.5512021667565307E-01 a       973     0    41     1    13
 -3.3763695824862633E-01 a       974     0    41     1    14
 -1.0691873300673344E-01 a       975     0    41     1    15
 -1.1124110207590365E-01 a       976     0    41     1    16
  9.1782062830321587E-02 a       977     0    41     1    17
 -1.2971177517540225E-01 a       978     0    41     1    18
  6.6734268297817895E-02 a       979     0    41     1    19
 -2.6760842062990048E-01 a       980     0    41     1    20
 -1.8931294800168780E-01 a       981     0    41     1    21
 -1.6355328560942139E-01 a       982     0    41     1    22
  1.8496873138948863E-01 a       983     0    41     1    23
 -7.9250325556532858E-02 a       984     0    41     1    24
 -2.2154331206782293E-01 a       985     0    42     1     1
 -3.4219649067733787E-01 a       986     0    42     1     2
 -2.3177194176068427E-01 a       987     0    42     1     3
 -1.6695810538987665E-01 a       988     0    42     1     4
 -1.4304976589957380E-01 a       989     0    42     1     5
 -5.4572537017615330E-01 a       990     0    42     1     6
 -8.6582149049105425E-02 a       991     0    42     1     7
 -6.0072700813976990E-02 a       992     0    42     1     8
 -4.2148365367681295E-02 a       993     0    42     1     9
 -3.9251989450099978E-01 a       994     0    42     1    10
  1.4214446711256784E-01 a       995     0    42     1    11
 -4.8774945571079087E-01 a       996     0    42     1    12
  8.6032732290237834E-02 a       997     0    42     1    13
 -1.2516163245503423E-01 a       998     0    42     1    14
 -1.9326654589836917E-01 a       999     0    42     1    15
 -1.5054565175376472E-01 a      1000     0    42     1    16
  2.6955786033291733E-02 a      1001     0    42     1    17
  1.6911584648078540E-01 a      1002     0    42     1    18
  1.1439307631247958E-01 a      1003     0    42     1    19
  7.0631582245269067E-02 a      1004     0    42     1    20
  1.9208283882573389E-02 a      1005     0    42     1    21
  1.8803947990697342E-01 a      1006     0    42     1    22
  7.7330130403710409E-02 a      1007     0    42     1    23
  3.7617440745642350E-01 a      1008     0    42     1    24
  2.8585113822633512E-01 a      1009     0    43     1     1
 -2.4082537639126078E-01 a      1010     0    43     1     2
  2.8703692316001517E-01 a      1011     0    43     1     3
 -1.1733090800074722E-01 a      1012     0    43     1     4
  1.0373803441726806E-01 a      1013     0    43     1     5
  4.7694886238379523E-02 a      1014     0    43     1     6
 -2.0072523034567735E-01 a      1015     0    43     1     7
 -8.5896612133672084E-02 a      1016     0    43     1     8
 -4.5912173776864573E-02 a      1017     0    43     1     9
  2.2013701713182479E-01 a      1018     0    43     1    10
 -1.8657609154323065E-01 a      1019     0    43     1    11
  3.3691074006589378E-01 a      1020     0    43     1    12
 -5.1673168306854943E-02 a      1021     0    43     1    13
 -7.4816999320260077E-02 a      1022     0    43     1    14
  2.8993109711026188E-01 a      1023     0    43     1    15
 -1.5265731089753998E-01 a      1024     0    43     1    16
  2.3968480849612617E-01 a      1025     0    43     1    17
 -2.3910640973578812E-02 a      1026     0    43     1    18
  6.3027894783926383E-02 a      1027     0    43     1    19
 -1.4084194584633331E-01 a      1028     0    43     1    20
 -2.5982485063007155E-02 a      1029     0    43     1    21
  1.4910959325230325E-01 a      1030     0    43     1    22
 -5.5663763517707666E-03 a      1031     0    43     1    23
  8.6620590983593995E-02 a      1032     0    43     1    24
  7.7658157370013251E-03 a      1033     0    44     1     1
  2.7116359790023614E-01 a      1034     0    44     1     2
  2.8542015723147085E-01 a      1035     0    44     1     3
 -2.9318690312941215E-01 a      1036     0    44     1     4
  1.5884771939453746E-01 a      1037     0    44     1     5
  2.0867027626679879E-01 a      1038     0    44     1     6
  7.9632389539894224E-02 a      1039     0    44     1     7
  3.4016377677777099E-02 a      1040     0    44     1     8
 -8.8841208727550372E-03 a      1041     0    44     1     9
  5.1513703340515041E-02 a      1042     0    44     1    10
 -4.6508653372293773E-01 a      1043     0    44     1    11
 -3.5288450101642915E-02 a      1044     0    44     1    12
 -9.2162691223666673E-02 a      1045     0    44     1    13
 -1.6102001542135438E-01 a      1046     0    44     1    14
 -3.6405480386934025E-01 a      1047     0    44     1    15
  1.4064469152017897E-01 a      1048     0    44     1    16
  3.7201033398191724E-01 a      1049     0    44     1    17
  6.0851693726743442E-03 a      1050     0    44     1    18
 -2.3259852055094346E-01 a      1051     0    44     1    19
 -7.2873107756442249E-02 a      1052     0    44     1    20
 -1.2341669161849422E-01 a      1053     0    44     1    21
 -7.5102295869430111E-02 a      1054     0    44     1    22
  1.7686414357220798E-01 a      1055     0    44     1    23
  1.0765560859803185E-01 a      1056     0    44     1    24
  6.6171011314384909E-02 a      1057     0    45     1     1
  1.5820864339685217E-01 a      1058     0    45     1     2
  1.2974852940774864E-01 a      1059     0    45     1     3
  9.1629234396866724E-02 a      1060     0    45     1     4
 -1.1817312923776929E-01 a      1061     0    45     1     5
 -3.2332012043037905E-01 a      1062     0    45     1     6
  4.7674496852252141E-02 a      1063     0    45     1     7
  5.7684793666125236E-02 a      1064     0    45     1     8
  9.5321185700000921E-02 a      1065     0    45     1     9
  2.0595970142403910E-02 a      1066     0    45     1    10
  4.2583250709512424E-02 a      1067     0    45     1    11
  3.1779079870020016E-01 a      1068     0    45     1    12
 -8.9749427977289589E-03 a      1069     0    45     1    13
  4.1140764214565578E-01 a      1070     0    45     1    14
 -4.2704073193601446E-04 a      1071     0    45     1    15
  3.2547796319273542E-01 a      1072     0    45     1    16
 -3.9177655938041414E-03 a      1073     0    45     1    17
 -4.9393058491571835E-03 a      1074     0    45     1    18
 -7.6172926122488424E-02 a      1075     0    45     1    19
  1.3698082015779067E-01 a      1076     0    45     1    20
 -2.8033510904498782E-01 a      1077     0    45     1    21
  4.3280887668193185E-02 a      1078     0    45     1    22
  2.5617809286225701E-02 a      1079     0    45     1    23
  4.2154924294237545E-01 a      1080     0    45     1    24
 -2.9392780735966106E-01 a      1081     0    46     1     1
 -3.5408186712519919E-02 a      1082     0    46     1     2
 -1.2366878835088506E-01 a      1083     0    46     1     3
 -4.3124801027823539E-01 a      1084     0    46     1     4
  9.5618173426470374E-02 a      1085     0    46     1     5
 -5.1552853268988230E-02 a      1086     0    46     1     6
 -6.8482497623613220E-02 a      1087     0    46     1     7
 -1.1341470083355054E-01 a      1088     0    46     1     8
  6.8149463736830074E-01 a      1089     0    46     1     9
 -4.3623411682761376E-02 a      1090     0    46     1    10
 -2.6844631537558472E-01 a      1091     0    46     1    11
  9.9922051721934690E-02 a      1092     0    46     1    12
  4.0888491366662477E-01 a      1093     0    46     1    13
  4.5168996713260456E-01 a      1094     0    46     1    14
 -1.8817266678649522E-01 a      1095     0    46     1    15
 -5.3170800678710536E-02 a      1096     0    46     1    16
 -2.9173897079654088E-01 a      1097     0    46     1    17
 -1.2775931561934689E-01 a      1098     0    46     1    18
  2.1455204789898991E-01 a      1099     0    46     1    19
 -6.8910575337617352E-02 a      1100     0    46     1    20
 -3.1268660313752689E-01 a      1101     0    46     1    21
 -2.0762079839628897E-02 a      1102     0    46     1    22
  1.7967450768562704E-01 a      1103     0    46     1    23
  4.7296584685764037E-01 a      1104     0    46     1    24
 -1.8822946670157048E-01 a      1105     0    47     1     1
  3.1290088860749793E-01 a      1106     0    47     1     2
 -1.4614408651656904E-01 a      1107     0    47     1     3
 -2.0102994442648896E-02 a      1108     0    47     1     4
  2.7537009399692658E-01 a      1109     0    47     1     5
 -1.0406196324686329E-01 a      1110     0    47     1     6
  1.7075563144052400E-01 a      1111     0    47     1     7
 -1.8616759929864146E-01 a      1112     0    47     1     8
 -3.3534911848476073E-01 a      1113     0    47     1     9
  1.3165890714369877E-01 a      1114     0    47     1    10
  1.3379236586024812E-01 a      1115     0    47     1    11
 -7.6904657618264163E-02 a      1116     0    47     1    12
  3.8775829641182757E-02 a      1117     0    47     1    13
 -3.4395394953443365E-01 a      1118     0    47     1    14
 -1.8717218778193415E-01 a      1119     0    47     1    15
 -1.6004545716084054E-01 a      1120     0    47     1    16
 -2.2445507414417951E-01 a      1121     0    47     1    17
  1.9878657055852809E-02 a      1122     0    47     1    18
  1.0018265596571485E-02 a      1123     0    47     1    19
  4.0056168518254075E-02 a      1124     0    47     1    20
 -1.3918157971796613E-01 a      1125     0    47     1    21
 -2.7598166091072646E-01 a      1126     0    47     1    22
  1.6709792723005401E-01 a      1127     0    47     1    23
  2.6530556832493957E-01 a      1128     0    47     1    24
 -1.1654376826619450E-01 a      1129     0    48     1     1
  4.7900792810626452E-01 a      1130     0    48     1     2
 -2.6201288850471555E-01 a      1131     0    48     1     3
  2.9855320299326388E-01 a      1132     0    48     1     4
 -3.4834790408909033E-01 a      1133     0    48     1     5
 -1.7773145672090700E-02 a      1134     0    48     1     6
  2.7708868223031639E-02 a      1135     0    48     1     7
 -1.0435276033078288E-01 a      1136     0    48     1     8
 -2.7541916738297145E-01 a      1137     0    48     1     9
 -1.4051868839254472E-01 a      1138     0    48     1    10
  1.7639947250927310E-02 a      1139     0    48     1    11
 -2.3950398951774163E-01 a      1140     0    48     1    12
 -2.8059540042601749E-01 a      1141     0    48     1    13
 -1.3748319764275987E-01 a      1142     0    48     1    14
  8.7098533458922517E-02 a      1143     0    48     1    15
  1.9610518117643491E-01 a      1144     0    48     1    16
  2.9214990562025978E-01 a      1145     0    48     1    17
  6.5375570512320888E-02 a      1146     0    48     1    18
  5.1464152456148382E-01 a      1147     0    48     1    19
  7.7984573512752009E-02 a      1148     0    48     1    20
 -4.4832631735552192E-01 a      1149     0    48     1    21
  2.2039634654418977E-01 a      1150     0    48     1    22
 -3.1417694226778786E-01 a      1151     0    48     1    23
 -1.4538124026801227E-01 a      1152     0    48     1    24
 -1.6086622373123932E-01 a      1153     0    49     1     1
  1.7582687304991315E-01 a      1154     0    49     1     2
 -2.0045659270892929E-01 a      1155     0    49     1     3
  1.7477399845524966E-01 a      1156     0    49     1     4
  2.1105763283391149E-01 a      1157     0    49     1     5
  1.7456275485584644E-01 a      1158     0    49     1     6
 -1.5987887312918694E-02 a      1159     0    49     1     7
 -1.1617535888649519E-01 a      1160     0    49     1     8
  2.4744576210283156E-02 a      1161     0    49     1     9
 -7.2127474427593694E-03 a      1162     0    49     1    10
  4.1441141763720357E-01 a      1163     0    49     1    11
  2.7792163209911203E-01 a      1164     0    49     1    12
  1.5895775663470782E-01 a      1165     0    49     1    13
 -6.0163286783131609E-01 a      1166     0    49     1    14
  2.2530886147002302E-01 a      1167     0    49     1    15
 -1.6496066840935372E-01 a      1168     0    49     1    16
 -2.7360106229265178E-02 a      1169     0    49     1    17
  1.0764373010958016E-02 a      1170     0    49     1    18
 -3.1297254728695811E-01 a      1171     0    49     1    19
  1.1471875736623329E-03 a      1172     0    49     1    20
 -8.1916070832875595E-02 a      1173     0    49     1    21
  5.7385638553284546E-01 a      1174     0    49     1    22
  2.6994691662420967E-01 a      1175     0    49     1    23
 -3.4774695853947324E-01 a      1176     0    49     1    24
 -1.3836924457634120E-01 a      1177     0    50     1     1
 -3.7969076577272318E-02 a      1178     0    50     1     2
 -2.0054332568304925E-01 a      1179     0    50     1     3
  8.7968729374334143E-02 a      1180     0    50     1     4
  1.7657203706972359E-02 a      1181     0    50     1     5
 -4.6797809197105300E-02 a      1182     0    50     1     6
  8.4874466481640598E-02 a      1183     0    50     1     7
 -1.5481423754688434E-01 a      1184     0    50     1     8
  6.8749188482616005E-02 a      1185     0    50     1     9
  4.4739941257908214E-02 a      1186     0    50     1    10
  1.3481063301128474E-01 a      1187     0    50     1    11
  3.8457348510190961E-02 a      1188     0    50     1    12
  1.1869165431882778E-01 a      1189     0    50     1    13
  1.7605960117572464E-01 a      1190     0    50     1    14
  2.2030865502116306E-01 a      1191     0    50     1    15
  7.4396730896278407E-02 a      1192     0    50     1    16
  3.6930275798691403E-02 a      1193     0    50     1    17
  2.1634731515588368E-01 a      1194     0    50     1    18
  1.2833014712420074E-01 a      1195     0    50     1    19
  1.7120591442799332E-01 a      1196     0    50     1    20
 -7.8955575127831606E-02 a      1197     0    50     1    21
  2.3803004965135238E-01 a      1198     0    50     1    22
  1.5655153148451537E-01 a      1199     0    50     1    23
 -1.0202335392007284E-02 a      1200     0    50     1    24
  2.5724458404731027E-01 a      1201     0    51     1     1
 -9.1369507153791926E-02 a      1202     0    51     1     2
 -8.1149299924833329E-02 a      1203     0    51     1     3
  4.6331615184929051E-02 a      1204     0    51     1     4
 -9.9397747968921604E-02 a      1205     0    51     1     5
  1.2131049838653571E-01 a      1206     0    51     1     6
  6.6932872716644914E-02 a      1207     0    51     1     7
 -4.6417407931350872E-02 a      1208     0    51     1     8
  2.1710346361496155E-01 a      1209     0    51     1     9
  1.2694622908356096E-01 a      1210     0    51     1    10
 -9.1165197613441482E-02 a      1211     0    51     1    11
 -1.3371969981520365E-01 a      1212     0    51     1    12
  1.7504861586442416E-01 a      1213     0    51     1    13
  1.9867811038375238E-01 a      1214     0    51     1    14
 -2.0548074742458144E-01 a      1215     0    51     1    15
  1.1209528308101366E-01 a      1216     0    51     1    16
 -1.2912270146211751E-02 a      1217     0    51     1    17
 -3.0792521396310779E-02 a      1218     0    51     1    18
 -8.5292032470709322E-02 a      1219     0    51     1    19
 -3.8926714587821751E-02 a      1220     0    51     1    20
  2.0574050639466446E-01 a      1221     0    51     1    21
 -1.9432714736288942E-01 a      1222     0    51     1    22
 -1.9231744208177343E-01 a      1223     0    51     1    23
 -2.4669972283021230E-02 a      1224     0    51     1    24
 -1.6094954986065182E-01 a      1225     0    52     1     1
 -1.8538134876896725E-01 a      1226     0    52     1     2
 -2.3434412448871672E-01 a      1227     0    52     1     3
  1.1502732183456346E-01 a      1228     0    52     1     4
  2.9138810448389160E-02 a      1229     0    52     1     5
  8.4852338463656279E-02 a      1230     0    52     1     6
  2.3405738113283214E-01 a      1231     0    52     1     7
  2.7261627145441808E-02 a      1232     0    52     1     8
 -2.7515359286556162E-01 a      1233     0    52     1     9
 -1.0450645139735583E-01 a      1234     0    52     1    10
  1.7778767256508721E-01 a      1235     0    52     1    11
  2.9545502784383990E-02 a      1236     0    52     1    12
 -7.7705152572188477E-02 a      1237     0    52     1    13
 -2.5197208202949004E-02 a      1238     0    52     1    14
 -3.2121524516156089E-02 a      1239     0    52     1    15
 -8.2182627353241430E-02 a      1240     0    52     1    16
 -3.1142528864702645E-01 a      1241     0    52     1    17
 -2.4006296367742344E-01 a      1242     0    52     1    18
 -1.1886597334370994E-01 a      1243     0    52     1    19
  1.2368536569195412E-01 a      1244     0    52     1    20
  2.6039133682889907E-03 a      1245     0    52     1    21
  2.5293055089516009E-01 a      1246     0    52     1    22
  1.0210701779377409E-02 a      1247     0    52     1    23
 -4.7913426721954720E-02 a      1248     0    52     1    24
  2.9956776186115103E-01 a      1249     0    53     1     1
  5.8752195252848964E-02 a      1250     0    53     1     2
  5.0037607126008798E-02 a      1251     0    53     1     3
 -3.5901770404681832E-01 a      1252     0    53     1     4
 -5.2572371976583321E-02 a      1253     0    53     1     5
 -4.7378967206884184E-02 a      1254     0    53     1     6
 -4.6222027574039717E-02 a      1255     0    53     1     7
 -1.5380672990019245E-01 a      1256     0    53     1     8
 -1.9509596478250607E-01 a      1257     0    53     1     9
  3.3520626672803383E-01 a      1258     0    53     1    10
  1.7302985885602087E-01 a      1259     0    53     1    11
  9.9813212252598968E-02 a      1260     0    53     1    12
 -2.1873396787773069E-03 a      1261     0    53     1    13
  2.0190964337607725E-01 a      1262     0    53     1    14
  5.0291701597595072E-02 a      1263     0    53     1    15
 -1.2222805285502007E-01 a      1264     0    53     1    16
  8.2290132264559890E-02 a      1265     0    53     1    17
 -4.9608934093759008E-02 a      1266     0    53     1    18
 -1.0142002356658349E-01 a      1267     0    53     1    19
  1.1829056754429715E-01 a      1268     0    53     1    20
  2.4850345691815909E-01 a      1269     0    53     1    21
 -2.2483780816985927E-01 a      1270     0    53     1    22
 -1.0391549642684299E-01 a      1271     0    53     1    23
  9.5220998516501593E-02 a      1272     0    53     1    24
 -2.8243449687942436E-02 a      1273     0    54     1     1
  1.8192659832931161E-02 a      1274     0    54     1     2
  2.4711719316914826E-01 a      1275     0    54     1     3
  1.6607237661985574E-01 a      1276     0    54     1     4
  3.0727572825553445E-01 a      1277     0    54     1     5
  2.3735844215059224E-01 a      1278     0    54     1     6
  1.2182636513272009E-01 a      1279     0    54     1     7
 -1.5479643694295381E-01 a      1280     0    54     1     8
 -2.2588127125853497E-01 a      1281     0    54     1     9
 -1.1830379997143643E-01 a      1282     0    54     1    10
 -3.4522620546793070E-01 a      1283     0    54     1    11
  5.7526982667748569E-02 a      1284     0    54     1    12
  2.1140882033964548E-01 a      1285     0    54     1    13
  1.1108714330694253E-01 a      1286     0    54     1    14
  2.0580960893862593E-01 a      1287     0    54     1    15
  2.1565646084088855E-01 a      1288     0    54     1    16
  2.0500026529231909E-02 a      1289     0    54     1    17
 -4.7265467024585811E-02 a      1290     0    54     1    18
 -1.7237265269444110E-01 a      1291     0    54     1    19
 -1.7628756918839875E-01 a      1292     0    54     1    20
  8.7514541974850674E-02 a      1293     0    54     1    21
  1.2121555456237039E-01 a      1294     0    54     1    22
  2.1128853000013262E-01 a      1295     0    54     1    23
 -3.1517614042798320E-01 a      1296     0    54     1    24
 -1.1997941424801833E-01 a      1297     0    55     1     1
 -5.4496461636368142E-02 a      1298     0    55     1     2
 -8.4588497825636710E-02 a      1299     0    55     1     3
  3.1120201192569020E-02 a      1300     0    55     1     4
 -6.5400475607402836E-02 a      1301     0    55     1     5
  1.7916714524984545E-01 a      1302     0    55     1     6
  7.8498060180056076E-02 a      1303     0    55     1     7
  5.1733209562405645E-03 a      1304     0    55     1     8
 -1.4061091886150606E-01 a      1305     0    55     1     9
  2.6486382983887547E-03 a      1306     0    55     1    10
 -1.5095107294649235E-01 a      1307     0    55     1    11
 -2.0141331000412005E-01 a      1308     0    55     1    12
  1.4428924402798043E-01 a      1309     0    55     1    13
  1.4204425584839961E-01 a      1310     0    55     1    14
  1.2051154338437882E-01 a      1311     0    55     1    15
  7.0876445074882465E-03 a      1312     0    55     1    16
 -4.4213380735989731E-02 a      1313     0    55     1    17
 -4.1194196574299000E-02 a      1314     0    55     1    18
  4.3585712606947782E-02 a      1315     0    55     1    19
  2.9456749423941464E-01 a      1316     0    55     1    20
 -3.2000593095987316E-02 a      1317     0    55     1    21
 -1.1100441113198337E-01 a      1318     0    55     1    22
  1.4387204623581801E-01 a      1319     0    55     1    23
  1.0178333189144592E-01 a      1320     0    55     1    24
 -1.7736304595215149E-01 a      1321     0    56     1     1
 -2.0024176660438522E-01 a      1322     0    56     1     2
  4.5679974664551037E-02 a      1323     0    56     1     3
 -1.7213965464428306E-02 a      1324     0    56     1     4
 -2.2553559862404765E-01 a      1325     0    56     1     5
  5.9195962382371618E-02 a      1326     0    56     1     6
 -5.5990182779648935E-02 a      1327     0    56     1     7
 -1.1434047734412230E-01 a      1328     0    56     1     8
 -1.9709542160247145E-01 a      1329     0    56     1     9
 -1.0559222806195873E-01 a      1330     0    56     1    10
  1.9023530176526937E-01 a      1331     0    56     1    11
 -9.8436700065758567E-02 a      1332     0    56     1    12
  4.6952819051635439E-02 a      1333     0    56     1    13
  2.0376202528449408E-01 a      1334     0    56     1    14
  9.3583624569292492E-02 a      1335     0    56     1    15
 -8.0929122319234756E-02 a      1336     0    56     1    16
 -1.0037276561207033E-01 a      1337     0    56     1    17
  4.4249128622268524E-01 a      1338     0    56     1    18
 -3.5177538485436678E-02 a      1339     0    56     1    19
 -2.2466009860235305E-02 a      1340     0    56     1    20
  7.9342505899669957E-02 a      1341     0    56     1    21
 -6.9773433045273739E-02 a      1342     0    56     1    22
  1.2612500474736218E-01 a      1343     0    56     1    23
 -1.7093239972413438E-01 a      1344     0    56     1    24
  7.7399573114330419E-02 a      1345     0    57     1     1
 -9.9642524362704488E-02 a      1346     0    57     1     2
 -3.0128004721552759E-01 a      1347     0    57     1     3
 -3.3710708461744993E-01 a      1348     0    57     1     4
  3.4609436656249395E-02 a      1349     0    57     1     5
 -2.8207338965636963E-01 a      1350     0    57     1     6
  7.9170225592106944E-03 a      1351     0    57     1     7
 -1.4672492781600360E-01 a      1352     0    57     1     8
  1.9562318177328539E-01 a      1353     0    57     1     9
 -8.7267583940543111E-02 a      1354     0    57     1    10
 -1.5558938537383232E-01 a      1355     0    57     1    11
  9.2073506224686352E-02 a      1356     0    57     1    12
 -1.9163090423893019E-02 a      1357     0    57     1    13
  1.9828927472641344E-01 a      1358     0    57     1    14
  1.9146301005370059E-01 a      1359     0    57     1    15
 -2.1410444848235910E-01 a      1360     0    57     1    16
 -4.5303928553443513E-02 a      1361     0    57     1    17
 -2.8323455606880335E-02 a      1362     0    57     1    18
 -4.2656248211931425E-01 a      1363     0    57     1    19
 -2.0619623472192475E-01 a      1364     0    57     1    20
 -7.5066302481325911E-02 a      1365     0    57     1    21
 -4.9067144421183741E-02 a      1366     0    57     1    22
 -1.9607788319162692E-01 a      1367     0    57     1    23
 -2.3632585964558708E-03 a      1368     0    57     1    24
 -2.6626084642623754E-01 a      1369     0    58     1     1
  3.2646474714248391E-02 a      1370     0    58     1     2
  9.9733229665690926E-02 a      1371     0    58     1     3
  1.5156970574654313E-01 a      1372     0    58     1     4
  1.9112418303327768E-02 a      1373     0    58     1     5
 -3.0462099733668185E-01 a      1374     0    58     1     6
  2.9503151153206786E-01 a      1375     0    58     1     7
 -1.2957863940428818E-05 a      1376     0    58     1     8
 -4.1667360671251333E-02 a      1377     0    58     1     9
 -2.4365873100245433E-01 a      1378     0    58     1    10
 -6.5728601209121079E-02 a      1379     0    58     1    11
  3.7817010031974774E-01 a      1380     0    58     1    12
 -1.1007348828721047E-01 a      1381     0    58     1    13
  1.7388172365945612E-01 a      1382     0    58     1    14
 -1.2612080450469437E-01 a      1383     0    58     1    15
  8.6388378497502027E-02 a      1384     0    58     1    16
  4.7939169716671400E-02 a      1385     0    58     1    17
 -4.6381762556518102E-02 a      1386     0    58     1    18
  4.7890739623373119E-02 a      1387     0    58     1    19
 -1.9258759303493192E-01 a      1388     0    58     1    20
  2.3614073356220078E-01 a      1389     0    58     1    21
  9.0316825660580885E-03 a      1390     0    58     1    22
 -3.9939806388214649E-01 a      1391     0    58     1    23
 -4.8154225988370869E-01 a      1392     0    58     1    24
 -2.4407270184600532E-01 a      1393     0    59     1     1
  5.6815928893682796E-02 a      1394     0    59     1     2
 -1.4492322119978768E-01 a      1395     0    59     1     3
  6.5031676267446525E-03 a      1396     0    59     1     4
  2.3953107450418262E-01 a      1397     0    59     1     5
  3.9693384746916416E-01 a      1398     0    59     1     6
 -1.7410089062063544E-01 a      1399     0    59     1     7
  1.8034992298071212E-01 a      1400     0    59     1     8
  1.7254885562756034E-01 a      1401     0    59     1     9
 -4.7531487323193594E-02 a      1402     0    59     1    10
  1.7807528385681767E-01 a      1403     0    59     1    11
 -1.8468662737752026E-01 a      1404     0    59     1    12
  6.1989292421944654E-02 a      1405     0    59     1    13
  1.2513529358795603E-01 a      1406     0    59     1    14
 -1.5754976535310705E-01 a      1407     0    59     1    15
 -1.3240195582520370E-01 a      1408     0    59     1    16
  2.1934579627867543E-01 a      1409     0    59     1    17
 -1.1523685534384563E-01 a      1410     0    59     1    18
  1.0771821345995584E-01 a      1411     0    59     1    19
  2.2456737074679381E-01 a      1412     0    59     1    20
  2.7084721295205100E-01 a      1413     0    59     1    21
  1.9396698320310227E-01 a      1414     0    59     1    22
  2.9412190833139177E-02 a      1415     0    59     1    23
  5.0963545029286524E-02 a      1416     0    59     1    24
  1.2408068385142708E-01 a      1417     0    60     1     1
  4.1886322383633372E-02 a      1418     0    60     1     2
  1.5482572490525529E-01 a      1419     0    60     1     3
  1.2505421698711702E-02 a      1420     0    60     1     4
  1.2814312772789987E-01 a      1421     0    60     1     5
 -6.6829825577615007E-02 a      1422     0    60     1     6
 -1.6557057491348856E-01 a      1423     0    60     1     7
  1.0318045124590272E-01 a      1424     0    60     1     8
  9.2548601006450959E-02 a      1425     0    60     1     9
 -1.2019018996550206E-02 a      1426     0    60     1    10
  1.7322876801068851E-01 a      1427     0    60     1    11
  5.9488823309268189E-03 a      1428     0    60     1    12
 -2.1005346274969544E-01 a      1429     0    60     1    13
 -9.4773723050458225E-02 a      1430     0    60     1    14
 -1.8237355218593484E-02 a      1431     0    60     1    15
  1.5107310855097495E-02 a      1432     0    60     1    16
 -6.0577756851992667E-02 a      1433     0    60     1    17
  8.4175900621497532E-03 a      1434     0    60     1    18
 -3.2162893604431919E-01 a      1435     0    60     1    19
  1.5784398086319845E-01 a      1436     0    60     1    20
 -2.7732457255521870E-01 a      1437     0    60     1    21
 -1.7144127875736773E-01 a      1438     0    60     1    22
  4.2461727819844614E-02 a      1439     0    60     1    23
 -6.3815247701828060E-02 a      1440     0    60     1    24
  2.8290848574462990E-01 a      1441     0    61     1     1
  2.4920378657517489E-01 a      1442     0    61     1     2
  3.5137124616907645E-01 a      1443     0    61     1     3
  2.0762404958681247E-02 a      1444     0    61     1     4
  2.6643142586995439E-01 a      1445     0    61     1     5
  1.6954349280829678E-01 a      1446     0    61     1     6
  3.3436244061192298E-02 a      1447     0    61     1     7
  8.2014301680402663E-02 a      1448     0    61     1     8
 -3.0980593497825321E-01 a      1449     0    61     1     9
  2.9132670001454719E-01 a      1450     0    61     1    10
 -2.4148193004302912E-01 a      1451     0    61     1    11
  3.7437342195625817E-01 a      1452     0    61     1    12
 -2.3573903256092027E-01 a      1453     0    61     1    13
 -1.8125704563461129E-01 a      1454     0    61     1    14
  6.1725187593539253E-02 a      1455     0    61     1    15
 -2.9011066862342328E-02 a      1456     0    61     1    16
 -9.5250484964097812E-02 a      1457     0    61     1    17
 -2.6768645329644702E-01 a      1458     0    61     1    18
 -1.6964016563360742E-03 a      1459     0    61     1    19
 -9.4622841517840658E-02 a      1460     0    61     1    20
 -1.8412802205547948E-01 a      1461     0    61     1    21
  1.8696495948535036E-01 a      1462     0    61     1    22
  8.2005462627540021E-02 a      1463     0    61     1    23
 -9.5663939296970948E-03 a      1464     0    61     1    24
  6.9472736675926461E-02 a      1465     0    62     1     1
 -7.1754615940480118E-02 a      1466     0    62     1     2
  2.3444885210916969E-01 a      1467     0    62     1     3
  1.2005988667697537E-01 a      1468     0    62     1     4
 -5.9856686620523812E-02 a      1469     0    62     1     5
  2.1462877180634585E-01 a      1470     0    62     1     6
  1.1315358335573378E-01 a      1471     0    62     1     7
 -2.8783239633045005E-01 a      1472     0    62     1     8
  5.1364025800717895E-02 a      1473     0    62     1     9
  1.7464146042558332E-01 a      1474     0    62     1    10
  1.4475193387962876E-01 a      1475     0    62     1    11
 -1.7301072652011423E-01 a      1476     0    62     1    12
  7.9757291571016423E-02 a      1477     0    62     1    13
  2.1060651297630367E-01 a      1478     0    62     1    14
  7.1390957167338683E-03 a      1479     0    62     1    15
  3.1265032881405058E-02 a      1480     0    62     1    16
 -1.9847425874959565E-01 a      1481     0    62     1    17
  3.4859662420448612E-01 a      1482     0    62     1    18
  2.5566599967778741E-01 a      1483     0    62     1    19
 -6.0354886765162728E-02 a      1484     0    62     1    20
 -1.2803676824869972E-01 a      1485     0    62     1    21
  1.4421395460940348E-01 a      1486     0    62     1    22
 -8.3338773860520285E-02 a      1487     0    62     1    23
  3.3635436145290681E-01 a      1488     0    62     1    24
  9.3542258394606809E-02 a      1489     0    63     1     1
 -3.5113647351288413E-01 a      1490     0    63     1     2
 -2.7503980362662184E-01 a      1491     0    63     1     3
 -1.8820369266764408E-01 a      1492     0    63     1     4
  1.9764671127005928E-01 a      1493     0    63     1     5
 -1.3561348783533167E-01 a      1494     0    63     1     6
  7.9932382970052909E-02 a      1495     0    63     1     7
  2.3167331063276128E-01 a      1496     0    63     1     8
 -1.6367704865253468E-01 a      1497     0    63     1     9
 -1.2722530673208707E-01 a      1498     0    63     1    10
  1.1070392241982532E-01 a      1499     0    63     1    11
 -1.7225458294239507E-02 a      1500     0    63     1    12
 -9.6179684167245316E-02 a      1501     0    63     1    13
  1.1106856866708634E-01 a      1502     0    63     1    14
 -7.9132843484649038E-02 a      1503     0    63     1    15
 -1.0001321522115024E-01 a      1504     0    63     1    16
 -5.8591132831252626E-02 a      1505     0    63     1    17
  3.2152282602752702E-01 a      1506     0    63     1    18
  3.1238078984974332E-01 a      1507     0    63     1    19
  1.6404930367444009E-01 a      1508     0    63     1    20
 -2.9991574633013759E-02 a      1509     0    63     1    21
  1.1196641720037806E-01 a      1510     0    63     1    22
 -2.5580964012646867E-01 a      1511     0    63     1    23
 -3.6507687429695235E-02 a      1512     0    63     1    24
  3.8440791264638674E-02 a      1513     0    64     1     1
  1.7423611997910565E-01 a      1514     0    64     1     2
 -4.7517108785865700E-03 a      1515     0    64     1     3
 -1.6409373712839273E-01 a      1516     0    64     1     4
  2.2535256026253334E-01 a      1517     0    64     1     5
 -3.1148739999152836E-01 a      1518     0    64     1     6
  1.2341533368670805E-01 a      1519     0    64     1     7
  1.6773530277939702E-01 a      1520     0    64     1     8
  1.5296272703703109E-01 a      1521     0    64     1     9
  8.5612755384563352E-02 a      1522     0    64     1    10
 -1.5979799955120350E-01 a      1523     0    64     1    11
 -9.3545456863198470E-02 a      1524     0    64     1    12
  6.0792954644971538E-02 a      1525     0    64     1    13
  2.1354543410611504E-01 a      1526     0    64     1    14
 -1.4447485651360048E-01 a      1527     0    64     1    15
  8.3389435233622772E-02 a      1528     0    64     1    16
  1.3202705102741485E-01 a      1529     0    64     1    17
 -8.0170512087553422E-02 a      1530     0    64     1    18
 -1.0239974968346026E-01 a      1531     0    64     1    19
 -9.0306439006258496E-03 a      1532     0    64     1    20
  1.2264589894209702E-02 a      1533     0    64     1    21
  1.9706109308319483E-01 a      1534     0    64     1    22
 -1.4932911479449509E-01 a      1535     0    64     1    23
  1.6598258610139099E-01 a      1536     0    64     1    24
 -1.4992170251834906E-02 a      1537     0    65     1     1
  1.1974529156374024E-01 a      1538     0    65     1     2
  9.2500186896008849E-02 a      1539     0    65     1     3
 -6.2933137500818401E-02 a      1540     0    65     1     4
  3.7149161890669558E-01 a      1541     0    65     1     5
  4.9279998860610873E-02 a      1542     0    65     1     6
 -2.4860616357491988E-01 a      1543     0    65     1     7
 -7.7936999371161442E-02 a      1544     0    65     1     8
  4.8545428197018327E-02 a      1545     0    65     1     9
 -9.8640763721785180E-02 a      1546     0    65     1    10
  4.4137651103958481E-02 a      1547     0    65     1    11
  6.5873926980320172E-02 a      1548     0    65     1    12
  1.6239215650587396E-01 a      1549     0    65     1    13
 -1.3212878252362031E-01 a      1550     0    65     1    14
 -1.5835218498026143E-01 a      1551     0    65     1    15
 -2.0214749255459263E-01 a      1552     0    65     1    16
 -2.9454115940240633E-01 a      1553     0    65     1    17
 -9.3256030890535579E-02 a      1554     0    65     1    18
 -2.6344850912073503E-01 a      1555     0    65     1    19
 -8.0359203189596246E-03 a      1556     0    65     1    20
  8.3827486261016521E-02 a      1557     0    65     1    21
 -1.8758041380033667E-02 a      1558     0    65     1    22
  1.3321295943049230E-01 a      1559     0    65     1    23
 -2.6680359255001579E-01 a      1560     0    65     1    24
  5.7151545261216692E-02 a      1561     0    66     1     1
  6.2428654304734488E-03 a      1562     0    66     1     2
  5.9456021817869437E-02 a      1563     0    66     1     3
 -1.0493960769337955E-01 a      1564     0    66     1     4
 -1.0834237535382023E-01 a      1565     0    66     1     5
 -1.7351689828834546E-01 a      1566     0    66     1     6
 -1.9253330943076646E-01 a      1567     0    66     1     7
 -8.5760640945418173E-02 a      1568     0    66     1     8
  8.3549323240770051E-02 a      1569     0    66     1     9
  9.3414870301644040E-02 a      1570     0    66     1    10
  1.9058363794664156E-02 a      1571     0    66     1    11
 -1.8941635914791130E-01 a      1572     0    66     1    12
  5.5323886444941526E-03 a      1573     0    66     1    13
 -2.5955653935172945E-03 a      1574     0    66     1    14
 -1.6903734143450028E-01 a      1575     0    66     1    15
  4.6374244659604165E-02 a      1576     0    66     1    16
 -1.2787951588752597E-01 a      1577     0    66     1    17
 -9.8677780779570456E-02 a      1578     0    66     1    18
  5.4327669216286352E-02 a      1579     0    66     1    19
  7.6448615310526782E-02 a      1580     0    66     1    20
 -2.2298168899503060E-01 a      1581     0    66     1    21
  3.3555202978425888E-02 a      1582     0    66     1    22
  2.3823580062105953E-01 a      1583     0    66     1    23
  4.0400197410197750E-02 a      1584     0    66     1    24
  1.4341591535816786E-02 a      1585     0    67     1     1
 -1.9831104727588539E-01 a      1586     0    67     1     2
  6.2958466862029383E-02 a      1587     0    67     1     3
  1.8093702252184099E-01 a      1588     0    67     1     4
  8.7227279071823108E-02 a      1589     0    67     1     5
  2.4541391400933897E-03 a      1590     0    67     1     6
  1.0803764725399261E-01 a      1591     0    67     1     7
 -1.0079651460807745E-01 a      1592     0    67     1     8
 -1.9221582276142576E-01 a      1593     0    67     1     9
 -8.2298547328618077E-02 a      1594     0    67     1    10
  1.0285833912885177E-01 a      1595     0    67     1    11
 -5.5691604969147768E-04 a      1596     0    67     1    12
  1.4479173841853998E-01 a      1597     0    67     1    13
 -1.3404105899848241E-02 a      1598     0    67     1    14
 -6.3109003900280236E-02 a      1599     0    67     1    15
 -2.2101544535845954E-01 a      1600     0    67     1    16
  7.6238318546266344E-03 a      1601     0    67     1    17
 -1.7463402499850497E-01 a      1602     0    67     1    18
 -1.5326895186565820E-02 a      1603     0    67     1    19
 -6.1713433625245895E-02 a      1604     0    67     1    20
  2.8726114897805508E-02 a      1605     0    67     1    21
  3.5129451517445690E-02 a      1606     0    67     1    22
  1.9118124882186846E-01 a      1607     0    67     1    23
 -3.8827588073968744E-02 a      1608     0    67     1    24
  5.7539652971691703E-02 a      1609     0    68     1     1
 -2.7482601120676636E-01 a      1610     0    68     1     2
 -1.3832538587523355E-01 a      1611     0    68     1     3
 -1.1864825138061353E-02 a      1612     0    68     1     4
  1.7840934003613168E-01 a      1613     0    68     1     5
 -2.4667827931641276E-01 a      1614     0    68     1     6
  2.0188289613972854E-01 a      1615     0    68     1     7
  1.0502157833955457E-01 a      1616     0    68     1     8
  3.1994322407539000E-01 a      1617     0    68     1     9
 -2.5908818407207845E-01 a      1618     0    68     1    10
  8.3448225727010300E-02 a      1619     0    68     1    11
 -1.1336142157066260E-01 a      1620     0    68     1    12
  1.0775162726196326E-01 a      1621     0    68     1    13
 -4.5637951025565053E-02 a      1622     0    68     1    14
 -3.2482595507883166E-01 a      1623     0    68     1    15
